#ifndef GENERATED_LSTM_MODEL_DATA_H
#define GENERATED_LSTM_MODEL_DATA_H

#include <stdint.h>

typedef float port_float;

#define LSTM_INPUT_DIM 1u
#define LSTM_UNITS 16u
#define DENSE_UNITS 16u
#define OUTPUT_UNITS 1u
#define BENCHMARK_ITERATIONS 10u
#define BENCHMARK_REPEAT_RUNS 1u
#define BENCHMARK_RESET_STATE_EACH_RUN 1u
#define VALIDATION_RECORD_COUNT 1u
#define VALIDATION_SEQ_LEN 400u

#define SCALER_INPUT_DATA_RANGE 44.71252906f
#define SCALER_OUTPUT_DATA_RANGE 53.37688572f

static const port_float validation_input[VALIDATION_RECORD_COUNT][VALIDATION_SEQ_LEN][LSTM_INPUT_DIM] = {
    {
        { -0.00265106f },
        { -0.00256918f },
        { -0.00248111f },
        { -0.00241613f },
        { -0.00234087f },
        { -0.00226323f },
        { -0.00223715f },
        { -0.00223383f },
        { -0.00214781f },
        { -0.00198212f },
        { -0.00189901f },
        { -0.00200698f },
        { -0.00219156f },
        { -0.00226382f },
        { -0.00219819f },
        { -0.00209412f },
        { -0.00200165f },
        { -0.00192639f },
        { -0.00187893f },
        { -0.00181025f },
        { -0.00166097f },
        { -0.00151595f },
        { -0.00150904f },
        { -0.00158611f },
        { -0.00156338f },
        { -0.00139519f },
        { -0.00122052f },
        { -0.00113318f },
        { -0.00103853f },
        { -0.00083806f },
        { -0.00063530f },
        { -0.00057462f },
        { -0.00058965f },
        { -0.00052110f },
        { -0.00038254f },
        { -0.00032187f },
        { -0.00038041f },
        { -0.00043144f },
        { -0.00034601f },
        { -0.00013261f },
        { 0.00008208f },
        { 0.00016323f },
        { 0.00010017f },
        { 0.00004305f },
        { 0.00013594f },
        { 0.00035456f },
        { 0.00057684f },
        { 0.00071296f },
        { 0.00073143f },
        { 0.00068017f },
        { 0.00066288f },
        { 0.00071413f },
        { 0.00078858f },
        { 0.00086976f },
        { 0.00093872f },
        { 0.00092841f },
        { 0.00086762f },
        { 0.00091341f },
        { 0.00112259f },
        { 0.00135794f },
        { 0.00148923f },
        { 0.00155125f },
        { 0.00165147f },
        { 0.00181994f },
        { 0.00201192f },
        { 0.00217416f },
        { 0.00224855f },
        { 0.00222650f },
        { 0.00223793f },
        { 0.00240714f },
        { 0.00261369f },
        { 0.00264666f },
        { 0.00257154f },
        { 0.00262787f },
        { 0.00280621f },
        { 0.00288950f },
        { 0.00286840f },
        { 0.00294713f },
        { 0.00316138f },
        { 0.00329885f },
        { 0.00321027f },
        { 0.00300860f },
        { 0.00293004f },
        { 0.00308371f },
        { 0.00335901f },
        { 0.00352225f },
        { 0.00341395f },
        { 0.00314609f },
        { 0.00305184f },
        { 0.00330599f },
        { 0.00369158f },
        { 0.00386876f },
        { 0.00375255f },
        { 0.00354203f },
        { 0.00347588f },
        { 0.00359951f },
        { 0.00376401f },
        { 0.00384263f },
        { 0.00383287f },
        { 0.00373294f },
        { 0.00352192f },
        { 0.00329503f },
        { 0.00321302f },
        { 0.00330149f },
        { 0.00345284f },
        { 0.00357276f },
        { 0.00362006f },
        { 0.00360556f },
        { 0.00357392f },
        { 0.00350881f },
        { 0.00339315f },
        { 0.00337100f },
        { 0.00354858f },
        { 0.00371179f },
        { 0.00361617f },
        { 0.00338434f },
        { 0.00325363f },
        { 0.00317271f },
        { 0.00297188f },
        { 0.00271633f },
        { 0.00260458f },
        { 0.00263198f },
        { 0.00261538f },
        { 0.00250944f },
        { 0.00243467f },
        { 0.00242569f },
        { 0.00240480f },
        { 0.00234824f },
        { 0.00228183f },
        { 0.00218356f },
        { 0.00204237f },
        { 0.00196534f },
        { 0.00204757f },
        { 0.00210835f },
        { 0.00181715f },
        { 0.00122402f },
        { 0.00084719f },
        { 0.00098366f },
        { 0.00125348f },
        { 0.00115439f },
        { 0.00076748f },
        { 0.00051561f },
        { 0.00047698f },
        { 0.00039006f },
        { 0.00015329f },
        { -0.00012045f },
        { -0.00038115f },
        { -0.00058773f },
        { -0.00059313f },
        { -0.00041464f },
        { -0.00036246f },
        { -0.00064695f },
        { -0.00108620f },
        { -0.00135069f },
        { -0.00135355f },
        { -0.00130310f },
        { -0.00140450f },
        { -0.00163690f },
        { -0.00187945f },
        { -0.00208921f },
        { -0.00227872f },
        { -0.00244983f },
        { -0.00258293f },
        { -0.00269093f },
        { -0.00288834f },
        { -0.00322890f },
        { -0.00349042f },
        { -0.00343532f },
        { -0.00321925f },
        { -0.00323212f },
        { -0.00363362f },
        { -0.00421777f },
        { -0.00466104f },
        { -0.00487324f },
        { -0.00504767f },
        { -0.00531172f },
        { -0.00553480f },
        { -0.00556714f },
        { -0.00545809f },
        { -0.00539431f },
        { -0.00551482f },
        { -0.00577218f },
        { -0.00600514f },
        { -0.00614402f },
        { -0.00622409f },
        { -0.00625546f },
        { -0.00621566f },
        { -0.00609581f },
        { -0.00594307f },
        { -0.00593766f },
        { -0.00624600f },
        { -0.00668556f },
        { -0.00682980f },
        { -0.00659913f },
        { -0.00644502f },
        { -0.00671342f },
        { -0.00708505f },
        { -0.00701736f },
        { -0.00654869f },
        { -0.00621043f },
        { -0.00630107f },
        { -0.00667650f },
        { -0.00708014f },
        { -0.00730100f },
        { -0.00718061f },
        { -0.00680198f },
        { -0.00653261f },
        { -0.00656533f },
        { -0.00656293f },
        { -0.00618264f },
        { -0.00578320f },
        { -0.00593670f },
        { -0.00639791f },
        { -0.00642021f },
        { -0.00591716f },
        { -0.00544961f },
        { -0.00527245f },
        { -0.00511638f },
        { -0.00478210f },
        { -0.00443161f },
        { -0.00426002f },
        { -0.00424198f },
        { -0.00433324f },
        { -0.00455771f },
        { -0.00474199f },
        { -0.00460717f },
        { -0.00422311f },
        { -0.00387274f },
        { -0.00349256f },
        { -0.00281059f },
        { -0.00200165f },
        { -0.00166504f },
        { -0.00198502f },
        { -0.00226243f },
        { -0.00175839f },
        { -0.00086973f },
        { -0.00064746f },
        { -0.00115539f },
        { -0.00138754f },
        { -0.00086314f },
        { -0.00019870f },
        { -0.00002579f },
        { -0.00020307f },
        { -0.00019443f },
        { 0.00024476f },
        { 0.00085960f },
        { 0.00126604f },
        { 0.00144604f },
        { 0.00168835f },
        { 0.00206846f },
        { 0.00237956f },
        { 0.00259411f },
        { 0.00290133f },
        { 0.00325299f },
        { 0.00336127f },
        { 0.00321741f },
        { 0.00319528f },
        { 0.00351766f },
        { 0.00396536f },
        { 0.00423436f },
        { 0.00426908f },
        { 0.00423354f },
        { 0.00444685f },
        { 0.00517489f },
        { 0.00617957f },
        { 0.00676099f },
        { 0.00661095f },
        { 0.00633088f },
        { 0.00662194f },
        { 0.00726472f },
        { 0.00756893f },
        { 0.00748472f },
        { 0.00748282f },
        { 0.00771692f },
        { 0.00794316f },
        { 0.00790096f },
        { 0.00756697f },
        { 0.00731356f },
        { 0.00752541f },
        { 0.00797074f },
        { 0.00817565f },
        { 0.00824648f },
        { 0.00859443f },
        { 0.00917647f },
        { 0.00960887f },
        { 0.00969821f },
        { 0.00950892f },
        { 0.00921472f },
        { 0.00909460f },
        { 0.00937907f },
        { 0.00987367f },
        { 0.01003494f },
        { 0.00967862f },
        { 0.00928298f },
        { 0.00935895f },
        { 0.00979864f },
        { 0.01001248f },
        { 0.00966755f },
        { 0.00916107f },
        { 0.00905027f },
        { 0.00922554f },
        { 0.00930353f },
        { 0.00941365f },
        { 0.00966621f },
        { 0.00952080f },
        { 0.00882583f },
        { 0.00858652f },
        { 0.00936791f },
        { 0.00999327f },
        { 0.00929643f },
        { 0.00802830f },
        { 0.00757929f },
        { 0.00796504f },
        { 0.00836550f },
        { 0.00858064f },
        { 0.00882997f },
        { 0.00891158f },
        { 0.00847692f },
        { 0.00779240f },
        { 0.00762108f },
        { 0.00824318f },
        { 0.00891957f },
        { 0.00876902f },
        { 0.00793153f },
        { 0.00720614f },
        { 0.00689815f },
        { 0.00678251f },
        { 0.00671623f },
        { 0.00657169f },
        { 0.00609204f },
        { 0.00536351f },
        { 0.00490838f },
        { 0.00494118f },
        { 0.00507323f },
        { 0.00496177f },
        { 0.00467788f },
        { 0.00439041f },
        { 0.00419800f },
        { 0.00413085f },
        { 0.00399349f },
        { 0.00343284f },
        { 0.00230509f },
        { 0.00095757f },
        { 0.00013146f },
        { 0.00018878f },
        { 0.00040584f },
        { -0.00019652f },
        { -0.00139138f },
        { -0.00214113f },
        { -0.00222543f },
        { -0.00232423f },
        { -0.00272802f },
        { -0.00301948f },
        { -0.00297585f },
        { -0.00312501f },
        { -0.00421271f },
        { -0.00615333f },
        { -0.00773327f },
        { -0.00784944f },
        { -0.00698848f },
        { -0.00673995f },
        { -0.00773949f },
        { -0.00895627f },
        { -0.00928965f },
        { -0.00894543f },
        { -0.00878367f },
        { -0.00912053f },
        { -0.00963313f },
        { -0.00997246f },
        { -0.01021423f },
        { -0.01069169f },
        { -0.01141690f },
        { -0.01212211f },
        { -0.01287529f },
        { -0.01389124f },
        { -0.01482023f },
        { -0.01517727f },
        { -0.01527475f },
        { -0.01561918f },
        { -0.01578923f },
        { -0.01528470f },
        { -0.01485897f },
        { -0.01539930f },
        { -0.01624128f },
        { -0.01620674f },
        { -0.01555037f },
        { -0.01542412f },
        { -0.01602695f },
        { -0.01658565f },
        { -0.01677988f },
        { -0.01691615f },
        { -0.01690989f },
        { -0.01648104f },
        { -0.01622843f },
        { -0.01700793f },
        { -0.01838408f },
        { -0.01915026f },
        { -0.01902107f },
        { -0.01849923f },
        { -0.01782370f }
    }
};

static const port_float lstm_kernel[LSTM_INPUT_DIM][LSTM_UNITS * 4u] = {
    { -0.02725600f, -0.24787772f, -0.20757449f, 0.22100610f, 0.33528250f, -0.06662547f, -0.11071122f, 0.79266483f, 0.29589081f, -0.35044342f, 0.27059397f, 0.14480448f, 0.06988381f, -0.36313114f, 0.44061834f, -0.58522677f, 0.01614408f, -0.16599950f, 0.04070075f, 0.18214376f, 0.08416990f, 0.00483179f, -0.25008067f, 0.54831493f, 0.17271288f, -0.16167401f, 0.10160854f, 0.09628993f, -0.45698631f, -0.23015469f, 0.19401668f, 0.01052885f, 0.40835100f, 0.45469910f, -0.16717964f, -0.31784225f, -0.07120241f, -0.13358574f, -0.85086983f, 0.32837859f, 0.18412386f, -0.32312155f, -0.32306448f, 0.34282503f, -0.66557157f, -0.31768054f, -0.00088366f, 0.98227757f, 0.01143075f, -0.25923589f, 0.07776849f, -0.20080395f, 0.65609169f, -0.20571299f, 0.16849001f, 0.41871071f, -0.13086410f, 0.02510776f, 0.26386437f, 0.31047741f, -0.24443473f, 0.28161910f, 0.01895714f, 0.08691060f }
};

static const port_float lstm_recurrent_kernel[LSTM_UNITS][LSTM_UNITS * 4u] = {
    { 0.23139498f, 0.09183589f, -0.00997858f, -0.10011036f, -0.30626652f, 0.55222279f, 0.47851571f, 0.01899021f, 0.18864898f, 0.05091400f, 0.12152080f, 0.19655639f, 0.61721742f, 0.18615258f, 0.24644981f, 0.44535199f, -0.06635379f, -0.07839616f, -0.31390733f, -0.20953572f, -0.05618834f, 0.04045567f, -0.47167280f, 0.01247804f, 0.08724623f, -0.46049926f, -0.10443070f, 0.10086014f, 0.07087141f, -0.08433799f, 0.11223152f, -0.34835631f, 0.05824704f, -0.12417006f, 0.27517757f, 0.00398395f, -0.30458701f, 0.05710780f, -0.03893473f, -0.27864999f, 0.11636670f, 0.25375384f, -0.13961998f, -0.12424849f, -0.03935279f, -0.01284229f, -0.20624885f, 0.24764460f, -0.02633521f, -0.07881528f, -0.14716820f, 0.11659913f, 0.02066370f, -0.04073439f, 0.07397261f, 0.25445455f, 0.13276640f, -0.18082322f, 0.24958979f, 0.01739031f, -0.04431313f, 0.07408639f, -0.15000410f, 0.28108197f },
    { 0.06712300f, 0.04950155f, 0.20358235f, -0.26847643f, -0.20659168f, 0.43595850f, -0.08628312f, -0.13783056f, 0.10035053f, -0.08881503f, -0.15105370f, -0.25279111f, 0.28889537f, 0.21600726f, -0.01392554f, -0.09095187f, -0.19528560f, 0.04273123f, -0.20857044f, -0.23644182f, 0.02975941f, 0.08345604f, -0.31386411f, -0.12265471f, -0.10338342f, 0.02753070f, 0.21087818f, -0.12735540f, 0.23567519f, 0.07273025f, -0.00443128f, 0.01605427f, -0.01544419f, 0.06124513f, -0.20815609f, 0.11945070f, 0.11440393f, -0.07708789f, 0.17605329f, -0.36713526f, 0.11122981f, -0.41601920f, 0.09933038f, -0.11105794f, 0.08266219f, 0.04421964f, -0.01453723f, 0.22863820f, 0.05796651f, 0.22584774f, -0.00391558f, -0.21558164f, -0.11869585f, 0.09090844f, 0.04074899f, 0.06582402f, 0.20694390f, 0.09139036f, -0.08039214f, -0.26290753f, -0.23235980f, -0.01509518f, -0.02230389f, -0.16733412f },
    { 0.23939836f, -0.26436469f, -0.38737231f, -0.09980633f, -0.29318985f, -0.07413948f, -0.04891411f, 0.33556294f, -0.32073140f, -0.23794700f, -0.19081524f, -0.04880837f, 0.04707013f, -0.18776470f, 0.33634216f, 0.52015966f, -0.11616278f, -0.01483529f, -0.10733636f, -0.19950384f, -0.20879470f, -0.29565650f, -0.37142530f, 0.02321497f, -0.18322185f, -0.27550676f, -0.22316724f, -0.15458392f, -0.19122691f, -0.21719982f, 0.08480589f, -0.30438921f, 0.24609163f, -0.04370512f, -0.14784878f, -0.18543445f, -0.18323688f, 0.15565659f, -0.25286481f, -0.00392791f, -0.17641541f, -0.12671535f, -0.27089649f, 0.15086696f, -0.12865922f, 0.21240292f, 0.04705753f, 0.08426928f, -0.12135165f, -0.12368385f, -0.20266135f, -0.34410605f, -0.05402489f, -0.32955524f, -0.39963755f, -0.16867444f, -0.26072118f, 0.07083866f, -0.23935559f, -0.10447193f, 0.13645633f, -0.11470669f, 0.15554608f, 0.07236938f },
    { -0.00703767f, -0.08213671f, -0.15505183f, -0.04838128f, 0.05660826f, -0.36288956f, -0.00440997f, 0.02958865f, -0.02096035f, 0.18896742f, 0.05072977f, -0.00265697f, 0.60905343f, -0.15579529f, -0.01317195f, -0.08786518f, 0.14573568f, -0.20847507f, -0.25523978f, -0.09926660f, 0.02650614f, -0.05059996f, 0.15330744f, 0.12408901f, -0.15751752f, 0.44166750f, -0.09451459f, -0.19817656f, 0.19078155f, 0.03519627f, -0.28108671f, -0.06236192f, 0.17807493f, 0.06505167f, -0.05659964f, 0.01782676f, 0.09395538f, -0.11831477f, -0.14128970f, -0.04670681f, -0.09355842f, -0.03889527f, 0.14195777f, 0.10858284f, -0.09746231f, 0.04183074f, 0.16846511f, -0.22473006f, 0.06269272f, -0.01592560f, 0.13115300f, 0.12929907f, -0.10814340f, -0.03146700f, 0.35449272f, 0.06087675f, -0.08349955f, 0.05433071f, 0.02504935f, -0.09819312f, 0.71201271f, -0.04712178f, -0.35364959f, -0.06083132f },
    { -0.20511383f, 0.00585739f, -0.15849341f, 0.09565210f, 0.12882926f, 0.04254597f, 0.13126825f, -0.01708731f, 0.12669116f, -0.03748120f, 0.06411712f, 0.03972981f, 0.19922921f, 0.14290784f, 0.05111665f, -0.36883649f, 0.32756326f, 0.06323153f, 0.03677493f, -0.01094494f, -0.01774253f, -0.21648228f, 0.26614529f, 0.19798121f, 0.04496548f, 0.13424540f, 0.11197277f, -0.09142211f, 0.14244859f, 0.06578560f, -0.28007638f, -0.13265802f, -0.19046764f, 0.08805338f, -0.01881664f, 0.22824278f, -0.01445050f, -0.11898785f, -0.27277875f, 0.25433624f, 0.02418136f, 0.07085077f, -0.03666732f, 0.05479708f, 0.05743024f, 0.08817116f, 0.21820107f, -0.12461349f, 0.15539332f, -0.12611951f, -0.05614420f, 0.02621539f, 0.42341411f, -0.23337705f, 0.49852580f, 0.12412381f, -0.08128040f, 0.23879759f, -0.02717466f, 0.04685300f, 0.07389899f, -0.06863352f, -0.25995651f, -0.08145576f },
    { 0.09237435f, 0.09379925f, -0.24191159f, 0.00623911f, -0.08556099f, -0.09053428f, -0.36530700f, 0.11488722f, -0.34835777f, 0.18513800f, -0.19566734f, -0.45272756f, -0.50733763f, -0.35161012f, -0.01346999f, 0.35118711f, -0.17376450f, 0.01761381f, -0.37342593f, -0.21595310f, 0.14822368f, -0.34007323f, -0.01412254f, 0.08744395f, -0.23568639f, -0.04517576f, -0.23689711f, -0.01000702f, -0.07151401f, -0.02427984f, 0.16327529f, 0.26624131f, -0.19438601f, 0.15431638f, 0.14299379f, -0.04881903f, 0.00805600f, 0.06667601f, 0.00616777f, -0.01775916f, 0.00370085f, -0.03277370f, -0.08932471f, -0.00790413f, -0.30338913f, -0.10979412f, 0.12535220f, -0.01197257f, 0.19017507f, -0.18184221f, -0.10566970f, -0.14891909f, -0.07578008f, 0.00047664f, -0.32055733f, -0.03989915f, -0.33048943f, -0.08842272f, -0.43438670f, -0.09683255f, -0.07472429f, -0.03771808f, -0.01625181f, 0.16170745f },
    { -0.16708252f, -0.08960929f, 0.26110086f, 0.13400017f, 0.27753723f, 0.12569146f, -0.03687484f, -0.32698128f, -0.26562032f, 0.75561404f, 0.11700802f, -0.27386093f, -0.47796130f, -0.29636669f, -0.27115339f, 0.25756288f, -0.19900978f, 0.25007284f, 0.57218939f, 0.59252274f, 0.08761602f, 0.42205518f, 0.73451364f, -0.36964193f, 0.02285862f, 0.61824661f, 0.12967640f, -0.33867437f, -0.04594013f, -0.07556248f, -0.14061268f, 0.61072445f, -0.32789758f, -0.10237851f, -0.24613480f, -0.15776595f, 0.37167144f, -0.22111346f, -0.14054981f, 0.27995369f, -0.19671133f, 0.57918882f, -0.15763254f, 0.36378494f, -0.08267201f, -0.24097727f, 0.22482614f, -0.04671232f, 0.03446244f, 0.32226294f, 0.61318356f, 0.10149889f, -0.43971285f, -0.05773483f, -0.04465424f, -0.06225806f, -0.13811584f, 0.04198036f, 0.13591439f, -0.38671559f, -0.03664394f, -0.15025696f, -0.30507037f, 0.00589513f },
    { -0.04239535f, 0.05979292f, 0.03886443f, -0.19508378f, -0.03734173f, -0.12474119f, 0.09513552f, 0.00149205f, -0.13867851f, -0.35494700f, 0.08884287f, 0.26806024f, 0.00599431f, -0.02046682f, 0.25877288f, -0.73580867f, 0.27898723f, -0.19094306f, -0.23775847f, -0.14911550f, 0.10541638f, -0.10925005f, -0.10409966f, -0.23289463f, -0.20395285f, -0.16173016f, -0.01564802f, -0.13375482f, -0.29909781f, 0.02773307f, -0.16563256f, -0.16774049f, -0.19151935f, 0.12036047f, 0.01507903f, 0.11539535f, -0.11996590f, 0.09713398f, 0.01811225f, -0.02285978f, 0.29720217f, -0.20816118f, -0.05682317f, -0.07326507f, 0.21417257f, 0.10312948f, -0.15550631f, -0.38300529f, -0.14869101f, -0.13719836f, 0.03301090f, 0.00166648f, 0.04135593f, -0.32900235f, 0.05556014f, 0.08774853f, 0.08149162f, -0.24751517f, -0.15239474f, 0.34342641f, 0.29400268f, 0.03801580f, -0.08664842f, 0.05737639f },
    { 0.47140595f, 0.05852847f, 0.14155307f, 0.24172673f, -0.11640016f, 0.20847140f, -0.07376022f, -0.07746088f, 0.02468433f, -0.12028721f, 0.26805463f, -0.33737099f, -0.44368353f, 0.31328723f, 0.01636573f, 0.07852324f, -0.19035588f, 0.51229227f, 0.05023795f, 0.04712410f, 0.07624215f, 0.34196034f, -0.54847348f, 0.08322099f, 0.28688493f, 0.21893206f, 0.10288383f, -0.15661037f, 0.07615560f, 0.31241214f, 0.25214645f, 0.27367243f, -0.00192466f, -0.17517297f, 0.00860459f, -0.08114568f, -0.02748932f, -0.18084660f, 0.35264948f, -0.49977353f, -0.11436254f, -0.07449412f, 0.03115864f, 0.06054718f, -0.01530060f, -0.09051497f, -0.32914534f, 0.03525743f, 0.13264085f, 0.10278936f, 0.04683924f, 0.01717788f, 0.05859786f, 0.06761768f, -0.21211648f, 0.07624840f, 0.14156391f, 0.06378482f, 0.02345803f, 0.03569731f, -0.41911227f, 0.08214478f, 0.01167121f, 0.05062894f },
    { 0.20194829f, -0.27163959f, -0.46139500f, 0.19337299f, 0.39687642f, -0.88009268f, 0.28798088f, 0.30010739f, -0.12417005f, 0.13388188f, 0.25500911f, 0.27079052f, -0.04537496f, -0.79234171f, 0.01250801f, -0.16546366f, 0.11702283f, -0.15744507f, -0.15982144f, 0.21063384f, 0.16865726f, -0.26153582f, 0.73052341f, -0.05904664f, -0.36132634f, 0.30274543f, 0.17096744f, 0.10973383f, -0.10211778f, -0.56468576f, -0.01919070f, 0.02758693f, -0.07649708f, -0.12236783f, 0.13537760f, -0.02385153f, -0.07896951f, 0.07360541f, -0.48777828f, 0.41808334f, 0.02863338f, -0.09998085f, -0.07318344f, 0.25429603f, 0.03075410f, -0.11735066f, 0.27540079f, -0.01945019f, 0.37215811f, -0.09781417f, -0.06273710f, 0.46895403f, 0.30135605f, -0.59568763f, 0.55912596f, -0.23930658f, -0.14352120f, 0.02592694f, 0.24622187f, 0.09554715f, 0.26040569f, -0.28086606f, 0.00104263f, 0.11893022f },
    { -0.03436060f, -0.21459661f, 0.01435800f, 0.11460088f, 0.36231539f, -0.00186692f, -0.07243948f, 0.10091954f, -0.11238196f, 0.10516363f, -0.12385685f, 0.12755242f, 0.02474620f, -0.29874626f, -0.08105288f, -0.16327529f, 0.08490895f, -0.16914126f, 0.03509396f, 0.00005207f, -0.04655832f, -0.15837878f, 0.19445729f, 0.05449678f, -0.08704185f, 0.05455541f, -0.13804688f, 0.00939807f, 0.10760617f, -0.03570731f, -0.18104452f, -0.21026887f, 0.00623325f, -0.13202544f, 0.04371305f, 0.36303034f, 0.11140771f, 0.06876306f, -0.10903091f, -0.09922108f, -0.05084620f, 0.07906689f, 0.10533789f, 0.09597607f, 0.00622927f, -0.11066018f, 0.20284060f, -0.37279445f, 0.07552834f, 0.10810156f, 0.13994402f, -0.36581588f, 0.27297196f, -0.25864929f, 0.49251458f, 0.10577429f, -0.06158991f, -0.08289052f, -0.06340287f, -0.09133841f, 0.62169403f, -0.29193398f, -0.00579137f, -0.03082645f },
    { 0.02722163f, -0.22288303f, -0.14592835f, -0.30622530f, -0.13330844f, -0.01265558f, 0.15763208f, 0.07126842f, 0.46409088f, 0.06614606f, -0.05833521f, 0.21586609f, 0.63766330f, -0.21240267f, 0.13317335f, -0.39389592f, 0.15466240f, -0.03067653f, -0.17507176f, -0.34354153f, -0.14223863f, -0.10329123f, -0.09306178f, 0.01685460f, 0.04186556f, 0.06809799f, -0.22949894f, -0.21281673f, 0.49916655f, -0.17221718f, -0.17374942f, -0.59837121f, -0.14071268f, 0.16941962f, 0.14642327f, 0.13619754f, -0.10126226f, 0.06213240f, -0.16011123f, -0.12972696f, 0.05825698f, -0.26099408f, 0.13142213f, 0.05555261f, -0.08696438f, 0.18334474f, -0.28480217f, -0.03740876f, -0.00021401f, -0.06738158f, 0.06434041f, -0.25945720f, -0.06375264f, 0.10565419f, 0.24175072f, 0.04863534f, -0.29754001f, -0.17860696f, 0.20592164f, 0.06597764f, 0.38645834f, -0.06840978f, -0.00974358f, -0.16233391f },
    { -0.31715682f, 0.02734501f, 0.24723308f, -0.30777943f, 0.32961622f, -0.34519726f, -0.18204288f, -0.34271172f, -0.32959911f, 0.20643555f, 0.15674318f, -0.00308936f, 0.26179087f, -0.09504144f, -0.12435619f, -0.59516454f, 0.49448165f, 0.07833000f, 0.45627826f, -0.04901851f, 0.29321837f, -0.07844144f, 0.67029625f, -0.42169505f, -0.23707610f, 0.70953894f, -0.07612579f, -0.26860285f, 0.06924523f, 0.05511551f, 0.03210180f, -0.48424023f, -0.06373676f, 0.33893520f, -0.36755407f, -0.19604416f, -0.02651419f, -0.08567668f, 0.02673580f, 0.33317143f, -0.12615699f, 0.10591612f, 0.10623854f, 0.28583485f, -0.11459057f, -0.41996932f, 0.21297184f, -0.36728641f, 0.59354949f, 0.18065257f, 0.22424914f, -0.19549553f, -0.03888324f, -0.09992592f, 0.75478142f, -0.36089322f, -0.05548691f, -0.02752379f, 0.23950948f, -0.25766793f, 0.58224517f, -0.03497521f, 0.03265791f, -0.29300430f },
    { 0.07484856f, -0.07742524f, -0.26004365f, -0.07902698f, 0.16771053f, -0.07276912f, -0.24839406f, 0.22112878f, 0.14783034f, -0.22184093f, -0.23851083f, -0.10553131f, -0.26988971f, -0.23525608f, 0.03229621f, 0.05128319f, -0.05696492f, -0.18106115f, -0.03343463f, -0.02582298f, 0.09573785f, -0.29394278f, 0.01687498f, 0.12904529f, -0.00814001f, -0.04310682f, 0.10597688f, 0.03821553f, -0.05907790f, -0.21456680f, -0.00582134f, -0.17559272f, 0.15084590f, 0.03776312f, 0.10230772f, -0.02975599f, 0.01132156f, -0.00755361f, 0.00264667f, 0.14870745f, -0.03278098f, 0.19041713f, 0.10212771f, 0.21067086f, -0.10222756f, -0.00271714f, -0.15452211f, -0.03638491f, 0.10590269f, -0.03269156f, -0.30059275f, -0.03782147f, -0.21503918f, -0.41653788f, -0.26900560f, -0.04681124f, 0.04791393f, -0.06756604f, -0.16787964f, 0.06922928f, 0.19428140f, -0.08267019f, -0.32724771f, -0.07044040f },
    { -0.10459092f, -0.09922919f, -0.31659931f, -0.14469187f, 0.26128259f, -0.10699249f, 0.11897735f, -0.18944328f, -0.19528583f, -0.31939903f, -0.09310234f, 0.02400312f, -0.15605976f, -0.05665271f, -0.20759004f, -0.50245219f, -0.06630583f, -0.28597733f, 0.01685884f, -0.23457749f, 0.27942362f, -0.05333255f, 0.40817451f, 0.01386828f, -0.31654972f, 0.06622289f, -0.51621634f, -0.10517689f, 0.14610596f, -0.13969155f, -0.16015959f, -0.19096556f, -0.17900087f, 0.10381216f, -0.09922119f, 0.23071605f, -0.02713543f, 0.17436005f, -0.35174155f, 0.19453403f, 0.01575903f, -0.18864493f, 0.20019478f, 0.04818347f, 0.38657612f, 0.05792852f, -0.07041668f, -0.02014513f, 0.25696236f, -0.06927420f, 0.02066322f, -0.12247438f, 0.08414717f, 0.10497621f, 0.54390150f, 0.06030410f, -0.14004077f, -0.02159302f, -0.20402126f, -0.18204224f, 0.40525243f, -0.07350004f, -0.16932333f, -0.19503869f },
    { -0.08350326f, -0.22920270f, 0.00140541f, 0.26274627f, -0.06519706f, 0.23059227f, -0.09760007f, -0.10765120f, 0.17554355f, -0.06421020f, 0.26671603f, -0.19177395f, 0.27858520f, 0.22589645f, 0.13829178f, 0.21327516f, -0.34743065f, 0.05758300f, -0.10249090f, 0.11729521f, 0.03626259f, 0.05210427f, -0.14195529f, -0.11780689f, 0.02305889f, -0.04917856f, 0.03081050f, 0.02620199f, 0.32604790f, -0.05211271f, -0.00178591f, 0.25910822f, -0.18147078f, 0.02051534f, 0.08452328f, -0.14866531f, -0.32675970f, 0.26502725f, 0.04565251f, -0.27100757f, 0.14560740f, -0.07908908f, -0.05444478f, -0.24506016f, 0.02042115f, 0.21328072f, 0.09479559f, 0.04663127f, -0.22305687f, 0.03246791f, -0.13047709f, 0.03828532f, -0.17420912f, 0.10003338f, -0.53707856f, 0.03823128f, 0.14963166f, 0.01140975f, 0.07392798f, 0.03595158f, -0.09836341f, 0.01473127f, -0.06252962f, 0.11143068f }
};

static const port_float lstm_bias[LSTM_UNITS * 4u] = { 0.07907471f, 0.01061222f, 0.10714161f, 0.05298160f, 0.04832217f, -0.04289575f, 0.55203801f, 0.19115801f, -0.00580619f, 0.23360644f, 0.00661606f, 0.13354740f, 0.24826223f, 0.13172626f, 0.09464204f, 0.38702509f, 1.09214699f, 0.89063317f, 1.01362813f, 1.03838503f, 0.99042916f, 0.93331772f, 0.85296947f, 0.88068879f, 0.90376675f, 0.93157244f, 1.01652646f, 0.93578434f, 1.04244614f, 0.86954808f, 1.05439615f, 1.16861737f, -0.00209048f, -0.00238989f, -0.00943630f, 0.00473578f, 0.00245039f, -0.00018535f, -0.00302289f, -0.00111938f, -0.00347777f, 0.01167082f, 0.00807227f, 0.00287249f, 0.00719327f, 0.00826374f, -0.00033790f, -0.00697088f, 0.15496525f, 0.00966475f, 0.11929806f, 0.04652991f, 0.02657268f, 0.00316344f, 0.59903532f, 0.19057067f, 0.01826529f, 0.19333977f, 0.03414358f, 0.13122217f, 0.58392125f, 0.13331158f, 0.12134326f, 0.27872968f };

static const port_float dense_kernel[LSTM_UNITS][DENSE_UNITS] = {
    { 0.28403011f, 0.31204680f, 0.18889539f, 0.36384025f, -0.14288346f, 0.47051284f, 0.47073615f, -0.27394477f, 0.16048583f, -0.10490771f, 0.67713070f, -0.37953937f, 0.02419875f, -0.36016989f, 0.33919033f, -0.00060755f },
    { 0.09505656f, -0.15873736f, -0.13684341f, -0.26467893f, 0.07683828f, -0.17623252f, 0.20223063f, 0.05359292f, 0.31958061f, 0.38306826f, 0.23877783f, -0.19059922f, -0.32369500f, -0.39875463f, 0.45649895f, 0.34879166f },
    { -0.15782784f, 0.49737388f, 0.25511411f, -0.16933402f, 0.21910113f, 0.06716458f, 0.06255525f, -0.11252297f, 0.39402738f, 0.45829147f, -0.46650690f, 0.04291272f, 0.21617401f, -0.22258046f, -0.24331588f, -0.55018073f },
    { -0.34951845f, 0.04173037f, -0.19761552f, -0.29886422f, -0.01196942f, -0.09486250f, -0.32225701f, -0.27191219f, 0.29885027f, -0.20186879f, -0.32211855f, 0.35998115f, 0.58721626f, -0.17614032f, 0.18603498f, -0.55129743f },
    { 0.04155183f, 0.14688480f, -0.35428053f, 0.10956166f, 0.43165624f, -0.26719508f, -0.18841448f, 0.06588010f, 0.18176313f, 0.21203870f, -0.42004368f, -0.29393163f, -0.26875502f, -0.29882303f, -0.09836740f, 0.06895644f },
    { -0.24688834f, -0.08264735f, 0.10641313f, -0.45006761f, 0.04180049f, 0.08893977f, -0.41131458f, 0.26748109f, 0.34257069f, 0.25918111f, -0.38705984f, 0.35229662f, -0.09195246f, 0.06054744f, -0.00508872f, -0.21443345f },
    { -0.11745483f, 0.38320041f, 0.03556024f, 0.22896644f, -0.35169357f, -0.54028690f, 0.14737305f, -0.26637983f, 0.43687323f, 0.33878776f, 0.01700884f, 0.67524654f, 0.07605920f, -0.16848727f, 0.10776864f, -0.25686452f },
    { -0.02355545f, -0.08431876f, 0.06874941f, -0.29965550f, 0.11639751f, 0.26338372f, -0.02891212f, 0.20431192f, -0.10431439f, -0.04819138f, 0.16615663f, -0.53163517f, 0.28010154f, 0.08534250f, -0.10414162f, 0.15315084f },
    { -0.20451970f, 0.02198999f, 0.38856974f, 0.21204005f, 0.43605235f, -0.19262131f, 0.46893856f, -0.02344042f, 0.30961397f, -0.06433383f, 0.12911619f, -0.24325077f, 0.30400881f, 0.22620915f, 0.09802128f, -0.41067746f },
    { 0.09455434f, -0.15081374f, 0.13100205f, -0.02332788f, 0.06376316f, -0.26425433f, -0.31377134f, -0.32595778f, -0.32862785f, -0.39844763f, 0.26690209f, 0.13459285f, -0.15396240f, -0.10566097f, -0.07710955f, -0.34206745f },
    { -0.28591907f, -0.07319027f, -0.31263694f, -0.40155017f, -0.32609156f, 0.16267993f, -0.37650931f, 0.24930745f, 0.14711095f, -0.04809602f, -0.30815551f, 0.62623632f, 0.14018634f, -0.37142879f, 0.16835150f, 0.13533066f },
    { -0.26133788f, -0.21612097f, -0.14336605f, 0.41507208f, 0.16398674f, 0.50275165f, 0.19222175f, -0.04946067f, -0.19393401f, -0.22645898f, 0.24284080f, -0.64352655f, 0.48519439f, -0.44193256f, -0.21271649f, 0.38087270f },
    { 0.19019590f, 0.19306813f, 0.12789854f, -0.34756050f, -0.21661644f, -0.11439677f, 0.18019676f, -0.30822822f, -0.44599277f, 0.01531184f, 0.02744379f, 0.86149532f, -0.46169895f, -0.30100378f, -0.18278052f, -0.35185659f },
    { 0.33071727f, 0.40067533f, 0.13934913f, -0.47780758f, -0.40008798f, -0.48380178f, -0.12487297f, -0.12611726f, 0.54052806f, 0.32525617f, -0.01261148f, 0.31053796f, -0.29014277f, -0.36008260f, -0.32797271f, -0.40585241f },
    { 0.02321192f, -0.35643479f, -0.12800261f, -0.23303655f, 0.37149277f, 0.46025151f, -0.31886137f, -0.27330709f, 0.11005975f, 0.27740481f, -0.06721182f, 0.03225681f, -0.48361832f, -0.20831691f, 0.30052799f, 0.36717266f },
    { 0.37377211f, -0.37500113f, 0.35008210f, 0.29537299f, 0.28188986f, 0.37111303f, 0.03761452f, 0.31621951f, 0.30610415f, 0.40640348f, -0.12645175f, -0.13767673f, 0.05142077f, -0.02908492f, 0.21448764f, 0.31144729f }
};

static const port_float dense_bias[DENSE_UNITS] = { -0.00525781f, -0.00946402f, -0.01209778f, 0.01143809f, 0.00872649f, -0.01151763f, 0.00115472f, 0.01064075f, -0.02055795f, -0.02575754f, 0.03152241f, 0.01433985f, -0.01945052f, -0.00578731f, 0.01972974f, 0.01751488f };

static const port_float output_kernel[DENSE_UNITS][OUTPUT_UNITS] = {
    { 0.47449982f },
    { 0.77986825f },
    { 0.18871200f },
    { 0.29565054f },
    { -0.70158309f },
    { 0.46193162f },
    { -0.07167277f },
    { -0.43262586f },
    { -0.35939193f },
    { -0.35030541f },
    { 0.17259037f },
    { -0.42849982f },
    { 0.29864985f },
    { 0.55731237f },
    { 0.44714451f },
    { 0.28667194f }
};

static const port_float output_bias[OUTPUT_UNITS] = { -0.00813761f };

#endif
