float lstm_lstm_cell_kernel[1][96] = {
    {0.19241101, -0.21327817, 0.52662164, 0.13177380, 0.68759644, 0.61269200, 0.39190736, -0.11615855, -0.38255209, -0.27550903, 0.00474600, 0.05669520, 0.11947045, -0.45531780, -1.00651097, 0.07499122, 2.05502009, 0.78698027, 0.19309573, 0.66873777, -0.21085182, 0.15378991, -0.29452473, 0.13147642, 0.82855195, -0.10253888, 0.11302493, 0.05012273, -0.37210497, 0.00374044, -0.04121830, 0.08757106, -0.01970283, -0.39878440, -0.03369071, 0.23674986, -0.07918092, -0.18869025, -0.23323026, -0.39924338, 1.55501592, -0.77796274, 0.11015744, 0.62888336, -0.24513261, -0.01296283, 0.00188923, -0.24265334, -0.31337285, 0.63298750, -0.56430930, 0.12935250, 0.45476392, -0.09532178, 0.29858726, -0.36064222, -0.26750839, -0.20812316, -0.23826165, -0.10250753, 0.41830671, 0.23545335, -0.13746941, 0.13774101, -0.11902229, 0.78069645, -0.60961396, -0.26200733, -0.01276831, 0.13457626, 0.05905652, -0.01339371, 0.37976569, -0.20306396, 0.57948172, -0.01441811, -0.23247197, -0.02242119, -0.05132215, 0.16309343, -0.14049473, -0.39314437, 0.07146470, 0.06303387, -0.15370962, -0.09839259, -0.53859419, 0.05607771, 1.59205639, 0.52586478, -0.08887992, 1.11886466, -0.26162627, -0.03484765, 0.22739281, -0.00242271}
};

float lstm_lstm_cell_recurrent_kernel[24][96] = {
    {-0.27396634, -0.06912135, 1.01699626, 0.08408803, -0.16401355, -0.78942573, 0.06227809, -0.14838108, 0.04913211, -0.04994494, -0.06569561, -0.07313226, -0.08797593, 0.38670498, 0.32928985, -0.08623596, -1.29888058, 1.40657520, 0.66589260, -0.32889643, 0.14161335, 0.56404841, 0.23842369, -0.00304282, -0.21444781, -0.16778730, 0.38109678, 0.15255170, 0.39721093, -0.20655414, -0.08935503, 0.02752713, -0.16985692, -0.06371938, -0.08893783, 0.06774507, -0.30748615, -0.25892636, -0.22191095, -0.05375158, -0.09304018, 0.92765707, 0.32502636, -0.25759271, 0.12109420, 0.12922895, 0.19302584, 0.29078764, 0.03234108, 0.21210067, 0.10437826, -0.03306419, 0.01902224, 0.43165249, -0.04461046, 0.15829182, -0.11626627, -0.01657479, 0.19878736, 0.16617452, -0.06102842, -0.23235936, -0.11435305, 0.05617850, 0.79066968, -0.32108417, -0.04723649, 0.14696668, -0.05109838, -0.09636061, 0.06160888, 0.15254200, -0.18883996, -0.15389815, 0.27683744, 0.03083286, 0.22409655, -0.35109708, -0.01927359, 0.17535517, 0.15405171, -0.15676266, -0.07617614, -0.09769964, -0.15803668, -0.09821486, 0.26816624, 0.18165837, -0.64775795, 1.21882987, 0.20543861, -0.35295478, 0.07793003, 0.17579748, 0.13765675, 0.23549260},
    {-0.79986769, 0.11536492, 0.34918272, -0.11102693, 0.17079842, -0.07156175, -0.08267241, 0.03161816, 0.19393332, -0.00336038, -0.21737559, -0.33816561, 0.02616718, 0.02478666, -0.39595649, 0.11440580, -0.17352003, 0.66729718, 0.14525902, 0.10533591, 0.00426392, -0.03010376, 0.28478202, 0.15200941, 0.11379499, -0.02590561, 0.31530836, 0.12300175, 0.39827222, 0.11015088, 0.02227033, -0.12905294, -0.02873506, -0.16485676, -0.40391618, -0.12168848, -0.12858109, -0.08226098, -0.04161526, -0.19026059, 0.10568521, 0.54965681, 0.31703901, 0.24510632, -0.22107948, -0.07101166, -0.09940653, 0.02317232, 0.21193933, 0.23116860, -0.07261565, 0.08826190, 0.02722436, 0.12493494, -0.01880283, -0.03023168, 0.23920485, 0.00512567, -0.18080084, 0.21836382, 0.14893851, -0.08647720, 0.26689255, 0.14575890, -0.15318705, -0.08274764, -0.01165999, -0.09745906, -0.13756029, 0.10736975, 0.04538510, 0.22854023, -0.42881894, 0.11428598, 0.60367429, -0.04197615, 0.08852151, -0.07567504, -0.20665300, -0.11259624, 0.26775116, -0.27541298, -0.13298482, -0.22090185, -0.06045093, -0.14622846, -0.24965565, -0.08669217, 0.04342670, 0.45018724, 0.30615407, 0.31876117, -0.07868456, -0.03048945, -0.03024428, 0.25076571},
    {0.76177871, -0.01287419, -0.10064482, -0.19922003, -0.49738047, -0.19115824, -0.19853207, -0.15728013, 0.01683775, -0.01663468, -0.19016887, 0.03660022, -0.18636297, -0.00592655, 0.40227586, -0.29032040, -0.30645972, -0.38223654, -0.60928661, -0.38360348, 0.16058527, -0.32927844, 0.13416454, -0.15949890, 0.05964064, 0.36421257, -0.26955345, -0.13289388, -0.30023241, -0.35077909, -0.18940602, -0.22085673, -0.01311259, 0.11921784, -0.04471966, -0.00543695, -0.08420966, 0.18868661, 0.07812648, 0.06310694, -0.94331968, -0.22450700, -0.08202990, -0.44124794, 0.06690347, -0.30764097, -0.16320120, -0.21762206, -0.18662572, -0.06453091, 0.11230752, -0.35832745, 0.14945148, 0.19293430, 0.04313044, 0.06618971, -0.14569467, -0.06112378, 0.13073356, 0.09196417, 0.15973008, 0.02065762, -0.16370933, 0.14459701, -0.04406472, 0.02333559, 0.03000714, -0.21418439, 0.05316184, -0.02379225, -0.12124956, -0.15800592, 0.38486061, 0.20200345, -0.27648684, 0.01466609, -0.12501375, -0.35394821, -0.02368162, -0.36340609, 0.01029704, 0.12971851, -0.04223597, -0.02757718, -0.02901577, -0.13569701, 0.52959901, -0.33787793, -0.43957466, -0.13677230, 0.02927605, -0.71416628, -0.09632923, -0.44233271, 0.06106240, -0.09791745},
    {-0.21374907, -0.09216100, 0.31977373, -0.04303657, 0.03306782, -0.35732067, 0.03830126, -0.01022861, -0.09294517, 0.09252401, 0.02499279, -0.24484621, 0.19759150, -0.11188585, 0.11094682, 0.08487046, -0.48157358, 0.57727146, 0.33162302, 0.17872106, -0.10990546, 0.03527628, 0.04627217, 0.10233003, -0.22848932, -0.01321792, 0.41527021, 0.16551927, 0.21207166, 0.31703830, 0.34897795, 0.17006092, -0.24930391, 0.01573531, -0.15970239, 0.12887049, -0.00159609, -0.18853122, -0.14774068, -0.28582737, 0.37156442, 0.27641821, 0.30430198, 0.28715149, -0.33167630, 0.31788862, -0.15088496, -0.03138324, 0.28656784, 0.00487009, 0.09191179, -0.08601017, 0.18347178, -0.10833831, -0.05173342, 0.02380538, -0.03812582, 0.06066243, -0.04680461, -0.00843573, 0.09153195, -0.18738671, -0.02135102, -0.09787887, 0.24591736, -0.27464283, -0.05299804, 0.22346240, -0.13546723, 0.09755679, -0.21432337, -0.00072157, -0.36990479, -0.20929106, 0.22358124, 0.08027822, 0.14553601, -0.02481875, 0.09447133, 0.08512337, -0.18401545, -0.11359315, 0.10201293, 0.21592292, -0.00538959, -0.15534607, -0.22358878, -0.13396962, 0.32545730, 0.32245436, 0.01135127, 0.13241139, -0.18241841, 0.27343106, -0.03518424, 0.33744657},
    {-0.19149861, 0.17933474, -0.16307212, -0.05758735, 0.21470946, 0.06558190, -0.15857810, -0.21299730, -0.15782124, -0.00470809, -0.15416789, -0.15752731, -0.38500705, 0.23283586, 0.24196681, -0.15498659, 0.77668071, -0.15257294, -0.13277377, 0.35904133, 0.03048699, -0.17851473, 0.11889767, 0.19205779, -0.09187221, 0.27790409, -0.09311929, -0.01727435, 0.25049675, 0.13986668, 0.18430620, 0.04340554, -0.03479151, 0.03779333, 0.09472049, 0.04440967, 0.10444393, -0.33130074, -0.31195375, 0.08378532, 0.45940959, -0.39883569, 0.22690175, 0.27387637, 0.01723545, -0.05148666, -0.11956389, -0.30673671, -0.05291853, 0.13435151, 0.06874878, 0.08522882, 0.16692363, -0.06786713, 0.15172945, -0.05202802, -0.08454355, -0.04903499, -0.09120243, 0.08692681, 0.02241748, -0.09161866, -0.08343966, 0.10108852, -0.36644769, -0.29922596, 0.05853572, 0.09055362, -0.09950697, 0.07558335, 0.13036513, -0.03111254, -0.08520867, 0.03607997, -0.19875261, 0.01473968, 0.17164099, 0.24691819, 0.02726500, -0.08576772, -0.15131854, 0.06842294, -0.05059138, 0.37861452, -0.47401696, -0.25618607, 0.31928781, -0.21212439, 0.67049819, -0.08758729, 0.08900664, 0.06254238, -0.14121802, -0.20226647, 0.03632748, -0.04829298},
    {0.18278159, -0.15405843, 0.55009580, 0.02708858, -0.21132639, -0.33265322, 0.05323714, 0.03035152, -0.03500775, 0.11722665, 0.18181409, -0.20989649, -0.00520035, 0.06403127, -0.27730182, 0.21675970, -0.36072671, 0.16636842, 0.15208165, -0.23370010, -0.06989479, -0.05938388, -0.17154396, 0.16452840, 0.04457326, -0.63269252, -0.10399725, -0.16879296, -0.31642205, -0.35276276, -0.31062323, -0.14942968, -0.03131768, -0.18280135, 0.01159840, -0.27679670, -0.15395866, -0.19915725, 0.17908338, -0.11452668, 0.03110339, 0.48725855, -0.09163971, -0.27481920, -0.04926320, -0.04756228, -0.30678168, 0.04129562, 0.03234040, 0.01657622, -0.00704984, -0.05598637, -0.27529523, 0.02388518, -0.01244005, 0.00106940, -0.07263823, -0.05791326, 0.05881038, -0.13204616, 0.07986983, 0.13545458, 0.20755140, 0.05050820, -0.06520887, 0.17495467, -0.02117615, -0.37184241, 0.08587442, -0.02545649, -0.19542007, -0.09528912, 0.14162658, -0.01688313, 0.38857254, -0.09432644, 0.02468245, -0.27065060, -0.03097820, -0.23445538, 0.19884704, -0.03531083, -0.06765255, -0.13161060, -0.06543786, -0.20554674, 0.22771415, 0.01556922, -0.16609317, 0.26210046, -0.00319921, -0.27677462, 0.06273243, 0.07858434, -0.42908889, -0.14508589},
    {-0.30218384, 0.04400504, -0.31244630, 0.12617992, 0.17341600, 0.21105023, -0.02411957, -0.12021594, -0.08822869, -0.16440070, 0.17125505, 0.08523806, 0.01894624, 0.08360232, -0.26441884, -0.08659606, 0.41084680, -0.09910878, 0.00424957, 0.38510141, 0.16358143, 0.29616827, -0.17425703, 0.12654135, -0.24403958, 0.01168207, 0.15665023, 0.07687348, 0.14259368, 0.29751271, 0.23072957, 0.14383975, -0.20652036, 0.02154188, 0.09973556, 0.27069476, 0.12176110, -0.14503805, -0.04943804, -0.27869529, 0.25645292, -0.24717350, 0.03016759, 0.42172617, 0.00716876, 0.21187526, -0.23945692, -0.09587862, 0.19800885, 0.08956153, -0.27225474, -0.11637959, -0.01323027, -0.09147293, -0.04432442, -0.00625353, 0.05078185, 0.21121313, -0.06731787, -0.04151044, 0.02941229, -0.08316410, 0.36596844, -0.03864715, -0.09402854, -0.11167926, 0.07097087, 0.29897806, 0.12406761, 0.06219533, -0.02303077, -0.29004210, -0.14129613, -0.11301094, 0.08806778, 0.19133812, 0.17213780, 0.05444035, -0.05321516, -0.06177694, -0.20302875, -0.27623653, -0.06866234, 0.09764954, -0.06182551, -0.00143207, -0.23817900, -0.04460929, 0.37406087, -0.17910418, 0.21018423, 0.39923242, 0.05281591, 0.13189913, -0.32695368, 0.26574385},
    {0.27235407, 0.19702168, 0.19114059, -0.12520719, -0.54162973, -0.21324472, -0.00957668, 0.03012310, 0.01292910, -0.00433775, 0.05093557, 0.16191705, -0.07325110, 0.00993309, -0.00790921, -0.03939762, -0.16567416, 0.10096288, -0.09535913, -0.33012983, -0.16806376, -0.01196855, 0.13233620, -0.23212361, 0.24567093, 0.12902899, -0.04770890, -0.08321312, -0.32008284, -0.25618556, -0.16438432, -0.10197664, -0.06427456, 0.08632540, 0.12143207, -0.10271405, -0.06061549, 0.08642685, -0.02761559, -0.04167945, -0.24920408, 0.19361347, -0.12882382, -0.20905711, 0.27187750, -0.04265662, 0.07402948, -0.05605065, 0.00029799, 0.09463497, -0.03735603, -0.15756440, -0.20640181, -0.01729647, -0.24487358, -0.01512430, 0.03669724, -0.13483286, 0.00374023, 0.20284657, -0.09709426, -0.02577885, 0.04036620, -0.16511804, 0.08298126, 0.02778398, 0.08280484, -0.28490141, 0.10367745, -0.15495789, 0.15412024, 0.08571550, 0.27847451, 0.03479225, 0.03709955, -0.17282031, 0.00990177, -0.12486404, 0.03980377, -0.06395267, 0.11266580, 0.33014295, 0.09682288, -0.06276941, 0.12294105, 0.10760631, -0.16124484, 0.08655374, -0.36531594, 0.19591887, -0.00748805, -0.23180556, 0.19684145, 0.04956674, 0.16330826, -0.11574475},
    {0.14609803, -0.04196868, 0.40570709, 0.09346991, -0.18769304, 0.11621863, 0.07064202, 0.19861886, -0.09057575, -0.04536045, 0.02505473, -0.16203657, 0.41931486, -0.07037988, 0.25692856, -0.12975335, -0.37796739, 0.02964057, 0.12553845, -0.06640681, 0.01021625, -0.04781913, -0.12478080, -0.12536238, 0.08185420, -0.12747151, 0.09857435, -0.11950554, -0.28967193, -0.04930407, -0.11901695, -0.14707597, 0.11639947, 0.18412395, 0.12766869, -0.24096112, 0.10783443, 0.26922324, 0.18142924, -0.13981037, -0.35679847, -0.10678346, -0.21377751, -0.24737126, 0.00899063, -0.09133954, 0.07253538, 0.39206231, -0.01508175, -0.07388102, -0.01849053, -0.06353757, 0.00284392, -0.05142940, 0.00896922, -0.03955112, -0.18351473, 0.14149082, -0.07247908, 0.13316129, -0.15273473, -0.18884261, 0.16573225, -0.08089757, 0.16851892, -0.03954657, -0.07112193, -0.25589627, -0.14928918, -0.01917036, 0.15985958, -0.03629619, 0.22187355, 0.12186833, 0.02114498, -0.04081980, -0.14529341, 0.06296655, 0.06621798, -0.11364044, 0.06455719, 0.00238149, -0.00249718, -0.12600464, 0.21699835, 0.11489128, 0.04979436, -0.28189379, -0.70253307, 0.06261305, -0.01269399, -0.20460789, -0.06549536, -0.08062980, 0.01077602, -0.09661831},
    {0.28628990, 0.07713760, 0.16421601, 0.23953889, -0.20526098, 0.15780623, 0.04795905, 0.16405672, -0.18198569, -0.02268755, 0.03150953, 0.12364285, 0.16217458, 0.07615068, -0.11767122, 0.22579850, -0.17096783, -0.10561953, 0.15690188, 0.06128525, 0.12301034, 0.05070670, 0.10557494, -0.17394438, 0.13045028, 0.20652808, -0.04157139, 0.14807115, -0.20260930, 0.02886994, -0.09166016, 0.26633614, -0.24654576, 0.16118211, 0.04378062, 0.13190262, -0.11952729, 0.28866056, -0.08338987, 0.12577794, -0.14338648, 0.31402767, 0.04261656, -0.39126244, 0.29813632, 0.27002099, 0.23786959, 0.38230714, -0.21372674, 0.01024694, -0.15663354, 0.06933950, -0.18107243, -0.04081116, 0.03329228, 0.04153417, 0.12573598, 0.06197981, 0.13803428, -0.02742878, -0.11157616, -0.15562336, -0.18600506, 0.08711271, 0.24937469, 0.05000709, 0.19349749, 0.03411918, 0.07576557, -0.04184018, -0.07875820, -0.05627453, 0.02510202, 0.21763809, -0.05757980, 0.03641640, -0.05412256, 0.09563420, -0.04565956, 0.24575219, -0.09686629, 0.05573374, 0.06034964, 0.02377426, 0.21160471, 0.15349093, -0.21604298, -0.11747285, -0.18883745, -0.05235124, 0.18619426, -0.05558942, 0.21480826, 0.24819998, 0.11590621, -0.28555074},
    {0.26303893, -0.18809751, 0.31094944, 0.09076958, -0.14701132, -0.09685171, -0.00402658, 0.09737202, -0.05784730, -0.36376584, 0.01423528, 0.07049327, 0.19810283, 0.10600707, -0.16286463, 0.02886928, -0.10371346, -0.11383872, -0.03009152, 0.01173916, 0.11228609, 0.16040070, -0.00028673, -0.13085575, 0.27098265, 0.02457933, -0.14282666, -0.14295371, -0.15412566, -0.09096865, -0.02426823, -0.07271153, -0.01652886, -0.02236514, -0.12888536, -0.10101668, -0.41349033, -0.03006106, 0.03469106, -0.08431947, -0.12217509, 0.14759161, 0.11833911, -0.23889968, 0.09988666, 0.02766905, 0.12277030, 0.17524980, -0.21225633, -0.08409081, 0.07226779, -0.20993333, -0.18003304, 0.12728852, -0.05378254, -0.00082387, 0.21388686, 0.00743509, -0.04723099, 0.00840511, 0.00115954, 0.08397749, -0.10361977, -0.19328235, -0.18114293, 0.00271816, 0.02114321, -0.04851489, -0.11724657, -0.13619809, -0.10746023, 0.04970434, 0.27549601, -0.02197987, 0.11504113, -0.08255015, 0.04474532, -0.10399185, 0.20387523, -0.01234956, -0.08076677, 0.00729164, -0.15443057, -0.18128526, 0.15918085, 0.09898653, -0.14395075, -0.13050926, -0.34149432, 0.05202027, -0.14751643, -0.07851087, 0.24238539, -0.00939187, -0.00784650, -0.04860511},
    {0.19799843, 0.01426953, 0.25205520, 0.15456446, -0.13385099, -0.03755488, -0.04105178, -0.04741354, 0.23809293, 0.20024517, 0.06639201, -0.11062783, 0.13920507, 0.00871403, 0.09545725, 0.10321131, 0.03051520, -0.01723829, 0.10868230, -0.02407124, 0.34855941, 0.04735095, -0.01782408, -0.05234493, 0.27309170, -0.29890430, -0.11658272, -0.11583413, -0.46626797, -0.23545839, -0.30882972, 0.01249253, -0.06512001, -0.03000443, -0.19868658, -0.15059271, 0.07496742, 0.15080693, 0.29564378, -0.07339504, -0.15602019, 0.23369832, -0.13589860, -0.11480166, 0.03234901, -0.21021280, -0.13052209, 0.04824281, -0.18780325, 0.13890557, -0.00449410, 0.03314270, -0.31345484, 0.01632875, -0.12471084, 0.16495866, 0.09021306, -0.00829926, 0.09995088, -0.05182810, 0.00972740, -0.02777899, -0.14414780, 0.07243305, -0.10008153, 0.08281299, 0.05035074, -0.32353559, -0.28916529, -0.10365940, -0.12490956, 0.00854114, 0.21704894, -0.11102083, 0.15516490, -0.21900102, 0.01087299, -0.23605148, -0.13774814, -0.24508813, 0.24271572, 0.07910451, -0.02380231, -0.01480767, 0.10004856, 0.17541620, -0.16157734, 0.10997421, -0.01322442, 0.31410000, 0.02241749, -0.15994856, 0.10651577, -0.05190251, 0.05169147, 0.09390276},
    {-0.75958717, -0.00040611, -0.03540654, 0.23607929, 0.39859164, -0.26947394, 0.12014231, 0.14600275, 0.38776568, -0.05265683, 0.20763893, -0.01814392, 0.17117614, -0.24427657, -0.21873862, -0.00007826, 0.38079631, 0.86718142, 0.53273344, 0.13926201, -0.02388774, 0.45419410, 0.09630431, 0.31998786, -0.08178028, -0.08759284, 0.18771593, 0.15411061, 0.29762137, -0.04041131, 0.11032008, 0.12033384, 0.03342311, -0.31756750, -0.01358697, -0.01175844, -0.24592541, -0.35411361, 0.16714559, -0.15467489, 0.73277563, 0.03903858, 0.13628940, 0.35979864, -0.14124043, 0.04767109, -0.13636062, 0.15059084, 0.34374228, 0.06412559, -0.09214833, 0.44417885, -0.05458289, 0.05439949, 0.04029098, -0.03334238, -0.04417508, -0.03024019, -0.18153137, 0.06777329, -0.03367432, -0.09637795, 0.42499471, 0.21411484, 0.00674626, -0.18243451, 0.13445307, -0.00419744, 0.07435064, 0.05366296, -0.09955860, 0.02837432, -0.25009573, -0.14914797, 0.42278901, 0.04457609, 0.21129477, -0.06103954, 0.01287663, 0.27198464, 0.17404287, -0.02885686, 0.18402351, -0.01789219, 0.04605217, -0.30030435, -0.03142206, -0.26371422, 0.61797345, 0.57130784, 0.31524459, 0.16072074, -0.19648175, 0.34973225, 0.01059994, 0.30855602},
    {-0.55557311, -0.07127061, 0.33127818, 0.14249651, 0.43494949, -0.27098504, 0.41751775, 0.26826924, 0.36377394, 0.02522558, -0.06332831, -0.18585017, -0.10925530, -0.12983175, 0.07246761, -0.02249978, -0.22627875, 1.27150166, 0.56573230, 0.11363332, -0.28878391, 0.12751685, -0.09290959, 0.21880828, 0.51924050, -0.32371789, 0.23875390, -0.10627414, 0.33868936, -0.42416120, -0.30142173, -0.07365172, -0.06756431, -0.31260237, -0.19315165, -0.32185769, -0.23041798, -0.20562188, 0.33523950, -0.20361295, 0.57697332, 0.62047601, 0.13300855, -0.22706376, -0.19478549, -0.11473859, -0.19602033, 0.08023498, 0.55295742, 0.06852923, -0.14381585, -0.03480790, 0.05277345, 0.10417781, -0.02034388, 0.00514003, 0.19333999, 0.05242038, -0.11377725, -0.03096865, 0.21915679, 0.08454970, 0.31622845, -0.14469841, 0.22120036, -0.30914542, 0.20637663, 0.01110837, -0.10058226, -0.15242435, 0.15004575, -0.04159930, -0.14274698, -0.18614246, 0.66477978, -0.10586883, 0.22804214, -0.15360135, 0.17281510, -0.07119922, 0.23824067, -0.02616191, 0.00235337, -0.14496709, -0.13025944, -0.22707315, -0.08557760, -0.08049334, 0.08996284, 0.53562593, 0.44018477, 0.03193826, -0.34471506, -0.19393599, -0.34591654, 0.00640852},
    {-0.53114772, 0.17862278, 0.53331983, 0.06346704, 0.08669876, -0.16576612, 0.23927394, 0.01143767, 0.11941659, -0.09605344, 0.03988907, 0.02962581, 0.04295544, 0.08230680, -0.04685842, 0.07468639, -0.87884349, 1.78824902, 0.80497980, -0.31899574, 0.01212179, 0.42533067, 0.37401637, 0.28464481, -0.27471086, -0.02908537, 0.14260662, -0.00420125, 0.24146402, 0.25113291, -0.08799745, -0.11504848, -0.05912205, -0.11972197, -0.12071771, 0.18976712, -0.12072760, -0.27415398, 0.06241969, -0.05675744, 0.10047651, 0.36419612, 0.20079252, -0.18400615, -0.09886810, 0.36005527, -0.04392219, 0.39891613, 0.16633593, -0.10353094, 0.10717667, 0.33596089, 0.15467484, -0.04430152, -0.09817910, -0.02162151, -0.09457331, 0.19081125, 0.10656734, 0.01127382, 0.00934577, 0.10222474, -0.23105375, 0.06953868, 0.61993390, -0.33551618, -0.05197209, 0.10850647, -0.13428710, 0.06935432, 0.37485161, 0.28832513, -0.54562855, -0.13563000, -0.14327839, 0.25748041, 0.09516253, -0.00154303, 0.33413726, 0.22935897, 0.54323018, 0.00545323, 0.04010209, -0.10084763, -0.08495795, -0.37584060, -0.27211601, 0.08466129, -0.65804976, 0.80614156, 0.39650866, -0.35392377, -0.09801003, 0.17836912, 0.13711245, 0.22727677},
    {0.04468171, 0.11516611, -0.05080854, 0.01466726, 0.02367730, 0.08609167, 0.07447667, -0.23931222, 0.02387990, -0.08747694, -0.07222987, -0.01175144, 0.11796722, -0.07964520, 0.09927978, -0.02966942, 0.01468745, 0.05380754, -0.05986973, 0.13194609, 0.06468999, -0.10458542, -0.06495249, 0.24730930, -0.31466666, -0.15027249, 0.23417892, 0.10261898, 0.21023454, 0.08607444, 0.08910903, -0.00987902, 0.08222836, -0.02440161, -0.09532883, 0.11902338, -0.00765881, -0.06280134, 0.12782112, -0.07533982, 0.19744109, -0.16231996, 0.24124259, 0.45742592, -0.37302056, 0.15081185, 0.01760383, -0.02754138, -0.01346039, 0.02579869, 0.02072150, -0.15169445, -0.04512230, 0.10903929, 0.01049995, -0.04845721, 0.07336925, -0.16638049, -0.04014853, 0.15327355, -0.05851863, -0.00196566, -0.02334582, -0.07222730, -0.00325427, -0.10166593, 0.12063641, 0.10344126, -0.06528656, 0.06017054, 0.28296015, 0.12510361, 0.11338239, -0.07415385, -0.05525273, 0.12440027, -0.06659540, -0.08713632, -0.15791437, 0.06856530, -0.10872010, 0.19989538, 0.02327870, 0.07686882, -0.25100181, -0.17020643, 0.37832874, 0.02556289, 0.36868528, 0.02037052, 0.18387477, -0.05504141, -0.11943687, 0.02318287, -0.05260435, 0.30131090},
    {-0.13163270, 0.32395041, 1.07305980, 0.15692991, -0.45051846, -0.78183085, 0.26492038, 0.18046346, 0.15005776, -0.19295616, 0.01591012, -0.20998783, 0.33671629, 0.57904112, 0.01481004, 0.06611349, -1.08233941, 0.05649183, 0.58733022, 0.05556789, 0.28814852, 0.46040338, -0.30136076, -0.13050206, 0.23666984, -0.21235681, 0.84279275, 0.03486805, -0.22271489, -0.55429858, 0.04398679, 0.13569203, 0.22983517, -0.34041280, 0.06775869, -0.06188782, 0.00049448, 0.42120850, 0.42243290, -0.43869892, -0.21332720, 0.73399061, 0.22132470, 0.18932845, 0.10014374, 0.32259807, -0.38276607, 0.18998770, -0.22232345, -0.11578852, -0.18484703, -0.08713862, -0.45861796, 0.36546439, 0.15536387, 0.18257320, 0.12739754, 0.21880539, 0.35011300, 0.27852008, 0.03368912, -0.01566517, -0.14432067, -0.14104654, 0.02058001, 0.13302127, -0.28552213, -0.16476661, 0.08119962, 0.13839452, -0.08240660, -0.22989056, -0.07639065, 0.23304841, 0.96392953, -0.04626492, 0.19203800, -0.80009669, 0.26627293, 0.22266267, 0.00107654, -0.22745281, -0.12512057, -0.07601734, 0.19980225, 0.36643320, 0.35101220, -0.15415406, -0.80054939, 0.50690144, 0.34563410, -0.05333331, -0.20384876, 0.36609134, -0.41695651, -0.14017554},
    {-0.76994622, 0.14776053, -0.17434832, 0.13017836, 0.85414106, 1.56313097, 0.32361546, 0.58676469, 0.52565533, 0.32179040, 0.28843397, 0.26035306, 0.05023814, -0.46940881, -0.85504192, 0.32388261, 0.92820585, -0.12150871, 0.01742590, 0.90062469, 0.25114933, 0.25783443, 0.09891163, 0.16604948, 1.05368531, -0.01788569, 0.05769171, 0.22626615, 0.13392469, 0.48175150, 0.09858205, 0.26685983, 0.13476774, -0.19756027, 0.18112762, -0.32029757, 0.29608294, -0.22788940, 0.04774064, -0.24740200, 1.16617966, -0.04197880, 0.08760573, 0.26562887, -0.21577008, 0.13251291, 0.28400883, 0.24819335, 0.39928839, 0.12600090, -0.23595989, 0.37147632, -0.16321290, -0.06177245, 0.14508827, 0.11585527, 0.02150764, 0.06008872, -0.10718991, -0.36132342, 0.20644435, 0.32325995, 0.43428391, -0.08882228, -0.25052428, -0.25686535, 0.01131837, 0.08563218, 0.15349823, 0.06616659, -0.08034916, 0.06756053, -0.11425609, 0.03594704, 0.17363565, 0.09358039, 0.00740840, 0.49710160, -0.12766445, 0.44867557, 0.04699418, 0.15233479, 0.31782651, -0.05663949, 0.42660546, -0.22602426, -0.94734526, 0.19160067, 1.21813762, -0.14892958, 0.00726491, 0.71343905, 0.07325529, 0.33638006, -0.05700575, 0.13524643},
    {0.24395892, -0.06573679, 0.00961156, 0.08613428, -0.30122346, -0.05028718, -0.09315746, -0.24528944, 0.01405119, 0.00621463, 0.07063081, 0.01480275, -0.05075499, 0.13562445, 0.74897075, -0.06528537, -0.66025734, 0.27062741, 0.02365411, -0.20939700, 0.11941237, -0.26241308, -0.02177780, 0.02365281, -0.36251196, 0.20461853, -0.45882121, -0.10191990, -0.22190076, -0.54060411, -0.11986274, -0.24368639, -0.16165148, 0.28136373, 0.03222645, -0.26987958, -0.05447820, 0.03883707, 0.05676145, 0.26036316, -0.58635217, 0.13018131, -0.30849376, -0.40630025, 0.39267486, -0.16014236, 0.01655316, -0.26080844, -0.19621131, -0.02400187, 0.12436944, -0.08648524, 0.11436543, 0.14997262, -0.00607467, 0.04158937, 0.00966317, -0.16135971, -0.13565090, 0.13332167, -0.02958853, -0.03019843, -0.31862658, 0.07523000, 0.19703627, -0.06599192, -0.03559959, -0.20271617, 0.03214568, -0.07562293, 0.07883520, 0.21747684, 0.16536513, -0.13415368, -0.15473653, 0.08619119, 0.06409492, -0.07307711, -0.06307759, -0.14492591, 0.01629250, 0.14203206, 0.08071444, -0.01820449, 0.06764826, 0.09747429, 0.67033464, 0.03142579, -0.85905600, 0.20189865, -0.12562647, -0.27538905, 0.29074731, -0.36839235, 0.20865701, -0.07967252},
    {-0.23536924, 0.02270406, 0.21242495, -0.06006587, -0.66678005, -0.32146528, -0.20096186, 0.23671219, -0.11302616, -0.08948861, 0.16762353, -0.15339093, -0.07292569, 0.38717037, 0.06485314, -0.15545213, -1.07494712, -0.40714815, 0.05042633, -0.14358315, -0.06295730, 0.13094936, -0.07171759, -0.07777243, -0.62005842, 0.12252429, 0.36063087, 0.04248167, -0.11240282, -0.12615557, 0.27097896, 0.17797720, 0.03450268, -0.10339550, -0.00932865, 0.26680160, 0.31369910, 0.38014078, -0.45164332, 0.08314105, -1.19271636, -0.13481514, 0.32593209, 0.00381577, -0.03382472, 0.10453049, 0.10916688, -0.05935425, -0.05129344, -0.03335174, 0.23557977, -0.08055805, -0.09691432, 0.23099691, -0.10338137, -0.00853586, -0.05156428, -0.08368702, -0.04145383, -0.08311231, -0.12594034, -0.40718853, -0.20826140, -0.00112658, 0.20654817, -0.08012499, -0.17604540, 0.22743428, -0.02783757, 0.01984698, 0.24472444, -0.21922213, -0.38715199, 0.11345714, 0.07095641, -0.02027678, -0.07534628, -0.32299161, 0.12802640, -0.09600358, -0.04285627, -0.05735835, 0.12758473, -0.01824243, 0.16057329, 0.41571230, 0.28219035, -0.03045156, -1.43739760, -0.16961005, -0.18929288, -0.23954003, 0.14547627, 0.33842066, 0.05689106, -0.00601219},
    {-0.09754071, -0.00421434, -0.35145527, 0.00377046, 0.04821063, 0.45798698, 0.11600521, 0.11729801, -0.08949801, -0.05898168, -0.00984474, 0.14396064, 0.00558930, -0.17983189, -0.53491473, 0.01105384, 0.80369455, -0.43104669, -0.30580336, -0.11875502, 0.03099283, 0.21452449, 0.12417885, -0.22895598, -0.19439197, 0.06778077, -0.15104845, 0.16854331, -0.04191992, 0.67458618, 0.33073109, 0.36560398, 0.27406639, 0.26912075, 0.11684725, -0.00825597, 0.16464627, 0.11932857, -0.24696562, 0.41075540, 0.27622372, -0.17419487, -0.17112729, -0.19855547, 0.23440431, 0.27744693, 0.24530412, -0.16420773, 0.15272024, -0.08178308, -0.23579854, -0.00152330, -0.15026568, -0.01777050, 0.23202963, 0.09208722, -0.10718521, -0.03488154, 0.04714230, -0.19304243, 0.13371214, -0.10300092, -0.02559945, -0.27755108, -0.19303195, 0.10084406, -0.09015822, 0.06751031, 0.01756924, -0.11998616, -0.18838318, 0.07291884, -0.03715482, 0.17117198, -0.80087912, 0.04463887, 0.02941766, 0.38720968, 0.01479609, 0.28234574, 0.08176252, 0.05859401, 0.37375262, 0.05271105, 0.19244067, 0.17301470, -0.37365124, 0.09847350, 0.33794346, -0.75728875, -0.44744074, 0.22960515, 0.13252817, -0.02316132, 0.09908265, -0.33510584},
    {0.03205515, -0.14228554, -0.08398363, 0.11665389, -0.30137271, -0.12066611, -0.00120471, 0.02295953, 0.04796711, -0.13867319, 0.14539227, -0.03772176, -0.05542269, 0.07980528, -0.06847709, -0.21642491, -0.09351067, -0.04073316, -0.03077136, -0.08417174, -0.26453927, 0.26350948, -0.27865002, 0.10466017, -0.12592439, -0.29979640, 0.39311695, 0.35775480, 0.01027490, 0.39453471, 0.08188517, 0.33561930, 0.20066291, 0.06532635, 0.07314607, 0.02039758, 0.25755587, -0.09659827, 0.12866715, 0.03164906, 0.10527499, 0.04195384, 0.30794144, 0.16849315, -0.17602515, 0.21766852, -0.17873085, 0.17003594, 0.03110808, -0.16555335, 0.10896630, 0.02747796, -0.12891810, -0.06744582, 0.04997421, -0.09510282, 0.23968342, 0.02890824, 0.00144864, 0.02405367, -0.11729714, 0.02945035, 0.15100268, 0.17204909, 0.03893724, -0.20039275, -0.20512716, 0.24338137, 0.07198516, 0.30707005, 0.01392089, -0.01719522, -0.21410497, -0.17651883, -0.04248717, 0.18190777, 0.03108401, 0.00832116, 0.21188278, -0.08896085, -0.17226174, -0.25384656, 0.06642639, 0.03782932, 0.08561100, -0.31143317, -0.09242324, -0.37674683, 0.18700042, 0.17562392, 0.01139449, 0.13844635, -0.28805536, 0.16524713, -0.13767378, 0.16502179},
    {0.01117710, 0.10273284, 0.14710270, -0.07843236, 0.18254243, -0.34214434, 0.01106362, -0.22324379, -0.10768291, -0.19353317, -0.12765759, -0.19435646, -0.06275968, -0.03258435, 0.38452321, -0.21996166, -0.29596403, -0.01702753, 0.11873538, 0.11264769, -0.13304675, -0.01727147, -0.06090552, 0.19784704, 0.39148727, 0.02498652, 0.69328052, 0.10089557, -0.10075903, -0.18895580, 0.21530396, -0.06624678, -0.02312739, -0.30804035, -0.33046979, -0.04994965, -0.02295149, -0.08748318, 0.26574373, -0.34961179, 0.02971369, 0.44879982, 0.16690773, 0.35785559, -0.18477356, 0.19273493, -0.17533243, 0.19260515, -0.08785884, 0.23394433, 0.07858281, 0.07757734, -0.16142425, -0.00635714, 0.04522760, 0.01883310, 0.09127623, 0.02712440, 0.07468612, 0.12759276, -0.04318260, -0.13611834, -0.02848087, -0.12118530, -0.02077641, -0.12991413, -0.03764419, 0.07199445, -0.03123414, -0.10576794, -0.04612945, -0.01990065, 0.01612002, 0.06155355, 0.45028216, 0.07596628, 0.25441024, -0.31224650, 0.15350786, -0.42967916, 0.02067372, -0.27514461, -0.18915614, -0.06106075, -0.30668017, -0.37277517, 0.53184325, -0.17080331, -0.07032683, 0.36237323, 0.07929766, -0.07671608, -0.19475767, -0.09162930, -0.04696725, 0.31872731},
    {0.07207999, 0.08939289, 0.48875701, 0.07619075, 0.39981690, 0.01752743, -0.06963685, -0.21558538, -0.12433805, -0.11206196, -0.08489864, -0.13375594, -0.04919882, 0.12300247, 0.46522763, -0.23490885, 0.26703483, 0.88914067, 0.24248336, -0.01942211, 0.13103928, -0.06467292, 0.22132908, -0.12372214, -0.08606169, 0.01532180, -0.17815545, 0.13720259, 0.54643303, -0.26650879, -0.25199449, -0.14622468, -0.06912661, -0.07956473, -0.18626264, 0.08891368, -0.01291558, -0.20738833, -0.05820769, -0.12635474, 0.40446323, 0.47848192, -0.26598442, -0.12085597, 0.04867705, -0.22720930, -0.11977843, -0.25722161, 0.05013645, 0.04211661, 0.08316226, -0.09239908, -0.00686604, -0.07352143, -0.09888577, 0.17798276, -0.08424433, 0.11343089, -0.00080904, 0.08466050, 0.00843538, -0.07429683, -0.15641129, -0.01777703, 0.09535891, -0.07303414, 0.29267073, 0.14403349, -0.07182179, -0.14815363, 0.02077899, -0.01823330, 0.07102581, 0.11123352, 0.48739907, -0.03432841, 0.18891874, -0.03200550, 0.07033119, -0.01128041, -0.10720547, -0.06868333, 0.02163677, -0.00627539, -0.08255266, 0.03243238, 0.23242354, 0.00558395, 0.27124530, 0.75414556, 0.15490878, -0.19406086, 0.14430550, -0.09573508, 0.36877272, -0.00967666}
};

float lstm_lstm_cell_bias[96] = {
    0.48710215,    0.13721135,    0.29509273,    0.09324560,    0.07206322,    -0.00457170,    0.09821383,    0.05580087,    0.07297546,    0.04596953,    0.03083006,    -0.04109193,    0.18477133,    0.24112028,    0.44439736,    0.00474355,    0.28636074,    0.60267121,    0.45356366,    0.25516844,    -0.08390161,    0.03475964,    0.05577436,    0.10499923,    0.84488338,    1.07685399,    1.08456576,    1.03186274,    1.10153866,    0.98399174,    1.03666031,    1.00932419,    0.97530323,    1.02904403,    1.00137722,    0.98027986,    1.10045886,    1.07666898,    0.86870831,    1.05696630,    0.85652518,    1.02256095,    1.02624857,    1.07570183,    0.96097529,    1.09594846,    0.97524911,    0.83240944,    0.00212457,    -0.00386760,    -0.00191477,    0.00223299,    -0.00336724,    -0.00000020,    0.00238915,    -0.00134057,    0.00265073,    0.00256872,    -0.00144027,    0.00408577,    0.00187141,    0.00097512,    0.00587568,    0.00282167,    -0.00239960,    -0.00518305,    -0.00078377,    0.00130534,    -0.00297135,    -0.00000934,    0.00415118,    0.00186302,    0.48924577,    0.14886853,    0.28667241,    0.11438943,    0.05575573,    0.04816467,    0.11550973,    0.05198405,    0.07029374,    0.06588624,    0.03500336,    0.01941970,    0.17458434,    0.28878632,    0.45515856,    0.00999682,    0.31802171,    0.61377591,    0.38431820,    0.13326269,    -0.06259305,    0.06409322,    0.08879443,    0.09311470
};

float dense_kernel[24][24] = {
    {-0.23962010, 0.17804094, 0.22782576, 0.16138199, 0.39764783, -0.39105350, 0.33142596, 0.23653056, 0.32638255, 0.10026166, -0.22219630, 0.10944474, 0.27309582, -0.14685060, 0.36582097, 0.46551314, -0.34804899, 0.05817837, -0.26458186, -0.28820136, -0.28944826, -0.23517190, 0.20466197, 0.16624649},
    {-0.08807222, -0.14217669, -0.27512905, 0.28797865, 0.22409548, -0.14389868, 0.10982133, -0.12704037, 0.09619164, -0.15319401, 0.02766093, -0.21927097, -0.13461351, 0.35765618, -0.22277811, -0.30305174, -0.19863744, 0.21180777, -0.23545179, -0.36204094, 0.19614571, -0.07025197, 0.21569176, 0.08670176},
    {0.13207157, -0.48015413, -0.24076653, -0.22156578, 0.05307599, -0.20444156, 0.16369160, 0.20275697, 0.17109400, -0.17365175, 0.38000336, 0.01971067, -0.15393607, 0.10963657, -0.06419006, -0.07866821, -0.47313285, 0.18000440, -0.39308074, 0.04459287, -0.16080050, -0.35613069, -0.33804947, -0.46297646},
    {0.23358570, 0.05467751, 0.28714103, 0.29397792, -0.21722524, 0.04013713, 0.05463245, -0.04035298, 0.03962392, 0.30990767, -0.16476692, -0.18009029, 0.13052665, 0.29062915, 0.20871872, -0.00333587, 0.30865183, 0.09059573, -0.31147799, 0.35055155, -0.32243446, 0.26309964, 0.09977186, -0.20179129},
    {-0.19230734, 0.21965609, 0.33367580, -0.26187995, -0.21420737, -0.04402829, 0.11725234, -0.27330217, -0.21219254, -0.08080570, -0.16165572, -0.18368818, -0.22483748, -0.28966221, -0.42023844, 0.17538327, -0.02989791, -0.34092143, 0.39079198, 0.15780264, -0.14146613, 0.14915812, 0.38065249, -0.28014955},
    {-0.25933522, -0.18424514, -0.24259472, -0.00309448, 0.20017533, -0.00895130, -0.25240102, -0.25928155, -0.37927964, -0.04581026, 0.27250314, 0.25075498, -0.27950680, 0.11559655, -0.21055990, 0.21985032, -0.36396131, 0.02681236, -0.21124627, 0.03254048, -0.06031677, 0.04909355, -0.17990027, 0.19956371},
    {0.10296223, -0.19966678, 0.25688928, -0.06791057, -0.28702742, 0.25833938, 0.04771876, -0.30466101, -0.27327877, 0.26126736, -0.08276924, -0.13921513, -0.26584342, 0.09933673, 0.18365037, 0.28330457, -0.05033366, -0.26736355, 0.19187678, 0.01561840, 0.20910953, 0.00822042, 0.23496506, 0.33414161},
    {-0.23376858, -0.40224221, -0.18886214, -0.03510802, 0.02469750, -0.13699237, 0.37045833, 0.05908043, 0.27245665, -0.13634835, 0.41028997, -0.34024492, -0.33072084, 0.26440296, 0.21284337, 0.16096579, 0.22271053, 0.11299967, -0.26704633, 0.31462258, 0.11635639, 0.17543124, 0.12372029, -0.18797654},
    {0.04267646, -0.35882509, -0.27328297, -0.37938002, 0.06702556, -0.04184393, -0.00969985, 0.21838272, -0.23133782, 0.04626268, 0.28735879, 0.07182061, 0.16343340, -0.19930062, 0.35225293, 0.10286294, 0.23335047, -0.10439852, -0.24754891, -0.19063160, -0.00964409, 0.14607652, -0.20490584, -0.17250384},
    {-0.27941900, -0.25624493, -0.40302086, 0.00437623, 0.39249066, 0.00917518, 0.36984515, -0.23503067, -0.22713923, 0.18886872, 0.31274971, -0.18621773, -0.29090258, -0.42576799, 0.28031006, 0.29477289, -0.42534786, -0.09798730, -0.36292192, -0.06297645, 0.26832971, -0.30261686, 0.21712548, -0.38694289},
    {0.16417018, 0.23867436, -0.03477523, -0.25359616, 0.17424846, 0.01284286, 0.14696434, 0.27965677, 0.02769737, -0.07989425, -0.09878075, 0.19142042, -0.32200989, 0.08617380, 0.30213961, 0.35555181, 0.21500601, -0.20442028, 0.26940811, 0.36717811, -0.34370637, 0.06928974, -0.18410029, -0.24887551},
    {0.02764302, -0.10655197, -0.23477297, -0.23440157, -0.28590670, -0.04478771, -0.18167891, -0.20628996, 0.26170090, -0.00431705, 0.03493923, 0.27719164, -0.37343162, -0.17300476, -0.19342819, 0.37361300, 0.02605286, -0.19144619, 0.19486420, -0.20958823, -0.01784024, 0.05217567, 0.11008933, -0.31341356},
    {-0.09622089, 0.48777270, -0.14682297, 0.25538743, 0.24939905, 0.29721931, -0.36019009, 0.08121027, -0.27348921, 0.22729242, 0.20720273, 0.39685118, 0.40844545, -0.14972523, -0.23953056, -0.29658413, 0.10744566, 0.22478656, 0.34329122, 0.19197094, -0.15815589, -0.16809045, -0.24743618, 0.24087568},
    {-0.16285127, -0.17865184, 0.35462272, 0.39377773, -0.08637869, -0.02932464, 0.08568855, 0.06126982, 0.27317363, 0.06025700, -0.24677123, -0.21382576, -0.23041312, 0.30007002, -0.23982133, -0.05595959, 0.34259033, -0.16773547, 0.21361221, 0.10266282, 0.08532111, 0.32430792, 0.05178038, -0.11670032},
    {-0.17186579, -0.24449924, 0.22792105, 0.29456702, 0.05945073, -0.06427513, 0.33889154, 0.00921619, -0.32830638, -0.39594451, 0.40132821, -0.13384593, -0.27088058, -0.13194293, 0.24714552, 0.45763636, -0.14512470, 0.24832334, 0.09573190, 0.38772079, -0.14318171, 0.12016824, -0.01418680, 0.23773041},
    {-0.16117562, 0.35001516, 0.02359217, 0.00962214, 0.17263196, 0.27531111, 0.04292662, -0.28831357, -0.20479468, 0.08110357, -0.39006856, 0.32689461, 0.12516053, -0.16816293, -0.01188199, -0.21417223, 0.24609737, -0.32396194, -0.18693039, -0.18634981, 0.06991468, -0.05639193, -0.12720490, 0.10876826},
    {-0.15358035, 0.54098541, 0.49116063, 0.18028806, 0.04737904, 0.56826735, 0.08343042, -0.07831500, -0.06248560, 0.21274403, -0.33257210, 0.20936748, 0.40679881, 0.26176924, 0.17552583, 0.17972971, 0.12491391, 0.18364249, 0.33451748, -0.32388645, 0.28993091, 0.29485342, 0.23023328, -0.01149025},
    {-0.17655684, 0.45572603, 0.40948239, 0.11549668, -0.14201748, 0.48454154, 0.02667722, -0.07654431, -0.30096951, 0.36697134, -0.08726096, 0.43818888, 0.14866370, -0.09962600, 0.00276874, 0.23833066, 0.27381891, 0.05103259, -0.12365874, -0.12898152, 0.05312116, 0.10811813, 0.46008280, -0.01418070},
    {-0.12474713, -0.03004353, -0.04524601, -0.29005900, 0.05553577, 0.06865722, -0.06220065, 0.09492970, -0.36181760, -0.39260003, -0.19715551, -0.42680547, -0.41021585, 0.21016173, 0.10313178, 0.45320138, -0.08532180, -0.14126186, 0.02110551, 0.33390346, 0.10174417, -0.34717533, -0.21125540, -0.15601785},
    {0.24474372, -0.68204588, -0.05732165, -0.10603420, 0.34013343, -0.50272602, -0.10800353, 0.13917094, -0.25712633, -0.43078691, -0.22054607, 0.19401316, -0.25346491, 0.08636541, -0.17883618, -0.00542068, -0.01831751, -0.14347625, -0.30804557, 0.26206931, 0.06339128, -0.29764807, -0.30274773, 0.27239203},
    {-0.15639377, -0.01560335, -0.04624886, -0.12352043, 0.15436260, 0.24363218, -0.08512611, 0.03427608, -0.11680172, 0.24062383, -0.23836300, -0.21308048, -0.27901176, -0.14623319, -0.11215300, 0.30739224, -0.01477719, 0.15144750, 0.05971661, -0.22563787, -0.15893796, -0.25382942, -0.22041963, -0.01251216},
    {-0.30638936, -0.00030623, 0.08914382, 0.18202135, -0.21905473, -0.30570287, -0.15554240, -0.11993960, -0.17389533, -0.14226326, 0.06117558, -0.09133658, 0.06077072, -0.19249693, -0.33667198, -0.35815868, 0.02409338, -0.03816602, 0.20717289, 0.28523427, -0.10028470, -0.02534890, -0.35262015, 0.14792775},
    {-0.16092198, 0.12242076, -0.09450386, 0.40639707, 0.16962101, 0.38419965, -0.33592671, 0.00311387, 0.01837317, -0.00883027, -0.10051573, 0.06527614, -0.00493719, 0.13912708, 0.26746434, -0.40743050, -0.15408151, -0.36116159, 0.14091069, -0.29448122, -0.21319249, -0.10847017, 0.38469344, -0.08169993},
    {0.02227464, -0.12777464, -0.09040420, 0.29254344, -0.08734629, 0.00591704, -0.03575790, 0.08657309, -0.06891547, -0.13748586, 0.28558376, 0.12090870, -0.18932672, 0.31078148, -0.07928743, -0.27973032, 0.37898064, -0.22219275, -0.06449130, -0.31862628, 0.11463403, -0.20162283, -0.00398449, 0.01114968}
};

float dense_bias[24] = {
    -0.00109565,    -0.00999701,    0.00159266,    0.00086873,    -0.00082516,    -0.00145568,    -0.00129280,    -0.00118400,    -0.00011246,    -0.00058726,    -0.00068848,    -0.00006665,    0.00137526,    -0.00002831,    -0.00105059,    -0.00096352,    -0.00038220,    -0.00130985,    0.00009261,    -0.00131332,    -0.00014374,    -0.00061212,    0.00174845,    0.00079764
};

float dense_1_kernel[24][1] = {
    {-0.02157160},
    {0.11724942},
    {0.33140928},
    {0.40541703},
    {-0.44685447},
    {0.10720405},
    {-0.25259128},
    {-0.39892471},
    {0.00451659},
    {0.11029606},
    {-0.20015009},
    {0.21595916},
    {0.26786762},
    {0.04848290},
    {-0.32945299},
    {-0.21185665},
    {0.12328463},
    {-0.03670399},
    {0.11454590},
    {-0.07740989},
    {0.09864639},
    {0.09408682},
    {0.13879950},
    {0.24188264}
};

float dense_1_bias[1] = {
    0.00116197
};

