{
  "project_name": "WNET5_EFF2_A1",
  "task_type": "wnet5-circuit-validation",
  "analysis_layer": 1,
  "frequency_range": {
    "start_freq": 2,
    "stop_freq": 500
  },
  "svf": {
    "center_freqs": [
      8.0,
      25.0,
      50.0,
      85.0,
      120.0,
      180.0
    ],
    "quality_factors": [
      1.5,
      2.0,
      2.5,
      3.0,
      4.0,
      5.0
    ],
    "transfer_functions": [
      {
        "f0": 8.0,
        "Q": 1.5,
        "channels": {
          "high_pass": {
            "symbolic": "s**2/(s**2 + 10.6666666666667*pi*s + 256.0*pi**2)",
            "numerator_coeffs": [
              1.0,
              0.0,
              0.0
            ],
            "denominator_coeffs": [
              1.0,
              33.510321638291124,
              2526.6187266788756
            ]
          },
          "band_pass": {
            "symbolic": "10.6666666666667*pi*s/(s**2 + 10.6666666666667*pi*s + 256.0*pi**2)",
            "numerator_coeffs": [
              33.510321638291124,
              0.0
            ],
            "denominator_coeffs": [
              1.0,
              33.510321638291124,
              2526.6187266788756
            ]
          },
          "low_pass": {
            "symbolic": "256.0*pi**2/(s**2 + 10.6666666666667*pi*s + 256.0*pi**2)",
            "numerator_coeffs": [
              2526.6187266788756
            ],
            "denominator_coeffs": [
              1.0,
              33.510321638291124,
              2526.6187266788756
            ]
          }
        }
      },
      {
        "f0": 25.0,
        "Q": 2.0,
        "channels": {
          "high_pass": {
            "symbolic": "s**2/(s**2 + 25.0*pi*s + 2500.0*pi**2)",
            "numerator_coeffs": [
              1.0,
              0.0,
              0.0
            ],
            "denominator_coeffs": [
              1.0,
              78.53981633974483,
              24674.011002723397
            ]
          },
          "band_pass": {
            "symbolic": "25.0*pi*s/(s**2 + 25.0*pi*s + 2500.0*pi**2)",
            "numerator_coeffs": [
              78.53981633974483,
              0.0
            ],
            "denominator_coeffs": [
              1.0,
              78.53981633974483,
              24674.011002723397
            ]
          },
          "low_pass": {
            "symbolic": "2500.0*pi**2/(s**2 + 25.0*pi*s + 2500.0*pi**2)",
            "numerator_coeffs": [
              24674.011002723397
            ],
            "denominator_coeffs": [
              1.0,
              78.53981633974483,
              24674.011002723397
            ]
          }
        }
      },
      {
        "f0": 50.0,
        "Q": 2.5,
        "channels": {
          "high_pass": {
            "symbolic": "s**2/(s**2 + 40.0*pi*s + 10000.0*pi**2)",
            "numerator_coeffs": [
              1.0,
              0.0,
              0.0
            ],
            "denominator_coeffs": [
              1.0,
              125.66370614359172,
              98696.04401089359
            ]
          },
          "band_pass": {
            "symbolic": "40.0*pi*s/(s**2 + 40.0*pi*s + 10000.0*pi**2)",
            "numerator_coeffs": [
              125.66370614359172,
              0.0
            ],
            "denominator_coeffs": [
              1.0,
              125.66370614359172,
              98696.04401089359
            ]
          },
          "low_pass": {
            "symbolic": "10000.0*pi**2/(s**2 + 40.0*pi*s + 10000.0*pi**2)",
            "numerator_coeffs": [
              98696.04401089359
            ],
            "denominator_coeffs": [
              1.0,
              125.66370614359172,
              98696.04401089359
            ]
          }
        }
      },
      {
        "f0": 85.0,
        "Q": 3.0,
        "channels": {
          "high_pass": {
            "symbolic": "s**2/(s**2 + 56.6666666666667*pi*s + 28900.0*pi**2)",
            "numerator_coeffs": [
              1.0,
              0.0,
              0.0
            ],
            "denominator_coeffs": [
              1.0,
              178.02358370342162,
              285231.56719148246
            ]
          },
          "band_pass": {
            "symbolic": "56.6666666666667*pi*s/(s**2 + 56.6666666666667*pi*s + 28900.0*pi**2)",
            "numerator_coeffs": [
              178.02358370342162,
              0.0
            ],
            "denominator_coeffs": [
              1.0,
              178.02358370342162,
              285231.56719148246
            ]
          },
          "low_pass": {
            "symbolic": "28900.0*pi**2/(s**2 + 56.6666666666667*pi*s + 28900.0*pi**2)",
            "numerator_coeffs": [
              285231.56719148246
            ],
            "denominator_coeffs": [
              1.0,
              178.02358370342162,
              285231.56719148246
            ]
          }
        }
      },
      {
        "f0": 120.0,
        "Q": 4.0,
        "channels": {
          "high_pass": {
            "symbolic": "s**2/(s**2 + 60.0*pi*s + 57600.0*pi**2)",
            "numerator_coeffs": [
              1.0,
              0.0,
              0.0
            ],
            "denominator_coeffs": [
              1.0,
              188.4955592153876,
              568489.213502747
            ]
          },
          "band_pass": {
            "symbolic": "60.0*pi*s/(s**2 + 60.0*pi*s + 57600.0*pi**2)",
            "numerator_coeffs": [
              188.4955592153876,
              0.0
            ],
            "denominator_coeffs": [
              1.0,
              188.4955592153876,
              568489.213502747
            ]
          },
          "low_pass": {
            "symbolic": "57600.0*pi**2/(s**2 + 60.0*pi*s + 57600.0*pi**2)",
            "numerator_coeffs": [
              568489.213502747
            ],
            "denominator_coeffs": [
              1.0,
              188.4955592153876,
              568489.213502747
            ]
          }
        }
      },
      {
        "f0": 180.0,
        "Q": 5.0,
        "channels": {
          "high_pass": {
            "symbolic": "s**2/(s**2 + 72.0*pi*s + 129600.0*pi**2)",
            "numerator_coeffs": [
              1.0,
              0.0,
              0.0
            ],
            "denominator_coeffs": [
              1.0,
              226.1946710584651,
              1279100.730381181
            ]
          },
          "band_pass": {
            "symbolic": "72.0*pi*s/(s**2 + 72.0*pi*s + 129600.0*pi**2)",
            "numerator_coeffs": [
              226.1946710584651,
              0.0
            ],
            "denominator_coeffs": [
              1.0,
              226.1946710584651,
              1279100.730381181
            ]
          },
          "low_pass": {
            "symbolic": "129600.0*pi**2/(s**2 + 72.0*pi*s + 129600.0*pi**2)",
            "numerator_coeffs": [
              1279100.730381181
            ],
            "denominator_coeffs": [
              1.0,
              226.1946710584651,
              1279100.730381181
            ]
          }
        }
      }
    ]
  },
  "dense_layer": {
    "layer_name": "Dense_Layer_Model_1",
    "weights": [
      [
        -0.8135340213775635,
        -0.49492791295051575,
        0.4654129147529602,
        -0.5710155963897705,
        -0.1660933792591095,
        -0.32892322540283203,
        -0.5733261108398438,
        0.11455130577087402,
        0.6173980832099915,
        0.8001742362976074,
        0.07680841535329819,
        0.14653083682060242,
        -0.2692064046859741,
        -0.5509480834007263
      ],
      [
        -3.908876657485962,
        0.08958215266466141,
        2.5337681770324707,
        1.1358619928359985,
        1.230448603630066,
        -1.5855567455291748,
        -2.6339216232299805,
        -2.837538957595825,
        3.448621988296509,
        -1.4226899147033691,
        -0.42502501606941223,
        0.28104662895202637,
        0.6008599996566772,
        1.5222430229187012
      ],
      [
        -1.1865944862365723,
        -0.3392953872680664,
        2.5233607292175293,
        -0.803249716758728,
        1.7614634037017822,
        -2.5171258449554443,
        -2.7755982875823975,
        -0.15675555169582367,
        1.6046481132507324,
        1.1736034154891968,
        -0.1798100471496582,
        1.7997937202453613,
        -2.9802701473236084,
        -1.0789092779159546
      ],
      [
        -0.7135456204414368,
        -0.46143022179603577,
        0.6789191961288452,
        -0.0031024236232042313,
        -0.1695633977651596,
        -0.737510085105896,
        -0.6301290988922119,
        -0.20823226869106293,
        0.5214128494262695,
        -0.07794426381587982,
        -0.4090912342071533,
        0.36940744519233704,
        -0.19722166657447815,
        -0.3972301781177521
      ],
      [
        -0.3966293931007385,
        -0.9739986658096313,
        0.4079218804836273,
        0.7803708910942078,
        0.5380873680114746,
        -0.6067254543304443,
        -1.3023312091827393,
        -0.2676578164100647,
        0.6778699159622192,
        -0.07758752256631851,
        -0.7925427556037903,
        1.3855925798416138,
        -0.2948884963989258,
        -0.6313266754150391
      ],
      [
        -0.5995885133743286,
        -0.35288116335868835,
        0.7719463109970093,
        -0.010654016397893429,
        0.18179760873317719,
        -0.6757551431655884,
        -0.7858213782310486,
        -0.12513196468353271,
        0.653719425201416,
        0.5221718549728394,
        0.1481471210718155,
        -0.3568645715713501,
        -0.015679001808166504,
        -0.5528861284255981
      ],
      [
        -0.5199901461601257,
        -0.2569168508052826,
        0.5405153632164001,
        -0.11656249314546585,
        0.32824045419692993,
        -0.7680961489677429,
        -0.4504222273826599,
        0.22305360436439514,
        0.5131470561027527,
        0.23676587641239166,
        -0.34814944863319397,
        0.5769538283348083,
        -0.47673290967941284,
        -0.12400118261575699
      ],
      [
        -0.19401419162750244,
        0.16168561577796936,
        0.3186285197734833,
        0.7745696902275085,
        0.23606783151626587,
        -0.10291136056184769,
        -0.9857907891273499,
        1.5609389543533325,
        0.7189275026321411,
        0.2794162333011627,
        0.04135286808013916,
        1.1429930925369263,
        -0.08858324587345123,
        -0.16255506873130798
      ],
      [
        -0.4938405752182007,
        -0.024133065715432167,
        0.5654992461204529,
        -0.09689842909574509,
        0.6148302555084229,
        -0.5830654501914978,
        -0.6043587923049927,
        0.222494438290596,
        0.6045035719871521,
        0.3165642023086548,
        0.010614755563437939,
        -0.07540206611156464,
        0.071039117872715,
        -0.29135212302207947
      ],
      [
        -0.394076943397522,
        -0.14071327447891235,
        0.5449824333190918,
        0.017055680975317955,
        0.05964597314596176,
        0.39119842648506165,
        -0.14145782589912415,
        0.6416916251182556,
        0.27617543935775757,
        0.3757125437259674,
        -0.056355465203523636,
        0.13913138210773468,
        0.08659101277589798,
        0.5883220434188843
      ],
      [
        -0.16475461423397064,
        0.2952731251716614,
        0.5871466398239136,
        1.5288114547729492,
        -0.6539984941482544,
        0.5401211380958557,
        -0.502790093421936,
        -0.678384006023407,
        0.2803850769996643,
        0.08972577005624771,
        -1.1029576063156128,
        0.21156209707260132,
        -0.2329031229019165,
        -1.3886231184005737
      ],
      [
        -0.3059634268283844,
        -0.2461867779493332,
        0.22088821232318878,
        -0.7675150632858276,
        0.6161680817604065,
        -0.8171957731246948,
        -0.1154819056391716,
        -0.16330179572105408,
        0.4495844542980194,
        -0.057033371180295944,
        0.3163911700248718,
        0.3628901243209839,
        0.1634073704481125,
        0.4974336326122284
      ],
      [
        -0.12131547182798386,
        -0.04024969041347504,
        0.30418315529823303,
        0.5073418617248535,
        0.5025058388710022,
        -0.2667398154735565,
        -0.08696533739566803,
        0.434264212846756,
        0.17504917085170746,
        0.1303979754447937,
        -0.693174421787262,
        -0.23262381553649902,
        -0.08475238084793091,
        -0.6603600978851318
      ],
      [
        -0.04503516107797623,
        -1.2607030868530273,
        -0.0007850803667679429,
        -1.1753277778625488,
        -0.5665081739425659,
        -0.948259174823761,
        -0.027008995413780212,
        0.35218188166618347,
        0.1845802366733551,
        -0.9434207677841187,
        0.6998175978660583,
        0.6580653786659241,
        0.1990545243024826,
        -0.00801144354045391
      ],
      [
        0.01695292815566063,
        0.7053048014640808,
        -0.01118948683142662,
        -0.04998043179512024,
        0.3015262484550476,
        -0.060944218188524246,
        -0.46633201837539673,
        0.4320405125617981,
        0.3468356728553772,
        -0.45798712968826294,
        0.12005705386400223,
        0.3946804404258728,
        -0.31920599937438965,
        0.3284103572368622
      ],
      [
        -0.2115396112203598,
        0.3444482386112213,
        0.3393123149871826,
        -0.14861251413822174,
        0.22987031936645508,
        -0.3154975473880768,
        -0.11673185974359512,
        0.6699347496032715,
        0.3068694472312927,
        0.09071922302246094,
        -0.7040709853172302,
        -0.10287795960903168,
        0.08415258675813675,
        -0.6280227303504944
      ],
      [
        -0.3039916157722473,
        -1.5435101985931396,
        0.21443986892700195,
        -0.8281514048576355,
        -1.2164785861968994,
        -0.9165670871734619,
        0.9701366424560547,
        1.4316613674163818,
        0.1979280412197113,
        0.7018400430679321,
        -0.6458579301834106,
        0.7380720973014832,
        0.4028773605823517,
        -0.40889284014701843
      ],
      [
        -0.20288442075252533,
        0.19059769809246063,
        0.27236953377723694,
        -0.2031896412372589,
        0.5509684085845947,
        -0.25202029943466187,
        -0.06538159400224686,
        0.14875207841396332,
        0.3474522829055786,
        0.0864616185426712,
        -0.3261662721633911,
        0.05190938711166382,
        -0.4118594229221344,
        -0.22697889804840088
      ]
    ],
    "bias": [
      -0.385019451379776,
      -0.08882611244916916,
      0.3757651150226593,
      -0.0031333889346569777,
      -0.1496322751045227,
      -0.09900286048650742,
      0.10893470793962479,
      -0.39533260464668274,
      0.31140002608299255,
      0.015811927616596222,
      -0.08345983922481537,
      -0.07604577392339706,
      -0.26765716075897217,
      0.0070234439335763454
    ]
  },
  "combined_transfer_functions": [
    {
      "output_index": 0,
      "symbolic": "-0.21153961122036*s**2/(s**2 + 72.0*pi*s + 129600.0*pi**2) - 0.121315471827984*s**2/(s**2 + 60.0*pi*s + 57600.0*pi**2) - 0.394076943397522*s**2/(s**2 + 56.6666666666667*pi*s + 28900.0*pi**2) - 0.519990146160126*s**2/(s**2 + 40.0*pi*s + 10000.0*pi**2) - 0.713545620441437*s**2/(s**2 + 25.0*pi*s + 2500.0*pi**2) - 0.813534021377563*s**2/(s**2 + 10.6666666666667*pi*s + 256.0*pi**2) - 21.8873963356018*pi*s/(s**2 + 72.0*pi*s + 129600.0*pi**2) - 2.70210966467857*pi*s/(s**2 + 60.0*pi*s + 57600.0*pi**2) - 9.33609480659167*pi*s/(s**2 + 56.6666666666667*pi*s + 28900.0*pi**2) - 7.7605676651001*pi*s/(s**2 + 40.0*pi*s + 10000.0*pi**2) - 9.91573482751846*pi*s/(s**2 + 25.0*pi*s + 2500.0*pi**2) - 41.6946843465169*pi*s/(s**2 + 10.6666666666667*pi*s + 256.0*pi**2) - 0.385019451379776 - 26293.8209295273*pi**2/(s**2 + 72.0*pi*s + 129600.0*pi**2) + 976.488661766052*pi**2/(s**2 + 60.0*pi*s + 57600.0*pi**2) - 8842.34303534031*pi**2/(s**2 + 56.6666666666667*pi*s + 28900.0*pi**2) - 4938.40575218201*pi**2/(s**2 + 40.0*pi*s + 10000.0*pi**2) - 1498.97128343582*pi**2/(s**2 + 25.0*pi*s + 2500.0*pi**2) - 303.768188476563*pi**2/(s**2 + 10.6666666666667*pi*s + 256.0*pi**2)",
      "numerator_coeffs": [
        -3.1590212658047676,
        -2626.9195381783557,
        -7893722.556046454,
        -4546435306.30137,
        -5687171584337.49,
        -2178283175685561.0,
        -1.4296462040363853e+18,
        -3.361460557543439e+20,
        -1.1518694889723086e+23,
        -1.4629097385260384e+25,
        -2.2131984913191137e+27,
        -1.2065016146688994e+29,
        -4.0287453688941847e+30
      ],
      "denominator_coeffs": [
        1.0,
        830.4276580989019,
        2532788.3260522676,
        1459526863.3306742,
        1861400679700.8867,
        706722047844009.2,
        4.733966519244994e+17,
        1.0672803066180136e+20,
        3.7578034826402647e+22,
        4.1707342770340915e+24,
        6.841395530971847e+26,
        2.4057836793023434e+28,
        1.2761560215226024e+30
      ]
    },
    {
      "output_index": 1,
      "symbolic": "0.344448238611221*s**2/(s**2 + 72.0*pi*s + 129600.0*pi**2) - 0.040249690413475*s**2/(s**2 + 60.0*pi*s + 57600.0*pi**2) - 0.140713274478912*s**2/(s**2 + 56.6666666666667*pi*s + 28900.0*pi**2) - 0.256916850805283*s**2/(s**2 + 40.0*pi*s + 10000.0*pi**2) - 0.461430221796036*s**2/(s**2 + 25.0*pi*s + 2500.0*pi**2) - 0.494927912950516*s**2/(s**2 + 10.6666666666667*pi*s + 256.0*pi**2) - 111.132734298706*pi*s/(s**2 + 72.0*pi*s + 129600.0*pi**2) - 75.6421852111816*pi*s/(s**2 + 60.0*pi*s + 57600.0*pi**2) + 16.7321437597275*pi*s/(s**2 + 56.6666666666667*pi*s + 28900.0*pi**2) + 6.46742463111877*pi*s/(s**2 + 40.0*pi*s + 10000.0*pi**2) - 24.3499666452408*pi*s/(s**2 + 25.0*pi*s + 2500.0*pi**2) + 0.955542961756388*pi*s/(s**2 + 10.6666666666667*pi*s + 256.0*pi**2) - 0.0888261124491692 + 24701.4616727829*pi**2/(s**2 + 72.0*pi*s + 129600.0*pi**2) + 40625.5565643311*pi**2/(s**2 + 60.0*pi*s + 57600.0*pi**2) - 7114.79788273573*pi**2/(s**2 + 56.6666666666667*pi*s + 28900.0*pi**2) - 241.330657154322*pi**2/(s**2 + 40.0*pi*s + 10000.0*pi**2) - 882.202908396721*pi**2/(s**2 + 25.0*pi*s + 2500.0*pi**2) - 86.859619140625*pi**2/(s**2 + 10.6666666666667*pi*s + 256.0*pi**2)",
      "numerator_coeffs": [
        -1.1386158242821693,
        -1493.0851680580251,
        -2993523.118450163,
        -2171587192.3661966,
        -1814238928460.9854,
        -738535414342406.2,
        -3.4890266919913926e+17,
        -7.709501035790287e+19,
        -1.918777238175584e+22,
        -2.1628030948815686e+24,
        -2.031190418795393e+26,
        5.0681824165526535e+26,
        -1.983401780331365e+29
      ],
      "denominator_coeffs": [
        1.0,
        830.4276580989019,
        2532788.3260522676,
        1459526863.3306742,
        1861400679700.8867,
        706722047844009.2,
        4.733966519244994e+17,
        1.0672803066180136e+20,
        3.7578034826402647e+22,
        4.1707342770340915e+24,
        6.841395530971847e+26,
        2.4057836793023434e+28,
        1.2761560215226024e+30
      ]
    },
    {
      "output_index": 2,
      "symbolic": "0.339312314987183*s**2/(s**2 + 72.0*pi*s + 129600.0*pi**2) + 0.304183155298233*s**2/(s**2 + 60.0*pi*s + 57600.0*pi**2) + 0.544982433319092*s**2/(s**2 + 56.6666666666667*pi*s + 28900.0*pi**2) + 0.5405153632164*s**2/(s**2 + 40.0*pi*s + 10000.0*pi**2) + 0.678919196128845*s**2/(s**2 + 25.0*pi*s + 2500.0*pi**2) + 0.46541291475296*s**2/(s**2 + 10.6666666666667*pi*s + 256.0*pi**2) + 15.4396705627441*pi*s/(s**2 + 72.0*pi*s + 129600.0*pi**2) - 0.0471048220060766*pi*s/(s**2 + 60.0*pi*s + 57600.0*pi**2) + 33.2716429233551*pi*s/(s**2 + 56.6666666666667*pi*s + 28900.0*pi**2) + 12.7451407909393*pi*s/(s**2 + 40.0*pi*s + 10000.0*pi**2) + 10.1980470120907*pi*s/(s**2 + 25.0*pi*s + 2500.0*pi**2) + 27.026860555013*pi*s/(s**2 + 10.6666666666667*pi*s + 256.0*pi**2) + 0.375765115022659 + 35299.0915775299*pi**2/(s**2 + 72.0*pi*s + 129600.0*pi**2) - 644.514441490173*pi**2/(s**2 + 60.0*pi*s + 57600.0*pi**2) + 6383.66933614016*pi**2/(s**2 + 56.6666666666667*pi*s + 28900.0*pi**2) + 5654.99246120453*pi**2/(s**2 + 40.0*pi*s + 10000.0*pi**2) + 1929.86577749252*pi**2/(s**2 + 25.0*pi*s + 2500.0*pi**2) + 645.980346679688*pi**2/(s**2 + 10.6666666666667*pi*s + 256.0*pi**2)",
      "numerator_coeffs": [
        3.2490904927253723,
        2640.0542395962443,
        7852374.620765132,
        4457088921.626268,
        5438722543929.153,
        2062788202038606.5,
        1.3171059423659715e+18,
        3.05883509206657e+20,
        1.054473178557742e+23,
        1.3128643602062295e+25,
        2.1617792608567708e+27,
        1.1209962399987735e+29,
        6.021720416304068e+30
      ],
      "denominator_coeffs": [
        1.0,
        830.4276580989019,
        2532788.3260522676,
        1459526863.3306742,
        1861400679700.8867,
        706722047844009.2,
        4.733966519244994e+17,
        1.0672803066180136e+20,
        3.7578034826402647e+22,
        4.1707342770340915e+24,
        6.841395530971847e+26,
        2.4057836793023434e+28,
        1.2761560215226024e+30
      ]
    },
    {
      "output_index": 3,
      "symbolic": "-0.148612514138222*s**2/(s**2 + 72.0*pi*s + 129600.0*pi**2) + 0.507341861724854*s**2/(s**2 + 60.0*pi*s + 57600.0*pi**2) + 0.017055680975318*s**2/(s**2 + 56.6666666666667*pi*s + 28900.0*pi**2) - 0.116562493145466*s**2/(s**2 + 40.0*pi*s + 10000.0*pi**2) - 0.00310242362320423*s**2/(s**2 + 25.0*pi*s + 2500.0*pi**2) - 0.571015596389771*s**2/(s**2 + 10.6666666666667*pi*s + 256.0*pi**2) - 59.6269011497498*pi*s/(s**2 + 72.0*pi*s + 129600.0*pi**2) - 70.5196666717529*pi*s/(s**2 + 60.0*pi*s + 57600.0*pi**2) + 86.6326491038004*pi*s/(s**2 + 56.6666666666667*pi*s + 28900.0*pi**2) + 30.9827876091003*pi*s/(s**2 + 40.0*pi*s + 10000.0*pi**2) + 19.5092722773552*pi*s/(s**2 + 25.0*pi*s + 2500.0*pi**2) + 12.1158612569173*pi*s/(s**2 + 10.6666666666667*pi*s + 256.0*pi**2) - 0.00313338893465698 - 26333.3775043488*pi**2/(s**2 + 72.0*pi*s + 129600.0*pi**2) - 2878.87287139893*pi**2/(s**2 + 60.0*pi*s + 57600.0*pi**2) - 22181.1853289604*pi**2/(s**2 + 56.6666666666667*pi*s + 28900.0*pi**2) - 968.984290957451*pi**2/(s**2 + 40.0*pi*s + 10000.0*pi**2) - 26.6350409947336*pi**2/(s**2 + 25.0*pi*s + 2500.0*pi**2) - 205.631927490234*pi**2/(s**2 + 10.6666666666667*pi*s + 256.0*pi**2)",
      "numerator_coeffs": [
        -0.31802887353114784,
        -235.1407825813817,
        -1364888.1049694635,
        -481137101.4316102,
        -1513358388964.4797,
        -285636932157602.7,
        -5.059936889945664e+17,
        -5.819848092139258e+19,
        -4.578204521774832e+22,
        -2.3792938667432727e+24,
        -9.207457323312823e+26,
        -7.881212895071384e+27,
        -2.468877839721997e+30
      ],
      "denominator_coeffs": [
        1.0,
        830.4276580989019,
        2532788.3260522676,
        1459526863.3306742,
        1861400679700.8867,
        706722047844009.2,
        4.733966519244994e+17,
        1.0672803066180136e+20,
        3.7578034826402647e+22,
        4.1707342770340915e+24,
        6.841395530971847e+26,
        2.4057836793023434e+28,
        1.2761560215226024e+30
      ]
    },
    {
      "output_index": 4,
      "symbolic": "0.229870319366455*s**2/(s**2 + 72.0*pi*s + 129600.0*pi**2) + 0.502505838871002*s**2/(s**2 + 60.0*pi*s + 57600.0*pi**2) + 0.0596459731459618*s**2/(s**2 + 56.6666666666667*pi*s + 28900.0*pi**2) + 0.32824045419693*s**2/(s**2 + 40.0*pi*s + 10000.0*pi**2) - 0.16956339776516*s**2/(s**2 + 25.0*pi*s + 2500.0*pi**2) - 0.166093379259109*s**2/(s**2 + 10.6666666666667*pi*s + 256.0*pi**2) - 87.5864582061768*pi*s/(s**2 + 72.0*pi*s + 129600.0*pi**2) - 33.990490436554*pi*s/(s**2 + 60.0*pi*s + 57600.0*pi**2) - 37.0599146684011*pi*s/(s**2 + 56.6666666666667*pi*s + 28900.0*pi**2) + 9.44271326065063*pi*s/(s**2 + 40.0*pi*s + 10000.0*pi**2) + 13.4521842002869*pi*s/(s**2 + 25.0*pi*s + 2500.0*pi**2) + 13.1247851053874*pi*s/(s**2 + 10.6666666666667*pi*s + 256.0*pi**2) - 0.149632275104523 + 71405.5057525635*pi**2/(s**2 + 72.0*pi*s + 129600.0*pi**2) + 17367.9119110107*pi**2/(s**2 + 60.0*pi*s + 57600.0*pi**2) + 17807.2575628757*pi**2/(s**2 + 56.6666666666667*pi*s + 28900.0*pi**2) + 6148.30255508423*pi**2/(s**2 + 40.0*pi*s + 10000.0*pi**2) + 454.494021832943*pi**2/(s**2 + 25.0*pi*s + 2500.0*pi**2) + 450.934631347656*pi**2/(s**2 + 10.6666666666667*pi*s + 256.0*pi**2)",
      "numerator_coeffs": [
        0.6349735334515572,
        -37.61219146918465,
        1766282.8755709287,
        453934695.3928826,
        1583096662721.2388,
        510064145985684.6,
        5.67284677320175e+17,
        1.4442512249636058e+20,
        6.341474437608626e+22,
        9.143110260806376e+24,
        1.5836114157901075e+27,
        8.334146110038422e+28,
        4.947812244007132e+30
      ],
      "denominator_coeffs": [
        1.0,
        830.4276580989019,
        2532788.3260522676,
        1459526863.3306742,
        1861400679700.8867,
        706722047844009.2,
        4.733966519244994e+17,
        1.0672803066180136e+20,
        3.7578034826402647e+22,
        4.1707342770340915e+24,
        6.841395530971847e+26,
        2.4057836793023434e+28,
        1.2761560215226024e+30
      ]
    },
    {
      "output_index": 5,
      "symbolic": "-0.315497547388077*s**2/(s**2 + 72.0*pi*s + 129600.0*pi**2) - 0.266739815473557*s**2/(s**2 + 60.0*pi*s + 57600.0*pi**2) + 0.391198426485062*s**2/(s**2 + 56.6666666666667*pi*s + 28900.0*pi**2) - 0.768096148967743*s**2/(s**2 + 40.0*pi*s + 10000.0*pi**2) - 0.737510085105896*s**2/(s**2 + 25.0*pi*s + 2500.0*pi**2) - 0.328923225402832*s**2/(s**2 + 10.6666666666667*pi*s + 256.0*pi**2) - 65.9928302764893*pi*s/(s**2 + 72.0*pi*s + 129600.0*pi**2) - 56.8955504894257*pi*s/(s**2 + 60.0*pi*s + 57600.0*pi**2) + 30.6068644920985*pi*s/(s**2 + 56.6666666666667*pi*s + 28900.0*pi**2) - 4.11645442247391*pi*s/(s**2 + 40.0*pi*s + 10000.0*pi**2) - 15.1681363582611*pi*s/(s**2 + 25.0*pi*s + 2500.0*pi**2) - 16.9126052856445*pi*s/(s**2 + 10.6666666666667*pi*s + 256.0*pi**2) - 0.0990028604865074 - 32661.8308067322*pi**2/(s**2 + 72.0*pi*s + 129600.0*pi**2) - 3510.386967659*pi**2/(s**2 + 60.0*pi*s + 57600.0*pi**2) - 23616.9578433037*pi**2/(s**2 + 56.6666666666667*pi*s + 28900.0*pi**2) - 5830.65450191498*pi**2/(s**2 + 40.0*pi*s + 10000.0*pi**2) - 1689.38785791397*pi**2/(s**2 + 25.0*pi*s + 2500.0*pi**2) - 644.384216308594*pi**2/(s**2 + 10.6666666666667*pi*s + 256.0*pi**2)",
      "numerator_coeffs": [
        -2.12457125633955,
        -1950.4618844206577,
        -5627561.596863342,
        -3408326745.6409106,
        -4434998954884.689,
        -1709485154570463.8,
        -1.2678204030485238e+18,
        -2.8683004631269278e+20,
        -1.0846900042742218e+23,
        -1.2854515615682198e+25,
        -2.2034900337862852e+27,
        -1.0302853820736634e+29,
        -6.387300741080823e+30
      ],
      "denominator_coeffs": [
        1.0,
        830.4276580989019,
        2532788.3260522676,
        1459526863.3306742,
        1861400679700.8867,
        706722047844009.2,
        4.733966519244994e+17,
        1.0672803066180136e+20,
        3.7578034826402647e+22,
        4.1707342770340915e+24,
        6.841395530971847e+26,
        2.4057836793023434e+28,
        1.2761560215226024e+30
      ]
    },
    {
      "output_index": 6,
      "symbolic": "-0.116731859743595*s**2/(s**2 + 72.0*pi*s + 129600.0*pi**2) - 0.086965337395668*s**2/(s**2 + 60.0*pi*s + 57600.0*pi**2) - 0.141457825899124*s**2/(s**2 + 56.6666666666667*pi*s + 28900.0*pi**2) - 0.45042222738266*s**2/(s**2 + 40.0*pi*s + 10000.0*pi**2) - 0.630129098892212*s**2/(s**2 + 25.0*pi*s + 2500.0*pi**2) - 0.573326110839844*s**2/(s**2 + 10.6666666666667*pi*s + 256.0*pi**2) + 69.8498382568359*pi*s/(s**2 + 72.0*pi*s + 129600.0*pi**2) - 1.62053972482681*pi*s/(s**2 + 60.0*pi*s + 57600.0*pi**2) - 28.491438627243*pi*s/(s**2 + 56.6666666666667*pi*s + 28900.0*pi**2) - 39.431631565094*pi*s/(s**2 + 40.0*pi*s + 10000.0*pi**2) - 32.5582802295685*pi*s/(s**2 + 25.0*pi*s + 2500.0*pi**2) - 28.0951639811198*pi*s/(s**2 + 10.6666666666667*pi*s + 256.0*pi**2) + 0.108934707939625 - 8473.45458269119*pi**2/(s**2 + 72.0*pi*s + 129600.0*pi**2) - 26860.7242584229*pi**2/(s**2 + 60.0*pi*s + 57600.0*pi**2) - 3337.42707297206*pi**2/(s**2 + 56.6666666666667*pi*s + 28900.0*pi**2) - 6043.58792304993*pi**2/(s**2 + 40.0*pi*s + 10000.0*pi**2) - 1964.55344557762*pi**2/(s**2 + 25.0*pi*s + 2500.0*pi**2) - 710.553161621094*pi**2/(s**2 + 10.6666666666667*pi*s + 256.0*pi**2)",
      "numerator_coeffs": [
        -1.890097752213478,
        -1565.8919938651122,
        -4982693.147622403,
        -3172231679.777743,
        -4062402934935.4824,
        -1786637173682753.0,
        -1.145797815118629e+18,
        -3.098336025551507e+20,
        -1.0141648754488899e+23,
        -1.4255524493812969e+25,
        -2.1233424804595353e+27,
        -1.133778608811416e+29,
        -6.003088037586629e+30
      ],
      "denominator_coeffs": [
        1.0,
        830.4276580989019,
        2532788.3260522676,
        1459526863.3306742,
        1861400679700.8867,
        706722047844009.2,
        4.733966519244994e+17,
        1.0672803066180136e+20,
        3.7578034826402647e+22,
        4.1707342770340915e+24,
        6.841395530971847e+26,
        2.4057836793023434e+28,
        1.2761560215226024e+30
      ]
    },
    {
      "output_index": 7,
      "symbolic": "0.669934749603271*s**2/(s**2 + 72.0*pi*s + 129600.0*pi**2) + 0.434264212846756*s**2/(s**2 + 60.0*pi*s + 57600.0*pi**2) + 0.641691625118256*s**2/(s**2 + 56.6666666666667*pi*s + 28900.0*pi**2) + 0.223053604364395*s**2/(s**2 + 40.0*pi*s + 10000.0*pi**2) - 0.208232268691063*s**2/(s**2 + 25.0*pi*s + 2500.0*pi**2) + 0.114551305770874*s**2/(s**2 + 10.6666666666667*pi*s + 256.0*pi**2) + 103.079618453979*pi*s/(s**2 + 72.0*pi*s + 129600.0*pi**2) + 21.130912899971*pi*s/(s**2 + 60.0*pi*s + 57600.0*pi**2) - 38.4417603413264*pi*s/(s**2 + 56.6666666666667*pi*s + 28900.0*pi**2) + 62.4375581741333*pi*s/(s**2 + 40.0*pi*s + 10000.0*pi**2) - 6.69144541025162*pi*s/(s**2 + 25.0*pi*s + 2500.0*pi**2) - 30.2670822143555*pi*s/(s**2 + 10.6666666666667*pi*s + 256.0*pi**2) - 0.395332604646683 + 19278.2693624496*pi**2/(s**2 + 72.0*pi*s + 129600.0*pi**2) + 24885.5335235596*pi**2/(s**2 + 60.0*pi*s + 57600.0*pi**2) - 4719.42189633846*pi**2/(s**2 + 56.6666666666667*pi*s + 28900.0*pi**2) + 2224.94438290596*pi**2/(s**2 + 40.0*pi*s + 10000.0*pi**2) - 312.829911708832*pi**2/(s**2 + 25.0*pi*s + 2500.0*pi**2) - 40.1294212341309*pi**2/(s**2 + 10.6666666666667*pi*s + 256.0*pi**2)",
      "numerator_coeffs": [
        1.4799306243658066,
        1215.327940401078,
        2829143.109358307,
        1405827152.942893,
        1417086430052.9194,
        405957743910080.3,
        1.8100624539452458e+17,
        2.564732361132655e+19,
        4.0720585889454573e+21,
        -1.6246945104415932e+24,
        -1.1573301844198713e+26,
        -4.482822789985883e+28,
        -4.751752586925744e+28
      ],
      "denominator_coeffs": [
        1.0,
        830.4276580989019,
        2532788.3260522676,
        1459526863.3306742,
        1861400679700.8867,
        706722047844009.2,
        4.733966519244994e+17,
        1.0672803066180136e+20,
        3.7578034826402647e+22,
        4.1707342770340915e+24,
        6.841395530971847e+26,
        2.4057836793023434e+28,
        1.2761560215226024e+30
      ]
    },
    {
      "output_index": 8,
      "symbolic": "0.306869447231293*s**2/(s**2 + 72.0*pi*s + 129600.0*pi**2) + 0.175049170851707*s**2/(s**2 + 60.0*pi*s + 57600.0*pi**2) + 0.276175439357758*s**2/(s**2 + 56.6666666666667*pi*s + 28900.0*pi**2) + 0.513147056102753*s**2/(s**2 + 40.0*pi*s + 10000.0*pi**2) + 0.52141284942627*s**2/(s**2 + 25.0*pi*s + 2500.0*pi**2) + 0.617398083209991*s**2/(s**2 + 10.6666666666667*pi*s + 256.0*pi**2) + 14.2508189678192*pi*s/(s**2 + 72.0*pi*s + 129600.0*pi**2) + 11.0748142004013*pi*s/(s**2 + 60.0*pi*s + 57600.0*pi**2) + 15.8884876966476*pi*s/(s**2 + 56.6666666666667*pi*s + 28900.0*pi**2) + 28.7571001052856*pi*s/(s**2 + 40.0*pi*s + 10000.0*pi**2) + 16.9467478990555*pi*s/(s**2 + 25.0*pi*s + 2500.0*pi**2) + 36.7853012084961*pi*s/(s**2 + 10.6666666666667*pi*s + 256.0*pi**2) + 0.311400026082993 + 45029.815864563*pi**2/(s**2 + 72.0*pi*s + 129600.0*pi**2) + 19977.7347564697*pi**2/(s**2 + 60.0*pi*s + 57600.0*pi**2) + 12992.9907292128*pi**2/(s**2 + 56.6666666666667*pi*s + 28900.0*pi**2) + 6045.03571987152*pi**2/(s**2 + 40.0*pi*s + 10000.0*pi**2) + 1634.29856300354*pi**2/(s**2 + 25.0*pi*s + 2500.0*pi**2) + 410.789916992188*pi**2/(s**2 + 10.6666666666667*pi*s + 256.0*pi**2)",
      "numerator_coeffs": [
        2.721452072262764,
        2370.895550384232,
        7196491.817182082,
        4414810810.348865,
        5609827405861.999,
        2305334481935971.5,
        1.5258956887066278e+18,
        3.831490715302586e+20,
        1.3042928886489214e+23,
        1.7151421476614034e+25,
        2.621219709064777e+27,
        1.3514231284529614e+29,
        5.510624888768651e+30
      ],
      "denominator_coeffs": [
        1.0,
        830.4276580989019,
        2532788.3260522676,
        1459526863.3306742,
        1861400679700.8867,
        706722047844009.2,
        4.733966519244994e+17,
        1.0672803066180136e+20,
        3.7578034826402647e+22,
        4.1707342770340915e+24,
        6.841395530971847e+26,
        2.4057836793023434e+28,
        1.2761560215226024e+30
      ]
    },
    {
      "output_index": 9,
      "symbolic": "0.0907192230224609*s**2/(s**2 + 72.0*pi*s + 129600.0*pi**2) + 0.130397975444794*s**2/(s**2 + 60.0*pi*s + 57600.0*pi**2) + 0.375712543725967*s**2/(s**2 + 56.6666666666667*pi*s + 28900.0*pi**2) + 0.236765876412392*s**2/(s**2 + 40.0*pi*s + 10000.0*pi**2) - 0.0779442638158798*s**2/(s**2 + 25.0*pi*s + 2500.0*pi**2) + 0.800174236297607*s**2/(s**2 + 10.6666666666667*pi*s + 256.0*pi**2) + 50.5324831008911*pi*s/(s**2 + 72.0*pi*s + 129600.0*pi**2) - 56.6052460670471*pi*s/(s**2 + 60.0*pi*s + 57600.0*pi**2) + 5.08446030318737*pi*s/(s**2 + 56.6666666666667*pi*s + 28900.0*pi**2) + 11.1766493320465*pi*s/(s**2 + 40.0*pi*s + 10000.0*pi**2) - 1.93968806415796*pi*s/(s**2 + 25.0*pi*s + 2500.0*pi**2) - 15.1753590901693*pi*s/(s**2 + 10.6666666666667*pi*s + 256.0*pi**2) + 0.0158119276165962 + 11205.4257631302*pi**2/(s**2 + 72.0*pi*s + 129600.0*pi**2) - 26380.0586700439*pi**2/(s**2 + 60.0*pi*s + 57600.0*pi**2) - 1648.26442711055*pi**2/(s**2 + 56.6666666666667*pi*s + 28900.0*pi**2) + 3165.64202308655*pi**2/(s**2 + 40.0*pi*s + 10000.0*pi**2) + 1305.4296374321*pi**2/(s**2 + 25.0*pi*s + 2500.0*pi**2) + 300.442474365234*pi**2/(s**2 + 10.6666666666667*pi*s + 256.0*pi**2)",
      "numerator_coeffs": [
        1.5716375187039375,
        1120.9398097124251,
        3405694.799647074,
        1511686622.1971948,
        1863643173620.3325,
        504153369609869.06,
        3.411440420467706e+17,
        4.9289006995867025e+19,
        2.4182145374130163e+22,
        1.1744504459359137e+24,
        5.93011261010905e+26,
        -7.907242378782012e+27,
        2.0413296239065567e+30
      ],
      "denominator_coeffs": [
        1.0,
        830.4276580989019,
        2532788.3260522676,
        1459526863.3306742,
        1861400679700.8867,
        706722047844009.2,
        4.733966519244994e+17,
        1.0672803066180136e+20,
        3.7578034826402647e+22,
        4.1707342770340915e+24,
        6.841395530971847e+26,
        2.4057836793023434e+28,
        1.2761560215226024e+30
      ]
    },
    {
      "output_index": 10,
      "symbolic": "-0.70407098531723*s**2/(s**2 + 72.0*pi*s + 129600.0*pi**2) - 0.693174421787262*s**2/(s**2 + 60.0*pi*s + 57600.0*pi**2) - 0.0563554652035236*s**2/(s**2 + 56.6666666666667*pi*s + 28900.0*pi**2) - 0.348149448633194*s**2/(s**2 + 40.0*pi*s + 10000.0*pi**2) - 0.409091234207153*s**2/(s**2 + 25.0*pi*s + 2500.0*pi**2) + 0.0768084153532982*s**2/(s**2 + 10.6666666666667*pi*s + 256.0*pi**2) - 46.5017709732056*pi*s/(s**2 + 72.0*pi*s + 129600.0*pi**2) + 41.9890558719635*pi*s/(s**2 + 60.0*pi*s + 57600.0*pi**2) - 62.5009310245514*pi*s/(s**2 + 56.6666666666667*pi*s + 28900.0*pi**2) + 1.65411472320557*pi*s/(s**2 + 40.0*pi*s + 10000.0*pi**2) - 19.8135688900948*pi*s/(s**2 + 25.0*pi*s + 2500.0*pi**2) - 4.53360017140706*pi*s/(s**2 + 10.6666666666667*pi*s + 256.0*pi**2) - 0.0834598392248154 - 42271.1488723755*pi**2/(s**2 + 72.0*pi*s + 129600.0*pi**2) + 6915.28630256653*pi**2/(s**2 + 60.0*pi*s + 57600.0*pi**2) + 9143.7048137188*pi**2/(s**2 + 56.6666666666667*pi*s + 28900.0*pi**2) + 106.147555634379*pi**2/(s**2 + 40.0*pi*s + 10000.0*pi**2) + 370.367802679539*pi**2/(s**2 + 25.0*pi*s + 2500.0*pi**2) - 46.0313720703125*pi**2/(s**2 + 10.6666666666667*pi*s + 256.0*pi**2)",
      "numerator_coeffs": [
        -2.2174929790198803,
        -1750.0335797980554,
        -4462515.7292433595,
        -2442974115.2135205,
        -2365582858084.6167,
        -893375972217654.2,
        -3.988049356156581e+17,
        -9.00405949172805e+19,
        -1.641088704211496e+22,
        -2.3065469169280637e+24,
        -3.367618302852833e+24,
        -8.740081771938308e+27,
        7.368450833691482e+27
      ],
      "denominator_coeffs": [
        1.0,
        830.4276580989019,
        2532788.3260522676,
        1459526863.3306742,
        1861400679700.8867,
        706722047844009.2,
        4.733966519244994e+17,
        1.0672803066180136e+20,
        3.7578034826402647e+22,
        4.1707342770340915e+24,
        6.841395530971847e+26,
        2.4057836793023434e+28,
        1.2761560215226024e+30
      ]
    },
    {
      "output_index": 11,
      "symbolic": "-0.102877959609032*s**2/(s**2 + 72.0*pi*s + 129600.0*pi**2) - 0.232623815536499*s**2/(s**2 + 60.0*pi*s + 57600.0*pi**2) + 0.139131382107735*s**2/(s**2 + 56.6666666666667*pi*s + 28900.0*pi**2) + 0.576953828334808*s**2/(s**2 + 40.0*pi*s + 10000.0*pi**2) + 0.369407445192337*s**2/(s**2 + 25.0*pi*s + 2500.0*pi**2) + 0.146530836820602*s**2/(s**2 + 10.6666666666667*pi*s + 256.0*pi**2) + 53.1411910057068*pi*s/(s**2 + 72.0*pi*s + 129600.0*pi**2) + 39.4839227199554*pi*s/(s**2 + 60.0*pi*s + 57600.0*pi**2) + 11.9885188341141*pi*s/(s**2 + 56.6666666666667*pi*s + 28900.0*pi**2) + 45.7197237014771*pi*s/(s**2 + 40.0*pi*s + 10000.0*pi**2) + 34.6398144960403*pi*s/(s**2 + 25.0*pi*s + 2500.0*pi**2) + 2.99783070882161*pi*s/(s**2 + 10.6666666666667*pi*s + 256.0*pi**2) - 0.0760457739233971 + 6727.45656967163*pi**2/(s**2 + 72.0*pi*s + 129600.0*pi**2) + 22733.5933685303*pi**2/(s**2 + 60.0*pi*s + 57600.0*pi**2) + 10487.5245928764*pi**2/(s**2 + 56.6666666666667*pi*s + 28900.0*pi**2) - 754.020661115646*pi**2/(s**2 + 40.0*pi*s + 10000.0*pi**2) - 892.161428928375*pi**2/(s**2 + 25.0*pi*s + 2500.0*pi**2) + 460.747192382813*pi**2/(s**2 + 10.6666666666667*pi*s + 256.0*pi**2)",
      "numerator_coeffs": [
        0.8204759433865547,
        1207.798923953707,
        2963246.048626278,
        2455197078.0330873,
        2760594757172.878,
        1342998870273034.5,
        7.6454191663197e+17,
        2.10670330922391e+20,
        5.266759599781226e+22,
        7.313978184212588e+24,
        6.505457439581554e+26,
        3.4042527195908724e+28,
        2.681154363569691e+30
      ],
      "denominator_coeffs": [
        1.0,
        830.4276580989019,
        2532788.3260522676,
        1459526863.3306742,
        1861400679700.8867,
        706722047844009.2,
        4.733966519244994e+17,
        1.0672803066180136e+20,
        3.7578034826402647e+22,
        4.1707342770340915e+24,
        6.841395530971847e+26,
        2.4057836793023434e+28,
        1.2761560215226024e+30
      ]
    },
    {
      "output_index": 12,
      "symbolic": "0.0841525867581367*s**2/(s**2 + 72.0*pi*s + 129600.0*pi**2) - 0.0847523808479309*s**2/(s**2 + 60.0*pi*s + 57600.0*pi**2) + 0.086591012775898*s**2/(s**2 + 56.6666666666667*pi*s + 28900.0*pi**2) - 0.476732909679413*s**2/(s**2 + 40.0*pi*s + 10000.0*pi**2) - 0.197221666574478*s**2/(s**2 + 25.0*pi*s + 2500.0*pi**2) - 0.269206404685974*s**2/(s**2 + 10.6666666666667*pi*s + 256.0*pi**2) + 29.0071699619293*pi*s/(s**2 + 72.0*pi*s + 129600.0*pi**2) + 11.943271458149*pi*s/(s**2 + 60.0*pi*s + 57600.0*pi**2) - 13.1978436311086*pi*s/(s**2 + 56.6666666666667*pi*s + 28900.0*pi**2) - 3.54332983493805*pi*s/(s**2 + 40.0*pi*s + 10000.0*pi**2) - 7.37221240997314*pi*s/(s**2 + 25.0*pi*s + 2500.0*pi**2) + 6.40917332967122*pi*s/(s**2 + 10.6666666666667*pi*s + 256.0*pi**2) - 0.267657160758972 - 53376.9812107086*pi**2/(s**2 + 72.0*pi*s + 129600.0*pi**2) - 18386.2655639648*pi**2/(s**2 + 60.0*pi*s + 57600.0*pi**2) + 4722.47300595045*pi**2/(s**2 + 56.6666666666667*pi*s + 28900.0*pi**2) + 710.39117872715*pi**2/(s**2 + 40.0*pi*s + 10000.0*pi**2) - 39.1975045204163*pi**2/(s**2 + 25.0*pi*s + 2500.0*pi**2) - 762.949157714844*pi**2/(s**2 + 10.6666666666667*pi*s + 256.0*pi**2)",
      "numerator_coeffs": [
        -1.1248269230127335,
        -795.1128963092395,
        -3450440.492911892,
        -1833800076.797308,
        -2776495487295.329,
        -984556673471156.4,
        -7.006606810134299e+17,
        -1.4081538854495879e+20,
        -4.892061808061261e+22,
        -4.864296845212325e+24,
        -9.008295046141941e+26,
        -3.1156353237385007e+28,
        -4.7986340872414574e+30
      ],
      "denominator_coeffs": [
        1.0,
        830.4276580989019,
        2532788.3260522676,
        1459526863.3306742,
        1861400679700.8867,
        706722047844009.2,
        4.733966519244994e+17,
        1.0672803066180136e+20,
        3.7578034826402647e+22,
        4.1707342770340915e+24,
        6.841395530971847e+26,
        2.4057836793023434e+28,
        1.2761560215226024e+30
      ]
    },
    {
      "output_index": 13,
      "symbolic": "-0.628022730350494*s**2/(s**2 + 72.0*pi*s + 129600.0*pi**2) - 0.660360097885132*s**2/(s**2 + 60.0*pi*s + 57600.0*pi**2) + 0.588322043418884*s**2/(s**2 + 56.6666666666667*pi*s + 28900.0*pi**2) - 0.124001182615757*s**2/(s**2 + 40.0*pi*s + 10000.0*pi**2) - 0.397230178117752*s**2/(s**2 + 25.0*pi*s + 2500.0*pi**2) - 0.550948083400726*s**2/(s**2 + 10.6666666666667*pi*s + 256.0*pi**2) - 29.4402844905853*pi*s/(s**2 + 72.0*pi*s + 129600.0*pi**2) - 0.480686612427235*pi*s/(s**2 + 60.0*pi*s + 57600.0*pi**2) - 78.6886433760325*pi*s/(s**2 + 56.6666666666667*pi*s + 28900.0*pi**2) - 6.50220274925232*pi*s/(s**2 + 40.0*pi*s + 10000.0*pi**2) - 15.783166885376*pi*s/(s**2 + 25.0*pi*s + 2500.0*pi**2) + 16.2372589111328*pi*s/(s**2 + 10.6666666666667*pi*s + 256.0*pi**2) + 0.00702344393357635 - 29416.4651870728*pi**2/(s**2 + 72.0*pi*s + 129600.0*pi**2) + 18916.4365768433*pi**2/(s**2 + 60.0*pi*s + 57600.0*pi**2) + 14375.8319824934*pi**2/(s**2 + 56.6666666666667*pi*s + 28900.0*pi**2) - 2913.52123022079*pi**2/(s**2 + 40.0*pi*s + 10000.0*pi**2) - 1382.215321064*pi**2/(s**2 + 25.0*pi*s + 2500.0*pi**2) - 276.200775146484*pi**2/(s**2 + 10.6666666666667*pi*s + 256.0*pi**2)",
      "numerator_coeffs": [
        -1.765216785017401,
        -1599.0542848019709,
        -3526053.982271554,
        -2288666116.9307027,
        -1917476162435.5671,
        -851510408471365.8,
        -3.82820601774976e+17,
        -8.766055951241337e+19,
        -2.525662518585576e+22,
        -1.8834276401627888e+24,
        -4.1256582207408915e+26,
        1.0540515260849295e+28,
        -1.681027996624919e+30
      ],
      "denominator_coeffs": [
        1.0,
        830.4276580989019,
        2532788.3260522676,
        1459526863.3306742,
        1861400679700.8867,
        706722047844009.2,
        4.733966519244994e+17,
        1.0672803066180136e+20,
        3.7578034826402647e+22,
        4.1707342770340915e+24,
        6.841395530971847e+26,
        2.4057836793023434e+28,
        1.2761560215226024e+30
      ]
    }
  ],
  "frequency_response": {
    "frequencies": [
      2.0,
      2.0110845797634256,
      2.0222305934811167,
      2.033438381637857,
      2.0447082866054953,
      2.0560406526534027,
      2.067435825958994,
      2.078894154618297,
      2.0904159886565896,
      2.1020016800390917,
      2.1136515826817153,
      2.1253660524618785,
      2.1371454472293734,
      2.148990126817301,
      2.1609004530530616,
      2.172876789769406,
      2.1849195028155535,
      2.197028960068365,
      2.209205531443582,
      2.221449588907125,
      2.23376150648646,
      2.2461416602820194,
      2.2585904284786937,
      2.2711081913573845,
      2.2836953313066197,
      2.296352232834235,
      2.3090792825791207,
      2.321876869323031,
      2.334745384002463,
      2.3476852197205953,
      2.3606967717592995,
      2.373780437591213,
      2.3869366168918824,
      2.400165711551972,
      2.41346812568954,
      2.426844265662386,
      2.4402945400804588,
      2.4538193598183455,
      2.4674191380278176,
      2.481094290150454,
      2.49484523393033,
      2.508672389426781,
      2.5225761790272334,
      2.5365570274601055,
      2.550615361807785,
      2.5647516115196733,
      2.5789662084253053,
      2.59325958674754,
      2.6076321831158253,
      2.622084436579537,
      2.636616788621388,
      2.651229683170918,
      2.6659235666180527,
      2.6806988878267397,
      2.6955560981486606,
      2.710495651437019,
      2.725518004060404,
      2.7406236149167342,
      2.755812945447271,
      2.771086459650716,
      2.7864446240973892,
      2.8018879079434766,
      2.8174167829453656,
      2.8330317234740514,
      2.8487332065296327,
      2.8645217117558808,
      2.880397721454892,
      2.89636172060182,
      2.9124141968596917,
      2.928555640594303,
      2.944786544889202,
      2.961107405560745,
      2.9775187211732494,
      2.994020993054218,
      3.010614725309658,
      3.027300424839477,
      3.0440786013529695,
      3.0609497673843866,
      3.077914438308592,
      3.094973132356807,
      3.112126370632441,
      3.1293746771270086,
      3.146718578736138,
      3.1641586052756643,
      3.181695289497818,
      3.1993291671074946,
      3.2170607767786237,
      3.2348906601706187,
      3.252819361944929,
      3.2708474297816754,
      3.2889754143963805,
      3.3072038695567922,
      3.325533352099798,
      3.3439644219484386,
      3.3624976421290107,
      3.381133578788265,
      3.399872801210703,
      3.418715881835963,
      3.4376633962763132,
      3.4567159233342304,
      3.47587404502008,
      3.4951383465699033,
      3.5145094164632837,
      3.533987846441332,
      3.5535742315247605,
      3.573269170032054,
      3.5930732635977596,
      3.61298711719085,
      3.633011339133215,
      3.6531465411182413,
      3.6733933382294937,
      3.693752348959515,
      3.7142241952287054,
      3.734809502404334,
      3.755508899319635,
      3.776323018293016,
      3.7972524951473803,
      3.818297969229544,
      3.8394600834297687,
      3.8607394842014022,
      3.8821368215806205,
      3.903652749206291,
      3.925287924339937,
      3.947043007885815,
      3.9689186644111065,
      3.990915562166213,
      4.013034373105176,
      4.035275772906203,
      4.057640440992301,
      4.080129060552042,
      4.102742318560421,
      4.1254809057998525,
      4.1483455168812675,
      4.171336850265326,
      4.194455608283768,
      4.217702497160851,
      4.24107822703494,
      4.264583511980189,
      4.2882190700283545,
      4.311985623190742,
      4.335883897480242,
      4.359914622933528,
      4.384078533633344,
      4.408376367730933,
      4.432808867468591,
      4.457376779202328,
      4.482080853424683,
      4.506921844787637,
      4.531900512125673,
      4.557017618478956,
      4.582273931116639,
      4.607670221560302,
      4.633207265607526,
      4.658885843355581,
      4.684706739225264,
      4.710670741984864,
      4.736778644774247,
      4.763031245129093,
      4.789429345005253,
      4.815973750803254,
      4.842665273392925,
      4.869504728138171,
      4.896492934921885,
      4.92363071817098,
      4.950918906881589,
      4.97835833464438,
      5.005949839670018,
      5.033694264814784,
      5.061592457606302,
      5.089645270269447,
      5.117853559752369,
      5.1462181877526705,
      5.17474002074374,
      5.203419930001202,
      5.232258791629549,
      5.261257486588901,
      5.290416900721906,
      5.319737924780821,
      5.349221454454697,
      5.378868390396762,
      5.408679638251923,
      5.43865610868443,
      5.468798717405709,
      5.49910838520231,
      5.529586037964058,
      5.5602326067123276,
      5.591049027628476,
      5.622036242082463,
      5.653195196661579,
      5.684526843199382,
      5.716032138804772,
      5.747712045891214,
      5.779567532206156,
      5.811599570860577,
      5.843809140358723,
      5.876197224627995,
      5.9087648130489985,
      5.9415129004857805,
      5.974442487316209,
      6.007554579462535,
      6.040850188422128,
      6.074330331298363,
      6.107996030831698,
      6.141848315430919,
      6.175888219204545,
      6.210116781992432,
      6.2445350493975225,
      6.2791440728177985,
      6.313944909478395,
      6.348938622463887,
      6.384126280750785,
      6.419508959240168,
      6.455087738790526,
      6.490863706250795,
      6.526837954493523,
      6.563011582448293,
      6.59938569513526,
      6.635961403698926,
      6.672739825442084,
      6.709722083859932,
      6.7469093086744145,
      6.784302635868715,
      6.821903207721966,
      6.859712172844148,
      6.897730686211162,
      6.935959909200131,
      6.974401009624858,
      7.013055161771506,
      7.051923546434487,
      7.0910073509525,
      7.130307769244837,
      7.169826001847822,
      7.209563255951501,
      7.249520745436531,
      7.289699690911228,
      7.330101319748891,
      7.370726866125266,
      7.411577571056259,
      7.452654682435854,
      7.493959455074215,
      7.53549315073604,
      7.577257038179082,
      7.619252393192916,
      7.661480498637926,
      7.703942644484464,
      7.746640127852287,
      7.789574253050154,
      7.832746331615682,
      7.876157682355419,
      7.919809631385114,
      7.963703512170228,
      8.007840665566691,
      8.052222439861827,
      8.096850190815575,
      8.141725281701877,
      8.186849083350335,
      8.2322229741881,
      8.277848340281942,
      8.323726575380642,
      8.369859080957518,
      8.416247266253269,
      8.462892548319019,
      8.509796352059587,
      8.556960110277045,
      8.604385263714454,
      8.652073261099893,
      8.700025559190728,
      8.74824362281807,
      8.796728924931573,
      8.845482946644394,
      8.89450717727844,
      8.943803114409894,
      8.993372263914916,
      9.043216140015689,
      9.093336265326641,
      9.14373417090097,
      9.194411396277427,
      9.245369489527317,
      9.296610007301823,
      9.348134514879522,
      9.399944586214225,
      9.452041803983063,
      9.504427759634801,
      9.557104053438497,
      9.610072294532348,
      9.66333410097286,
      9.716891099784291,
      9.770744927008334,
      9.824897227754084,
      9.879349656248335,
      9.93410387588606,
      9.989161559281268,
      10.044524388318068,
      10.100194054202058,
      10.156172257511999,
      10.212460708251736,
      10.269061125902471,
      10.325975239475252,
      10.383204787563809,
      10.440751518397677,
      10.498617189895565,
      10.556803569719102,
      10.615312435326787,
      10.674145574028314,
      10.733304783039182,
      10.792791869535556,
      10.852608650709517,
      10.912756953824536,
      10.973238616271304,
      11.034055485623886,
      11.095209419696113,
      11.15670228659838,
      11.218535964794679,
      11.280712343159987,
      11.343233321037998,
      11.406100808299088,
      11.469316725398723,
      11.532883003436062,
      11.596801584212978,
      11.661074420293394,
      11.725703475062888,
      11.790690722788689,
      11.856038148680009,
      11.921747748948633,
      11.987821530869965,
      12.054261512844286,
      12.121069724458438,
      12.188248206547842,
      12.255799011258793,
      12.3237242021112,
      12.39202585406158,
      12.460706053566465,
      12.529766898646146,
      12.599210498948729,
      12.669038975814622,
      12.739254462341307,
      12.8098591034485,
      12.880855055943712,
      12.952244488588073,
      13.024029582162648,
      13.096212529534998,
      13.168795535726195,
      13.241780817978198,
      13.315170605821532,
      13.388967141143457,
      13.463172678256404,
      13.537789483966852,
      13.6128198376446,
      13.688266031292352,
      13.76413036961578,
      13.840415170093879,
      13.91712276304979,
      13.994255491721997,
      14.071815712335866,
      14.149805794175675,
      14.228228119656938,
      14.307085084399208,
      14.386379097299281,
      14.46611258060473,
      14.546287969987928,
      14.626907714620474,
      14.707974277247956,
      14.789490134265243,
      14.871457775792074,
      14.95387970574916,
      15.036758441934687,
      15.120096516101174,
      15.203896474032886,
      15.288160875623529,
      15.37289229495449,
      15.458093320373479,
      15.543766554573551,
      15.629914614672671,
      15.71654013229361,
      15.803645753644348,
      15.891234139598946,
      15.97930796577877,
      16.06786992263428,
      16.156922715527177,
      16.246469064813052,
      16.336511705924526,
      16.42705338945475,
      16.518096881241483,
      16.60964496245154,
      16.701700429665774,
      16.79426609496451,
      16.88734478601342,
      16.98093934614994,
      17.075052634470087,
      17.169687525915815,
      17.264846911362874,
      17.360533697709034,
      17.456750807962983,
      17.55350118133354,
      17.650787773319472,
      17.748613555799803,
      17.846981517124544,
      17.945894662206012,
      18.045356012610643,
      18.145368606651235,
      18.24593549947983,
      18.347059763180983,
      18.448744486865635,
      18.550992776765497,
      18.653807756327886,
      18.7571925663112,
      18.861150364880807,
      18.965684327705542,
      19.070797648054747,
      19.176493536895745,
      19.28277522299202,
      19.38964595300175,
      19.497108991577058,
      19.605167621463732,
      19.713825143601447,
      19.823084877224687,
      19.932950159964065,
      20.043424347948314,
      20.154510815906825,
      20.2662129572727,
      20.378534184286423,
      20.49147792810013,
      20.605047638882386,
      20.719246785923566,
      20.834078857741904,
      20.949547362189968,
      21.065655826561898,
      21.1824077977011,
      21.299806842108605,
      21.417856546052064,
      21.536560515675216,
      21.65592237710814,
      21.77594577657795,
      21.896634380520194,
      22.01799187569092,
      22.14002196927919,
      22.262728389020427,
      22.386114883310217,
      22.51018522131884,
      22.63494319310644,
      22.76039260973873,
      22.886537303403497,
      23.013381127527598,
      23.140927956894686,
      23.26918168776363,
      23.39814623798745,
      23.527825547133087,
      23.65822357660167,
      23.789344309749563,
      23.92119175201007,
      24.05376993101574,
      24.18708289672146,
      24.32113472152811,
      24.455929500407002,
      24.591471351024992,
      24.7277644138702,
      24.864812852378574,
      25.002620853060996,
      25.14119262563121,
      25.28053240313444,
      25.42064444207665,
      25.56153302255458,
      25.703202448386556,
      25.845657047243854,
      25.988901170783016,
      26.132939194778686,
      26.277775519257315,
      26.423414568631618,
      26.569860791835637,
      26.71711866246075,
      26.865192678892228,
      27.01408736444671,
      27.163807267510393,
      27.314356961677902,
      27.465741045892102,
      27.617964144584498,
      27.771030907816527,
      27.924946011421657,
      28.079714157148125,
      28.23534007280268,
      28.391828512394895,
      28.549184256282455,
      28.707412111317208,
      28.866516910991912,
      29.026503515587997,
      29.187376812323947,
      29.34914171550462,
      29.511803166671417,
      29.675366134753148,
      29.83983561621792,
      30.00521663522566,
      30.17151424378166,
      30.33873352189093,
      30.506879577713278,
      30.67595754771947,
      30.845972596848053,
      31.01692991866314,
      31.18883473551315,
      31.3616922986902,
      31.53550788859061,
      31.710286814876223,
      31.886034416636512,
      32.062756062551784,
      32.2404571510571,
      32.419143110507186,
      32.598819399342354,
      32.7794915062551,
      32.96116495035791,
      33.14384528135175,
      33.32753807969563,
      33.51224895677713,
      33.6979835550837,
      33.884747548375174,
      34.07254664185693,
      34.26138657235427,
      34.45127310848768,
      34.64221205084897,
      34.834209232178544,
      35.02727051754351,
      35.2214018045169,
      35.41660902335782,
      35.612898137192545,
      35.81027514219678,
      36.00874606777873,
      36.208316976763335,
      36.40899396557751,
      36.610783164436256,
      36.813690737530095,
      37.01772288321322,
      37.22288583419289,
      37.42918585771989,
      37.63662925577988,
      37.845222365285956,
      38.05497155827226,
      38.26588324208852,
      38.47796385959596,
      38.691219889363914,
      38.90565784586784,
      39.12128427968838,
      39.3381057777113,
      39.55612896332886,
      39.77536049664205,
      39.99580707466405,
      40.2174754315249,
      40.440372338677065,
      40.664504605102415,
      40.88987907752015,
      41.11650264059593,
      41.34438221715233,
      41.5735247683801,
      41.80393729405104,
      42.03562683273162,
      42.26860046199811,
      42.50286529865281,
      42.73842849894132,
      42.97529725877131,
      43.213478813932205,
      43.45298044031626,
      43.69380945414089,
      43.93597321217205,
      44.17947911194908,
      44.42433459201059,
      44.67054713212169,
      44.91812425350263,
      45.16707351905832,
      45.41740253360958,
      45.669118944125294,
      45.92223043995604,
      46.176744753069094,
      46.432669658284475,
      46.69001297351248,
      46.94878255999262,
      47.20898632253359,
      47.47063220975489,
      47.73372821432953,
      47.99828237322822,
      48.26430276796496,
      48.53179752484376,
      48.80077481520704,
      49.07124285568512,
      49.343209908447236,
      49.61668428145406,
      49.89167432871128,
      50.168188450525015,
      50.44623509375823,
      50.72582275208885,
      51.00695996626932,
      51.28965532438728,
      51.57391746212818,
      51.85975506303883,
      52.1471768587928,
      52.43619162945718,
      52.726808203760655,
      53.01903545936337,
      53.31288232312799,
      53.608357771392384,
      53.90547083024402,
      54.20423057579542,
      54.50464613446169,
      54.80672668323906,
      55.11048144998536,
      55.41591971370194,
      55.72305080481698,
      56.03188410547069,
      56.34242904980175,
      56.65469512423557,
      56.968691867774155,
      57.28442887228734,
      57.6019157828059,
      57.92116229781622,
      58.24217816955643,
      58.564973204314484,
      58.88955726272755,
      59.215940260083286,
      59.544132166622866,
      59.874143007845284,
      60.2059828648139,
      60.539661874464144,
      60.87519022991327,
      61.21257818077187,
      61.551836033456695,
      61.892974151505776,
      62.23600295589479,
      62.58093292535547,
      62.927774596695826,
      63.27653856512177,
      63.62723548456106,
      63.97987606798851,
      64.33447108775334,
      64.69103137590835,
      65.04956782454059,
      65.41009138610434,
      65.77261307375547,
      66.13714396168793,
      66.50369518547218,
      66.87227794239512,
      67.24290349180235,
      67.61558315544197,
      67.99032831781045,
      68.3671504265006,
      68.74606099255094,
      69.12707159079754,
      69.51019386022766,
      69.89543950433507,
      70.28282029147782,
      70.67234805523753,
      71.06403469478093,
      71.45789217522352,
      71.85393252799476,
      72.25216785120594,
      72.65261031001951,
      73.05527213702072,
      73.46016563259153,
      73.86730316528595,
      74.27669717220834,
      74.68836015939293,
      75.10230470218602,
      75.51854344563027,
      75.93708910485064,
      76.3579544654432,
      76.78115238386532,
      77.20669578782864,
      77.63459767669401,
      78.06487112186836,
      78.49752926720431,
      78.9325853294014,
      79.37005259840996,
      79.80994443783715,
      80.252274285355,
      80.69705565311118,
      81.14430212814145,
      81.59402737278486,
      82.04624512510125,
      82.5009691992906,
      82.95821348611534,
      83.41799195332442,
      83.8803186460801,
      84.34520768738713,
      84.8126732785239,
      85.28272969947645,
      85.75539130937472,
      86.23067254693096,
      86.70858793088111,
      87.18915206042806,
      87.67237961568765,
      88.15828535813738,
      88.6468841310669,
      89.13819086003188,
      89.63222055330964,
      90.12898830235767,
      90.62850928227485,
      91.13079875226468,
      91.63587205610177,
      92.14374462260025,
      92.65443196608518,
      93.16794968686668,
      93.68431347171608,
      94.2035390943456,
      94.72564241588974,
      95.25063938539004,
      95.77854604028238,
      96.30937850688656,
      96.84315300089933,
      97.3798858278894,
      97.91959338379563,
      98.46229215542807,
      99.00799872097133,
      99.55672975049121,
      100.10850200644374,
      100.6633323441875,
      101.2212377124982,
      101.78223515408652,
      102.34634180611914,
      102.91357490074154,
      103.48395176560481,
      104.057489824395,
      104.63420659736519,
      105.21411970187073,
      105.79724685290773,
      106.3836058636537,
      106.97321464601195,
      107.56609121115886,
      108.16225367009376,
      108.7617202341928,
      109.36450921576446,
      109.97063902860948,
      110.58012818858326,
      111.19299531416125,
      111.80925912700827,
      112.42893845254972,
      113.05205222054701,
      113.67861946567584,
      114.30865932810742,
      114.94219105409377,
      115.57923399655479,
      116.21980761567002,
      116.86393147947298,
      117.51162526444874,
      118.16290875613554,
      118.81780184972844,
      119.47632455068755,
      120.13849697534909,
      120.80433935153964,
      121.4738720191947,
      122.14711543097917,
      122.8240901529127,
      123.50481686499779,
      124.18931636185135,
      124.87760955334049,
      125.56971746522046,
      126.26566123977751,
      126.96546213647453,
      127.66914153260039,
      128.3767209239235,
      129.08822192534765,
      129.8036662715728,
      130.523075817759,
      131.24647254019368,
      131.9738785369637,
      132.70531602862954,
      133.44080735890452,
      134.1803749953374,
      134.92404152999836,
      135.67182968016988,
      136.4237622890398,
      137.17986232639953,
      137.9401528893459,
      138.70465720298634,
      139.4733986211489,
      140.246400627095,
      141.02368683423722,
      141.80528098686045,
      142.59120696084724,
      143.3814887644076,
      144.1761505388115,
      144.9752165591271,
      145.7787112349619,
      146.5866591112084,
      147.39908486879457,
      148.21601332543665,
      149.03746943639803,
      149.8634782952515,
      150.6940651346454,
      151.52925532707536,
      152.36907438565808,
      153.2135479649117,
      154.06270186153895,
      154.91656201521553,
      155.77515450938205,
      156.63850557204168,
      157.50664157656024,
      158.3795890424726,
      159.25737463629255,
      160.14002517232728,
      161.02756761349713,
      161.92002907215826,
      162.81743681093153,
      163.7198182435352,
      164.62720093562206,
      165.53961260562227,
      166.4570811255891,
      167.37963452205094,
      168.3073009768673,
      169.24010882808963,
      170.17808657082756,
      171.1212628581183,
      172.0696665018028,
      173.02332647340546,
      173.98227190501916,
      174.94653209019577,
      175.91613648484005,
      176.89111470811,
      177.87149654332168,
      178.8573119388587,
      179.8485910090878,
      180.8453640352778,
      181.8476614665252,
      182.8555139206843,
      183.86895218530213,
      184.8880072185599,
      185.9127101502174,
      186.94309228256478,
      187.97918509137855,
      189.02102022688297,
      190.0686295147175,
      191.12204495690793,
      192.1812987328449,
      193.2464232002664,
      194.31745089624624,
      195.39441453818876,
      196.477347024827,
      197.5662814372285,
      198.6612510398057,
      199.76228928133185,
      200.86942979596358,
      201.9827064042672,
      203.10215311425256,
      204.2278041224118,
      205.3596938147639,
      206.49785676790492,
      207.64232775006508,
      208.7931417221696,
      209.95033383890743,
      211.11393944980506,
      212.28399410030627,
      213.4605335328578,
      214.643593688002,
      215.83321070547353,
      217.0294209253041,
      218.23226088893242,
      219.44176734032027,
      220.65797722707572,
      221.8809277015806,
      223.11065612212613,
      224.34720005405413,
      225.5905972709041,
      226.84088575556822,
      228.09810370145013,
      229.3622895136326,
      230.6334818100505,
      231.91171942267033,
      233.19704139867724,
      234.48948700166653,
      235.78909571284393,
      237.09590723223147,
      238.40996147987997,
      239.73129859708948,
      241.05995894763404,
      242.39598311899564,
      243.7394119236039,
      245.0902864000825,
      246.44864781450383,
      247.814537661648,
      249.1879976662715,
      250.56906978438158,
      251.95779620451754,
      253.35421934904053,
      254.758381875428,
      256.17032667757775,
      257.59009688711797,
      259.0177358747246,
      260.4532872514473,
      261.8967948700399,
      263.34830282630116,
      264.80785546042165,
      266.27549735833776,
      267.751273353095,
      269.23522852621556,
      270.7274082090771,
      272.22785798429663,
      273.73662368712314,
      275.25375140683855,
      276.7792874881642,
      278.31327853267754,
      279.85577140023554,
      281.4068132104058,
      282.9664513439069,
      284.53473344405444,
      286.1117074182173,
      287.6974214392809,
      289.29192394711845,
      290.89526365007185,
      292.50748952643784,
      294.12865082596545,
      295.7587970713601,
      297.397978059796,
      299.0462438644387,
      300.70364483597285,
      302.37023160414145,
      304.0460550792923,
      305.73116645393264,
      307.4256172042946,
      309.1294590919053,
      310.8427441651698,
      312.5655247609603,
      314.29785350621523,
      316.03978331954653,
      317.7913674128572,
      319.5526592929652,
      321.32371276323903,
      323.1045819252412,
      324.8953211803802,
      326.6959852315741,
      328.5066290849193,
      330.32730805137226,
      332.15807774843887,
      333.99899410187294,
      335.850113347386,
      337.7114920323634,
      339.58318701759254,
      341.465255479,
      343.35775490939744,
      345.26074312023945,
      347.17427824338745,
      349.0984187328868,
      351.033223366752,
      352.9787512487623,
      354.935061810268,
      356.90221481200416,
      358.8802703459177,
      360.8692888370023,
      362.8693310451442,
      364.8804580669796,
      366.902731337759,
      368.9362126332251,
      370.9809640714997,
      373.03704811498096,
      375.10452757225266,
      377.1834656000011,
      379.2739257049454,
      381.37597174577746,
      383.48966793511215,
      385.6150788414504,
      387.75226939114924,
      389.90130487040705,
      392.062250927257,
      394.23517357357235,
      396.4201391870845,
      398.6172145134083,
      400.82646666808256,
      403.0479631386198,
      405.2817717865676,
      407.527960849583,
      409.7865989435147,
      412.05775506450095,
      414.3414985910763,
      416.637899286291,
      418.9470272998435,
      421.26895317022115,
      423.60374782685625,
      425.95148259229273,
      428.3122291843642,
      430.6860597183866,
      433.0730467093586,
      435.4732630741785,
      437.886782133871,
      440.313677615827,
      442.754023656057,
      445.2078948014536,
      447.67536601207047,
      450.1565126634113,
      452.65141054873243,
      455.1601358813598,
      457.6827652970141,
      460.21937585615416,
      462.77004504633,
      465.33485078454964,
      467.91387141966123,
      470.50718573474353,
      473.11487294951445,
      475.7370127227505,
      478.3736851547201,
      481.02497078963034,
      483.69095061808895,
      486.37170607957574,
      489.067319064932,
      491.77787191886205,
      494.5034474424478,
      497.24412889568026,
      499.99999999999994
    ],
    "outputs": [
      {
        "index": 0,
        "magnitude_db": [
          10.355082700468529,
          10.35937691352968,
          10.363722904350979,
          10.368121335984277,
          10.372572880684947,
          10.377078220049881,
          10.381638045157558,
          10.386253056710208,
          10.390923965178214,
          10.395651490946577,
          10.400436364463639,
          10.405279326392032,
          10.41018112776184,
          10.415142530126044,
          10.420164305718266,
          10.425247237612833,
          10.430392119887145,
          10.435599757786438,
          10.440870967890916,
          10.446206578285294,
          10.451607428730714,
          10.457074370839177,
          10.462608268250378,
          10.46820999681102,
          10.473880444756645,
          10.479620512895945,
          10.485431114797596,
          10.49131317697965,
          10.497267639101421,
          10.503295454157971,
          10.5093975886771,
          10.515575022918979,
          10.521828751078264,
          10.528159781488833,
          10.534569136831086,
          10.541057854341796,
          10.547626986026534,
          10.554277598874648,
          10.561010775076763,
          10.567827612244841,
          10.57472922363473,
          10.581716738371208,
          10.58879130167549,
          10.59595407509519,
          10.603206236736646,
          10.610548981499672,
          10.617983521314576,
          10.6255110853815,
          10.63313292041197,
          10.64085029087261,
          10.648664479230987,
          10.656576786203457,
          10.664588531005005,
          10.672701051600935,
          10.680915704960354,
          10.689233867311374,
          10.697656934397823,
          10.706186321737496,
          10.714823464881693,
          10.723569819675976,
          10.732426862521995,
          10.741396090640192,
          10.75047902233326,
          10.759677197250127,
          10.76899217665034,
          10.77842554366855,
          10.787978903578967,
          10.797653884059491,
          10.807452135455296,
          10.81737533104156,
          10.82742516728512,
          10.837603364104657,
          10.847911665129189,
          10.858351837954412,
          10.868925674396632,
          10.879634990743805,
          10.890481628003336,
          10.90146745214614,
          10.912594354346538,
          10.923864251217507,
          10.935279085040657,
          10.946840823990522,
          10.958551462352457,
          10.97041302073357,
          10.98242754626602,
          10.994597112801978,
          11.006923821099479,
          11.019409798998478,
          11.03205720158612,
          11.044868211350538,
          11.057845038322077,
          11.07098992020113,
          11.084305122471402,
          11.097792938497646,
          11.111455689606625,
          11.125295725150153,
          11.1393154225489,
          11.15351718731565,
          11.167903453056528,
          11.182476681448792,
          11.197239362193514,
          11.21219401294158,
          11.227343179191191,
          11.24268943415504,
          11.25823537859527,
          11.273983640624081,
          11.289936875467957,
          11.306097765193108,
          11.322469018389903,
          11.339053369813648,
          11.3558535799792,
          11.37287243470658,
          11.390112744614685,
          11.407577344560085,
          11.42526909301765,
          11.443190871399697,
          11.461345583310028,
          11.479736153729242,
          11.49836552812738,
          11.51723667149978,
          11.536352567321924,
          11.555716216418707,
          11.575330635743446,
          11.595198857061677,
          11.615323925534549,
          11.635708898196388,
          11.656356842320738,
          11.677270833668924,
          11.698453954614914,
          11.719909292139947,
          11.741639935690092,
          11.763648974889646,
          11.785939497102865,
          11.808514584836281,
          11.83137731297345,
          11.854530745833644,
          11.877977934045665,
          11.901721911227463,
          11.925765690462038,
          11.950112260559534,
          11.974764582095093,
          11.999725583211656,
          12.024998155176366,
          12.050585147678897,
          12.076489363859523,
          12.102713555054263,
          12.129260415244135,
          12.156132575194796,
          12.183332596272757,
          12.210862963923537,
          12.238726080796924,
          12.266924259503915,
          12.29545971498948,
          12.3243345565049,
          12.353550779162926,
          12.38311025505876,
          12.413014723939156,
          12.443265783402053,
          12.473864878608392,
          12.50481329148774,
          12.536112129419095,
          12.56776231336797,
          12.599764565460898,
          12.632119395978345,
          12.66482708974716,
          12.697887691913818,
          12.731300993080016,
          12.765066513782529,
          12.799183488299843,
          12.833650847768743,
          12.868467202594926,
          12.903630824142788,
          12.939139625690892,
          12.974991142641008,
          13.011182511970729,
          13.047710450921361,
          13.084571234915643,
          13.121760674702383,
          13.159274092728273,
          13.197106298740906,
          13.235251564630879,
          13.27370359852553,
          13.312455518151857,
          13.351499823491789,
          13.390828368759301,
          13.430432333735636,
          13.470302194506477,
          13.510427693653309,
          13.550797809960036,
          13.591400727705947,
          13.632223805626655,
          13.673253545636062,
          13.71447556141499,
          13.755874546984971,
          13.797434245400208,
          13.839137417705265,
          13.880965812322202,
          13.922900135047346,
          13.964920019855246,
          14.007004000725495,
          14.049129484726839,
          14.091272726611928,
          14.13340880519577,
          14.175511601810406,
          14.217553781147883,
          14.259506774822961,
          14.301340768005467,
          14.343024689490084,
          14.384526205587736,
          14.425811718237414,
          14.46684636775023,
          14.507594040607032,
          14.548017382738207,
          14.588077818717355,
          14.627735577299275,
          14.666949723727168,
          14.705678199222076,
          14.743877868050637,
          14.78150457254259,
          14.818513196398616,
          14.854857736589786,
          14.890491384102816,
          14.925366613729809,
          14.959435283036829,
          14.992648740572584,
          15.024957943297043,
          15.056313583119586,
          15.086666222338533,
          15.11596643766891,
          15.144164972434,
          15.17121289638027,
          15.197061772455353,
          15.221663829767662,
          15.244972141824743,
          15.26694080902863,
          15.287525144292356,
          15.306681860534363,
          15.324369258710547,
          15.34054741495806,
          15.355178365354805,
          15.36822628674511,
          15.379657672047891,
          15.389441498450855,
          15.397549386903789,
          15.40395575135755,
          15.408637936253003,
          15.411576340846263,
          15.412754529062404,
          15.412159323698384,
          15.40978088394532,
          15.405612765368424,
          15.399651961667086,
          15.391898927734157,
          15.382357583739479,
          15.371035300173862,
          15.357942864001998,
          15.34309442628263,
          15.326507431817166,
          15.308202531580486,
          15.288203478866315,
          15.266537010241121,
          15.243232712542579,
          15.218322877278986,
          15.191842343883211,
          15.16382833334797,
          15.134320273817803,
          15.103359619737741,
          15.070989666159829,
          15.037255359787306,
          15.002203108295049,
          14.96588058940442,
          14.928336561114197,
          14.889620674399254,
          14.849783289586565,
          14.808875297507996,
          14.766947946412559,
          14.724052675500142,
          14.680240955816995,
          14.635564139131404,
          14.590073315289114,
          14.543819178432924,
          14.49685190236126,
          14.44922102519759,
          14.400975343446667,
          14.352162815426494,
          14.302830473985303,
          14.253024348343075,
          14.202789394835216,
          14.152169436283174,
          14.101207109672222,
          14.049943821780204,
          13.998419712371675,
          13.946673624550488,
          13.894743081847768,
          13.842664271613108,
          13.790472034272208,
          13.738199858014617,
          13.685879878479732,
          13.633542883016949,
          13.581218319107013,
          13.528934306544858,
          13.476717652999497,
          13.42459387258376,
          13.372587207084294,
          13.32072064952164,
          13.269015969729246,
          13.217493741660116,
          13.166173372149386,
          13.115073130880575,
          13.064210181322306,
          13.013600612421037,
          12.96325947085303,
          12.913200793656326,
          12.863437641079777,
          12.813982129501989,
          12.764845464287792,
          12.716037972463745,
          12.667569135107488,
          12.619447619357647,
          12.571681309962596,
          12.524277340296948,
          12.477242122784066,
          12.430581378672223,
          12.384300167119953,
          12.338402913553814,
          12.292893437268493,
          12.247774978245534,
          12.203050223172347,
          12.158721330648588,
          12.114789955571057,
          12.071257272692835,
          12.028123999355609,
          11.985390417397507,
          11.94305639424176,
          11.901121403173558,
          11.85958454281528,
          11.818444555811569,
          11.777699846737695,
          11.737348499246124,
          11.697388292467071,
          11.65781671668016,
          11.61863098827496,
          11.579828064018958,
          11.541404654651997,
          11.503357237826732,
          11.465682070415035,
          11.42837520020042,
          11.391432476976863,
          11.354849563074556,
          11.318621943333104,
          11.282744934542887,
          11.247213694375223,
          11.212023229822103,
          11.177168405166253,
          11.142643949502242,
          11.108444463829588,
          11.074564427738702,
          11.040998205710721,
          11.00774005305247,
          10.974784121487868,
          10.942124464427579,
          10.909755041938814,
          10.877669725437809,
          10.845862302127943,
          10.81432647920704,
          10.783055887868247,
          10.752044087119643,
          10.721284567448725,
          10.69077075435919,
          10.660496011808537,
          10.630453645576694,
          10.600636906597478,
          10.571038994286488,
          10.541653059901378,
          10.512472209972596,
          10.483489509845363,
          10.454697987376724,
          10.426090636834441,
          10.3976604230483,
          10.369400285868082,
          10.341303144986833,
          10.31336190519264,
          10.285569462117177,
          10.257918708554762,
          10.230402541431584,
          10.203013869511157,
          10.175745621928895,
          10.14859075765602,
          10.121542276000913,
          10.094593228264204,
          10.067736730672648,
          10.04096597872617,
          10.014274263101719,
          9.987654987267687,
          9.96110168697267,
          9.93460805178239,
          9.908167948849064,
          9.881775449107142,
          9.85542485609907,
          9.829110737643346,
          9.80282796056487,
          9.776571728713888,
          9.750337624503796,
          9.724121654199976,
          9.697920297190151,
          9.671730559461029,
          9.645550031495594,
          9.619376950788679,
          9.593210269154897,
          9.567049724970605,
          9.540895920449618,
          9.514750403998502,
          9.488615757630487,
          9.46249568933478,
          9.436395130199312,
          9.41032033596669,
          9.384278992564797,
          9.35828032499203,
          9.332335208752381,
          9.306456282825277,
          9.280658062919706,
          9.254957053501226,
          9.229371856795993,
          9.203923276669704,
          9.178634414956374,
          9.153530757477535,
          9.128640246655188,
          9.103993337292572,
          9.079623031788424,
          9.055564890779696,
          9.03185701499304,
          9.008539993949103,
          8.985656817129305,
          8.963252743307935,
          8.941375123999402,
          8.920073177396233,
          8.899397709800839,
          8.879400782401316,
          8.860135322319282,
          8.841654678168059,
          8.824012121891275,
          8.807260300380907,
          8.791450642258665,
          8.776632727188003,
          8.762853627091236,
          8.75015723058796,
          8.738583563745644,
          8.728168121733248,
          8.71894122708444,
          8.710927430907999,
          8.704144973442386,
          8.69860531977751,
          8.694312785328494,
          8.691264263749526,
          8.689449067467457,
          8.688848887980976,
          8.689437879635534,
          8.691182866900864,
          8.694043671420138,
          8.697973551451245,
          8.702919742958192,
          8.708824088696556,
          8.71562373930258,
          8.723251908737375,
          8.731638665508052,
          8.740711740895794,
          8.75039733593281,
          8.760620910015836,
          8.771307935722914,
          8.782384606492764,
          8.793778486201317,
          8.805419092196885,
          8.817238405909508,
          8.829171307621348,
          8.841155934282721,
          8.853133961311745,
          8.865050811077635,
          8.876855792211378,
          8.888502175005263,
          8.899947208963887,
          8.911152089073967,
          8.922081877600524,
          8.932705388227975,
          8.942995039186126,
          8.952926681672674,
          8.96247940944295,
          8.971635354919682,
          8.980379476610613,
          8.988699342036808,
          8.99658490979038,
          9.004028313774432,
          9.01102365214295,
          9.017566782963206,
          9.023655128173509,
          9.02928748700789,
          9.03446385970758,
          9.039185282035355,
          9.043453670851653,
          9.04727168079684,
          9.050642571949304,
          9.053570088189476,
          9.056058345892122,
          9.058111732488621,
          9.05973481438436,
          9.060932253679562,
          9.061708733122389,
          9.062068888717146,
          9.062017249416407,
          9.061558183340619,
          9.060695849990932,
          9.059434157948951,
          9.057776727589115,
          9.05572685836495,
          9.053287500268198,
          9.050461229099284,
          9.047250225228337,
          9.043656255567797,
          9.039680658519655,
          9.03532433170387,
          9.030587722317682,
          9.02547082002041,
          9.019973152283482,
          9.014093782192207,
          9.007831308733905,
          9.00118386965707,
          8.994149147038463,
          8.986724375750013,
          8.97890635507531,
          8.97069146378705,
          8.962075679061934,
          8.953054599679216,
          8.943623474022974,
          8.933777233486905,
          8.923510531963785,
          8.912817792189564,
          8.90169325980413,
          8.89013106608608,
          8.878125300416288,
          8.865670093623168,
          8.85275971345842,
          8.839388673543155,
          8.82555185720567,
          8.811244657699286,
          8.79646313633396,
          8.781204200071201,
          8.765465800107194,
          8.749247152892668,
          8.732548984894512,
          8.715373802177421,
          8.697726185554712,
          8.679613111604688,
          8.661044299250065,
          8.64203258082908,
          8.622594295624838,
          8.602749702642862,
          8.582523408017707,
          8.561944800779393,
          8.54104848881844,
          8.519874724772588,
          8.498469809254885,
          8.476886456415047,
          8.455184104369158,
          8.433429150676995,
          8.411695090962688,
          8.390062537173257,
          8.36861909109677,
          8.34745904889119,
          8.32668291378985,
          8.306396697120972,
          8.286710992533369,
          8.267739815002138,
          8.249599204817395,
          8.232405607191692,
          8.21627405001486,
          8.201316155081079,
          8.1876380310398,
          8.175338108430285,
          8.164504987384527,
          8.155215375843648,
          8.147532199449802,
          8.141502962902106,
          8.137158436106418,
          8.13451172695456,
          8.13355778657159,
          8.134273373372302,
          8.13661748065099,
          8.140532210317527,
          8.1459440544768,
          8.152765528392539,
          8.16089708425306,
          8.170229225914232,
          8.180644740797117,
          8.19202096623627,
          8.20423201325189,
          8.2171508800727,
          8.230651399687362,
          8.244609979109876,
          8.25890710182528,
          8.273428578100447,
          8.28806653977352,
          8.302720186276881,
          8.317296296733748,
          8.33170952892715,
          8.345882529864582,
          8.359745884758746,
          8.373237931793751,
          8.38630446935787,
          8.398898380811422,
          8.410979199611642,
          8.422512634991552,
          8.433470075597274,
          8.44382808569475,
          8.453567905885125,
          8.462674967802222,
          8.471138430057783,
          8.47895074077537,
          8.48610723041777,
          8.492605737256378,
          8.498446266735284,
          8.50363068512316,
          8.508162447194973,
          8.512046357214498,
          8.515288362170438,
          8.517895376028045,
          8.519875133671214,
          8.521236073206932,
          8.521987245367022,
          8.522138248855972,
          8.521699190645952,
          8.520680670399674,
          8.519093788399685,
          8.51695017657105,
          8.514262052395706,
          8.511042295724927,
          8.50730454869371,
          8.50306333912118,
          8.498334227934818,
          8.493133981275125,
          8.487480768008005,
          8.48139438338189,
          8.474896499497147,
          8.468010943086222,
          8.460764000809542,
          8.453184751824708,
          8.445305426751727,
          8.4371617912965,
          8.428793551666647,
          8.42024477747425,
          8.411564336024673,
          8.40280632969954,
          8.394030525523174,
          8.385302762941205,
          8.376695322348082,
          8.368287233026512,
          8.360164495008256,
          8.352420185103632,
          8.345154413233663,
          8.33847409159365,
          8.332492476551671,
          8.327328442126449,
          8.323105445083245,
          8.319950145886917,
          8.31799065771545,
          8.317354408130544,
          8.318165615273635,
          8.320542402682548,
          8.32459360354928,
          8.330415335320728,
          8.338087457062146,
          8.347670052252777,
          8.35920010531493,
          8.372688557485674,
          8.388117933021203,
          8.405440717249018,
          8.424578642007981,
          8.445422991704607,
          8.467835986846195,
          8.49165323586596,
          8.516687176405373,
          8.542731360978715,
          8.569565386075006,
          8.59696022411762,
          8.624683698186624,
          8.65250584137016,
          8.680203904779768,
          8.707566817080354,
          8.734398948688263,
          8.760523089689038,
          8.785782606270566,
          8.810042791174448,
          8.833191465786673,
          8.855138922990033,
          8.875817320210684,
          8.895179641841173,
          8.913198350897519,
          8.929863843336491,
          8.945182807038556,
          8.959176573060006,
          8.97187953110113,
          8.983337665583369,
          8.99360725424107,
          9.002753758311146,
          9.01085092253102,
          9.017980094267749,
          9.024229764051746,
          9.029695324303258,
          9.034479038763056,
          9.038690211668042,
          9.0424455426173,
          9.045869649910461,
          9.049095741455478,
          9.052266407678184,
          9.055534504761473,
          9.05906408854543,
          9.063031349106108,
          9.067625483041027,
          9.07304942459049,
          9.07952033790061,
          9.087269751323513,
          9.096543191511207,
          9.10759915179031,
          9.120707208476988,
          9.136145084180464,
          9.154194453883056,
          9.175135304147966,
          9.19923869569172,
          9.226757852507415,
          9.257917613351182,
          9.292902437150937,
          9.331843350441353,
          9.374804451412345,
          9.42176981995069,
          9.472631893123207,
          9.527182508571286,
          9.585107848395554,
          9.64598839331649,
          9.709304698834726,
          9.77444933826421,
          9.840744763994406,
          9.90746619457489,
          9.973868040591118,
          10.039211939191983,
          10.102794257162046,
          10.16397098595089,
          10.222178277540321,
          10.276947396930794,
          10.327913501345606,
          10.374818293362736,
          10.417507142967304,
          10.455921669234886,
          10.49008898978743,
          10.52010889305755,
          10.546140097120878,
          10.568386574279318,
          10.58708468885548,
          10.602491656179346,
          10.614875611972359,
          10.624507400034808,
          10.631654048954369,
          10.636573814641785,
          10.63951260941156,
          10.640701612430416,
          10.64035585263472,
          10.63867356637253,
          10.635836152036475,
          10.632008568234854,
          10.627340047359844,
          10.621965020647302,
          10.61600417275747,
          10.609565562956005,
          10.60274576598995,
          10.595630998856286,
          10.588298210125984,
          10.580816116658813,
          10.573246178782526,
          10.565643509655125,
          10.558057717886742,
          10.550533684828045,
          10.543112279450671,
          10.535831014622685,
          10.528724648948668,
          10.521825738292527,
          10.515165140693396,
          10.508772477649886,
          10.502676553691375,
          10.496905734753934,
          10.491488284089938,
          10.48645265219842,
          10.481827714485028,
          10.477642946951944,
          10.473928526084064,
          10.470715334161731,
          10.468034845463315,
          10.465918862291074,
          10.464399062694412,
          10.463506314676641,
          10.463269705453047,
          10.463715230439794,
          10.464864087290271,
          10.46673052853408,
          10.469319246203257,
          10.472622297936612,
          10.476615641167953,
          10.481255423581368,
          10.486474284081027,
          10.49217804270755,
          10.49824328421921,
          10.504516440431138,
          10.510815011469552,
          10.516931491061886,
          10.522640338675712,
          10.5277079610756,
          10.531905162605069,
          10.535020986882895,
          10.536876435538185,
          10.537336351955133,
          10.536317894514895,
          10.533794498550058,
          10.529794938353165,
          10.524397873869265,
          10.517722911591036,
          10.50991958836773,
          10.50115575439591,
          10.491606632013672,
          10.48144546181576,
          10.47083623187049,
          10.459928611931064,
          10.448854935862899,
          10.437728907108802,
          10.42664563175872,
          10.415682586040633,
          10.404901171749223,
          10.39434858046647,
          10.384059758449267,
          10.374059328585412,
          10.364363379047553,
          10.354981069036944,
          10.345916031242332,
          10.337167570252815,
          10.328731668317149,
          10.320601816546109,
          10.31276969258945,
          10.30522570629557,
          10.297959433844564,
          10.290959959011365,
          10.28421613801978,
          10.27771680217927,
          10.271450910325877,
          10.26540766111003,
          10.25957657342714,
          10.253947541780377,
          10.248510872088204,
          10.24325730238168,
          10.238178011953277,
          10.23326462179445,
          10.228509188569488,
          10.223904193895414,
          10.219442530313504,
          10.215117485029559,
          10.210922722254379,
          10.206852264780242,
          10.202900475274593,
          10.199062037650027,
          10.19533193877395,
          10.191705450706463,
          10.188178113596884,
          10.184745719324388,
          10.18140429593396,
          10.178150092892597,
          10.174979567171183,
          10.17188937014298,
          10.168876335279153,
          10.16593746661438,
          10.163069927950627,
          10.160271032763939,
          10.157538234777558,
          10.154869119163756,
          10.152261394337112,
          10.149712884302485,
          10.147221521522106,
          10.14478534026763,
          10.142402470424498,
          10.140071131717647,
          10.137789628329363,
          10.135556343881804,
          10.133369736758446,
          10.131228335740317,
          10.129130735934666,
          10.127075594974972,
          10.125061629473045,
          10.123087611704944,
          10.121152366514131,
          10.119254768416164,
          10.117393738890614,
          10.115568243846877,
          10.11377729125144,
          10.11201992890529,
          10.110295242360802,
          10.10860235296837,
          10.106940416043697,
          10.105308619147383,
          10.103706180469047,
          10.102132347308828,
          10.100586394649568,
          10.099067623813607,
          10.097575361198391,
          10.096108957085711,
          10.09466778451964,
          10.093251238248557,
          10.091858733727241,
          10.090489706174885,
          10.089143609685626,
          10.087819916388106,
          10.086518115650954,
          10.085237713331326,
          10.083978231063742,
          10.082739205586776,
          10.081520188105223,
          10.080320743685547,
          10.079140450682631,
          10.077978900195927,
          10.0768356955532,
          10.075710451820301,
          10.074602795335375,
          10.073512363266083,
          10.07243880318854,
          10.071381772686669,
          10.070340938970837,
          10.069315978514666,
          10.068306576708999,
          10.067312427532078,
          10.066333233235007,
          10.065368704041685,
          10.064418557862416,
          10.063482520020466,
