#ifndef GENERATED_LSTM_MODEL_DATA_H
#define GENERATED_LSTM_MODEL_DATA_H

#include <stdint.h>

typedef float port_float;

#define LSTM_INPUT_DIM 1u
#define LSTM_UNITS 16u
#define DENSE_UNITS 16u
#define OUTPUT_UNITS 1u
#define BENCHMARK_ITERATIONS 10u
#define BENCHMARK_REPEAT_RUNS 1u
#define BENCHMARK_RESET_STATE_EACH_RUN 1u
#define VALIDATION_RECORD_COUNT 1u
#define VALIDATION_SEQ_LEN 400u

#define SCALER_INPUT_DATA_RANGE 44.71252906f
#define SCALER_OUTPUT_DATA_RANGE 53.37688572f

static const port_float validation_input[VALIDATION_RECORD_COUNT][VALIDATION_SEQ_LEN][LSTM_INPUT_DIM] = {
    {
        { -0.00265106f },
        { -0.00256918f },
        { -0.00248111f },
        { -0.00241613f },
        { -0.00234087f },
        { -0.00226323f },
        { -0.00223715f },
        { -0.00223383f },
        { -0.00214781f },
        { -0.00198212f },
        { -0.00189901f },
        { -0.00200698f },
        { -0.00219156f },
        { -0.00226382f },
        { -0.00219819f },
        { -0.00209412f },
        { -0.00200165f },
        { -0.00192639f },
        { -0.00187893f },
        { -0.00181025f },
        { -0.00166097f },
        { -0.00151595f },
        { -0.00150904f },
        { -0.00158611f },
        { -0.00156338f },
        { -0.00139519f },
        { -0.00122052f },
        { -0.00113318f },
        { -0.00103853f },
        { -0.00083806f },
        { -0.00063530f },
        { -0.00057462f },
        { -0.00058965f },
        { -0.00052110f },
        { -0.00038254f },
        { -0.00032187f },
        { -0.00038041f },
        { -0.00043144f },
        { -0.00034601f },
        { -0.00013261f },
        { 0.00008208f },
        { 0.00016323f },
        { 0.00010017f },
        { 0.00004305f },
        { 0.00013594f },
        { 0.00035456f },
        { 0.00057684f },
        { 0.00071296f },
        { 0.00073143f },
        { 0.00068017f },
        { 0.00066288f },
        { 0.00071413f },
        { 0.00078858f },
        { 0.00086976f },
        { 0.00093872f },
        { 0.00092841f },
        { 0.00086762f },
        { 0.00091341f },
        { 0.00112259f },
        { 0.00135794f },
        { 0.00148923f },
        { 0.00155125f },
        { 0.00165147f },
        { 0.00181994f },
        { 0.00201192f },
        { 0.00217416f },
        { 0.00224855f },
        { 0.00222650f },
        { 0.00223793f },
        { 0.00240714f },
        { 0.00261369f },
        { 0.00264666f },
        { 0.00257154f },
        { 0.00262787f },
        { 0.00280621f },
        { 0.00288950f },
        { 0.00286840f },
        { 0.00294713f },
        { 0.00316138f },
        { 0.00329885f },
        { 0.00321027f },
        { 0.00300860f },
        { 0.00293004f },
        { 0.00308371f },
        { 0.00335901f },
        { 0.00352225f },
        { 0.00341395f },
        { 0.00314609f },
        { 0.00305184f },
        { 0.00330599f },
        { 0.00369158f },
        { 0.00386876f },
        { 0.00375255f },
        { 0.00354203f },
        { 0.00347588f },
        { 0.00359951f },
        { 0.00376401f },
        { 0.00384263f },
        { 0.00383287f },
        { 0.00373294f },
        { 0.00352192f },
        { 0.00329503f },
        { 0.00321302f },
        { 0.00330149f },
        { 0.00345284f },
        { 0.00357276f },
        { 0.00362006f },
        { 0.00360556f },
        { 0.00357392f },
        { 0.00350881f },
        { 0.00339315f },
        { 0.00337100f },
        { 0.00354858f },
        { 0.00371179f },
        { 0.00361617f },
        { 0.00338434f },
        { 0.00325363f },
        { 0.00317271f },
        { 0.00297188f },
        { 0.00271633f },
        { 0.00260458f },
        { 0.00263198f },
        { 0.00261538f },
        { 0.00250944f },
        { 0.00243467f },
        { 0.00242569f },
        { 0.00240480f },
        { 0.00234824f },
        { 0.00228183f },
        { 0.00218356f },
        { 0.00204237f },
        { 0.00196534f },
        { 0.00204757f },
        { 0.00210835f },
        { 0.00181715f },
        { 0.00122402f },
        { 0.00084719f },
        { 0.00098366f },
        { 0.00125348f },
        { 0.00115439f },
        { 0.00076748f },
        { 0.00051561f },
        { 0.00047698f },
        { 0.00039006f },
        { 0.00015329f },
        { -0.00012045f },
        { -0.00038115f },
        { -0.00058773f },
        { -0.00059313f },
        { -0.00041464f },
        { -0.00036246f },
        { -0.00064695f },
        { -0.00108620f },
        { -0.00135069f },
        { -0.00135355f },
        { -0.00130310f },
        { -0.00140450f },
        { -0.00163690f },
        { -0.00187945f },
        { -0.00208921f },
        { -0.00227872f },
        { -0.00244983f },
        { -0.00258293f },
        { -0.00269093f },
        { -0.00288834f },
        { -0.00322890f },
        { -0.00349042f },
        { -0.00343532f },
        { -0.00321925f },
        { -0.00323212f },
        { -0.00363362f },
        { -0.00421777f },
        { -0.00466104f },
        { -0.00487324f },
        { -0.00504767f },
        { -0.00531172f },
        { -0.00553480f },
        { -0.00556714f },
        { -0.00545809f },
        { -0.00539431f },
        { -0.00551482f },
        { -0.00577218f },
        { -0.00600514f },
        { -0.00614402f },
        { -0.00622409f },
        { -0.00625546f },
        { -0.00621566f },
        { -0.00609581f },
        { -0.00594307f },
        { -0.00593766f },
        { -0.00624600f },
        { -0.00668556f },
        { -0.00682980f },
        { -0.00659913f },
        { -0.00644502f },
        { -0.00671342f },
        { -0.00708505f },
        { -0.00701736f },
        { -0.00654869f },
        { -0.00621043f },
        { -0.00630107f },
        { -0.00667650f },
        { -0.00708014f },
        { -0.00730100f },
        { -0.00718061f },
        { -0.00680198f },
        { -0.00653261f },
        { -0.00656533f },
        { -0.00656293f },
        { -0.00618264f },
        { -0.00578320f },
        { -0.00593670f },
        { -0.00639791f },
        { -0.00642021f },
        { -0.00591716f },
        { -0.00544961f },
        { -0.00527245f },
        { -0.00511638f },
        { -0.00478210f },
        { -0.00443161f },
        { -0.00426002f },
        { -0.00424198f },
        { -0.00433324f },
        { -0.00455771f },
        { -0.00474199f },
        { -0.00460717f },
        { -0.00422311f },
        { -0.00387274f },
        { -0.00349256f },
        { -0.00281059f },
        { -0.00200165f },
        { -0.00166504f },
        { -0.00198502f },
        { -0.00226243f },
        { -0.00175839f },
        { -0.00086973f },
        { -0.00064746f },
        { -0.00115539f },
        { -0.00138754f },
        { -0.00086314f },
        { -0.00019870f },
        { -0.00002579f },
        { -0.00020307f },
        { -0.00019443f },
        { 0.00024476f },
        { 0.00085960f },
        { 0.00126604f },
        { 0.00144604f },
        { 0.00168835f },
        { 0.00206846f },
        { 0.00237956f },
        { 0.00259411f },
        { 0.00290133f },
        { 0.00325299f },
        { 0.00336127f },
        { 0.00321741f },
        { 0.00319528f },
        { 0.00351766f },
        { 0.00396536f },
        { 0.00423436f },
        { 0.00426908f },
        { 0.00423354f },
        { 0.00444685f },
        { 0.00517489f },
        { 0.00617957f },
        { 0.00676099f },
        { 0.00661095f },
        { 0.00633088f },
        { 0.00662194f },
        { 0.00726472f },
        { 0.00756893f },
        { 0.00748472f },
        { 0.00748282f },
        { 0.00771692f },
        { 0.00794316f },
        { 0.00790096f },
        { 0.00756697f },
        { 0.00731356f },
        { 0.00752541f },
        { 0.00797074f },
        { 0.00817565f },
        { 0.00824648f },
        { 0.00859443f },
        { 0.00917647f },
        { 0.00960887f },
        { 0.00969821f },
        { 0.00950892f },
        { 0.00921472f },
        { 0.00909460f },
        { 0.00937907f },
        { 0.00987367f },
        { 0.01003494f },
        { 0.00967862f },
        { 0.00928298f },
        { 0.00935895f },
        { 0.00979864f },
        { 0.01001248f },
        { 0.00966755f },
        { 0.00916107f },
        { 0.00905027f },
        { 0.00922554f },
        { 0.00930353f },
        { 0.00941365f },
        { 0.00966621f },
        { 0.00952080f },
        { 0.00882583f },
        { 0.00858652f },
        { 0.00936791f },
        { 0.00999327f },
        { 0.00929643f },
        { 0.00802830f },
        { 0.00757929f },
        { 0.00796504f },
        { 0.00836550f },
        { 0.00858064f },
        { 0.00882997f },
        { 0.00891158f },
        { 0.00847692f },
        { 0.00779240f },
        { 0.00762108f },
        { 0.00824318f },
        { 0.00891957f },
        { 0.00876902f },
        { 0.00793153f },
        { 0.00720614f },
        { 0.00689815f },
        { 0.00678251f },
        { 0.00671623f },
        { 0.00657169f },
        { 0.00609204f },
        { 0.00536351f },
        { 0.00490838f },
        { 0.00494118f },
        { 0.00507323f },
        { 0.00496177f },
        { 0.00467788f },
        { 0.00439041f },
        { 0.00419800f },
        { 0.00413085f },
        { 0.00399349f },
        { 0.00343284f },
        { 0.00230509f },
        { 0.00095757f },
        { 0.00013146f },
        { 0.00018878f },
        { 0.00040584f },
        { -0.00019652f },
        { -0.00139138f },
        { -0.00214113f },
        { -0.00222543f },
        { -0.00232423f },
        { -0.00272802f },
        { -0.00301948f },
        { -0.00297585f },
        { -0.00312501f },
        { -0.00421271f },
        { -0.00615333f },
        { -0.00773327f },
        { -0.00784944f },
        { -0.00698848f },
        { -0.00673995f },
        { -0.00773949f },
        { -0.00895627f },
        { -0.00928965f },
        { -0.00894543f },
        { -0.00878367f },
        { -0.00912053f },
        { -0.00963313f },
        { -0.00997246f },
        { -0.01021423f },
        { -0.01069169f },
        { -0.01141690f },
        { -0.01212211f },
        { -0.01287529f },
        { -0.01389124f },
        { -0.01482023f },
        { -0.01517727f },
        { -0.01527475f },
        { -0.01561918f },
        { -0.01578923f },
        { -0.01528470f },
        { -0.01485897f },
        { -0.01539930f },
        { -0.01624128f },
        { -0.01620674f },
        { -0.01555037f },
        { -0.01542412f },
        { -0.01602695f },
        { -0.01658565f },
        { -0.01677988f },
        { -0.01691615f },
        { -0.01690989f },
        { -0.01648104f },
        { -0.01622843f },
        { -0.01700793f },
        { -0.01838408f },
        { -0.01915026f },
        { -0.01902107f },
        { -0.01849923f },
        { -0.01782370f }
    }
};

static const port_float lstm_kernel[LSTM_INPUT_DIM][LSTM_UNITS * 4u] = {
    { -0.26294309f, 0.08771778f, -0.00605194f, -0.29585761f, -0.04895824f, 0.31913051f, -0.50179410f, 0.02406042f, -0.09943372f, 0.34720591f, 0.03708143f, -0.00193624f, 0.21505198f, 0.35320374f, -0.10840622f, 0.23076805f, -0.17016339f, -0.27158496f, 0.30176049f, -0.63692838f, -0.17473556f, -0.15717505f, 0.14660525f, -0.19989735f, 0.43219858f, 0.26842904f, 0.05310140f, -0.60495007f, 0.40270644f, 0.18176551f, -0.38651088f, -0.25645852f, 0.15461841f, 0.15547556f, -0.09898771f, 0.24685602f, 0.03714514f, 0.47681552f, -0.18648843f, 0.34265819f, 0.35475370f, -0.23406903f, -0.22642232f, 0.33463037f, -0.36853385f, -0.07646889f, 0.26885897f, -0.37116906f, -0.37992737f, 0.04534429f, 0.22230083f, -0.40564093f, 0.14392601f, -0.24989308f, 0.09756549f, -0.26335812f, 0.29895657f, 0.72353375f, -0.14524145f, -0.26999438f, 0.52464193f, 0.27478841f, -0.15140924f, -0.06590641f }
};

static const port_float lstm_recurrent_kernel[LSTM_UNITS][LSTM_UNITS * 4u] = {
    { -0.07757802f, -0.00279883f, 0.04803412f, -0.78721911f, 0.23403651f, -0.43315610f, -0.30243880f, 0.07173955f, 0.03156261f, -0.27460450f, -0.39825669f, 0.10093336f, -0.16575883f, -0.39377910f, -0.09621786f, 0.13398173f, -0.50004607f, -0.11952405f, 0.11829272f, -0.35160559f, 0.39635324f, -0.07225710f, -0.24367839f, -0.01787896f, 0.79869944f, 0.12199605f, -0.12055044f, 0.24893956f, 0.10979585f, -0.10912921f, -0.25543049f, 0.09121799f, -0.01229807f, -0.08551399f, -0.14555958f, 0.00240878f, 0.22096759f, 0.24396269f, -0.25344121f, 0.27690652f, -0.15035215f, 0.04547440f, -0.23530629f, 0.07935434f, 0.28086782f, 0.09725063f, 0.03771580f, 0.21456330f, -0.23197831f, -0.19028498f, -0.17640825f, -0.51972711f, -0.05235035f, -0.14279082f, -0.32748395f, -0.00679826f, -0.27189332f, 0.08846768f, -0.19091329f, -0.05517927f, -0.27498543f, -0.24033102f, -0.12479247f, -0.00075117f },
    { -0.30451822f, -0.00605180f, -0.21066387f, 0.17818043f, 0.02705720f, 0.05993230f, -0.08638081f, -0.10231492f, 0.29958808f, -0.09590714f, -0.00725536f, -0.19924022f, 0.12973183f, -0.17032644f, -0.06665975f, 0.04558122f, -0.23379193f, -0.09438449f, 0.03275663f, -0.39421335f, -0.22952326f, 0.07151318f, -0.19827132f, -0.03864060f, 0.35115308f, 0.08993458f, -0.00076049f, 0.04493370f, 0.29569519f, -0.16305611f, -0.16954033f, -0.14795466f, 0.21239547f, 0.06448534f, 0.17571020f, 0.17294864f, -0.08909833f, 0.14522070f, -0.28732991f, -0.01355455f, 0.04363175f, 0.13427788f, -0.00980783f, 0.46925789f, 0.18036042f, 0.23296292f, -0.09114899f, -0.13903767f, -0.19580899f, -0.12057690f, -0.12538575f, -0.09884270f, -0.05579332f, 0.04800794f, -0.15308601f, -0.02744761f, -0.08623338f, 0.07290126f, 0.18679628f, 0.27630988f, 0.29215378f, -0.09104349f, -0.40914944f, -0.04424891f },
    { 0.03278003f, 0.09756003f, -0.15829884f, 0.35249615f, -0.17890827f, -0.23408566f, 0.19021073f, -0.19074893f, 0.13993977f, -0.09038146f, -0.38206348f, -0.32782570f, 0.18060565f, -0.14574923f, -0.05868904f, -0.10549515f, 0.02033497f, -0.12051225f, -0.44996065f, 0.33112943f, -0.19837983f, 0.02975724f, -0.09457676f, -0.39312828f, 0.09661431f, 0.25069499f, 0.12774515f, 0.06198387f, 0.06774274f, -0.15620878f, -0.09384884f, 0.14442845f, 0.05432995f, 0.28737530f, 0.16579089f, -0.10033105f, 0.08849791f, -0.15894601f, -0.05298530f, 0.00498707f, 0.27913359f, 0.12565009f, 0.13277920f, 0.24175720f, -0.21126944f, -0.30096230f, 0.04224757f, 0.01745822f, -0.13358445f, -0.18270418f, -0.22468036f, -0.16073649f, -0.04541781f, -0.07636525f, 0.04807525f, -0.02187534f, -0.18154745f, 0.13648927f, 0.13295032f, -0.07773580f, -0.06589856f, -0.09706524f, 0.18961748f, -0.10930896f },
    { -0.26980653f, -0.24591252f, 0.12768091f, -0.10039835f, -0.17511652f, 0.75018269f, -1.66041100f, 0.13020942f, 0.56043881f, 0.08894059f, 0.17633109f, 0.56488431f, -0.01307798f, 0.07784121f, -0.52794188f, 0.75653785f, -0.27956316f, -0.26308706f, 0.12188780f, 0.21958418f, -0.18308637f, 0.72774982f, -0.73060668f, 0.21088246f, 0.31333464f, -0.26822501f, -0.15341894f, 0.27511334f, 0.24621890f, 0.24821578f, -0.93290311f, 0.90244406f, -0.00333499f, -0.04474083f, 0.23899552f, -0.29455808f, 0.00196199f, 0.03494516f, -0.38450840f, -0.02160519f, -0.20979883f, 0.34260330f, -0.11384309f, 0.26244238f, 0.02064179f, 0.16912256f, 0.05916541f, -0.30361304f, -0.10260934f, 0.27244177f, 0.27122080f, -0.47872299f, -0.22110853f, 0.92962164f, -0.71729052f, 0.45072374f, 0.59178430f, -0.22104035f, 0.01657710f, 0.78860366f, 0.22082813f, -0.13357978f, -0.44502831f, 0.39040455f },
    { 0.03515448f, 0.07378140f, 0.24112993f, -0.76017725f, -0.19889705f, -0.06079641f, -0.42569134f, 0.11404430f, -0.10507000f, -0.25993803f, -0.06709220f, 0.33533424f, -0.04689895f, -0.34698477f, -0.13737155f, 0.67601585f, 0.18751971f, 0.50792873f, 0.25533807f, -0.02960115f, -0.21488123f, -0.07077444f, 0.48522690f, 0.08838515f, 0.10648847f, -0.31990826f, -0.22932221f, 0.17871170f, -0.14954622f, -0.30276489f, -0.44427118f, 0.08608522f, -0.24386202f, -0.11109010f, -0.03088323f, 0.21124536f, 0.00960270f, -0.05890318f, -0.14627749f, -0.35089085f, -0.08713403f, 0.21356039f, 0.27228037f, -0.15503852f, -0.23004487f, -0.08728744f, 0.17295937f, 0.11688839f, 0.12771192f, 0.35522863f, -0.04282926f, -0.47693753f, -0.36758497f, -0.01885439f, -0.37452677f, 0.09746626f, -0.25619122f, -0.07238173f, -0.01728850f, 0.17514783f, -0.20967400f, -0.32689533f, -0.24064496f, 0.33858886f },
    { -0.04182195f, -0.19633837f, 0.06803213f, -0.40734616f, 0.02062131f, -0.17190358f, -0.72129339f, -0.13859509f, 0.17271067f, -0.14008911f, 0.07192156f, 0.11672900f, -0.02565878f, 0.08573294f, -0.17594077f, -0.07575255f, -0.08412736f, -0.20409943f, 0.24476178f, -0.71389425f, 0.11863508f, -0.07519251f, -0.64376962f, 0.07741140f, 0.45138392f, -0.00951798f, 0.11107773f, 0.10048262f, 0.04997928f, 0.01574477f, -0.07229588f, -0.23977713f, -0.00417286f, -0.27338761f, -0.03448382f, 0.02110533f, -0.02787917f, -0.19653195f, -0.11518807f, -0.18659964f, -0.31151468f, 0.53994435f, -0.03458091f, 0.05041252f, 0.13546798f, 0.25387648f, -0.00412086f, -0.17612323f, -0.32675198f, -0.23577173f, 0.26324981f, -0.10616436f, -0.04560404f, -0.27398902f, -0.20987374f, 0.13837889f, 0.28176942f, -0.14854479f, 0.11032266f, 0.09738189f, 0.02370089f, 0.30871379f, 0.00738136f, -0.13789891f },
    { 0.19483097f, 0.24126981f, 0.21215902f, -0.48165098f, -0.28956816f, -0.19816224f, 0.34979311f, -0.08063295f, -0.14006586f, -0.02349975f, -0.16562441f, -0.27419364f, -0.22078906f, -0.04054990f, 0.08372297f, 0.01284598f, 0.37531099f, 0.35486695f, 0.32930645f, 0.29454732f, -0.40174508f, 0.05634482f, 0.32602480f, 0.13272318f, -0.14576373f, -0.14933929f, -0.73704195f, -0.17421000f, -0.20160814f, 0.16914490f, 0.30127978f, 0.00897644f, 0.02279470f, -0.20383742f, -0.27217680f, -0.15675154f, -0.04278029f, 0.08690085f, 0.27041033f, 0.08265176f, 0.32257807f, -0.02435018f, -0.08120483f, -0.03805393f, 0.06192927f, -0.08377136f, 0.16778712f, -0.22079475f, 0.26352769f, -0.11241334f, 0.10297011f, -0.16940467f, -0.11050826f, 0.19110379f, 0.41197759f, 0.06156946f, -0.23868494f, 0.09122127f, -0.05692057f, 0.03254217f, -0.09511776f, 0.20957603f, 0.10948531f, 0.04509545f },
    { -0.14470257f, -0.05614228f, -0.10996021f, 0.27025309f, 0.27688339f, -0.04978144f, -0.08092248f, -0.30700064f, 0.00398687f, -0.05927387f, 0.40681651f, -0.16425930f, 0.14108931f, 0.00105460f, -0.06543562f, -0.31398821f, -0.40763864f, -0.25946575f, 0.10695311f, -0.72985816f, 0.17680873f, 0.13801675f, -0.20421696f, -0.22606336f, -0.11537427f, -0.34155869f, 0.19479141f, -0.25717965f, 0.00721376f, 0.14614321f, -0.10679914f, -0.17211817f, -0.17002876f, 0.05737941f, 0.15662855f, -0.05395032f, -0.04031406f, -0.06592920f, -0.11279148f, -0.17703103f, -0.00472989f, 0.23542626f, -0.21376556f, 0.26291457f, 0.11825264f, 0.29573765f, 0.06114933f, 0.07423032f, -0.18103717f, -0.09809928f, 0.17940231f, 0.39370993f, -0.14138205f, 0.05824251f, -0.15642144f, -0.30629566f, 0.15657613f, 0.00556810f, 0.43515357f, -0.22627972f, -0.08857603f, 0.09504921f, -0.20131770f, -0.51841164f },
    { -0.09487575f, -0.04447551f, -0.42888564f, -0.21005289f, 0.11159560f, 0.07307614f, -0.64827067f, -0.09541453f, 0.20872456f, -0.26028776f, 0.08007761f, 0.11378026f, 0.24975958f, 0.11961023f, 0.08070557f, -0.14523287f, 0.12788205f, 0.17210783f, 0.05593530f, -0.33201027f, 0.20251216f, 0.37796322f, -0.07551192f, 0.15300532f, 0.12447061f, -0.26320124f, 0.28873733f, 0.01801546f, -0.08095895f, 0.27192447f, 0.16536002f, 0.05419948f, -0.19227915f, 0.12349492f, -0.08687180f, 0.25588885f, -0.06546802f, -0.02217246f, 0.08369190f, -0.00612912f, -0.24062476f, 0.52142304f, -0.28121600f, 0.39034581f, 0.04608774f, 0.08186121f, 0.02037213f, -0.10992306f, -0.03820437f, 0.11506497f, 0.13323087f, -0.31648922f, 0.22797005f, 0.25206587f, -0.14579657f, 0.16368715f, -0.02561073f, -0.16590330f, 0.04974689f, -0.12659366f, 0.35242316f, -0.06421524f, 0.24428855f, -0.30783838f },
    { 0.08402349f, 0.15213235f, -0.12458402f, -0.30671313f, -0.02740550f, -0.25103736f, 0.33872527f, -0.07383899f, -0.16482230f, -0.14675967f, -0.29566655f, -0.36989245f, -0.02016101f, -0.15241918f, -0.01761479f, -0.53007138f, -0.06168101f, 0.08298684f, -0.17635742f, 0.44558659f, 0.03369403f, -0.06442509f, -0.08255470f, -0.24172233f, 0.06884269f, 0.17865881f, -0.14923863f, -0.41693556f, 0.14423399f, -0.36144826f, -0.05901453f, -0.14876573f, -0.14317973f, 0.01516745f, 0.26784909f, -0.29439211f, 0.04404644f, -0.09531238f, 0.25523302f, -0.15254299f, -0.08172497f, -0.05694654f, 0.27014598f, 0.05095919f, -0.20291376f, 0.18624622f, -0.21586196f, 0.06341299f, -0.09352830f, -0.11770164f, 0.06156221f, -0.06916793f, 0.00100204f, -0.30804992f, 0.08162183f, -0.34788877f, -0.44743994f, -0.15865678f, -0.22300561f, -0.06109119f, -0.09838630f, -0.18564643f, -0.06553715f, -0.01953780f },
    { -0.10982123f, -0.21859442f, -0.05146442f, -0.51582623f, -0.27077818f, -0.05613182f, 0.94767332f, -0.11321118f, 0.20846872f, -0.01214523f, 0.06729047f, 0.02402725f, 0.01377547f, -0.20783970f, -0.26351553f, 0.32416391f, 0.22602686f, 0.13843456f, 0.12497023f, 0.37650707f, -0.10810437f, -0.06406888f, 1.38974702f, -0.01640846f, -0.03687217f, 0.05295714f, -0.49218720f, -0.17632760f, -0.11976604f, -0.25810713f, 0.07444048f, 0.18364391f, -0.07425078f, 0.20292738f, 0.06075621f, 0.26445121f, 0.01711098f, -0.02101757f, -0.02495079f, 0.09189149f, -0.04697759f, -0.05952047f, 0.05813080f, -0.17181222f, -0.08819146f, -0.12930764f, -0.15104792f, 0.23847675f, 0.05657427f, 0.13374221f, -0.39219189f, -0.39186233f, 0.01027379f, 0.01731937f, 0.52761817f, 0.16638280f, -0.29758891f, 0.01382360f, 0.01140590f, 0.08507072f, 0.01398706f, -0.12139024f, 0.15212269f, 0.18418698f },
    { -0.10621687f, 0.12504674f, -0.19857986f, 0.19797125f, -0.05766542f, -0.21872480f, -0.15498126f, 0.12259630f, -0.02284622f, -0.34042862f, 0.39871821f, -0.02617424f, 0.03261353f, -0.09602848f, -0.00417477f, -0.12090328f, -0.16008702f, -0.29533249f, -0.05697028f, -0.40930426f, -0.07003385f, -0.05330905f, -0.33454558f, -0.20829053f, -0.26449478f, -0.20624514f, 0.34693965f, -0.10429022f, 0.05899108f, -0.08848394f, 0.12836641f, -0.17661108f, -0.18537843f, -0.05958077f, 0.10640924f, -0.33753866f, -0.07122599f, -0.22957705f, -0.04831074f, 0.10296416f, -0.04512411f, 0.25440004f, 0.17225914f, -0.02632352f, -0.06228738f, 0.02771473f, -0.08643031f, 0.02112333f, -0.20666490f, -0.27815625f, -0.04556173f, 0.38711184f, 0.09333256f, -0.04077956f, -0.14709774f, -0.11050740f, -0.16759980f, 0.00117487f, 0.15160663f, -0.12835690f, 0.07658918f, -0.14001328f, -0.30536214f, -0.07615129f },
    { -0.12553336f, -0.13745436f, 0.12030236f, -0.70666301f, -0.22284859f, -0.16065884f, -0.08100127f, -0.06263101f, -0.19009320f, 0.05261634f, -0.20922092f, -0.50890678f, -0.09376098f, -0.34371856f, -0.03985955f, -0.29985198f, 0.14494149f, 0.07041392f, -0.19775496f, -0.06341337f, -0.10944064f, -0.23982824f, -0.14170754f, 0.17099467f, -0.38686973f, 0.32354295f, -0.48426414f, 0.23750599f, -0.24086256f, -0.12178469f, -0.15766348f, 0.15241997f, 0.37511113f, 0.04527444f, 0.17762539f, -0.29668048f, 0.14601064f, 0.32157782f, 0.10665753f, -0.02168491f, 0.10202615f, -0.34731862f, -0.19932874f, -0.35841337f, -0.13509850f, -0.00846173f, -0.09742253f, -0.18503480f, -0.09939715f, -0.22139135f, -0.78349191f, -0.42994630f, -0.14814843f, -0.18161306f, -0.07689414f, -0.29671404f, -0.16057445f, 0.28018758f, -0.19307245f, -0.06016899f, -0.30077121f, -0.31369883f, 0.06410245f, 0.22217967f },
    { -0.05718551f, -0.11255810f, 0.00166829f, 0.26718208f, 0.42937416f, -0.46204135f, 0.08085245f, -0.11937395f, -0.05738539f, 0.08544565f, -0.02808285f, -0.36740574f, -0.06182674f, 0.08221691f, 0.06544871f, -0.38392457f, -0.44444340f, -0.21903826f, -0.02594174f, -0.31018621f, 0.46551403f, 0.31619024f, -0.39467403f, 0.03182117f, 0.03494031f, 0.37743577f, 0.09412740f, 0.15046938f, -0.01507637f, 0.13636012f, 0.09904481f, -0.18002568f, 0.19734427f, -0.06733363f, 0.24065907f, -0.68867797f, -0.32161313f, -0.14742568f, 0.04076201f, -0.07458826f, 0.24193378f, -0.33050776f, 0.04876048f, -0.18449076f, -0.10574263f, 0.07123481f, 0.27624020f, 0.15121152f, -0.25409812f, -0.06272085f, -0.00920401f, 0.07318501f, 0.31049553f, -0.24476938f, -0.31045946f, -0.00127319f, 0.04184331f, 0.02795619f, 0.15438548f, -0.04966766f, 0.18678503f, 0.12464549f, -0.02197490f, -0.17700617f },
    { -0.03081508f, -0.10734695f, -0.14504990f, 0.31874359f, 0.06472134f, -0.11974911f, -0.32450482f, -0.14064263f, -0.17675675f, -0.11325742f, -0.02788087f, -0.20780820f, 0.09404952f, 0.08150153f, -0.15775789f, -0.08709238f, -0.05037996f, -0.21390568f, -0.01043460f, -0.55350977f, 0.19342597f, -0.13165110f, -0.74607795f, -0.08431483f, 0.13443996f, -0.33187196f, 0.00513358f, -0.37054440f, -0.29769805f, 0.03861097f, -0.17722878f, -0.15203601f, 0.22461472f, 0.12453821f, 0.10633244f, 0.01624987f, 0.02993912f, -0.05761454f, -0.08978932f, 0.25392851f, -0.15457603f, 0.05419503f, 0.06262282f, 0.12563826f, 0.08441362f, 0.10963458f, -0.12851378f, 0.02338297f, -0.30111027f, -0.10044552f, 0.09619533f, -0.12221422f, 0.06706725f, -0.06976891f, -0.60129839f, -0.13359192f, 0.06102707f, -0.17570190f, 0.10909712f, 0.02618202f, -0.11117577f, 0.08938244f, -0.21454242f, -0.09125673f },
    { 0.16858515f, 0.06554873f, -0.06538986f, -0.68327487f, -0.06709234f, 0.09980631f, 0.42722699f, 0.01052002f, -0.30453563f, -0.03643460f, -0.10571659f, 0.47984597f, -0.00256320f, 0.05172011f, -0.08080273f, 0.45428178f, 0.34384036f, 0.19278669f, 0.03052926f, 0.32714316f, 0.17489524f, -0.00162610f, 0.68750876f, 0.13330603f, 0.11998826f, 0.26034787f, -0.30063558f, 0.30765280f, 0.01981463f, 0.11957145f, 0.20409888f, 0.62886465f, 0.17490450f, 0.20648870f, -0.09009550f, 0.10908879f, 0.10588958f, 0.08313666f, -0.26972097f, -0.30654389f, 0.24079141f, -0.11383740f, 0.17286959f, -0.13774151f, -0.01715743f, 0.13180722f, -0.08432793f, 0.10729332f, -0.00536161f, 0.12511054f, -0.35283482f, -0.46336624f, 0.05119837f, 0.04450447f, 0.45035374f, 0.12592520f, -0.23324364f, 0.22866921f, -0.28158933f, 0.04390329f, -0.16142686f, -0.16134901f, -0.06192325f, 0.13056114f }
};

static const port_float lstm_bias[LSTM_UNITS * 4u] = { 0.08773522f, 0.02688838f, 0.05768557f, 0.86392450f, -0.04765967f, 0.41278026f, 0.08535969f, 0.06437543f, 0.25012779f, 0.17752378f, 0.07974823f, 0.08205599f, 0.24460572f, 0.06112753f, 0.02566860f, 0.13186565f, 1.02466977f, 1.00449383f, 1.01549244f, 0.86646092f, 1.03238726f, 0.92210954f, 1.14588666f, 1.01694953f, 0.86919111f, 0.93323720f, 1.09757388f, 1.08195531f, 0.92590249f, 1.03236806f, 1.00180757f, 1.01700163f, -0.06330541f, -0.01933132f, 0.00186931f, -0.02953221f, -0.01602128f, -0.01310637f, -0.01277634f, 0.00252342f, -0.03501002f, -0.07234637f, 0.01556438f, -0.00235217f, -0.02835125f, 0.00048816f, -0.01059572f, -0.00536282f, 0.10286927f, 0.05208321f, 0.05964483f, 1.10929072f, -0.00761269f, 0.41491491f, 0.12965314f, 0.07726318f, 0.31295782f, 0.14160335f, 0.10411640f, 0.08697139f, 0.26255256f, 0.11950875f, 0.04658931f, 0.14962189f };

static const port_float dense_kernel[LSTM_UNITS][DENSE_UNITS] = {
    { 0.26073396f, 0.52012205f, 0.23635669f, 0.00922048f, -0.27237850f, 0.53045154f, -0.15697125f, -0.11248875f, -0.22368492f, -0.34479219f, -0.51646805f, 0.26782140f, 0.16459778f, -0.01552522f, -0.07228234f, -0.02105813f },
    { -0.04251360f, 0.46467534f, -0.02244799f, -0.08185290f, -0.17755957f, 0.31119215f, 0.43280235f, 0.04308888f, -0.23544997f, -0.15002395f, -0.30178040f, 0.64076692f, 0.39589441f, 0.04351649f, -0.31256625f, -0.19445370f },
    { -0.09413710f, -0.07397375f, 0.09597173f, 0.06290167f, -0.32724833f, -0.03244281f, 0.21442550f, -0.09363333f, 0.26520026f, -0.58677870f, -0.27464795f, 0.91786313f, 0.30380860f, 0.16279306f, -0.16018210f, 0.34275988f },
    { -0.25778639f, -0.02420799f, 0.31022608f, 0.76153976f, 0.39388189f, 0.43802744f, -0.17271337f, 0.01728113f, -0.39969221f, 0.00836873f, 0.22949608f, 0.37515119f, 0.64323080f, -0.31289256f, -0.47373354f, 0.09194159f },
    { -0.43613458f, 0.09589045f, -0.04746155f, 0.36885092f, -0.23820882f, -0.39876485f, 0.24534421f, 0.08914664f, -0.17353344f, -0.07433527f, -0.12370196f, -0.28661469f, 0.32989529f, -0.24137487f, 0.33570260f, -0.06639538f },
    { 0.00978992f, -0.23795438f, 0.16488470f, 0.18466087f, -0.39797342f, 0.16474703f, 0.29827541f, 0.41489726f, 0.54775292f, 0.38704619f, -0.02207164f, -0.13908158f, -0.24185345f, 0.00396799f, -0.35020980f, -0.13250144f },
    { -0.06054181f, 0.01406013f, 0.09388544f, -0.48491573f, 0.30188817f, 0.15190068f, -0.46660820f, 0.29967409f, 0.38797948f, -0.08324607f, -0.17259264f, 0.05524145f, 0.34425581f, 0.03483049f, 0.00705951f, 0.35279915f },
    { 0.01587978f, 0.33644497f, -0.37625051f, 0.05715794f, -0.09263213f, -0.00150859f, 0.34104666f, 0.26633713f, 0.22619100f, 0.50692928f, -0.15354092f, -0.09858838f, -0.03386104f, -0.34873477f, -0.21287419f, -0.12795042f },
    { 0.40245473f, 0.17466016f, -0.63279647f, 0.47854841f, 0.02402228f, 0.49664003f, 0.41055420f, 0.23395574f, 0.33193484f, 0.10490283f, -0.39763510f, -0.01073179f, 0.40897474f, 0.07688916f, 0.12066089f, 0.24482809f },
    { 0.06325050f, 0.38227090f, 0.24382704f, -0.15364105f, -0.06055592f, -0.57747644f, 0.21986856f, -0.30371720f, -0.32551396f, 0.39998937f, -0.02928503f, 0.07216053f, -0.15608320f, 0.14640203f, 0.27646866f, 0.28525835f },
    { -0.08791853f, -0.04883836f, -0.02108831f, -0.01450815f, 0.12480842f, -0.05545511f, -0.14508049f, 0.48723194f, -0.03836789f, -0.16807926f, 0.24908440f, 0.02475295f, -0.12623031f, 0.45611730f, -0.25628638f, -0.25131735f },
    { 0.00635016f, -0.28863719f, 0.10356993f, -0.09970113f, -0.38132256f, 0.26969555f, -0.34787548f, 0.32460752f, -0.25702453f, 0.02512839f, -0.21407935f, 0.51824892f, -0.24457213f, -0.34340817f, 0.05450100f, 0.34333372f },
    { -0.17790693f, 0.37846354f, 0.47699490f, -0.61053061f, -0.13373950f, 0.18426727f, -0.48869622f, 0.05552865f, -0.33659211f, -0.28762078f, 0.00336385f, -0.12111436f, -0.01359811f, -0.21684620f, 0.11160915f, 0.28930518f },
    { -0.12853777f, -0.19755924f, -0.32494801f, -0.16690727f, 0.22410893f, -0.07710775f, 0.29186672f, -0.66980201f, -0.20279278f, -0.29502878f, -0.34034115f, -0.08998016f, -0.26927748f, 0.28099954f, 0.13333173f, 0.36561635f },
    { 0.31684870f, -0.10624355f, -0.24185361f, 0.19098498f, -0.00232635f, 0.14080121f, 0.39390454f, 0.10572273f, 0.11953830f, 0.36107919f, -0.05028804f, -0.07839968f, 0.11495850f, 0.11540721f, 0.13139129f, 0.38904145f },
    { -0.06482469f, -0.30223441f, 0.24858887f, 0.06953731f, 0.38496557f, 0.17978129f, 0.20618893f, -0.18284570f, -0.15117131f, 0.07142449f, 0.09721635f, -0.22143060f, -0.30289251f, -0.33662137f, 0.29977825f, -0.21112508f }
};

static const port_float dense_bias[DENSE_UNITS] = { -0.01254978f, 0.03146851f, 0.02830211f, -0.01735597f, 0.02837205f, 0.01362625f, 0.01527088f, -0.03836672f, 0.03917762f, -0.00683327f, 0.05042524f, -0.00715256f, -0.09273591f, -0.06394251f, 0.05232675f, -0.02550005f };

static const port_float output_kernel[DENSE_UNITS][OUTPUT_UNITS] = {
    { 0.45581400f },
    { -0.24371119f },
    { -0.38974723f },
    { 0.29589123f },
    { -0.55839580f },
    { 0.32906342f },
    { 0.47850931f },
    { -0.84206766f },
    { 0.66007096f },
    { -0.22106892f },
    { -0.20366353f },
    { 0.37189832f },
    { -0.14253914f },
    { -0.24231498f },
    { -0.45472470f },
    { 0.29032475f }
};

static const port_float output_bias[OUTPUT_UNITS] = { 0.01730589f };

#endif
