{
  "project_name": "WNET5_EFF2_B1",
  "task_type": "wnet5-circuit-validation",
  "analysis_layer": 3,
  "frequency_range": {
    "start_freq": 2,
    "stop_freq": 500
  },
  "svf": {
    "center_freqs": [
      10.0,
      30.0,
      60.0,
      100.0,
      160.0
    ],
    "quality_factors": [
      1.5,
      2.0,
      2.5,
      3.5,
      4.5
    ],
    "transfer_functions": [
      {
        "f0": 10.0,
        "Q": 1.5,
        "channels": {
          "high_pass": {
            "symbolic": "s**2/(s**2 + 13.3333333333333*pi*s + 400.0*pi**2)",
            "numerator_coeffs": [
              1.0,
              0.0,
              0.0
            ],
            "denominator_coeffs": [
              1.0,
              41.8879020478639,
              3947.8417604357433
            ]
          },
          "band_pass": {
            "symbolic": "13.3333333333333*pi*s/(s**2 + 13.3333333333333*pi*s + 400.0*pi**2)",
            "numerator_coeffs": [
              41.8879020478639,
              0.0
            ],
            "denominator_coeffs": [
              1.0,
              41.8879020478639,
              3947.8417604357433
            ]
          },
          "low_pass": {
            "symbolic": "400.0*pi**2/(s**2 + 13.3333333333333*pi*s + 400.0*pi**2)",
            "numerator_coeffs": [
              3947.8417604357433
            ],
            "denominator_coeffs": [
              1.0,
              41.8879020478639,
              3947.8417604357433
            ]
          }
        }
      },
      {
        "f0": 30.0,
        "Q": 2.0,
        "channels": {
          "high_pass": {
            "symbolic": "s**2/(s**2 + 30.0*pi*s + 3600.0*pi**2)",
            "numerator_coeffs": [
              1.0,
              0.0,
              0.0
            ],
            "denominator_coeffs": [
              1.0,
              94.2477796076938,
              35530.57584392169
            ]
          },
          "band_pass": {
            "symbolic": "30.0*pi*s/(s**2 + 30.0*pi*s + 3600.0*pi**2)",
            "numerator_coeffs": [
              94.2477796076938,
              0.0
            ],
            "denominator_coeffs": [
              1.0,
              94.2477796076938,
              35530.57584392169
            ]
          },
          "low_pass": {
            "symbolic": "3600.0*pi**2/(s**2 + 30.0*pi*s + 3600.0*pi**2)",
            "numerator_coeffs": [
              35530.57584392169
            ],
            "denominator_coeffs": [
              1.0,
              94.2477796076938,
              35530.57584392169
            ]
          }
        }
      },
      {
        "f0": 60.0,
        "Q": 2.5,
        "channels": {
          "high_pass": {
            "symbolic": "s**2/(s**2 + 48.0*pi*s + 14400.0*pi**2)",
            "numerator_coeffs": [
              1.0,
              0.0,
              0.0
            ],
            "denominator_coeffs": [
              1.0,
              150.79644737231007,
              142122.30337568675
            ]
          },
          "band_pass": {
            "symbolic": "48.0*pi*s/(s**2 + 48.0*pi*s + 14400.0*pi**2)",
            "numerator_coeffs": [
              150.79644737231007,
              0.0
            ],
            "denominator_coeffs": [
              1.0,
              150.79644737231007,
              142122.30337568675
            ]
          },
          "low_pass": {
            "symbolic": "14400.0*pi**2/(s**2 + 48.0*pi*s + 14400.0*pi**2)",
            "numerator_coeffs": [
              142122.30337568675
            ],
            "denominator_coeffs": [
              1.0,
              150.79644737231007,
              142122.30337568675
            ]
          }
        }
      },
      {
        "f0": 100.0,
        "Q": 3.5,
        "channels": {
          "high_pass": {
            "symbolic": "s**2/(s**2 + 57.1428571428571*pi*s + 40000.0*pi**2)",
            "numerator_coeffs": [
              1.0,
              0.0,
              0.0
            ],
            "denominator_coeffs": [
              1.0,
              179.51958020513104,
              394784.17604357435
            ]
          },
          "band_pass": {
            "symbolic": "57.1428571428571*pi*s/(s**2 + 57.1428571428571*pi*s + 40000.0*pi**2)",
            "numerator_coeffs": [
              179.51958020513104,
              0.0
            ],
            "denominator_coeffs": [
              1.0,
              179.51958020513104,
              394784.17604357435
            ]
          },
          "low_pass": {
            "symbolic": "40000.0*pi**2/(s**2 + 57.1428571428571*pi*s + 40000.0*pi**2)",
            "numerator_coeffs": [
              394784.17604357435
            ],
            "denominator_coeffs": [
              1.0,
              179.51958020513104,
              394784.17604357435
            ]
          }
        }
      },
      {
        "f0": 160.0,
        "Q": 4.5,
        "channels": {
          "high_pass": {
            "symbolic": "s**2/(s**2 + 71.1111111111111*pi*s + 102400.0*pi**2)",
            "numerator_coeffs": [
              1.0,
              0.0,
              0.0
            ],
            "denominator_coeffs": [
              1.0,
              223.4021442552742,
              1010647.4906715503
            ]
          },
          "band_pass": {
            "symbolic": "71.1111111111111*pi*s/(s**2 + 71.1111111111111*pi*s + 102400.0*pi**2)",
            "numerator_coeffs": [
              223.4021442552742,
              0.0
            ],
            "denominator_coeffs": [
              1.0,
              223.4021442552742,
              1010647.4906715503
            ]
          },
          "low_pass": {
            "symbolic": "102400.0*pi**2/(s**2 + 71.1111111111111*pi*s + 102400.0*pi**2)",
            "numerator_coeffs": [
              1010647.4906715503
            ],
            "denominator_coeffs": [
              1.0,
              223.4021442552742,
              1010647.4906715503
            ]
          }
        }
      }
    ]
  },
  "dense_layer": {
    "layer_name": "Dense_Layer_Model_3",
    "weights": [
      [
        -1.0403083562850952,
        0.7392950654029846,
        0.5035572648048401,
        -0.28185662627220154,
        -0.08695665746927261,
        -0.21667057275772095,
        0.19749797880649567,
        0.19056200981140137,
        -0.5276166200637817,
        1.3124219179153442,
        1.0758298635482788,
        -0.5231033563613892,
        0.12869805097579956,
        -0.20046719908714294,
        0.32784363627433777,
        -2.711204767227173
      ],
      [
        -0.09767065942287445,
        0.4787777364253998,
        -0.2654757499694824,
        0.33943575620651245,
        -0.13786399364471436,
        -0.2718697190284729,
        -0.29551586508750916,
        0.2323766052722931,
        -1.3746625185012817,
        0.28122958540916443,
        0.47605952620506287,
        -0.19706442952156067,
        0.16133049130439758,
        0.5785990357398987,
        -0.6450607180595398,
        0.9052785038948059
      ],
      [
        -0.9254958033561707,
        0.30344852805137634,
        -0.34091269969940186,
        0.10751330107450485,
        0.2879514694213867,
        0.024196861311793327,
        -0.008376791141927242,
        -2.1799590587615967,
        -0.043154723942279816,
        0.09807154536247253,
        0.06025322154164314,
        0.5385279059410095,
        -0.05279683694243431,
        -0.049666061997413635,
        -0.093326136469841,
        -0.8675404787063599
      ],
      [
        -0.34912461042404175,
        -0.004148577339947224,
        -0.20668916404247284,
        -0.17121988534927368,
        0.1427305042743683,
        0.10110441595315933,
        0.5376415848731995,
        -0.5832439064979553,
        0.1550484597682953,
        -0.6712844967842102,
        -0.30708128213882446,
        0.13248904049396515,
        -0.17147913575172424,
        -0.1201339140534401,
        -0.022372735664248466,
        -0.396650105714798
      ],
      [
        -0.12110491096973419,
        -0.07043177634477615,
        0.09316150099039078,
        -0.24379730224609375,
        0.23445670306682587,
        0.32054972648620605,
        -0.1541784554719925,
        0.18209800124168396,
        -0.5330132246017456,
        0.40228915214538574,
        0.3852729797363281,
        -0.6225286722183228,
        0.10031669586896896,
        -0.1655023694038391,
        -0.046971436589956284,
        -0.009164082817733288
      ],
      [
        -0.3143705725669861,
        0.4441811442375183,
        -0.16861890256404877,
        -0.07806100696325302,
        0.3914170563220978,
        0.06975212693214417,
        0.15798792243003845,
        -0.2857339382171631,
        0.3503890633583069,
        0.862647294998169,
        0.2318764179944992,
        -2.691736936569214,
        0.019748685881495476,
        -0.08678760379552841,
        -0.035294465720653534,
        0.9747691750526428
      ],
      [
        -0.029221709817647934,
        0.1634644716978073,
        0.09243127703666687,
        -0.08319790661334991,
        0.9614408612251282,
        0.2111327052116394,
        0.1173587217926979,
        0.14945228397846222,
        -0.4265565574169159,
        -0.647402822971344,
        -0.2299308329820633,
        -0.8113530874252319,
        -0.33974605798721313,
        -0.2711823582649231,
        0.6057949066162109,
        0.2794022858142853
      ],
      [
        0.4531099796295166,
        0.63694828748703,
        0.41227829456329346,
        -0.40458232164382935,
        -0.7347599864006042,
        -0.24413859844207764,
        -0.5475285649299622,
        -0.21300609409809113,
        0.48317572474479675,
        -1.0587952136993408,
        0.33717817068099976,
        -0.4195544719696045,
        0.015126253478229046,
        -0.09496274590492249,
        -0.02656463161110878,
        0.4811193645000458
      ],
      [
        -0.061437904834747314,
        0.4166512191295624,
        0.07942049950361252,
        -0.37372732162475586,
        -0.4694419205188751,
        -0.09500967711210251,
        -0.46181759238243103,
        -1.6239174604415894,
        1.530720591545105,
        -0.5459223389625549,
        0.4636181592941284,
        0.03797949478030205,
        -0.40282800793647766,
        -0.38738495111465454,
        0.2943609058856964,
        0.12344305217266083
      ],
      [
        -0.49052169919013977,
        0.1639726161956787,
        -0.08270462602376938,
        0.13951195776462555,
        0.3124939501285553,
        -0.2074747085571289,
        0.051879726350307465,
        -0.12635581195354462,
        -0.5336501002311707,
        -1.1661250591278076,
        -0.9454630613327026,
        -0.9819942712783813,
        -0.24245676398277283,
        0.2910688817501068,
        0.4150432050228119,
        -3.2641654014587402
      ],
      [
        0.05228608474135399,
        -0.17975573241710663,
        0.10278229415416718,
        -0.3866456151008606,
        0.2512432336807251,
        0.27727794647216797,
        0.3851831257343292,
        -1.0872976779937744,
        0.09537727385759354,
        -2.3424854278564453,
        0.08680908381938934,
        0.16018883883953094,
        0.21346186101436615,
        -0.30610719323158264,
        0.23222042620182037,
        -1.7500860691070557
      ],
      [
        0.1340736448764801,
        0.044385846704244614,
        -0.5223171710968018,
        -0.04971983656287193,
        0.021680722013115883,
        -0.7199848294258118,
        -0.1362871676683426,
        0.6408858895301819,
        0.3221333920955658,
        1.1477302312850952,
        0.40923982858657837,
        0.27839741110801697,
        -0.3454694151878357,
        0.09134124219417572,
        0.051859863102436066,
        0.5629498362541199
      ],
      [
        -0.3600079417228699,
        0.35386282205581665,
        -1.3784183263778687,
        0.31513500213623047,
        -0.12995418906211853,
        -0.1409005969762802,
        -1.0557548999786377,
        0.19214363396167755,
        -0.37445688247680664,
        -1.0127032995224,
        0.3349403738975525,
        -0.2636360228061676,
        -0.5598642230033875,
        -0.4668111801147461,
        -1.4716917276382446,
        0.7124485969543457
      ],
      [
        0.24974852800369263,
        0.11038078367710114,
        -0.4819207787513733,
        -0.38258132338523865,
        -3.1359245777130127,
        -0.2022874504327774,
        -0.14146088063716888,
        -0.07122554630041122,
        0.06990442425012589,
        -1.1680798530578613,
        -0.008387974463403225,
        -0.2583683431148529,
        -0.1715186983346939,
        -0.2497485876083374,
        0.48300760984420776,
        -1.0523873567581177
      ],
      [
        -0.28318077325820923,
        -0.0527239553630352,
        0.26635977625846863,
        -0.38595616817474365,
        -0.35468271374702454,
        0.47535160183906555,
        0.5678238868713379,
        -0.3607000708580017,
        0.25374501943588257,
        -0.3193845748901367,
        -0.09614591300487518,
        -0.10175227373838425,
        -0.699176549911499,
        0.32269716262817383,
        -0.38299381732940674,
        -1.220178484916687
      ],
      [
        0.05012965947389603,
        -0.34104079008102417,
        -1.0445719957351685,
        -0.24091607332229614,
        -0.5215081572532654,
        0.4719927906990051,
        -0.1949051320552826,
        0.09326562285423279,
        0.4044067859649658,
        -0.1553850769996643,
        -0.5828307271003723,
        0.6770771741867065,
        -0.16621460020542145,
        0.04925316944718361,
        -0.28111106157302856,
        -0.6538394689559937
      ]
    ],
    "bias": [
      -0.12460264563560486,
      -0.09079977124929428,
      -0.03707194700837135,
      -0.12910893559455872,
      -0.19111458957195282,
      0.028905006125569344,
      0.15346261858940125,
      -0.08340074867010117,
      -0.11007894575595856,
      0.06603414565324783,
      0.012882373295724392,
      -0.036395326256752014,
      -0.02912268601357937,
      -0.33953428268432617,
      -0.11747729033231735,
      0.13317857682704926
    ]
  },
  "combined_transfer_functions": [
    {
      "output_index": 0,
      "symbolic": "-0.36000794172287*s**2/(s**2 + 71.1111111111111*pi*s + 102400.0*pi**2) - 0.49052169919014*s**2/(s**2 + 57.1428571428571*pi*s + 40000.0*pi**2) - 0.0292217098176479*s**2/(s**2 + 48.0*pi*s + 14400.0*pi**2) - 0.349124610424042*s**2/(s**2 + 30.0*pi*s + 3600.0*pi**2) - 0.990178696811199*s**2/(s**2 + 13.3333333333333*pi*s + 400.0*pi**2) + 17.759895324707*pi*s/(s**2 + 71.1111111111111*pi*s + 102400.0*pi**2) + 2.98777627093451*pi*s/(s**2 + 57.1428571428571*pi*s + 40000.0*pi**2) + 21.7492790222168*pi*s/(s**2 + 48.0*pi*s + 14400.0*pi**2) - 3.63314732909203*pi*s/(s**2 + 30.0*pi*s + 3600.0*pi**2) - 1.30227545897166*pi*s/(s**2 + 13.3333333333333*pi*s + 400.0*pi**2) - 0.124602645635605 - 28997.7111816406*pi**2/(s**2 + 71.1111111111111*pi*s + 102400.0*pi**2) + 5362.9457950592*pi**2/(s**2 + 57.1428571428571*pi*s + 40000.0*pi**2) - 884.705829620361*pi**2/(s**2 + 48.0*pi*s + 14400.0*pi**2) - 1131.73406124115*pi**2/(s**2 + 30.0*pi*s + 3600.0*pi**2) - 370.198321342468*pi**2/(s**2 + 13.3333333333333*pi*s + 400.0*pi**2)",
      "numerator_coeffs": [
        -2.3436573036015034,
        -1251.505948980381,
        -3631131.5482662986,
        -1276279665.2281609,
        -1359115767608.2815,
        -283974842626391.0,
        -1.5340502157242973e+17,
        -1.588438595825853e+19,
        -4.0319523873600873e+21,
        -1.0898568275681134e+23,
        -1.2527606189674201e+25
      ],
      "denominator_coeffs": [
        1.0,
        689.853853488273,
        1767225.2539945075,
        795187431.0952163,
        792021019882.4027,
        213111688800330.88,
        9.937119347634656e+16,
        1.32729908083943e+19,
        2.7361947847020894e+21,
        1.1930725782134321e+23,
        7.953964697452779e+24
      ]
    },
    {
      "output_index": 1,
      "symbolic": "0.353862822055817*s**2/(s**2 + 71.1111111111111*pi*s + 102400.0*pi**2) + 0.163972616195679*s**2/(s**2 + 57.1428571428571*pi*s + 40000.0*pi**2) + 0.163464471697807*s**2/(s**2 + 48.0*pi*s + 14400.0*pi**2) - 0.00414857733994722*s**2/(s**2 + 30.0*pi*s + 3600.0*pi**2) + 0.39825427532196*s**2/(s**2 + 13.3333333333333*pi*s + 400.0*pi**2) + 7.84930017259386*pi*s/(s**2 + 71.1111111111111*pi*s + 102400.0*pi**2) - 10.2717561381204*pi*s/(s**2 + 57.1428571428571*pi*s + 40000.0*pi**2) + 30.5735177993774*pi*s/(s**2 + 48.0*pi*s + 14400.0*pi**2) - 2.11295329034328*pi*s/(s**2 + 30.0*pi*s + 3600.0*pi**2) + 6.38370315233866*pi*s/(s**2 + 13.3333333333333*pi*s + 400.0*pi**2) - 0.0907997712492943 - 5398.9330291748*pi**2/(s**2 + 71.1111111111111*pi*s + 102400.0*pi**2) + 1775.43386816978*pi**2/(s**2 + 57.1428571428571*pi*s + 40000.0*pi**2) + 5999.7775554657*pi**2/(s**2 + 48.0*pi*s + 14400.0*pi**2) + 1599.05211925507*pi**2/(s**2 + 30.0*pi*s + 3600.0*pi**2) + 121.379411220551*pi**2/(s**2 + 13.3333333333333*pi*s + 400.0*pi**2)",
      "numerator_coeffs": [
        0.9846058366820216,
        631.6593441221736,
        1313522.321789843,
        586919219.4355849,
        534014590801.68427,
        161818033754182.44,
        7.984669106199718e+16,
        1.1625712874268238e+19,
        2.9457749242934796e+21,
        1.3235372877319626e+23,
        8.472109911292038e+24
      ],
      "denominator_coeffs": [
        1.0,
        689.853853488273,
        1767225.2539945075,
        795187431.0952163,
        792021019882.4027,
        213111688800330.88,
        9.937119347634656e+16,
        1.32729908083943e+19,
        2.7361947847020894e+21,
        1.1930725782134321e+23,
        7.953964697452779e+24
      ]
    },
    {
      "output_index": 2,
      "symbolic": "-1.37841832637787*s**2/(s**2 + 71.1111111111111*pi*s + 102400.0*pi**2) - 0.0827046260237694*s**2/(s**2 + 57.1428571428571*pi*s + 40000.0*pi**2) + 0.0924312770366669*s**2/(s**2 + 48.0*pi*s + 14400.0*pi**2) - 0.206689164042473*s**2/(s**2 + 30.0*pi*s + 3600.0*pi**2) - 0.541014730930328*s**2/(s**2 + 13.3333333333333*pi*s + 400.0*pi**2) - 34.2699220445421*pi*s/(s**2 + 71.1111111111111*pi*s + 102400.0*pi**2) + 5.87327395166669*pi*s/(s**2 + 57.1428571428571*pi*s + 40000.0*pi**2) + 19.7893581390381*pi*s/(s**2 + 48.0*pi*s + 14400.0*pi**2) + 2.79484502971172*pi*s/(s**2 + 30.0*pi*s + 3600.0*pi**2) - 3.53967666625977*pi*s/(s**2 + 13.3333333333333*pi*s + 400.0*pi**2) - 0.0370719470083714 + 27275.2410888672*pi**2/(s**2 + 71.1111111111111*pi*s + 102400.0*pi**2) - 20892.6868438721*pi**2/(s**2 + 57.1428571428571*pi*s + 40000.0*pi**2) + 1143.65519285202*pi**2/(s**2 + 48.0*pi*s + 14400.0*pi**2) - 607.028049230576*pi**2/(s**2 + 30.0*pi*s + 3600.0*pi**2) - 136.365079879761*pi**2/(s**2 + 13.3333333333333*pi*s + 400.0*pi**2)",
      "numerator_coeffs": [
        -2.1534675173461437,
        -1163.9660535160838,
        -2155905.451599962,
        -710123703.7786627,
        -745748378747.0906,
        -147794290948746.4,
        -8.482625003323931e+16,
        -8.465680588645916e+18,
        -2.2449555425868456e+21,
        -7.063186880475921e+22,
        -5.751833567700747e+24
      ],
      "denominator_coeffs": [
        1.0,
        689.853853488273,
        1767225.2539945075,
        795187431.0952163,
        792021019882.4027,
        213111688800330.88,
        9.937119347634656e+16,
        1.32729908083943e+19,
        2.7361947847020894e+21,
        1.1930725782134321e+23,
        7.953964697452779e+24
      ]
    },
    {
      "output_index": 3,
      "symbolic": "0.31513500213623*s**2/(s**2 + 71.1111111111111*pi*s + 102400.0*pi**2) + 0.139511957764626*s**2/(s**2 + 57.1428571428571*pi*s + 40000.0*pi**2) - 0.0831979066133499*s**2/(s**2 + 48.0*pi*s + 14400.0*pi**2) - 0.171219885349274*s**2/(s**2 + 30.0*pi*s + 3600.0*pi**2) - 0.522772699594498*s**2/(s**2 + 13.3333333333333*pi*s + 400.0*pi**2) - 27.2057829962836*pi*s/(s**2 + 71.1111111111111*pi*s + 102400.0*pi**2) - 22.0940351486206*pi*s/(s**2 + 57.1428571428571*pi*s + 40000.0*pi**2) - 19.4199514389038*pi*s/(s**2 + 48.0*pi*s + 14400.0*pi**2) - 7.31391906738281*pi*s/(s**2 + 30.0*pi*s + 3600.0*pi**2) + 4.5258100827535*pi*s/(s**2 + 13.3333333333333*pi*s + 400.0*pi**2) - 0.129108935594559 - 39521.9116210938*pi**2/(s**2 + 71.1111111111111*pi*s + 102400.0*pi**2) - 1988.79346251488*pi**2/(s**2 + 57.1428571428571*pi*s + 40000.0*pi**2) - 5381.67343139648*pi**2/(s**2 + 48.0*pi*s + 14400.0*pi**2) - 281.019625067711*pi**2/(s**2 + 30.0*pi*s + 3600.0*pi**2) + 43.0053204298019*pi**2/(s**2 + 13.3333333333333*pi*s + 400.0*pi**2)",
      "numerator_coeffs": [
        -0.451652467250824,
        -581.0888898546156,
        -1744632.9891004842,
        -992699601.3512359,
        -1033391357886.3325,
        -302711168689555.2,
        -1.462581604777353e+17,
        -1.8149990196800131e+19,
        -3.731035825483923e+21,
        -9.385442926304431e+22,
        -7.230630892112086e+24
      ],
      "denominator_coeffs": [
        1.0,
        689.853853488273,
        1767225.2539945075,
        795187431.0952163,
        792021019882.4027,
        213111688800330.88,
        9.937119347634656e+16,
        1.32729908083943e+19,
        2.7361947847020894e+21,
        1.1930725782134321e+23,
        7.953964697452779e+24
      ]
    },
    {
      "output_index": 4,
      "symbolic": "-0.129954189062119*s**2/(s**2 + 71.1111111111111*pi*s + 102400.0*pi**2) + 0.312493950128555*s**2/(s**2 + 57.1428571428571*pi*s + 40000.0*pi**2) + 0.961440861225128*s**2/(s**2 + 48.0*pi*s + 14400.0*pi**2) + 0.142730504274368*s**2/(s**2 + 30.0*pi*s + 3600.0*pi**2) - 0.608464814722538*s**2/(s**2 + 13.3333333333333*pi*s + 400.0*pi**2) - 222.999081081814*pi*s/(s**2 + 71.1111111111111*pi*s + 102400.0*pi**2) + 14.3567562103271*pi*s/(s**2 + 57.1428571428571*pi*s + 40000.0*pi**2) - 35.268479347229*pi*s/(s**2 + 48.0*pi*s + 14400.0*pi**2) + 7.03370109200478*pi*s/(s**2 + 30.0*pi*s + 3600.0*pi**2) - 1.83818658192952*pi*s/(s**2 + 13.3333333333333*pi*s + 400.0*pi**2) - 0.191114589571953 - 36319.5098876953*pi**2/(s**2 + 71.1111111111111*pi*s + 102400.0*pi**2) + 867.228880524635*pi**2/(s**2 + 57.1428571428571*pi*s + 40000.0*pi**2) - 6759.9636554718*pi**2/(s**2 + 48.0*pi*s + 14400.0*pi**2) + 1409.10140275955*pi**2/(s**2 + 30.0*pi*s + 3600.0*pi**2) + 115.180587768555*pi**2/(s**2 + 13.3333333333333*pi*s + 400.0*pi**2)",
      "numerator_coeffs": [
        0.4871317222714424,
        -573.9098277179802,
        -110854.99195248379,
        -677585010.2374432,
        -430687400505.0524,
        -241032021585558.44,
        -1.126367395188492e+17,
        -1.6185669872438241e+19,
        -2.9237442992102687e+21,
        -8.303196992126977e+22,
        -2.4990559780438123e+24
      ],
      "denominator_coeffs": [
        1.0,
        689.853853488273,
        1767225.2539945075,
        795187431.0952163,
        792021019882.4027,
        213111688800330.88,
        9.937119347634656e+16,
        1.32729908083943e+19,
        2.7361947847020894e+21,
        1.1930725782134321e+23,
        7.953964697452779e+24
      ]
    },
    {
      "output_index": 5,
      "symbolic": "-0.14090059697628*s**2/(s**2 + 71.1111111111111*pi*s + 102400.0*pi**2) - 0.207474708557129*s**2/(s**2 + 57.1428571428571*pi*s + 40000.0*pi**2) + 0.211132705211639*s**2/(s**2 + 48.0*pi*s + 14400.0*pi**2) + 0.101104415953159*s**2/(s**2 + 30.0*pi*s + 3600.0*pi**2) + 0.255322217941284*s**2/(s**2 + 13.3333333333333*pi*s + 400.0*pi**2) - 14.3848853641086*pi*s/(s**2 + 71.1111111111111*pi*s + 102400.0*pi**2) + 15.8444540841239*pi*s/(s**2 + 57.1428571428571*pi*s + 40000.0*pi**2) - 11.7186527252197*pi*s/(s**2 + 48.0*pi*s + 14400.0*pi**2) + 9.61649179458618*pi*s/(s**2 + 30.0*pi*s + 3600.0*pi**2) - 3.62492958704631*pi*s/(s**2 + 13.3333333333333*pi*s + 400.0*pi**2) + 0.0289050061255693 + 48676.0040283203*pi**2/(s**2 + 71.1111111111111*pi*s + 102400.0*pi**2) - 28799.3931770325*pi**2/(s**2 + 57.1428571428571*pi*s + 40000.0*pi**2) - 1368.13935041428*pi**2/(s**2 + 48.0*pi*s + 14400.0*pi**2) + 251.107656955719*pi**2/(s**2 + 30.0*pi*s + 3600.0*pi**2) + 9.67874452471733*pi**2/(s**2 + 13.3333333333333*pi*s + 400.0*pi**2)",
      "numerator_coeffs": [
        0.24808903969824314,
        174.39979235226144,
        812391.098844189,
        352666045.1196548,
        265736106343.23914,
        48621838633911.3,
        1.1034317884327386e+16,
        3.63544708062551e+17,
        -1.2491301866755314e+20,
        -4.4402324989230386e+22,
        -1.724331339558841e+24
      ],
      "denominator_coeffs": [
        1.0,
        689.853853488273,
        1767225.2539945075,
        795187431.0952163,
        792021019882.4027,
        213111688800330.88,
        9.937119347634656e+16,
        1.32729908083943e+19,
        2.7361947847020894e+21,
        1.1930725782134321e+23,
        7.953964697452779e+24
      ]
    },
    {
      "output_index": 6,
      "symbolic": "-1.05575489997864*s**2/(s**2 + 71.1111111111111*pi*s + 102400.0*pi**2) + 0.0518797263503075*s**2/(s**2 + 57.1428571428571*pi*s + 40000.0*pi**2) + 0.117358721792698*s**2/(s**2 + 48.0*pi*s + 14400.0*pi**2) + 0.537641584873199*s**2/(s**2 + 30.0*pi*s + 3600.0*pi**2) + 0.00259284675121307*s**2/(s**2 + 13.3333333333333*pi*s + 400.0*pi**2) - 10.0594404008653*pi*s/(s**2 + 71.1111111111111*pi*s + 102400.0*pi**2) + 22.010464327676*pi*s/(s**2 + 57.1428571428571*pi*s + 40000.0*pi**2) - 26.2813711166382*pi*s/(s**2 + 48.0*pi*s + 14400.0*pi**2) - 4.62535366415977*pi*s/(s**2 + 30.0*pi*s + 3600.0*pi**2) - 3.94021153450012*pi*s/(s**2 + 13.3333333333333*pi*s + 400.0*pi**2) + 0.153462618589401 + 58145.166015625*pi**2/(s**2 + 71.1111111111111*pi*s + 102400.0*pi**2) - 5451.4867067337*pi**2/(s**2 + 57.1428571428571*pi*s + 40000.0*pi**2) - 6650.17333030701*pi**2/(s**2 + 48.0*pi*s + 14400.0*pi**2) + 568.756520748138*pi**2/(s**2 + 30.0*pi*s + 3600.0*pi**2) - 3.3507164567709*pi**2/(s**2 + 13.3333333333333*pi*s + 400.0*pi**2)",
      "numerator_coeffs": [
        -0.19281940162181854,
        -46.87976844964095,
        1154815.9313619877,
        445883279.9581569,
        633099319365.5995,
        104416702904077.23,
        5.354392311677199e+16,
        2.1261550791344425e+18,
        6.881648483019772e+20,
        1.6427233015557666e+21,
        2.1697849109730908e+24
      ],
      "denominator_coeffs": [
        1.0,
        689.853853488273,
        1767225.2539945075,
        795187431.0952163,
        792021019882.4027,
        213111688800330.88,
        9.937119347634656e+16,
        1.32729908083943e+19,
        2.7361947847020894e+21,
        1.1930725782134321e+23,
        7.953964697452779e+24
      ]
    },
    {
      "output_index": 7,
      "symbolic": "0.192143633961678*s**2/(s**2 + 71.1111111111111*pi*s + 102400.0*pi**2) - 0.126355811953545*s**2/(s**2 + 57.1428571428571*pi*s + 40000.0*pi**2) + 0.149452283978462*s**2/(s**2 + 48.0*pi*s + 14400.0*pi**2) - 0.583243906497955*s**2/(s**2 + 30.0*pi*s + 3600.0*pi**2) + 0.283827632665634*s**2/(s**2 + 13.3333333333333*pi*s + 400.0*pi**2) - 5.06492773691813*pi*s/(s**2 + 71.1111111111111*pi*s + 102400.0*pi**2) - 62.1312958853585*pi*s/(s**2 + 57.1428571428571*pi*s + 40000.0*pi**2) - 10.2242925167084*pi*s/(s**2 + 48.0*pi*s + 14400.0*pi**2) + 5.46294003725052*pi*s/(s**2 + 30.0*pi*s + 3600.0*pi**2) + 3.09835473696391*pi*s/(s**2 + 13.3333333333333*pi*s + 400.0*pi**2) - 0.0834007486701012 - 36935.6872558594*pi**2/(s**2 + 71.1111111111111*pi*s + 102400.0*pi**2) + 25635.4355812073*pi**2/(s**2 + 57.1428571428571*pi*s + 40000.0*pi**2) - 23384.4114303589*pi**2/(s**2 + 48.0*pi*s + 14400.0*pi**2) - 1028.64217758179*pi**2/(s**2 + 30.0*pi*s + 3600.0*pi**2) - 871.983623504639*pi**2/(s**2 + 13.3333333333333*pi*s + 400.0*pi**2)",
      "numerator_coeffs": [
        -0.16757691651582718,
        -331.62953749331837,
        -906551.9783439022,
        -601763980.2811015,
        -554430993284.5178,
        -171793092314881.34,
        -1.2849630666749827e+17,
        -1.57857827656151e+19,
        -4.567968720338377e+21,
        -2.4481906893549494e+23,
        -3.096339570487286e+25
      ],
      "denominator_coeffs": [
        1.0,
        689.853853488273,
        1767225.2539945075,
        795187431.0952163,
        792021019882.4027,
        213111688800330.88,
        9.937119347634656e+16,
        1.32729908083943e+19,
        2.7361947847020894e+21,
        1.1930725782134321e+23,
        7.953964697452779e+24
      ]
    },
    {
      "output_index": 8,
      "symbolic": "-0.374456882476807*s**2/(s**2 + 71.1111111111111*pi*s + 102400.0*pi**2) - 0.533650100231171*s**2/(s**2 + 57.1428571428571*pi*s + 40000.0*pi**2) - 0.426556557416916*s**2/(s**2 + 48.0*pi*s + 14400.0*pi**2) + 0.155048459768295*s**2/(s**2 + 30.0*pi*s + 3600.0*pi**2) - 0.123209834098816*s**2/(s**2 + 13.3333333333333*pi*s + 400.0*pi**2) + 4.97098128000895*pi*s/(s**2 + 71.1111111111111*pi*s + 102400.0*pi**2) + 5.45012993471963*pi*s/(s**2 + 57.1428571428571*pi*s + 40000.0*pi**2) + 23.1924347877502*pi*s/(s**2 + 48.0*pi*s + 14400.0*pi**2) - 15.9903967380524*pi*s/(s**2 + 30.0*pi*s + 3600.0*pi**2) - 18.3288335800171*pi*s/(s**2 + 13.3333333333333*pi*s + 400.0*pi**2) - 0.110078945755959 + 25983.4899902344*pi**2/(s**2 + 71.1111111111111*pi*s + 102400.0*pi**2) + 12885.3356838226*pi**2/(s**2 + 57.1428571428571*pi*s + 40000.0*pi**2) + 22042.3765182495*pi**2/(s**2 + 48.0*pi*s + 14400.0*pi**2) + 1261.4006280899*pi**2/(s**2 + 30.0*pi*s + 3600.0*pi**2) - 17.2618895769119*pi**2/(s**2 + 13.3333333333333*pi*s + 400.0*pi**2)",
      "numerator_coeffs": [
        -1.4129038602113724,
        -742.5877909313509,
        -1133456.603118597,
        -279154762.6732564,
        217188453525.53958,
        93837823127538.3,
        1.3350462120322592e+17,
        1.4010951229449492e+19,
        5.103464683720129e+21,
        1.3386054488133598e+23,
        1.8323981143244716e+25
      ],
      "denominator_coeffs": [
        1.0,
        689.853853488273,
        1767225.2539945075,
        795187431.0952163,
        792021019882.4027,
        213111688800330.88,
        9.937119347634656e+16,
        1.32729908083943e+19,
        2.7361947847020894e+21,
        1.1930725782134321e+23,
        7.953964697452779e+24
      ]
    },
    {
      "output_index": 9,
      "symbolic": "-1.0127032995224*s**2/(s**2 + 71.1111111111111*pi*s + 102400.0*pi**2) - 1.16612505912781*s**2/(s**2 + 57.1428571428571*pi*s + 40000.0*pi**2) - 0.647402822971344*s**2/(s**2 + 48.0*pi*s + 14400.0*pi**2) - 0.67128449678421*s**2/(s**2 + 30.0*pi*s + 3600.0*pi**2) + 1.15703684091568*s**2/(s**2 + 13.3333333333333*pi*s + 400.0*pi**2) - 83.0634562174479*pi*s/(s**2 + 71.1111111111111*pi*s + 102400.0*pi**2) - 133.856310163225*pi*s/(s**2 + 57.1428571428571*pi*s + 40000.0*pi**2) - 50.8221702575684*pi*s/(s**2 + 48.0*pi*s + 14400.0*pi**2) + 12.0686745643616*pi*s/(s**2 + 30.0*pi*s + 3600.0*pi**2) + 3.74972780545553*pi*s/(s**2 + 13.3333333333333*pi*s + 400.0*pi**2) + 0.0660341456532478 - 32704.98046875*pi**2/(s**2 + 71.1111111111111*pi*s + 102400.0*pi**2) + 45909.2092514038*pi**2/(s**2 + 57.1428571428571*pi*s + 40000.0*pi**2) - 7861.28168106079*pi**2/(s**2 + 48.0*pi*s + 14400.0*pi**2) + 3105.53026199341*pi**2/(s**2 + 30.0*pi*s + 3600.0*pi**2) + 39.228618144989*pi**2/(s**2 + 13.3333333333333*pi*s + 400.0*pi**2)",
      "numerator_coeffs": [
        -2.274444691836834,
        -1812.4659168728267,
        -2461449.5584212686,
        -1261119916.6135077,
        -145171976180.44366,
        -30433412424136.81,
        7.721260217245229e+16,
        1.3467685003078562e+19,
        4.996507037746108e+21,
        1.434945464392125e+23,
        1.0413142100353542e+25
      ],
      "denominator_coeffs": [
        1.0,
        689.853853488273,
        1767225.2539945075,
        795187431.0952163,
        792021019882.4027,
        213111688800330.88,
        9.937119347634656e+16,
        1.32729908083943e+19,
        2.7361947847020894e+21,
        1.1930725782134321e+23,
        7.953964697452779e+24
      ]
    },
    {
      "output_index": 10,
      "symbolic": "0.334940373897552*s**2/(s**2 + 71.1111111111111*pi*s + 102400.0*pi**2) - 0.945463061332703*s**2/(s**2 + 57.1428571428571*pi*s + 40000.0*pi**2) - 0.229930832982063*s**2/(s**2 + 48.0*pi*s + 14400.0*pi**2) - 0.307081282138824*s**2/(s**2 + 30.0*pi*s + 3600.0*pi**2) + 0.492999136447906*s**2/(s**2 + 13.3333333333333*pi*s + 400.0*pi**2) - 0.596478184064229*pi*s/(s**2 + 71.1111111111111*pi*s + 102400.0*pi**2) + 4.96051907539368*pi*s/(s**2 + 57.1428571428571*pi*s + 40000.0*pi**2) + 16.184552192688*pi*s/(s**2 + 48.0*pi*s + 14400.0*pi**2) + 11.5581893920898*pi*s/(s**2 + 30.0*pi*s + 3600.0*pi**2) + 6.34746034940084*pi*s/(s**2 + 13.3333333333333*pi*s + 400.0*pi**2) + 0.0128823732957244 - 9845.34149169922*pi**2/(s**2 + 71.1111111111111*pi*s + 102400.0*pi**2) + 16369.5931434631*pi**2/(s**2 + 57.1428571428571*pi*s + 40000.0*pi**2) + 6676.10149383545*pi**2/(s**2 + 48.0*pi*s + 14400.0*pi**2) + 834.755104780197*pi**2/(s**2 + 30.0*pi*s + 3600.0*pi**2) + 24.1012886166573*pi**2/(s**2 + 13.3333333333333*pi*s + 400.0*pi**2)",
      "numerator_coeffs": [
        -0.641653292812407,
        -183.97291352806775,
        -775498.0972690587,
        50354674.379469864,
        208864834873.79083,
        158714794975998.12,
        9.348069171862587e+16,
        1.759005421676777e+19,
        3.8127555576581933e+21,
        1.6530663334405185e+23,
        8.603995206011347e+24
      ],
      "denominator_coeffs": [
        1.0,
        689.853853488273,
        1767225.2539945075,
        795187431.0952163,
        792021019882.4027,
        213111688800330.88,
        9.937119347634656e+16,
        1.32729908083943e+19,
        2.7361947847020894e+21,
        1.1930725782134321e+23,
        7.953964697452779e+24
      ]
    },
    {
      "output_index": 11,
      "symbolic": "-0.263636022806168*s**2/(s**2 + 71.1111111111111*pi*s + 102400.0*pi**2) - 0.981994271278381*s**2/(s**2 + 57.1428571428571*pi*s + 40000.0*pi**2) - 0.811353087425232*s**2/(s**2 + 48.0*pi*s + 14400.0*pi**2) + 0.132489040493965*s**2/(s**2 + 30.0*pi*s + 3600.0*pi**2) + 0.153973817825317*s**2/(s**2 + 13.3333333333333*pi*s + 400.0*pi**2) - 18.372859954834*pi*s/(s**2 + 71.1111111111111*pi*s + 102400.0*pi**2) + 9.15364793368748*pi*s/(s**2 + 57.1428571428571*pi*s + 40000.0*pi**2) - 20.138614654541*pi*s/(s**2 + 48.0*pi*s + 14400.0*pi**2) - 18.6758601665497*pi*s/(s**2 + 30.0*pi*s + 3600.0*pi**2) - 2.62752572695414*pi*s/(s**2 + 13.3333333333333*pi*s + 400.0*pi**2) - 0.036395326256752 - 10419.4328308105*pi**2/(s**2 + 71.1111111111111*pi*s + 102400.0*pi**2) + 11135.8964443207*pi**2/(s**2 + 57.1428571428571*pi*s + 40000.0*pi**2) + 546.904724836349*pi**2/(s**2 + 48.0*pi*s + 14400.0*pi**2) - 9690.25297164917*pi**2/(s**2 + 30.0*pi*s + 3600.0*pi**2) + 215.411162376404*pi**2/(s**2 + 13.3333333333333*pi*s + 400.0*pi**2)",
      "numerator_coeffs": [
        -1.8069158494472504,
        -1067.0679776976076,
        -2425028.2467739885,
        -890456560.3136419,
        -617139552192.2084,
        -161182754290999.5,
        -6.212591209024776e+16,
        -1.4719639379105389e+19,
        -5.418237068181113e+21,
        -2.5861607775884587e+23,
        -1.570891900872737e+25
      ],
      "denominator_coeffs": [
        1.0,
        689.853853488273,
        1767225.2539945075,
        795187431.0952163,
        792021019882.4027,
        213111688800330.88,
        9.937119347634656e+16,
        1.32729908083943e+19,
        2.7361947847020894e+21,
        1.1930725782134321e+23,
        7.953964697452779e+24
      ]
    },
    {
      "output_index": 12,
      "symbolic": "-0.559864223003387*s**2/(s**2 + 71.1111111111111*pi*s + 102400.0*pi**2) - 0.242456763982773*s**2/(s**2 + 57.1428571428571*pi*s + 40000.0*pi**2) - 0.339746057987213*s**2/(s**2 + 48.0*pi*s + 14400.0*pi**2) - 0.171479135751724*s**2/(s**2 + 30.0*pi*s + 3600.0*pi**2) - 0.0375165492296219*s**2/(s**2 + 13.3333333333333*pi*s + 400.0*pi**2) - 12.1968852149116*pi*s/(s**2 + 71.1111111111111*pi*s + 102400.0*pi**2) + 12.1978206293923*pi*s/(s**2 + 57.1428571428571*pi*s + 40000.0*pi**2) + 0.726060166954994*pi*s/(s**2 + 48.0*pi*s + 14400.0*pi**2) + 3.00950087606907*pi*s/(s**2 + 30.0*pi*s + 3600.0*pi**2) + 2.15107321739197*pi*s/(s**2 + 13.3333333333333*pi*s + 400.0*pi**2) - 0.0291226860135794 - 71595.6787109375*pi**2/(s**2 + 71.1111111111111*pi*s + 102400.0*pi**2) - 13818.7766075134*pi**2/(s**2 + 57.1428571428571*pi*s + 40000.0*pi**2) - 5800.72331428528*pi**2/(s**2 + 48.0*pi*s + 14400.0*pi**2) + 71.0952691733837*pi**2/(s**2 + 30.0*pi*s + 3600.0*pi**2) - 21.1187347769737*pi**2/(s**2 + 13.3333333333333*pi*s + 400.0*pi**2)",
      "numerator_coeffs": [
        -1.380185415968299,
        -696.0637618108713,
        -2491055.0750562097,
        -883333813.4826285,
        -1146642863906.6487,
        -257762889864498.25,
        -1.4720911453521994e+17,
        -1.692808997339636e+19,
        -3.943412309183735e+21,
        -1.538639924757598e+23,
        -1.2007661525310375e+25
      ],
      "denominator_coeffs": [
        1.0,
        689.853853488273,
        1767225.2539945075,
        795187431.0952163,
        792021019882.4027,
        213111688800330.88,
        9.937119347634656e+16,
        1.32729908083943e+19,
        2.7361947847020894e+21,
        1.1930725782134321e+23,
        7.953964697452779e+24
      ]
    },
    {
      "output_index": 13,
      "symbolic": "-0.466811180114746*s**2/(s**2 + 71.1111111111111*pi*s + 102400.0*pi**2) + 0.291068881750107*s**2/(s**2 + 57.1428571428571*pi*s + 40000.0*pi**2) - 0.271182358264923*s**2/(s**2 + 48.0*pi*s + 14400.0*pi**2) - 0.12013391405344*s**2/(s**2 + 30.0*pi*s + 3600.0*pi**2) - 0.151214029639959*s**2/(s**2 + 13.3333333333333*pi*s + 400.0*pi**2) - 17.7598995632595*pi*s/(s**2 + 71.1111111111111*pi*s + 102400.0*pi**2) - 17.4918396132333*pi*s/(s**2 + 57.1428571428571*pi*s + 40000.0*pi**2) - 4.55821180343628*pi*s/(s**2 + 48.0*pi*s + 14400.0*pi**2) - 4.96507108211517*pi*s/(s**2 + 30.0*pi*s + 3600.0*pi**2) + 7.71465380986532*pi*s/(s**2 + 13.3333333333333*pi*s + 400.0*pi**2) - 0.339534282684326 + 33044.189453125*pi**2/(s**2 + 71.1111111111111*pi*s + 102400.0*pi**2) + 3653.64968776703*pi**2/(s**2 + 57.1428571428571*pi*s + 40000.0*pi**2) - 5578.34329605103*pi**2/(s**2 + 48.0*pi*s + 14400.0*pi**2) - 312.435373663902*pi**2/(s**2 + 30.0*pi*s + 3600.0*pi**2) - 19.8664247989655*pi**2/(s**2 + 13.3333333333333*pi*s + 400.0*pi**2)",
      "numerator_coeffs": [
        -1.057806883007288,
        -735.576950658626,
        -1165751.6554412264,
        -535884412.8389166,
        -439159893326.4691,
        -104793783528910.98,
        -5.139042517015377e+16,
        -5.055525283870036e+18,
        -1.2263690215384668e+21,
        -2.2238481313199612e+21,
        -3.5739907087449665e+24
      ],
      "denominator_coeffs": [
        1.0,
        689.853853488273,
        1767225.2539945075,
        795187431.0952163,
        792021019882.4027,
        213111688800330.88,
        9.937119347634656e+16,
        1.32729908083943e+19,
        2.7361947847020894e+21,
        1.1930725782134321e+23,
        7.953964697452779e+24
      ]
    },
    {
      "output_index": 14,
      "symbolic": "-1.47169172763824*s**2/(s**2 + 71.1111111111111*pi*s + 102400.0*pi**2) + 0.415043205022812*s**2/(s**2 + 57.1428571428571*pi*s + 40000.0*pi**2) + 0.605794906616211*s**2/(s**2 + 48.0*pi*s + 14400.0*pi**2) - 0.0223727356642485*s**2/(s**2 + 30.0*pi*s + 3600.0*pi**2) + 0.0467325747013092*s**2/(s**2 + 13.3333333333333*pi*s + 400.0*pi**2) + 34.3472078111437*pi*s/(s**2 + 71.1111111111111*pi*s + 102400.0*pi**2) + 13.269738640104*pi*s/(s**2 + 57.1428571428571*pi*s + 40000.0*pi**2) - 1.27510231733322*pi*s/(s**2 + 48.0*pi*s + 14400.0*pi**2) - 1.40914309769869*pi*s/(s**2 + 30.0*pi*s + 3600.0*pi**2) - 8.6008095741272*pi*s/(s**2 + 13.3333333333333*pi*s + 400.0*pi**2) - 0.117477290332317 - 39218.5668945313*pi**2/(s**2 + 71.1111111111111*pi*s + 102400.0*pi**2) + 2074.39452409744*pi**2/(s**2 + 57.1428571428571*pi*s + 40000.0*pi**2) + 4238.79704475403*pi**2/(s**2 + 48.0*pi*s + 14400.0*pi**2) - 127.060076594353*pi**2/(s**2 + 30.0*pi*s + 3600.0*pi**2) - 37.3304545879364*pi**2/(s**2 + 13.3333333333333*pi*s + 400.0*pi**2)",
      "numerator_coeffs": [
        -0.5439710672944784,
        -98.05049655185256,
        65699.65430753944,
        24445308.562709786,
        30447114934.037952,
        -32118331559543.992,
        -1.391120003399142e+16,
        -4.518796669687415e+18,
        -6.85920933719483e+20,
        -8.109158030114865e+22,
        -2.2499454775681942e+24
      ],
      "denominator_coeffs": [
        1.0,
        689.853853488273,
        1767225.2539945075,
        795187431.0952163,
        792021019882.4027,
        213111688800330.88,
        9.937119347634656e+16,
        1.32729908083943e+19,
        2.7361947847020894e+21,
        1.1930725782134321e+23,
        7.953964697452779e+24
      ]
    },
    {
      "output_index": 15,
      "symbolic": "0.712448596954346*s**2/(s**2 + 71.1111111111111*pi*s + 102400.0*pi**2) - 3.26416540145874*s**2/(s**2 + 57.1428571428571*pi*s + 40000.0*pi**2) + 0.279402285814285*s**2/(s**2 + 48.0*pi*s + 14400.0*pi**2) - 0.396650105714798*s**2/(s**2 + 30.0*pi*s + 3600.0*pi**2) - 3.36504423618317*s**2/(s**2 + 13.3333333333333*pi*s + 400.0*pi**2) - 74.836434258355*pi*s/(s**2 + 71.1111111111111*pi*s + 102400.0*pi**2) - 100.004918234689*pi*s/(s**2 + 57.1428571428571*pi*s + 40000.0*pi**2) + 23.0937294960022*pi*s/(s**2 + 48.0*pi*s + 14400.0*pi**2) - 0.274922484531999*pi*s/(s**2 + 30.0*pi*s + 3600.0*pi**2) + 12.0703800519307*pi*s/(s**2 + 13.3333333333333*pi*s + 400.0*pi**2) + 0.133178576827049 - 124946.276855469*pi**2/(s**2 + 71.1111111111111*pi*s + 102400.0*pi**2) + 22517.9934501648*pi**2/(s**2 + 57.1428571428571*pi*s + 40000.0*pi**2) + 1777.57995128632*pi**2/(s**2 + 48.0*pi*s + 14400.0*pi**2) + 3509.16903018951*pi**2/(s**2 + 30.0*pi*s + 3600.0*pi**2) - 347.016191482544*pi**2/(s**2 + 13.3333333333333*pi*s + 400.0*pi**2)",
      "numerator_coeffs": [
        -5.9008302837610245,
        -3947.3589834336194,
        -10725136.02850193,
        -4299192766.050043,
        -3753334688632.0854,
        -830957265854115.4,
        -3.627325970746568e+17,
        -3.155026305991955e+19,
        -5.869644239882437e+21,
        8.880147853933157e+22,
        -2.3335208266579194e+24
      ],
      "denominator_coeffs": [
        1.0,
        689.853853488273,
        1767225.2539945075,
        795187431.0952163,
        792021019882.4027,
        213111688800330.88,
        9.937119347634656e+16,
        1.32729908083943e+19,
        2.7361947847020894e+21,
        1.1930725782134321e+23,
        7.953964697452779e+24
      ]
    }
  ],
  "frequency_response": {
    "frequencies": [
      2.0,
      2.0110845797634256,
      2.0222305934811167,
      2.033438381637857,
      2.0447082866054953,
      2.0560406526534027,
      2.067435825958994,
      2.078894154618297,
      2.0904159886565896,
      2.1020016800390917,
      2.1136515826817153,
      2.1253660524618785,
      2.1371454472293734,
      2.148990126817301,
      2.1609004530530616,
      2.172876789769406,
      2.1849195028155535,
      2.197028960068365,
      2.209205531443582,
      2.221449588907125,
      2.23376150648646,
      2.2461416602820194,
      2.2585904284786937,
      2.2711081913573845,
      2.2836953313066197,
      2.296352232834235,
      2.3090792825791207,
      2.321876869323031,
      2.334745384002463,
      2.3476852197205953,
      2.3606967717592995,
      2.373780437591213,
      2.3869366168918824,
      2.400165711551972,
      2.41346812568954,
      2.426844265662386,
      2.4402945400804588,
      2.4538193598183455,
      2.4674191380278176,
      2.481094290150454,
      2.49484523393033,
      2.508672389426781,
      2.5225761790272334,
      2.5365570274601055,
      2.550615361807785,
      2.5647516115196733,
      2.5789662084253053,
      2.59325958674754,
      2.6076321831158253,
      2.622084436579537,
      2.636616788621388,
      2.651229683170918,
      2.6659235666180527,
      2.6806988878267397,
      2.6955560981486606,
      2.710495651437019,
      2.725518004060404,
      2.7406236149167342,
      2.755812945447271,
      2.771086459650716,
      2.7864446240973892,
      2.8018879079434766,
      2.8174167829453656,
      2.8330317234740514,
      2.8487332065296327,
      2.8645217117558808,
      2.880397721454892,
      2.89636172060182,
      2.9124141968596917,
      2.928555640594303,
      2.944786544889202,
      2.961107405560745,
      2.9775187211732494,
      2.994020993054218,
      3.010614725309658,
      3.027300424839477,
      3.0440786013529695,
      3.0609497673843866,
      3.077914438308592,
      3.094973132356807,
      3.112126370632441,
      3.1293746771270086,
      3.146718578736138,
      3.1641586052756643,
      3.181695289497818,
      3.1993291671074946,
      3.2170607767786237,
      3.2348906601706187,
      3.252819361944929,
      3.2708474297816754,
      3.2889754143963805,
      3.3072038695567922,
      3.325533352099798,
      3.3439644219484386,
      3.3624976421290107,
      3.381133578788265,
      3.399872801210703,
      3.418715881835963,
      3.4376633962763132,
      3.4567159233342304,
      3.47587404502008,
      3.4951383465699033,
      3.5145094164632837,
      3.533987846441332,
      3.5535742315247605,
      3.573269170032054,
      3.5930732635977596,
      3.61298711719085,
      3.633011339133215,
      3.6531465411182413,
      3.6733933382294937,
      3.693752348959515,
      3.7142241952287054,
      3.734809502404334,
      3.755508899319635,
      3.776323018293016,
      3.7972524951473803,
      3.818297969229544,
      3.8394600834297687,
      3.8607394842014022,
      3.8821368215806205,
      3.903652749206291,
      3.925287924339937,
      3.947043007885815,
      3.9689186644111065,
      3.990915562166213,
      4.013034373105176,
      4.035275772906203,
      4.057640440992301,
      4.080129060552042,
      4.102742318560421,
      4.1254809057998525,
      4.1483455168812675,
      4.171336850265326,
      4.194455608283768,
      4.217702497160851,
      4.24107822703494,
      4.264583511980189,
      4.2882190700283545,
      4.311985623190742,
      4.335883897480242,
      4.359914622933528,
      4.384078533633344,
      4.408376367730933,
      4.432808867468591,
      4.457376779202328,
      4.482080853424683,
      4.506921844787637,
      4.531900512125673,
      4.557017618478956,
      4.582273931116639,
      4.607670221560302,
      4.633207265607526,
      4.658885843355581,
      4.684706739225264,
      4.710670741984864,
      4.736778644774247,
      4.763031245129093,
      4.789429345005253,
      4.815973750803254,
      4.842665273392925,
      4.869504728138171,
      4.896492934921885,
      4.92363071817098,
      4.950918906881589,
      4.97835833464438,
      5.005949839670018,
      5.033694264814784,
      5.061592457606302,
      5.089645270269447,
      5.117853559752369,
      5.1462181877526705,
      5.17474002074374,
      5.203419930001202,
      5.232258791629549,
      5.261257486588901,
      5.290416900721906,
      5.319737924780821,
      5.349221454454697,
      5.378868390396762,
      5.408679638251923,
      5.43865610868443,
      5.468798717405709,
      5.49910838520231,
      5.529586037964058,
      5.5602326067123276,
      5.591049027628476,
      5.622036242082463,
      5.653195196661579,
      5.684526843199382,
      5.716032138804772,
      5.747712045891214,
      5.779567532206156,
      5.811599570860577,
      5.843809140358723,
      5.876197224627995,
      5.9087648130489985,
      5.9415129004857805,
      5.974442487316209,
      6.007554579462535,
      6.040850188422128,
      6.074330331298363,
      6.107996030831698,
      6.141848315430919,
      6.175888219204545,
      6.210116781992432,
      6.2445350493975225,
      6.2791440728177985,
      6.313944909478395,
      6.348938622463887,
      6.384126280750785,
      6.419508959240168,
      6.455087738790526,
      6.490863706250795,
      6.526837954493523,
      6.563011582448293,
      6.59938569513526,
      6.635961403698926,
      6.672739825442084,
      6.709722083859932,
      6.7469093086744145,
      6.784302635868715,
      6.821903207721966,
      6.859712172844148,
      6.897730686211162,
      6.935959909200131,
      6.974401009624858,
      7.013055161771506,
      7.051923546434487,
      7.0910073509525,
      7.130307769244837,
      7.169826001847822,
      7.209563255951501,
      7.249520745436531,
      7.289699690911228,
      7.330101319748891,
      7.370726866125266,
      7.411577571056259,
      7.452654682435854,
      7.493959455074215,
      7.53549315073604,
      7.577257038179082,
      7.619252393192916,
      7.661480498637926,
      7.703942644484464,
      7.746640127852287,
      7.789574253050154,
      7.832746331615682,
      7.876157682355419,
      7.919809631385114,
      7.963703512170228,
      8.007840665566691,
      8.052222439861827,
      8.096850190815575,
      8.141725281701877,
      8.186849083350335,
      8.2322229741881,
      8.277848340281942,
      8.323726575380642,
      8.369859080957518,
      8.416247266253269,
      8.462892548319019,
      8.509796352059587,
      8.556960110277045,
      8.604385263714454,
      8.652073261099893,
      8.700025559190728,
      8.74824362281807,
      8.796728924931573,
      8.845482946644394,
      8.89450717727844,
      8.943803114409894,
      8.993372263914916,
      9.043216140015689,
      9.093336265326641,
      9.14373417090097,
      9.194411396277427,
      9.245369489527317,
      9.296610007301823,
      9.348134514879522,
      9.399944586214225,
      9.452041803983063,
      9.504427759634801,
      9.557104053438497,
      9.610072294532348,
      9.66333410097286,
      9.716891099784291,
      9.770744927008334,
      9.824897227754084,
      9.879349656248335,
      9.93410387588606,
      9.989161559281268,
      10.044524388318068,
      10.100194054202058,
      10.156172257511999,
      10.212460708251736,
      10.269061125902471,
      10.325975239475252,
      10.383204787563809,
      10.440751518397677,
      10.498617189895565,
      10.556803569719102,
      10.615312435326787,
      10.674145574028314,
      10.733304783039182,
      10.792791869535556,
      10.852608650709517,
      10.912756953824536,
      10.973238616271304,
      11.034055485623886,
      11.095209419696113,
      11.15670228659838,
      11.218535964794679,
      11.280712343159987,
      11.343233321037998,
      11.406100808299088,
      11.469316725398723,
      11.532883003436062,
      11.596801584212978,
      11.661074420293394,
      11.725703475062888,
      11.790690722788689,
      11.856038148680009,
      11.921747748948633,
      11.987821530869965,
      12.054261512844286,
      12.121069724458438,
      12.188248206547842,
      12.255799011258793,
      12.3237242021112,
      12.39202585406158,
      12.460706053566465,
      12.529766898646146,
      12.599210498948729,
      12.669038975814622,
      12.739254462341307,
      12.8098591034485,
      12.880855055943712,
      12.952244488588073,
      13.024029582162648,
      13.096212529534998,
      13.168795535726195,
      13.241780817978198,
      13.315170605821532,
      13.388967141143457,
      13.463172678256404,
      13.537789483966852,
      13.6128198376446,
      13.688266031292352,
      13.76413036961578,
      13.840415170093879,
      13.91712276304979,
      13.994255491721997,
      14.071815712335866,
      14.149805794175675,
      14.228228119656938,
      14.307085084399208,
      14.386379097299281,
      14.46611258060473,
      14.546287969987928,
      14.626907714620474,
      14.707974277247956,
      14.789490134265243,
      14.871457775792074,
      14.95387970574916,
      15.036758441934687,
      15.120096516101174,
      15.203896474032886,
      15.288160875623529,
      15.37289229495449,
      15.458093320373479,
      15.543766554573551,
      15.629914614672671,
      15.71654013229361,
      15.803645753644348,
      15.891234139598946,
      15.97930796577877,
      16.06786992263428,
      16.156922715527177,
      16.246469064813052,
      16.336511705924526,
      16.42705338945475,
      16.518096881241483,
      16.60964496245154,
      16.701700429665774,
      16.79426609496451,
      16.88734478601342,
      16.98093934614994,
      17.075052634470087,
      17.169687525915815,
      17.264846911362874,
      17.360533697709034,
      17.456750807962983,
      17.55350118133354,
      17.650787773319472,
      17.748613555799803,
      17.846981517124544,
      17.945894662206012,
      18.045356012610643,
      18.145368606651235,
      18.24593549947983,
      18.347059763180983,
      18.448744486865635,
      18.550992776765497,
      18.653807756327886,
      18.7571925663112,
      18.861150364880807,
      18.965684327705542,
      19.070797648054747,
      19.176493536895745,
      19.28277522299202,
      19.38964595300175,
      19.497108991577058,
      19.605167621463732,
      19.713825143601447,
      19.823084877224687,
      19.932950159964065,
      20.043424347948314,
      20.154510815906825,
      20.2662129572727,
      20.378534184286423,
      20.49147792810013,
      20.605047638882386,
      20.719246785923566,
      20.834078857741904,
      20.949547362189968,
      21.065655826561898,
      21.1824077977011,
      21.299806842108605,
      21.417856546052064,
      21.536560515675216,
      21.65592237710814,
      21.77594577657795,
      21.896634380520194,
      22.01799187569092,
      22.14002196927919,
      22.262728389020427,
      22.386114883310217,
      22.51018522131884,
      22.63494319310644,
      22.76039260973873,
      22.886537303403497,
      23.013381127527598,
      23.140927956894686,
      23.26918168776363,
      23.39814623798745,
      23.527825547133087,
      23.65822357660167,
      23.789344309749563,
      23.92119175201007,
      24.05376993101574,
      24.18708289672146,
      24.32113472152811,
      24.455929500407002,
      24.591471351024992,
      24.7277644138702,
      24.864812852378574,
      25.002620853060996,
      25.14119262563121,
      25.28053240313444,
      25.42064444207665,
      25.56153302255458,
      25.703202448386556,
      25.845657047243854,
      25.988901170783016,
      26.132939194778686,
      26.277775519257315,
      26.423414568631618,
      26.569860791835637,
      26.71711866246075,
      26.865192678892228,
      27.01408736444671,
      27.163807267510393,
      27.314356961677902,
      27.465741045892102,
      27.617964144584498,
      27.771030907816527,
      27.924946011421657,
      28.079714157148125,
      28.23534007280268,
      28.391828512394895,
      28.549184256282455,
      28.707412111317208,
      28.866516910991912,
      29.026503515587997,
      29.187376812323947,
      29.34914171550462,
      29.511803166671417,
      29.675366134753148,
      29.83983561621792,
      30.00521663522566,
      30.17151424378166,
      30.33873352189093,
      30.506879577713278,
      30.67595754771947,
      30.845972596848053,
      31.01692991866314,
      31.18883473551315,
      31.3616922986902,
      31.53550788859061,
      31.710286814876223,
      31.886034416636512,
      32.062756062551784,
      32.2404571510571,
      32.419143110507186,
      32.598819399342354,
      32.7794915062551,
      32.96116495035791,
      33.14384528135175,
      33.32753807969563,
      33.51224895677713,
      33.6979835550837,
      33.884747548375174,
      34.07254664185693,
      34.26138657235427,
      34.45127310848768,
      34.64221205084897,
      34.834209232178544,
      35.02727051754351,
      35.2214018045169,
      35.41660902335782,
      35.612898137192545,
      35.81027514219678,
      36.00874606777873,
      36.208316976763335,
      36.40899396557751,
      36.610783164436256,
      36.813690737530095,
      37.01772288321322,
      37.22288583419289,
      37.42918585771989,
      37.63662925577988,
      37.845222365285956,
      38.05497155827226,
      38.26588324208852,
      38.47796385959596,
      38.691219889363914,
      38.90565784586784,
      39.12128427968838,
      39.3381057777113,
      39.55612896332886,
      39.77536049664205,
      39.99580707466405,
      40.2174754315249,
      40.440372338677065,
      40.664504605102415,
      40.88987907752015,
      41.11650264059593,
      41.34438221715233,
      41.5735247683801,
      41.80393729405104,
      42.03562683273162,
      42.26860046199811,
      42.50286529865281,
      42.73842849894132,
      42.97529725877131,
      43.213478813932205,
      43.45298044031626,
      43.69380945414089,
      43.93597321217205,
      44.17947911194908,
      44.42433459201059,
      44.67054713212169,
      44.91812425350263,
      45.16707351905832,
      45.41740253360958,
      45.669118944125294,
      45.92223043995604,
      46.176744753069094,
      46.432669658284475,
      46.69001297351248,
      46.94878255999262,
      47.20898632253359,
      47.47063220975489,
      47.73372821432953,
      47.99828237322822,
      48.26430276796496,
      48.53179752484376,
      48.80077481520704,
      49.07124285568512,
      49.343209908447236,
      49.61668428145406,
      49.89167432871128,
      50.168188450525015,
      50.44623509375823,
      50.72582275208885,
      51.00695996626932,
      51.28965532438728,
      51.57391746212818,
      51.85975506303883,
      52.1471768587928,
      52.43619162945718,
      52.726808203760655,
      53.01903545936337,
      53.31288232312799,
      53.608357771392384,
      53.90547083024402,
      54.20423057579542,
      54.50464613446169,
      54.80672668323906,
      55.11048144998536,
      55.41591971370194,
      55.72305080481698,
      56.03188410547069,
      56.34242904980175,
      56.65469512423557,
      56.968691867774155,
      57.28442887228734,
      57.6019157828059,
      57.92116229781622,
      58.24217816955643,
      58.564973204314484,
      58.88955726272755,
      59.215940260083286,
      59.544132166622866,
      59.874143007845284,
      60.2059828648139,
      60.539661874464144,
      60.87519022991327,
      61.21257818077187,
      61.551836033456695,
      61.892974151505776,
      62.23600295589479,
      62.58093292535547,
      62.927774596695826,
      63.27653856512177,
      63.62723548456106,
      63.97987606798851,
      64.33447108775334,
      64.69103137590835,
      65.04956782454059,
      65.41009138610434,
      65.77261307375547,
      66.13714396168793,
      66.50369518547218,
      66.87227794239512,
      67.24290349180235,
      67.61558315544197,
      67.99032831781045,
      68.3671504265006,
      68.74606099255094,
      69.12707159079754,
      69.51019386022766,
      69.89543950433507,
      70.28282029147782,
      70.67234805523753,
      71.06403469478093,
      71.45789217522352,
      71.85393252799476,
      72.25216785120594,
      72.65261031001951,
      73.05527213702072,
      73.46016563259153,
      73.86730316528595,
      74.27669717220834,
      74.68836015939293,
      75.10230470218602,
      75.51854344563027,
      75.93708910485064,
      76.3579544654432,
      76.78115238386532,
      77.20669578782864,
      77.63459767669401,
      78.06487112186836,
      78.49752926720431,
      78.9325853294014,
      79.37005259840996,
      79.80994443783715,
      80.252274285355,
      80.69705565311118,
      81.14430212814145,
      81.59402737278486,
      82.04624512510125,
      82.5009691992906,
      82.95821348611534,
      83.41799195332442,
      83.8803186460801,
      84.34520768738713,
      84.8126732785239,
      85.28272969947645,
      85.75539130937472,
      86.23067254693096,
      86.70858793088111,
      87.18915206042806,
      87.67237961568765,
      88.15828535813738,
      88.6468841310669,
      89.13819086003188,
      89.63222055330964,
      90.12898830235767,
      90.62850928227485,
      91.13079875226468,
      91.63587205610177,
      92.14374462260025,
      92.65443196608518,
      93.16794968686668,
      93.68431347171608,
      94.2035390943456,
      94.72564241588974,
      95.25063938539004,
      95.77854604028238,
      96.30937850688656,
      96.84315300089933,
      97.3798858278894,
      97.91959338379563,
      98.46229215542807,
      99.00799872097133,
      99.55672975049121,
      100.10850200644374,
      100.6633323441875,
      101.2212377124982,
      101.78223515408652,
      102.34634180611914,
      102.91357490074154,
      103.48395176560481,
      104.057489824395,
      104.63420659736519,
      105.21411970187073,
      105.79724685290773,
      106.3836058636537,
      106.97321464601195,
      107.56609121115886,
      108.16225367009376,
      108.7617202341928,
      109.36450921576446,
      109.97063902860948,
      110.58012818858326,
      111.19299531416125,
      111.80925912700827,
      112.42893845254972,
      113.05205222054701,
      113.67861946567584,
      114.30865932810742,
      114.94219105409377,
      115.57923399655479,
      116.21980761567002,
      116.86393147947298,
      117.51162526444874,
      118.16290875613554,
      118.81780184972844,
      119.47632455068755,
      120.13849697534909,
      120.80433935153964,
      121.4738720191947,
      122.14711543097917,
      122.8240901529127,
      123.50481686499779,
      124.18931636185135,
      124.87760955334049,
      125.56971746522046,
      126.26566123977751,
      126.96546213647453,
      127.66914153260039,
      128.3767209239235,
      129.08822192534765,
      129.8036662715728,
      130.523075817759,
      131.24647254019368,
      131.9738785369637,
      132.70531602862954,
      133.44080735890452,
      134.1803749953374,
      134.92404152999836,
      135.67182968016988,
      136.4237622890398,
      137.17986232639953,
      137.9401528893459,
      138.70465720298634,
      139.4733986211489,
      140.246400627095,
      141.02368683423722,
      141.80528098686045,
      142.59120696084724,
      143.3814887644076,
      144.1761505388115,
      144.9752165591271,
      145.7787112349619,
      146.5866591112084,
      147.39908486879457,
      148.21601332543665,
      149.03746943639803,
      149.8634782952515,
      150.6940651346454,
      151.52925532707536,
      152.36907438565808,
      153.2135479649117,
      154.06270186153895,
      154.91656201521553,
      155.77515450938205,
      156.63850557204168,
      157.50664157656024,
      158.3795890424726,
      159.25737463629255,
      160.14002517232728,
      161.02756761349713,
      161.92002907215826,
      162.81743681093153,
      163.7198182435352,
      164.62720093562206,
      165.53961260562227,
      166.4570811255891,
      167.37963452205094,
      168.3073009768673,
      169.24010882808963,
      170.17808657082756,
      171.1212628581183,
      172.0696665018028,
      173.02332647340546,
      173.98227190501916,
      174.94653209019577,
      175.91613648484005,
      176.89111470811,
      177.87149654332168,
      178.8573119388587,
      179.8485910090878,
      180.8453640352778,
      181.8476614665252,
      182.8555139206843,
      183.86895218530213,
      184.8880072185599,
      185.9127101502174,
      186.94309228256478,
      187.97918509137855,
      189.02102022688297,
      190.0686295147175,
      191.12204495690793,
      192.1812987328449,
      193.2464232002664,
      194.31745089624624,
      195.39441453818876,
      196.477347024827,
      197.5662814372285,
      198.6612510398057,
      199.76228928133185,
      200.86942979596358,
      201.9827064042672,
      203.10215311425256,
      204.2278041224118,
      205.3596938147639,
      206.49785676790492,
      207.64232775006508,
      208.7931417221696,
      209.95033383890743,
      211.11393944980506,
      212.28399410030627,
      213.4605335328578,
      214.643593688002,
      215.83321070547353,
      217.0294209253041,
      218.23226088893242,
      219.44176734032027,
      220.65797722707572,
      221.8809277015806,
      223.11065612212613,
      224.34720005405413,
      225.5905972709041,
      226.84088575556822,
      228.09810370145013,
      229.3622895136326,
      230.6334818100505,
      231.91171942267033,
      233.19704139867724,
      234.48948700166653,
      235.78909571284393,
      237.09590723223147,
      238.40996147987997,
      239.73129859708948,
      241.05995894763404,
      242.39598311899564,
      243.7394119236039,
      245.0902864000825,
      246.44864781450383,
      247.814537661648,
      249.1879976662715,
      250.56906978438158,
      251.95779620451754,
      253.35421934904053,
      254.758381875428,
      256.17032667757775,
      257.59009688711797,
      259.0177358747246,
      260.4532872514473,
      261.8967948700399,
      263.34830282630116,
      264.80785546042165,
      266.27549735833776,
      267.751273353095,
      269.23522852621556,
      270.7274082090771,
      272.22785798429663,
      273.73662368712314,
      275.25375140683855,
      276.7792874881642,
      278.31327853267754,
      279.85577140023554,
      281.4068132104058,
      282.9664513439069,
      284.53473344405444,
      286.1117074182173,
      287.6974214392809,
      289.29192394711845,
      290.89526365007185,
      292.50748952643784,
      294.12865082596545,
      295.7587970713601,
      297.397978059796,
      299.0462438644387,
      300.70364483597285,
      302.37023160414145,
      304.0460550792923,
      305.73116645393264,
      307.4256172042946,
      309.1294590919053,
      310.8427441651698,
      312.5655247609603,
      314.29785350621523,
      316.03978331954653,
      317.7913674128572,
      319.5526592929652,
      321.32371276323903,
      323.1045819252412,
      324.8953211803802,
      326.6959852315741,
      328.5066290849193,
      330.32730805137226,
      332.15807774843887,
      333.99899410187294,
      335.850113347386,
      337.7114920323634,
      339.58318701759254,
      341.465255479,
      343.35775490939744,
      345.26074312023945,
      347.17427824338745,
      349.0984187328868,
      351.033223366752,
      352.9787512487623,
      354.935061810268,
      356.90221481200416,
      358.8802703459177,
      360.8692888370023,
      362.8693310451442,
      364.8804580669796,
      366.902731337759,
      368.9362126332251,
      370.9809640714997,
      373.03704811498096,
      375.10452757225266,
      377.1834656000011,
      379.2739257049454,
      381.37597174577746,
      383.48966793511215,
      385.6150788414504,
      387.75226939114924,
      389.90130487040705,
      392.062250927257,
      394.23517357357235,
      396.4201391870845,
      398.6172145134083,
      400.82646666808256,
      403.0479631386198,
      405.2817717865676,
      407.527960849583,
      409.7865989435147,
      412.05775506450095,
      414.3414985910763,
      416.637899286291,
      418.9470272998435,
      421.26895317022115,
      423.60374782685625,
      425.95148259229273,
      428.3122291843642,
      430.6860597183866,
      433.0730467093586,
      435.4732630741785,
      437.886782133871,
      440.313677615827,
      442.754023656057,
      445.2078948014536,
      447.67536601207047,
      450.1565126634113,
      452.65141054873243,
      455.1601358813598,
      457.6827652970141,
      460.21937585615416,
      462.77004504633,
      465.33485078454964,
      467.91387141966123,
      470.50718573474353,
      473.11487294951445,
      475.7370127227505,
      478.3736851547201,
      481.02497078963034,
      483.69095061808895,
      486.37170607957574,
      489.067319064932,
      491.77787191886205,
      494.5034474424478,
      497.24412889568026,
      499.99999999999994
    ],
    "outputs": [
      {
        "index": 0,
        "magnitude_db": [
          3.868993993180349,
          3.868086317850457,
          3.867167261819688,
          3.866236667694049,
          3.8652943755680735,
          3.8643402229773187,
          3.8633740448497846,
          3.8623956734562754,
          3.8614049383596276,
          3.8604016663627982,
          3.8593856814557825,
          3.8583568047613293,
          3.857314854479422,
          3.8562596458304883,
          3.8551909909973183,
          3.8541086990656432,
          3.8530125759633465,
          3.8519024243982694,
          3.8507780437945813,
          3.849639230227657,
          3.848485776357445,
          3.8473174713602694,
          3.8461341008590373,
          3.8449354468517924,
          3.843721287638577,
          3.8424913977465742,
          3.8412455478534486,
          3.839983504708874,
          3.8387050310541584,
          3.837409885539968,
          3.836097822642033,
          3.834768592574831,
          3.8334219412031767,
          3.832057609951649,
          3.830675335711804,
          3.8292748507471157,
          3.8278558825955846,
          3.8264181539699154,
          3.8249613826552538,
          3.823485281404353,
          3.8219895578301544,
          3.820473914295643,
          3.818938047800966,
          3.817381649867706,
          3.8158044064202046,
          3.814205997663893,
          3.812586097960526,
          3.8109443757002377,
          3.8092804931702777,
          3.807594106420425,
          3.8058848651248933,
          3.804152412440671,
          3.802396384862192,
          3.800616412072194,
          3.7988121167886986,
          3.7969831146079596,
          3.795129013843286,
          3.793249415359597,
          3.7913439124035957,
          3.789412090429421,
          3.78745352691964,
          3.785467791201463,
          3.783454444257981,
          3.7814130385343585,
          3.7793431177387378,
          3.7772442166377562,
          3.775115860846496,
          3.7729575666126545,
          3.770768840594852,
          3.768549179634753,
          3.766298070522976,
          3.764014989758439,
          3.761699403301056,
          3.759350766317495,
          3.756968522919842,
          3.7545521058968943,
          3.7521009364378783,
          3.7496144238483424,
          3.7470919652579977,
          3.7445329453201817,
          3.741936735902785,
          3.7393026957702586,
          3.7366301702564764,
          3.733918490928134,
          3.7311669752384073,
          3.7283749261704804,
          3.7255416318707226,
          3.722666365271051,
          3.7197483837002365,
          3.7167869284836987,
          3.7137812245314725,
          3.7107304799139103,
          3.7076338854247597,
          3.7044906141311107,
          3.7012998209098886,
          3.698060641970346,
          3.6947721943621046,
          3.6914335754683183,
          3.6880438624833385,
          3.6846021118744803,
          3.681107358827258,
          3.677558616673551,
          3.6739548763021452,
          3.6702951055509967,
          3.666578248580607,
          3.6628032252278837,
          3.6589689303397566,
          3.6550742330858856,
          3.6511179762497212,
          3.6470989754971628,
          3.643016018622011,
          3.6388678647674317,
          3.6346532436225547,
          3.6303708545933526,
          3.6260193659468625,
          3.6215974139278333,
          3.617103601846809,
          3.6125364991385966,
          3.607894640390108,
          3.603176524336459,
          3.5983806128241436,
          3.593505329740187,
          3.5885490599059504,
          3.5835101479343794,
          3.578386897049344,
          3.5731775678656637,
          3.5678803771284717,
          3.5624934964103216,
          3.5570150507645937,
          3.5514431173335232,
          3.545775723909249,
          3.5400108474461014,
          3.534146412522387,
          3.528180289749758,
          3.5221102941282654,
          3.5159341833451005,
          3.5096496560148864,
          3.5032543498594224,
          3.4967458398245883,
          3.4901216361320926,
          3.4833791822636577,
          3.4765158528751092,
          3.469528951637807,
          3.4624157090046266,
          3.455173279897825,
          3.4477987413157503,
          3.4402890898554555,
          3.432641239148107,
          3.4248520172038566,
          3.416918163662954,
          3.4088363269495012,
          3.4006030613243396,
          3.3922148238332794,
          3.383667971146867,
          3.3749587562876586,
          3.3660833252409184,
          3.3570377134444174,
          3.347817842153003,
          3.338419514673332,
          3.3288384124640946,
          3.319070091096909,
          3.309109976072868,
          3.2989533584896154,
          3.2885953905536813,
          3.2780310809326285,
          3.267255289941447,
          3.2562627245574505,
          3.2450479332578697,
          3.233605300674063,
          3.2219290420563147,
          3.2100131975428825,
          3.197851626227018,
          3.1854380000154237,
          3.1727657972716434,
          3.1598282962377526,
          3.1466185682276526,
          3.1331294705853034,
          3.119353639401095,
          3.105283481979788,
          3.0909111690532387,
          3.0762286267315018,
          3.06122752818579,
          3.0458992850571542,
          3.030235038584869,
          3.014225650448882,
          2.9978616933210334,
          2.981133441120286,
          2.9640308589676363,
          2.9465435928372368,
          2.928660958900873,
          2.9103719325639386,
          2.8916651371921906,
          2.8725288325296394,
          2.8529509028095763,
          2.832918844562227,
          2.8124197541245017,
          2.7914403148594067,
          2.769966784095252,
          2.7479849797974047,
          2.725480266988729,
          2.70243754393823,
          2.6788412281416667,
          2.6546752421222557,
          2.6299229990850304,
          2.6045673884639022,
          2.578590761407286,
          2.5519749162552525,
          2.524701084069571,
          2.4967499142870535,
          2.4681014605770457,
          2.4387351669954405,
          2.408629854540404,
          2.377763708229557,
          2.3461142648343087,
          2.3136584014251724,
          2.2803723249017147,
          2.246231562703306,
          2.2112109549215146,
          2.1752846480627617,
          2.13842609074051,
          2.100608031610514,
          2.0618025199004695,
          2.021980908927688,
          1.981113863044886,
          1.9391713685061671,
          1.8961227488021857,
          1.8519366850771892,
          1.8065812423101735,
          1.7600239020198245,
          1.7122316023378572,
          1.6631707863887868,
          1.6128074600171705,
          1.5611072600158002,
          1.508035534131666,
          1.4535574342612667,
          1.397638024392952,
          1.3402424050132948,
          1.2813358558660832,
          1.2208839991375044,
          1.158852985339288,
          1.095209704372109,
          1.0299220244746214,
          0.9629590619962363,
          0.8942914851735717,
          0.8238918553367437,
          0.7517350092183297,
          0.6777984862794111,
          0.602063005193875,
          0.5245129938351419,
          0.44513717727401714,
          0.3639292284047526,
          0.28088848584817333,
          0.1960207437073112,
          0.10933911753976897,
          0.02086499052240212,
          -0.06937095683203898,
          -0.16132763094544333,
          -0.2549523222204845,
          -0.3501794153270665,
          -0.44692901538183805,
          -0.5451054954690061,
          -0.6445959744512619,
          -0.7452687383274631,
          -0.8469716236027548,
          -0.9495303873261017,
          -1.0527470956704825,
          -1.156398571183008,
          -1.2602349480488035,
          -1.363978394727636,
          -1.4673220738389015,
          -1.5699294197325508,
          -1.671433824135653,
          -1.771438828734488,
          -1.8695189294378347,
          -1.965221099047659,
          -2.0580671316542993,
          -2.147556901716408,
          -2.2331726120059714,
          -2.3143840762114802,
          -2.390655043363233,
          -2.4614505225833123,
          -2.5262450092936417,
          -2.5845314505968666,
          -2.6358307221374817,
          -2.679701326696726,
          -2.715748972319936,
          -2.743635651433245,
          -2.7630878281145255,
          -2.773903352853641,
          -2.775956764773419,
          -2.7692027093534612,
          -2.7536772909265146,
          -2.7294972863910907,
          -2.696857260385588,
          -2.6560247323832202,
          -2.6073336430635976,
          -2.5511764429406143,
          -2.4879951753572356,
          -2.418271946582538,
          -2.3425191690041838,
          -2.261269933071168,
          -2.1750688152857554,
          -2.084463369609273,
          -1.9899964845398757,
          -1.8921997235119539,
          -1.7915877066304913,
          -1.68865354017263,
          -1.5838652584774282,
          -1.4776632113204144,
          -1.370458308225841,
          -1.2626310183584422,
          -1.1545310192454767,
          -1.0464773880595866,
          -0.9387592340215817,
          -0.8316366782832523,
          -0.7253420972521796,
          -0.6200815557786745,
          -0.5160363672232023,
          -0.41336472764361676,
          -0.3122033808448954,
          -0.21266927961569718,
          -0.11486121604058924,
          -0.018861400307398805,
          0.07526302703848006,
          0.16745855983534164,
          0.25768397471461263,
          0.34590906681898215,
          0.432113474074162,
          0.5162855894056959,
          0.5984215588922478,
          0.6785243628209334,
          0.7566029758898467,
          0.8326716023271369,
          0.9067489814147187,
          0.9788577587751862,
          1.04902391876659,
          1.117276273404155,
          1.1836460033655463,
          1.2481662468191908,
          1.3108717320287724,
          1.3717984499182099,
          1.4309833630232327,
          1.4884641474991132,
          1.544278965095762,
          1.598466262246441,
          1.6510645936422808,
          1.7021124678804056,
          1.7516482129769053,
          1.7997098597266623,
          1.8463350410707808,
          1.8915609057975709,
          1.9354240450567173,
          1.9779604303074836,
          2.019205361451873,
          2.0591934240230856,
          2.0979584544086585,
          2.1355335121875267,
          2.1719508587511878,
          2.2072419414617865,
          2.2414373826755916,
          2.274566973028276,
          2.3066596684406924,
          2.3377435903599246,
          2.3678460288011607,
          2.3969934478020773,
          2.4252114929427258,
          2.452525000621624,
          2.4789580088124366,
          2.504533769056161,
          2.5292747594712233,
          2.5532026985885174,
          2.57633855984079,
          2.5987025865555995,
          2.6203143073191946,
          2.641192551594637,
          2.6613554654921563,
          2.6808205276024015,
          2.699604564815261,
          2.71772376805702,
          2.7351937078882536,
          2.7520293499129616,
          2.7682450699571786,
          2.783854668981853,
          2.798871387700945,
          2.813307920880977,
          2.827176431303213,
          2.840488563373979,
          2.8532554563725836,
          2.8654877573298827,
          2.8771956335337174,
          2.888388784660508,
          2.89907645453491,
          2.909267442521994,
          2.918970114558845,
          2.928192413834543,
          2.936941871129738,
          2.9452256148290843,
          2.9530503806217387,
          2.9604225209072106,
          2.967348013925881,
          2.973832472635492,
          2.979881153357194,
          2.98549896421684,
          2.9906904734096527,
          2.9954599173189345,
          2.9998112085220887,
          3.003747943720229,
          3.0072734116307425,
          3.010390600885599,
          3.0131022079818486,
          3.0154106453348954,
          3.0173180494894094,
          3.0188262895475915,
          3.019936975879707,
          3.0206514691874604,
          3.020970889996959,
          3.0208961286647313,
          3.0204278559874447,
          3.019566534513884,
          3.0183124306662013,
          3.016665627786441,
          3.014626040234254,
          3.012193428671972,
          3.0093674166843702,
          3.0061475088922207,
          3.0025331107309228,
          2.9985235500786107,
          2.99411810093145,
          2.9893160093376543,
          2.9841165218158854,
          2.978518916497877,
          2.9725225372490205,
          2.9661268310343614,
          2.9593313888101553,
          2.9521359902326267,
          2.9445406524854576,
          2.936545683534646,
          2.9281517401237194,
          2.9193598908221836,
          2.910171684435098,
          2.900589224070111,
          2.890615247139122,
          2.8802532115431116,
          2.8695073882489988,
          2.8583829604143904,
          2.8468861291480057,
          2.835024225907541,
          2.8228058314307107,
          2.810240900966207,
          2.7973408954168932,
          2.7841189178252357,
          2.7705898544178655,
          2.7567705191810123,
          2.742679800659096,
          2.7283388093549688,
          2.7137710237620567,
          2.69900243267839,
          2.684061671043448,
          2.6689801461071343,
          2.6537921502944912,
          2.6385349566818697,
          2.623248892565029,
          2.6079773861964712,
          2.592766981420646,
          2.577667314668619,
          2.562731048618538,
          2.5480137568179213,
          2.533573753733693,
          2.5194718650809067,
          2.5057711339147555,
          2.492536458881604,
          2.4798341622344755,
          2.4677314867371893,
          2.456296022404911,
          2.4455950661349593,
          2.435694919628104,
          2.4266601335211675,
          2.4185527082589466,
          2.4114312648163785,
          2.405350200812115,
          2.400358849691617,
          2.39650066235473,
          2.393812431719942,
          2.392323581130851,
          2.392055537123295,
          2.39302120582767,
          2.3952245701698263,
          2.3986604220988954,
          2.4033142404098036,
          2.409162220490035,
          2.416171457697803,
          2.424300281293927,
          2.433498731141551,
          2.4437091649917795,
          2.4548669803069165,
          2.466901431417098,
          2.4797365204958592,
          2.493291939454369,
          2.5074840394131437,
          2.5222268048791214,
          2.537432811049542,
          2.5530141446571477,
          2.568883271311459,
          2.5849538352111088,
          2.6011413802330803,
          2.6173639845864622,
          2.6335428043083713,
          2.649602523760262,
          2.665471713863192,
          2.6810831010289276,
          2.696373751565278,
          2.7112851777487803,
          2.7257633727766257,
          2.739758782458599,
          2.7532262218284083,
          2.766124744886386,
          2.7784174754826974,
          2.790071406960349,
          2.8010571776482607,
          2.81134882866949,
          2.820923549846621,
          2.8297614187775326,
          2.8378451374471587,
          2.8451597700545768,
          2.8516924850863785,
          2.857432304066412,
          2.862369858866662,
          2.8664971589770434,
          2.8698073697041577,
          2.8722946018999234,
          2.8739537135066424,
          2.8747801229430587,
          2.874769634140506,
          2.873918272865557,
          2.872222133830264,
          2.869677237988406,
          2.8662793993416855,
          2.8620241005291485,
          2.856906376442466,
          2.8509207050956165,
          2.8440609049770376,
          2.8363200381224303,
          2.827690318165545,
          2.8181630226501304,
          2.8077284089172383,
          2.7963756329175866,
          2.7840926703373787,
          2.7708662394672805,
          2.7566817252883853,
          2.741523104294983,
          2.725372869622846,
          2.708211956103352,
          2.6900196649186503,
          2.670773587592632,
          2.650449529116897,
          2.6290214300821306,
          2.606461287764661,
          2.582739076207046,
          2.5578226654328113,
          2.5316777400513937,
          2.5042677176421817,
          2.4755536674608547,
          2.445494230189209,
          2.4140455396571783,
          2.3811611477067935,
          2.346791953648226,
          2.31088614008471,
          2.2733891172622442,
          2.234243478540652,
          2.1933889700928706,
          2.150762478529354,
          2.1062980408250525,
          2.0599268817084933,
          2.0115774845682393,
          1.9611757029537795,
          1.9086449209072265,
          1.8539062716706067,
          1.7968789257802464,
          1.7374804611902457,
          1.6756273298633446,
          1.6112354372220432,
          1.544220852949355,
          1.4745006738347552,
          1.401994061623878,
          1.3266234810726065,
          1.2483161655106725,
          1.1670058390286897,
          1.0826347256969504,
          0.9951558767146516,
          0.904535845701079,
          0.8107577399940742,
          0.713824671223509,
          0.6137636208529427,
          0.5106297249769984,
          0.40451096645188284,
          0.29553324036116807,
          0.18386572980501487,
          0.06972649207371706,
          -0.04661189026175423,
          -0.16481679307737276,
          -0.2844904312221619,
          -0.405165465932393,
          -0.5263017392352269,
          -0.6472846010390825,
          -0.7674253467326887,
          -0.88596430990204,
          -1.0020771420074204,
          -1.1148847432560354,
          -1.223467172412162,
          -1.3268816484793586,
          -1.4241844634563212,
          -1.5144562651656746,
          -1.5968297711041293,
          -1.6705185835261103,
          -1.734845450477933,
          -1.7892681193610214,
          -1.833400912565009,
          -1.8670303501962602,
          -1.8901235506806613,
          -1.9028287154767298,
          -1.9054676751627133,
          -1.8985211468938883,
          -1.8826079335444021,
          -1.8584597079186116,
          -1.8268932296962814,
          -1.7887818349585984,
          -1.745027848722017,
          -1.6965372529500518,
          -1.6441975577485832,
          -1.588859429686531,
          -1.531322273663658,
          -1.4723236722896484,
          -1.4125323720520475,
          -1.3525443682770177,
          -1.2928815718370033,
          -1.2339925258915365,
          -1.176254665552225,
          -1.119977663177419,
          -1.0654074652858152,
          -1.012730694889775,
          -0.9620791591650573,
          -0.9135342629125072,
          -0.8671311811892085,
          -0.822862689089519,
          -0.7806825831355234,
          -0.7405086578361258,
          -0.7022252237208643,
          -0.6656851706855936,
          -0.6307115939260972,
          -0.5970990101292394,
          -0.5646141998721739,
          -0.5329967191507836,
          -0.501959129289373,
          -0.4711870007123655,
          -0.4403387525896909,
          -0.4090453974711192,
          -0.3769102678234246,
          -0.34350880984173765,
          -0.30838853880214495,
          -0.27106925912966917,
          -0.2310436606155331,
          -0.18777840892133385,
          -0.14071585249624294,
          -0.08927646791903537,
          -0.03286215990581013,
          0.029139480810453415,
          0.09734988031407293,
          0.17239309533700642,
          0.2548883304959085,
          0.3454414035095557,
          0.44463526356936817,
          0.5530197340777321,
          0.6711007180226007,
          0.7993291666407889,
          0.9380901632505607,
          1.0876925076288106,
          1.2483591963175602,
          1.4202191768202561,
          1.6033007075280994,
          1.7975265823850277,
          2.0027113850908567,
          2.2185608302830513,
          2.4446731387814724,
          2.680542291371089,
          2.9255629206276943,
          3.179036540693856,
          3.440178785351878,
          3.708127326411011,
          3.981950175173383,
          4.260654124644299,
          4.543193162318339,
          4.828476764875935,
          5.115378068795159,
          5.402741986947341,
          5.68939340375292,
          5.974145624536062,
          6.25580927367764,
          6.533201827760301,
          6.805157932487839,
          7.070540586101496,
          7.328253180073821,
          7.577252275638458,
          7.816560870863124,
          8.04528178903415,
          8.26261070881674,
          8.467848274519856,
          8.660410684256421,
          8.839838164915891,
          9.005800810239291,
          9.158101379509741,
          9.296674819669388,
          9.421584466857258,
          9.533015084069007,
          9.631263078456614,
          9.716724395592301,
          9.789880694813453,
          9.851284462424939,
          9.901543718204625,
          9.94130692184726,
          9.97124860072552,
          9.992056111941487,
          10.004417833457193,
          10.009012962846743,
          10.006502996891136,
          9.997524876681542,
          9.9826857139402,
          9.962558965231649,
          9.937681890107923,
          9.908554114356278,
          9.875637117213238,
          9.839354468430937,
          9.800092654446637,
          9.758202350070082,
          9.714000011037143,
          9.66776968196235,
          9.619764932597722,
          9.570210852196853,
          9.519306046819441,
          9.467224597448578,
          9.414117947845904,
          9.360116700255823,
          9.305332304571456,
          9.249858632601196,
          9.193773433846141,
          9.137139672929866,
          9.080006751712817,
          9.022411621359199,
          8.964379791367888,
          8.905926243979343,
          8.847056263559978,
          8.787766191664005,
          8.728044119594117,
          8.667870531533147,
          8.607218912807838,
          8.546056339684066,
          8.484344069398274,
          8.422038152033414,
          8.359090089490596,
          8.295447571348857,
          8.231055323017348,
          8.165856108448907,
          8.099791937986788,
          8.032805541823526,
          7.96484218118323,
          7.895851882718308,
          7.8257921965855095,
          7.754631594788544,
          7.682353642733993,
          7.608962091924338,
          7.534487052646453,
          7.458992408269749,
          7.38258462120211,
          7.305423045915516,
          7.2277317948463,
          7.149813083051644,
          7.072061788849745,
          6.994980690483954,
          6.919195455864136,
          6.845467966232983,
          6.774705959340034,
          6.707966335435441,
          6.646448888894792,
          6.591476890195377,
          6.54446109934424,
          6.506844733029436,
          6.480028879778908,
          6.465280927114377,
          6.463632461552649,
          6.47577711081326,
          6.501981804314211,
          6.542025701369564,
          6.5951787076195965,
          6.660226056727149,
          6.735537942476931,
          6.819175537745914,
          6.909018971724579,
          7.002900365949795,
          7.098726151857978,
          7.194576822601443,
          7.28877759365043,
          7.379938703566783,
          7.46696822774953,
          7.5490628314756725,
          7.625682889687653,
          7.696518198320645,
          7.761449553005484,
          7.820510195446325,
          7.873849834827357,
          7.921702826061714,
          7.964361209202853,
          8.002152693904607,
          8.035423277996085,
          8.064523971833232,
          8.089801010285102,
          8.111588928554596,
          8.130205922450475,
          8.145950983623854,
          8.15910237918628,
          8.16991712287529,
          8.178631155898032,
          8.18546001719019,
          8.190599834421162,
          8.194228509110081,
          8.196507002711252,
          8.197580656718948,
          8.197580499983472,
          8.196624511680383,
          8.19481881974319,
          8.192258822908851,
          8.189030230531472,
          8.185210018553015,
          8.180867302921783,
          8.176064133664152,
          8.17085621400653,
          8.165293549614928,
          8.159421033319909,
          8.15327897073911,
          8.146903552081358,
          8.140327275176876,
          8.133579324472038,
          8.126685910385419,
          8.119670573067001,
          8.112554454249079,
          8.105356540536107,
          8.098093881156915,
          8.090781782900732,
          8.083433984679358,
          8.07606281390278,
          8.068679326623162,
          8.061293433192567,
          8.053914010990606,
          8.04654900560874,
          8.039205521726252,
          8.03188990477732,
          8.024607814387785,
          8.01736429045284,
          8.010163812630827,
          8.003010353943733,
          7.995907429099058,
          7.988858138080838,
          7.981865205498016,
          7.974931016125465,
          7.968057647025969,
          7.961246896599814,
          7.954500310871627,
          7.947819207291113,
          7.941204696295149,
          7.934657700852602,
          7.928178974190224,
          7.92176911587717,
          7.9154285864275185,
          7.909157720563664,
          7.9029567392689835,
          7.896825760745106,
          7.8907648103773305,
          7.884773829801757,
          7.878852685157938,
          7.873001174602834,
          7.867219035154341,
          7.861505948926002,
          7.855861548808447,
          7.850285423647922,
          7.844777122967256,
          7.83933616127042,
          7.833962021967884,
          7.828654160956491,
          7.823412009884404,
          7.8182349791288965,
          7.813122460512037,
          7.808073829777301,
          7.803088448847698,
          7.798165667884379,
          7.793304827162961,
          7.788505258783049,
          7.78376628822542,
          7.779087235769589,
          7.774467417783838,
          7.7699061478983475,
          7.765402738071322,
          7.760956499557164,
          7.756566743784818,
          7.752232783153904,
          7.747953931755427,
          7.743729506023403,
          7.739558825323126,
          7.735441212481371,
          7.7313759942633205,
          7.7273625018006955,
          7.7234000709750505,
          7.719488042760111,
          7.71562576352633,
          7.711812585311055,
          7.708047866056981,
          7.704330969821617,
          7.700661266960147,
          7.697038134284021,
          7.693460955197131,
          7.689929119811638,
          7.686442025045074,
          7.682999074700359,
          7.67959967953017,
          7.6762432572870285,
          7.67292923276031,
          7.669657037801386,
          7.666426111337862,
          7.663235899377964,
          7.660085855005891,
          7.656975438368992,
          7.653904116657526,
          7.650871364077664,
          7.647876661818441,
          7.644919498013147,
          7.641999367695801,
          7.639115772753135,
          7.6362682218726015,
          7.633456230486781,
          7.630679320714603,
          7.627937021299756,
          7.625228867546571,
          7.622554401253723,
          7.619913170646,
          7.617304730304445,
          7.614728641095027,
          7.6121844700961185,
          7.6096717905249855,
          7.6071901816634195,
          7.604739228782708,
          7.60231852306811,
          7.599927661542965,
          7.5975662469925265,
          7.595233887887742,
          7.5929301983089115,
          7.590654797869549,
          7.588407311640291,
          7.586187370073167,
          7.583994608926094,
          7.581828669187843,
          7.579689197003391,
          7.577575843599823,
          7.575488265212753,
          7.57342612301337,
          7.571389083036086,
          7.569376816106887,
          7.567388997772376,
          7.565425308229523,
          7.563485432256184,
          7.5615690591424265,
          7.5596758826225745,
