{
  "project_name": "WNET5_EFF2_A1_PS-5_360",
  "task_type": "wnet5-circuit-validation",
  "analysis_layer": 1,
  "frequency_range": {
    "start_freq": 2,
    "stop_freq": 500
  },
  "svf": {
    "center_freqs": [
      8.0,
      25.0,
      50.0,
      85.0,
      120.0,
      180.0
    ],
    "quality_factors": [
      1.5,
      2.0,
      2.5,
      3.0,
      4.0,
      5.0
    ],
    "transfer_functions": [
      {
        "f0": 8.0,
        "Q": 1.5,
        "channels": {
          "high_pass": {
            "symbolic": "s**2/(s**2 + 10.6666666666667*pi*s + 256.0*pi**2)",
            "numerator_coeffs": [
              1.0,
              0.0,
              0.0
            ],
            "denominator_coeffs": [
              1.0,
              33.510321638291124,
              2526.6187266788756
            ]
          },
          "band_pass": {
            "symbolic": "10.6666666666667*pi*s/(s**2 + 10.6666666666667*pi*s + 256.0*pi**2)",
            "numerator_coeffs": [
              33.510321638291124,
              0.0
            ],
            "denominator_coeffs": [
              1.0,
              33.510321638291124,
              2526.6187266788756
            ]
          },
          "low_pass": {
            "symbolic": "256.0*pi**2/(s**2 + 10.6666666666667*pi*s + 256.0*pi**2)",
            "numerator_coeffs": [
              2526.6187266788756
            ],
            "denominator_coeffs": [
              1.0,
              33.510321638291124,
              2526.6187266788756
            ]
          }
        }
      },
      {
        "f0": 25.0,
        "Q": 2.0,
        "channels": {
          "high_pass": {
            "symbolic": "s**2/(s**2 + 25.0*pi*s + 2500.0*pi**2)",
            "numerator_coeffs": [
              1.0,
              0.0,
              0.0
            ],
            "denominator_coeffs": [
              1.0,
              78.53981633974483,
              24674.011002723397
            ]
          },
          "band_pass": {
            "symbolic": "25.0*pi*s/(s**2 + 25.0*pi*s + 2500.0*pi**2)",
            "numerator_coeffs": [
              78.53981633974483,
              0.0
            ],
            "denominator_coeffs": [
              1.0,
              78.53981633974483,
              24674.011002723397
            ]
          },
          "low_pass": {
            "symbolic": "2500.0*pi**2/(s**2 + 25.0*pi*s + 2500.0*pi**2)",
            "numerator_coeffs": [
              24674.011002723397
            ],
            "denominator_coeffs": [
              1.0,
              78.53981633974483,
              24674.011002723397
            ]
          }
        }
      },
      {
        "f0": 50.0,
        "Q": 2.5,
        "channels": {
          "high_pass": {
            "symbolic": "s**2/(s**2 + 40.0*pi*s + 10000.0*pi**2)",
            "numerator_coeffs": [
              1.0,
              0.0,
              0.0
            ],
            "denominator_coeffs": [
              1.0,
              125.66370614359172,
              98696.04401089359
            ]
          },
          "band_pass": {
            "symbolic": "40.0*pi*s/(s**2 + 40.0*pi*s + 10000.0*pi**2)",
            "numerator_coeffs": [
              125.66370614359172,
              0.0
            ],
            "denominator_coeffs": [
              1.0,
              125.66370614359172,
              98696.04401089359
            ]
          },
          "low_pass": {
            "symbolic": "10000.0*pi**2/(s**2 + 40.0*pi*s + 10000.0*pi**2)",
            "numerator_coeffs": [
              98696.04401089359
            ],
            "denominator_coeffs": [
              1.0,
              125.66370614359172,
              98696.04401089359
            ]
          }
        }
      },
      {
        "f0": 85.0,
        "Q": 3.0,
        "channels": {
          "high_pass": {
            "symbolic": "s**2/(s**2 + 56.6666666666667*pi*s + 28900.0*pi**2)",
            "numerator_coeffs": [
              1.0,
              0.0,
              0.0
            ],
            "denominator_coeffs": [
              1.0,
              178.02358370342162,
              285231.56719148246
            ]
          },
          "band_pass": {
            "symbolic": "56.6666666666667*pi*s/(s**2 + 56.6666666666667*pi*s + 28900.0*pi**2)",
            "numerator_coeffs": [
              178.02358370342162,
              0.0
            ],
            "denominator_coeffs": [
              1.0,
              178.02358370342162,
              285231.56719148246
            ]
          },
          "low_pass": {
            "symbolic": "28900.0*pi**2/(s**2 + 56.6666666666667*pi*s + 28900.0*pi**2)",
            "numerator_coeffs": [
              285231.56719148246
            ],
            "denominator_coeffs": [
              1.0,
              178.02358370342162,
              285231.56719148246
            ]
          }
        }
      },
      {
        "f0": 120.0,
        "Q": 4.0,
        "channels": {
          "high_pass": {
            "symbolic": "s**2/(s**2 + 60.0*pi*s + 57600.0*pi**2)",
            "numerator_coeffs": [
              1.0,
              0.0,
              0.0
            ],
            "denominator_coeffs": [
              1.0,
              188.4955592153876,
              568489.213502747
            ]
          },
          "band_pass": {
            "symbolic": "60.0*pi*s/(s**2 + 60.0*pi*s + 57600.0*pi**2)",
            "numerator_coeffs": [
              188.4955592153876,
              0.0
            ],
            "denominator_coeffs": [
              1.0,
              188.4955592153876,
              568489.213502747
            ]
          },
          "low_pass": {
            "symbolic": "57600.0*pi**2/(s**2 + 60.0*pi*s + 57600.0*pi**2)",
            "numerator_coeffs": [
              568489.213502747
            ],
            "denominator_coeffs": [
              1.0,
              188.4955592153876,
              568489.213502747
            ]
          }
        }
      },
      {
        "f0": 180.0,
        "Q": 5.0,
        "channels": {
          "high_pass": {
            "symbolic": "s**2/(s**2 + 72.0*pi*s + 129600.0*pi**2)",
            "numerator_coeffs": [
              1.0,
              0.0,
              0.0
            ],
            "denominator_coeffs": [
              1.0,
              226.1946710584651,
              1279100.730381181
            ]
          },
          "band_pass": {
            "symbolic": "72.0*pi*s/(s**2 + 72.0*pi*s + 129600.0*pi**2)",
            "numerator_coeffs": [
              226.1946710584651,
              0.0
            ],
            "denominator_coeffs": [
              1.0,
              226.1946710584651,
              1279100.730381181
            ]
          },
          "low_pass": {
            "symbolic": "129600.0*pi**2/(s**2 + 72.0*pi*s + 129600.0*pi**2)",
            "numerator_coeffs": [
              1279100.730381181
            ],
            "denominator_coeffs": [
              1.0,
              226.1946710584651,
              1279100.730381181
            ]
          }
        }
      }
    ]
  },
  "dense_layer": {
    "layer_name": "Dense_Layer_Model_1",
    "weights": [
      [
        -0.5383116006851196,
        0.12737871706485748,
        -0.6375424265861511,
        0.20078912377357483,
        0.7824568152427673,
        -0.360272079706192,
        0.4273580014705658,
        0.11610063910484314,
        0.011845419183373451,
        -0.8256993889808655,
        0.2515263557434082,
        0.3338181674480438,
        -0.11922602355480194,
        -0.5628129243850708
      ],
      [
        -1.1305867433547974,
        -0.7318112254142761,
        -3.620978832244873,
        2.3090145587921143,
        2.2800283432006836,
        -0.2185327112674713,
        -1.0904295444488525,
        0.3553200662136078,
        -0.4335264265537262,
        -2.129364252090454,
        -0.23317401111125946,
        -0.9861095547676086,
        0.29610490798950195,
        -0.07079773396253586
      ],
      [
        -0.7752670049667358,
        -3.1367130279541016,
        -0.6073784828186035,
        0.2509238123893738,
        0.4224594533443451,
        -1.7940279245376587,
        2.143035888671875,
        1.0562349557876587,
        0.38099533319473267,
        -0.9223597049713135,
        1.800835371017456,
        -1.5811479091644287,
        -0.880731463432312,
        -5.39285135269165
      ],
      [
        -0.6567217111587524,
        -0.10085617005825043,
        -0.2890069782733917,
        0.47320330142974854,
        0.11378185451030731,
        -0.20186758041381836,
        0.4166097342967987,
        0.24817577004432678,
        0.2756040394306183,
        -0.5883057713508606,
        0.37971386313438416,
        0.04049428552389145,
        -0.2501952350139618,
        -0.4104000926017761
      ],
      [
        -0.15892161428928375,
        -0.8638258576393127,
        -1.992723822593689,
        1.1704329252243042,
        0.8853110074996948,
        0.33349335193634033,
        -1.4825339317321777,
        0.26163196563720703,
        -0.6822724938392639,
        -0.9257561564445496,
        0.2078038901090622,
        -0.5011399984359741,
        0.40844327211380005,
        1.1296780109405518
      ],
      [
        -1.0357905626296997,
        -0.43717479705810547,
        -0.3165360391139984,
        -0.0027918636333197355,
        0.7643457651138306,
        -0.6699299812316895,
        0.2789202332496643,
        0.9515212178230286,
        0.5378521680831909,
        -0.40706589818000793,
        0.4078706204891205,
        0.3563809096813202,
        -0.3357604146003723,
        -0.11614545434713364
      ],
      [
        -0.6629830002784729,
        -0.33142760396003723,
        -0.6613311767578125,
        0.6181113123893738,
        0.43048062920570374,
        -0.06799543648958206,
        -0.2152458280324936,
        -0.41109463572502136,
        0.30114468932151794,
        -0.5674500465393066,
        0.21819628775119781,
        -0.2699812352657318,
        0.20632357895374298,
        -0.4331395626068115
      ],
      [
        0.343465119600296,
        -1.155100703239441,
        -1.4308000802993774,
        1.0490880012512207,
        1.0607914924621582,
        0.03802771866321564,
        -1.9160786867141724,
        0.35930365324020386,
        0.032447632402181625,
        -1.2383570671081543,
        -0.3564937710762024,
        -0.532632052898407,
        -0.19807511568069458,
        1.0500750541687012
      ],
      [
        -0.5434970259666443,
        -0.10049494355916977,
        -0.23871088027954102,
        0.4021508991718292,
        0.3245900273323059,
        -0.5264219045639038,
        -0.18582119047641754,
        -0.37786951661109924,
        0.7001938819885254,
        -0.5900730490684509,
        0.10204736143350601,
        -0.2521379888057709,
        0.14680036902427673,
        -0.3542558252811432
      ],
      [
        0.12820199131965637,
        0.34567537903785706,
        0.009131485596299171,
        0.6340744495391846,
        0.21348826587200165,
        -0.15534843504428864,
        0.21369163691997528,
        0.011825218796730042,
        0.11103792488574982,
        -0.64304518699646,
        -0.0609719343483448,
        -0.21112528443336487,
        -0.23818176984786987,
        -0.06275802105665207
      ],
      [
        0.5464484691619873,
        -1.2916420698165894,
        -0.8866180777549744,
        0.6056055426597595,
        0.5165431499481201,
        0.1953580677509308,
        -0.8277976512908936,
        0.28683096170425415,
        -0.7477555871009827,
        -0.7564141154289246,
        -0.22684518992900848,
        -0.8076752424240112,
        -0.1500120609998703,
        0.7020362615585327
      ],
      [
        -0.5099613070487976,
        0.20128747820854187,
        0.13294129073619843,
        0.0431239940226078,
        0.33521798253059387,
        -0.46840575337409973,
        0.527654767036438,
        0.19482873380184174,
        0.28859198093414307,
        -0.10292235761880875,
        0.24374432861804962,
        -0.3942658603191376,
        0.14838720858097076,
        -0.1815704107284546
      ],
      [
        -0.2830233573913574,
        0.12217657268047333,
        -0.5642869472503662,
        0.5774919390678406,
        0.21228888630867004,
        -0.16206364333629608,
        0.009661830961704254,
        -0.2647058665752411,
        0.1440163105726242,
        -0.20449309051036835,
        0.09544192254543304,
        0.3853915333747864,
        -0.040365397930145264,
        -0.06181655079126358
      ],
      [
        -0.15001246333122253,
        -1.254568099975586,
        -0.6686164140701294,
        -0.0599583201110363,
        -0.3095766305923462,
        0.645087718963623,
        -0.5540776252746582,
        0.3128952383995056,
        -0.38165777921676636,
        0.36789458990097046,
        -0.7644072771072388,
        -0.5587927103042603,
        0.2888811528682709,
        0.9995952844619751
      ],
      [
        -0.38612985610961914,
        0.01491470169275999,
        -0.15437977015972137,
        0.4420677721500397,
        0.02478090301156044,
        -0.5309973955154419,
        0.23529782891273499,
        -0.17788632214069366,
        0.3334634602069855,
        -0.05196550488471985,
        0.4829931855201721,
        -0.12173691391944885,
        -0.2934972643852234,
        -0.5255870819091797
      ],
      [
        0.35123223066329956,
        -0.23216941952705383,
        -0.07175984978675842,
        0.5629973411560059,
        -0.08545355498790741,
        0.4392065703868866,
        0.48394444584846497,
        -0.18210038542747498,
        0.16317112743854523,
        -0.5182597637176514,
        -0.17945066094398499,
        0.24667362868785858,
        -0.09807537496089935,
        -0.2635612189769745
      ],
      [
        -0.19775499403476715,
        0.07850459218025208,
        -0.38189929723739624,
        0.30602991580963135,
        0.5144103169441223,
        -0.46942394971847534,
        -0.41202056407928467,
        0.6920729279518127,
        0.3563244044780731,
        -0.21787972748279572,
        -0.13395050168037415,
        -0.3586898744106293,
        0.4824979901313782,
        0.9965727925300598
      ],
      [
        0.019399432465434074,
        -0.032043810933828354,
        -0.04112907871603966,
        0.37651580572128296,
        0.25167015194892883,
        0.2812279164791107,
        0.6603261828422546,
        -0.1907854974269867,
        0.12003618478775024,
        -0.3099912106990814,
        -0.04204197973012924,
        0.43021297454833984,
        -0.004789996426552534,
        -0.44737884402275085
      ]
    ],
    "bias": [
      0.015114025212824345,
      0.017608296126127243,
      -0.14727783203125,
      0.08446959406137466,
      -0.020890429615974426,
      -0.2885236442089081,
      -0.006789691746234894,
      -0.014410322532057762,
      0.0037072482518851757,
      -0.09144208580255508,
      -0.010108503513038158,
      0.004050825722515583,
      -0.05102678760886192,
      -0.00031513156136497855
    ]
  },
  "combined_transfer_functions": [
    {
      "output_index": 0,
      "symbolic": "0.3512322306633*s**2/(s**2 + 72.0*pi*s + 129600.0*pi**2) - 0.283023357391357*s**2/(s**2 + 60.0*pi*s + 57600.0*pi**2) + 0.128201991319656*s**2/(s**2 + 56.6666666666667*pi*s + 28900.0*pi**2) - 0.662983000278473*s**2/(s**2 + 40.0*pi*s + 10000.0*pi**2) - 0.656721711158752*s**2/(s**2 + 25.0*pi*s + 2500.0*pi**2) - 0.53831160068512*s**2/(s**2 + 10.6666666666667*pi*s + 256.0*pi**2) - 14.2383595705032*pi*s/(s**2 + 72.0*pi*s + 129600.0*pi**2) - 9.00074779987335*pi*s/(s**2 + 60.0*pi*s + 57600.0*pi**2) + 30.9654132525126*pi*s/(s**2 + 56.6666666666667*pi*s + 28900.0*pi**2) + 13.7386047840118*pi*s/(s**2 + 40.0*pi*s + 10000.0*pi**2) - 3.97304035723209*pi*s/(s**2 + 25.0*pi*s + 2500.0*pi**2) - 12.0595919291178*pi*s/(s**2 + 10.6666666666667*pi*s + 256.0*pi**2) + 0.0151140252128243 + 2514.16644752026*pi**2/(s**2 + 72.0*pi*s + 129600.0*pi**2) - 22241.0797119141*pi**2/(s**2 + 60.0*pi*s + 57600.0*pi**2) - 14737.8817737103*pi**2/(s**2 + 56.6666666666667*pi*s + 28900.0*pi**2) - 5434.97025966644*pi**2/(s**2 + 40.0*pi*s + 10000.0*pi**2) - 2589.47640657425*pi**2/(s**2 + 25.0*pi*s + 2500.0*pi**2) - 198.468353271484*pi**2/(s**2 + 10.6666666666667*pi*s + 256.0*pi**2)",
      "numerator_coeffs": [
        -1.6464914223179221,
        -1246.2165024688263,
        -4741107.245834868,
        -2406224761.1515555,
        -3840175083224.4307,
        -1277706208528790.8,
        -1.0854107875135195e+18,
        -2.1677558215662102e+20,
        -9.38326423955676e+22,
        -1.0021672801060565e+25,
        -1.9953162613393964e+27,
        -7.749169660841129e+28,
        -4.104286599437359e+30
      ],
      "denominator_coeffs": [
        1.0,
        830.4276580989019,
        2532788.3260522676,
        1459526863.3306742,
        1861400679700.8867,
        706722047844009.2,
        4.733966519244994e+17,
        1.0672803066180136e+20,
        3.7578034826402647e+22,
        4.1707342770340915e+24,
        6.841395530971847e+26,
        2.4057836793023434e+28,
        1.2761560215226024e+30
      ]
    },
    {
      "output_index": 1,
      "symbolic": "-0.232169419527054*s**2/(s**2 + 72.0*pi*s + 129600.0*pi**2) + 0.122176572680473*s**2/(s**2 + 60.0*pi*s + 57600.0*pi**2) + 0.345675379037857*s**2/(s**2 + 56.6666666666667*pi*s + 28900.0*pi**2) - 0.331427603960037*s**2/(s**2 + 40.0*pi*s + 10000.0*pi**2) - 0.10085617005825*s**2/(s**2 + 25.0*pi*s + 2500.0*pi**2) + 0.127378717064857*s**2/(s**2 + 10.6666666666667*pi*s + 256.0*pi**2) + 5.65233063697815*pi*s/(s**2 + 72.0*pi*s + 129600.0*pi**2) - 75.2740859985352*pi*s/(s**2 + 60.0*pi*s + 57600.0*pi**2) - 73.1930506229401*pi*s/(s**2 + 56.6666666666667*pi*s + 28900.0*pi**2) - 46.2040281295776*pi*s/(s**2 + 40.0*pi*s + 10000.0*pi**2) - 21.5956464409828*pi*s/(s**2 + 25.0*pi*s + 2500.0*pi**2) - 7.80598640441895*pi*s/(s**2 + 10.6666666666667*pi*s + 256.0*pi**2) + 0.0176082961261272 - 4152.87789702415*pi**2/(s**2 + 72.0*pi*s + 129600.0*pi**2) + 859.086817502975*pi**2/(s**2 + 60.0*pi*s + 57600.0*pi**2) + 5817.20812022686*pi**2/(s**2 + 56.6666666666667*pi*s + 28900.0*pi**2) - 1004.9494355917*pi**2/(s**2 + 40.0*pi*s + 10000.0*pi**2) - 1092.93699264526*pi**2/(s**2 + 25.0*pi*s + 2500.0*pi**2) - 802.99853515625*pi**2/(s**2 + 10.6666666666667*pi*s + 256.0*pi**2)",
      "numerator_coeffs": [
        -0.05161422863602638,
        -715.8014987630689,
        -425899.4461375858,
        -1466160476.117692,
        -649540453804.7656,
        -783107468497040.1,
        -2.2330464559310432e+17,
        -1.1882324389396916e+20,
        -1.8802665435050692e+22,
        -4.868369119514135e+24,
        -5.729596269223128e+26,
        -4.798738106917836e+28,
        -4.43159995088952e+30
      ],
      "denominator_coeffs": [
        1.0,
        830.4276580989019,
        2532788.3260522676,
        1459526863.3306742,
        1861400679700.8867,
        706722047844009.2,
        4.733966519244994e+17,
        1.0672803066180136e+20,
        3.7578034826402647e+22,
        4.1707342770340915e+24,
        6.841395530971847e+26,
        2.4057836793023434e+28,
        1.2761560215226024e+30
      ]
    },
    {
      "output_index": 2,
      "symbolic": "-0.0717598497867584*s**2/(s**2 + 72.0*pi*s + 129600.0*pi**2) - 0.564286947250366*s**2/(s**2 + 60.0*pi*s + 57600.0*pi**2) + 0.00913148559629917*s**2/(s**2 + 56.6666666666667*pi*s + 28900.0*pi**2) - 0.661331176757813*s**2/(s**2 + 40.0*pi*s + 10000.0*pi**2) - 0.289006978273392*s**2/(s**2 + 25.0*pi*s + 2500.0*pi**2) - 0.637542426586151*s**2/(s**2 + 10.6666666666667*pi*s + 256.0*pi**2) - 27.4967494010925*pi*s/(s**2 + 72.0*pi*s + 129600.0*pi**2) - 40.1169848442078*pi*s/(s**2 + 60.0*pi*s + 57600.0*pi**2) - 50.2416910727819*pi*s/(s**2 + 56.6666666666667*pi*s + 28900.0*pi**2) - 57.2320032119751*pi*s/(s**2 + 40.0*pi*s + 10000.0*pi**2) - 49.8180955648422*pi*s/(s**2 + 25.0*pi*s + 2500.0*pi**2) - 38.623774210612*pi*s/(s**2 + 10.6666666666667*pi*s + 256.0*pi**2) - 0.14727783203125 - 5330.32860159874*pi**2/(s**2 + 72.0*pi*s + 129600.0*pi**2) - 8892.27476119995*pi**2/(s**2 + 60.0*pi*s + 57600.0*pi**2) + 3842.00330227613*pi**2/(s**2 + 56.6666666666667*pi*s + 28900.0*pi**2) - 2387.10880279541*pi**2/(s**2 + 40.0*pi*s + 10000.0*pi**2) - 791.340097784996*pi**2/(s**2 + 25.0*pi*s + 2500.0*pi**2) - 155.488891601563*pi**2/(s**2 + 10.6666666666667*pi*s + 256.0*pi**2)",
      "numerator_coeffs": [
        -2.362073725089431,
        -2541.2932664108557,
        -6041479.16534623,
        -4481560302.3118725,
        -4349838271054.9565,
        -2165925383470267.5,
        -1.0743667191687959e+18,
        -3.319717110124308e+20,
        -8.085152174808473e+22,
        -1.3875798634600428e+25,
        -1.405817603440954e+27,
        -9.387794081230124e+28,
        -1.7514868660634062e+30
      ],
      "denominator_coeffs": [
        1.0,
        830.4276580989019,
        2532788.3260522676,
        1459526863.3306742,
        1861400679700.8867,
        706722047844009.2,
        4.733966519244994e+17,
        1.0672803066180136e+20,
        3.7578034826402647e+22,
        4.1707342770340915e+24,
        6.841395530971847e+26,
        2.4057836793023434e+28,
        1.2761560215226024e+30
      ]
    },
    {
      "output_index": 3,
      "symbolic": "0.562997341156006*s**2/(s**2 + 72.0*pi*s + 129600.0*pi**2) + 0.577491939067841*s**2/(s**2 + 60.0*pi*s + 57600.0*pi**2) + 0.634074449539185*s**2/(s**2 + 56.6666666666667*pi*s + 28900.0*pi**2) + 0.618111312389374*s**2/(s**2 + 40.0*pi*s + 10000.0*pi**2) + 0.473203301429749*s**2/(s**2 + 25.0*pi*s + 2500.0*pi**2) + 0.200789123773575*s**2/(s**2 + 10.6666666666667*pi*s + 256.0*pi**2) + 22.0341539382935*pi*s/(s**2 + 72.0*pi*s + 129600.0*pi**2) - 3.59749920666218*pi*s/(s**2 + 60.0*pi*s + 57600.0*pi**2) + 34.3176474173864*pi*s/(s**2 + 56.6666666666667*pi*s + 28900.0*pi**2) + 41.9635200500488*pi*s/(s**2 + 40.0*pi*s + 10000.0*pi**2) + 29.2608231306076*pi*s/(s**2 + 25.0*pi*s + 2500.0*pi**2) + 24.6294886271159*pi*s/(s**2 + 10.6666666666667*pi*s + 256.0*pi**2) + 0.0844695940613747 + 48796.4484214783*pi**2/(s**2 + 72.0*pi*s + 129600.0*pi**2) + 25463.1036758423*pi**2/(s**2 + 60.0*pi*s + 57600.0*pi**2) + 1246.28342725337*pi**2/(s**2 + 56.6666666666667*pi*s + 28900.0*pi**2) + 4021.50899171829*pi**2/(s**2 + 40.0*pi*s + 10000.0*pi**2) - 6.97965908329934*pi**2/(s**2 + 25.0*pi*s + 2500.0*pi**2) + 64.2364959716797*pi**2/(s**2 + 10.6666666666667*pi*s + 256.0*pi**2)",
      "numerator_coeffs": [
        3.151137061417103,
        2613.0077551064105,
        7484239.819678768,
        4412700314.476047,
        5124674771092.244,
        2073475612132290.8,
        1.197131532033479e+18,
        3.0599691298411944e+20,
        8.749884066133681e+22,
        1.2080727096748038e+25,
        1.3891963725140958e+27,
        7.927833257687057e+28,
        2.0373320598370882e+30
      ],
      "denominator_coeffs": [
        1.0,
        830.4276580989019,
        2532788.3260522676,
        1459526863.3306742,
        1861400679700.8867,
        706722047844009.2,
        4.733966519244994e+17,
        1.0672803066180136e+20,
        3.7578034826402647e+22,
        4.1707342770340915e+24,
        6.841395530971847e+26,
        2.4057836793023434e+28,
        1.2761560215226024e+30
      ]
    },
    {
      "output_index": 4,
      "symbolic": "-0.0854535549879074*s**2/(s**2 + 72.0*pi*s + 129600.0*pi**2) + 0.21228888630867*s**2/(s**2 + 60.0*pi*s + 57600.0*pi**2) + 0.213488265872002*s**2/(s**2 + 56.6666666666667*pi*s + 28900.0*pi**2) + 0.430480629205704*s**2/(s**2 + 40.0*pi*s + 10000.0*pi**2) + 0.113781854510307*s**2/(s**2 + 25.0*pi*s + 2500.0*pi**2) + 0.782456815242767*s**2/(s**2 + 10.6666666666667*pi*s + 256.0*pi**2) + 37.0375428199768*pi*s/(s**2 + 72.0*pi*s + 129600.0*pi**2) - 18.5745978355408*pi*s/(s**2 + 60.0*pi*s + 57600.0*pi**2) + 29.2707784970601*pi*s/(s**2 + 56.6666666666667*pi*s + 28900.0*pi**2) + 42.4316596984863*pi*s/(s**2 + 40.0*pi*s + 10000.0*pi**2) + 22.1327751874924*pi*s/(s**2 + 25.0*pi*s + 2500.0*pi**2) + 24.320302327474*pi*s/(s**2 + 10.6666666666667*pi*s + 256.0*pi**2) - 0.0208904296159744 + 32616.4516925812*pi**2/(s**2 + 72.0*pi*s + 129600.0*pi**2) + 1427.38001346588*pi**2/(s**2 + 60.0*pi*s + 57600.0*pi**2) + 9687.79969513416*pi**2/(s**2 + 56.6666666666667*pi*s + 28900.0*pi**2) + 3245.90027332306*pi**2/(s**2 + 40.0*pi*s + 10000.0*pi**2) + 1910.86441278458*pi**2/(s**2 + 25.0*pi*s + 2500.0*pi**2) + 108.149620056152*pi**2/(s**2 + 10.6666666666667*pi*s + 256.0*pi**2)",
      "numerator_coeffs": [
        1.6461524665355682,
        1648.2651935830918,
        4728800.787389184,
        3166416902.99124,
        3700828207951.461,
        1659683874995334.2,
        1.0064592209200415e+18,
        2.7640187686186146e+20,
        8.57880292325607e+22,
        1.220658129408665e+25,
        1.7928341963752014e+27,
        8.376395527961846e+28,
        2.6827018216427174e+30
      ],
      "denominator_coeffs": [
        1.0,
        830.4276580989019,
        2532788.3260522676,
        1459526863.3306742,
        1861400679700.8867,
        706722047844009.2,
        4.733966519244994e+17,
        1.0672803066180136e+20,
        3.7578034826402647e+22,
        4.1707342770340915e+24,
        6.841395530971847e+26,
        2.4057836793023434e+28,
        1.2761560215226024e+30
      ]
    },
    {
      "output_index": 5,
      "symbolic": "0.439206570386887*s**2/(s**2 + 72.0*pi*s + 129600.0*pi**2) - 0.162063643336296*s**2/(s**2 + 60.0*pi*s + 57600.0*pi**2) - 0.155348435044289*s**2/(s**2 + 56.6666666666667*pi*s + 28900.0*pi**2) - 0.0679954364895821*s**2/(s**2 + 40.0*pi*s + 10000.0*pi**2) - 0.201867580413818*s**2/(s**2 + 25.0*pi*s + 2500.0*pi**2) - 0.360272079706192*s**2/(s**2 + 10.6666666666667*pi*s + 256.0*pi**2) - 33.7985243797302*pi*s/(s**2 + 72.0*pi*s + 129600.0*pi**2) + 38.7052631378174*pi*s/(s**2 + 60.0*pi*s + 57600.0*pi**2) + 11.0702905058861*pi*s/(s**2 + 56.6666666666667*pi*s + 28900.0*pi**2) + 1.52110874652863*pi*s/(s**2 + 40.0*pi*s + 10000.0*pi**2) + 8.33733379840851*pi*s/(s**2 + 25.0*pi*s + 2500.0*pi**2) - 2.33101558685303*pi*s/(s**2 + 10.6666666666667*pi*s + 256.0*pi**2) - 0.288523644208908 + 36447.1379756927*pi**2/(s**2 + 72.0*pi*s + 129600.0*pi**2) - 30585.4499816895*pi**2/(s**2 + 60.0*pi*s + 57600.0*pi**2) - 13536.9262725115*pi**2/(s**2 + 56.6666666666667*pi*s + 28900.0*pi**2) - 5264.21904563904*pi**2/(s**2 + 40.0*pi*s + 10000.0*pi**2) - 1674.82495307922*pi**2/(s**2 + 25.0*pi*s + 2500.0*pi**2) - 459.271148681641*pi**2/(s**2 + 10.6666666666667*pi*s + 256.0*pi**2)",
      "numerator_coeffs": [
        -0.7968642488121986,
        -592.5668739679016,
        -2520802.3421565704,
        -1191430284.9778647,
        -2275491567686.3564,
        -754337095967488.4,
        -7.219867105414921e+17,
        -1.5017668494535066e+20,
        -7.278489720537333e+22,
        -7.604491488513056e+24,
        -1.7331573763357473e+27,
        -6.364483776250578e+28,
        -5.100896034854205e+30
      ],
      "denominator_coeffs": [
        1.0,
        830.4276580989019,
        2532788.3260522676,
        1459526863.3306742,
        1861400679700.8867,
        706722047844009.2,
        4.733966519244994e+17,
        1.0672803066180136e+20,
        3.7578034826402647e+22,
        4.1707342770340915e+24,
        6.841395530971847e+26,
        2.4057836793023434e+28,
        1.2761560215226024e+30
      ]
    },
    {
      "output_index": 6,
      "symbolic": "0.483944445848465*s**2/(s**2 + 72.0*pi*s + 129600.0*pi**2) + 0.00966183096170425*s**2/(s**2 + 60.0*pi*s + 57600.0*pi**2) + 0.213691636919975*s**2/(s**2 + 56.6666666666667*pi*s + 28900.0*pi**2) - 0.215245828032494*s**2/(s**2 + 40.0*pi*s + 10000.0*pi**2) + 0.416609734296799*s**2/(s**2 + 25.0*pi*s + 2500.0*pi**2) + 0.427358001470566*s**2/(s**2 + 10.6666666666667*pi*s + 256.0*pi**2) - 29.6654806137085*pi*s/(s**2 + 72.0*pi*s + 129600.0*pi**2) - 33.2446575164795*pi*s/(s**2 + 60.0*pi*s + 57600.0*pi**2) - 46.9085335731506*pi*s/(s**2 + 56.6666666666667*pi*s + 28900.0*pi**2) - 76.6431474685669*pi*s/(s**2 + 40.0*pi*s + 10000.0*pi**2) - 37.0633482933044*pi*s/(s**2 + 25.0*pi*s + 2500.0*pi**2) - 11.6312484741211*pi*s/(s**2 + 10.6666666666667*pi*s + 256.0*pi**2) - 0.00678969174623489 + 85578.2732963562*pi**2/(s**2 + 72.0*pi*s + 129600.0*pi**2) + 13553.1549453735*pi**2/(s**2 + 60.0*pi*s + 57600.0*pi**2) + 15249.2227673531*pi**2/(s**2 + 56.6666666666667*pi*s + 28900.0*pi**2) - 1858.21190476418*pi**2/(s**2 + 40.0*pi*s + 10000.0*pi**2) + 697.300583124161*pi**2/(s**2 + 25.0*pi*s + 2500.0*pi**2) + 548.6171875*pi**2/(s**2 + 10.6666666666667*pi*s + 256.0*pi**2)",
      "numerator_coeffs": [
        1.3292301297187805,
        195.74200933749123,
        3198989.253832946,
        408696544.9486615,
        2339603857828.37,
        210979370624509.44,
        6.144458597031308e+17,
        3.0912303348189856e+19,
        5.156121118044064e+22,
        1.3628644239045418e+24,
        1.1392080400925718e+27,
        2.1523769317301695e+28,
        4.661318135554501e+30
      ],
      "denominator_coeffs": [
        1.0,
        830.4276580989019,
        2532788.3260522676,
        1459526863.3306742,
        1861400679700.8867,
        706722047844009.2,
        4.733966519244994e+17,
        1.0672803066180136e+20,
        3.7578034826402647e+22,
        4.1707342770340915e+24,
        6.841395530971847e+26,
        2.4057836793023434e+28,
        1.2761560215226024e+30
      ]
    },
    {
      "output_index": 7,
      "symbolic": "-0.182100385427475*s**2/(s**2 + 72.0*pi*s + 129600.0*pi**2) - 0.264705866575241*s**2/(s**2 + 60.0*pi*s + 57600.0*pi**2) + 0.01182521879673*s**2/(s**2 + 56.6666666666667*pi*s + 28900.0*pi**2) - 0.411094635725021*s**2/(s**2 + 40.0*pi*s + 10000.0*pi**2) + 0.248175770044327*s**2/(s**2 + 25.0*pi*s + 2500.0*pi**2) + 0.116100639104843*s**2/(s**2 + 10.6666666666667*pi*s + 256.0*pi**2) + 49.8292508125305*pi*s/(s**2 + 72.0*pi*s + 129600.0*pi**2) + 18.7737143039703*pi*s/(s**2 + 60.0*pi*s + 57600.0*pi**2) + 16.2537544965744*pi*s/(s**2 + 56.6666666666667*pi*s + 28900.0*pi**2) + 14.3721461296082*pi*s/(s**2 + 40.0*pi*s + 10000.0*pi**2) + 6.54079914093018*pi*s/(s**2 + 25.0*pi*s + 2500.0*pi**2) + 3.79008070627848*pi*s/(s**2 + 10.6666666666667*pi*s + 256.0*pi**2) - 0.0144103225320578 - 24725.8004665375*pi**2/(s**2 + 72.0*pi*s + 129600.0*pi**2) - 10246.252155304*pi**2/(s**2 + 60.0*pi*s + 57600.0*pi**2) + 5630.55040687323*pi**2/(s**2 + 56.6666666666667*pi*s + 28900.0*pi**2) - 3778.69516611099*pi**2/(s**2 + 40.0*pi*s + 10000.0*pi**2) + 2378.80304455757*pi**2/(s**2 + 25.0*pi*s + 2500.0*pi**2) + 270.396148681641*pi**2/(s**2 + 10.6666666666667*pi*s + 256.0*pi**2)",
      "numerator_coeffs": [
        -0.4962095823138952,
        49.384206150904944,
        -846620.1624160208,
        127686259.5479162,
        -348391664351.3197,
        110277602587080.06,
        -1.9539242580857956e+16,
        2.8111426553136108e+19,
        4.681499721823131e+21,
        1.5857891061758865e+24,
        3.9336373341422483e+26,
        2.1694774324793446e+28,
        1.8397489511578547e+30
      ],
      "denominator_coeffs": [
        1.0,
        830.4276580989019,
        2532788.3260522676,
        1459526863.3306742,
        1861400679700.8867,
        706722047844009.2,
        4.733966519244994e+17,
        1.0672803066180136e+20,
        3.7578034826402647e+22,
        4.1707342770340915e+24,
        6.841395530971847e+26,
        2.4057836793023434e+28,
        1.2761560215226024e+30
      ]
    },
    {
      "output_index": 8,
      "symbolic": "0.163171127438545*s**2/(s**2 + 72.0*pi*s + 129600.0*pi**2) + 0.144016310572624*s**2/(s**2 + 60.0*pi*s + 57600.0*pi**2) + 0.11103792488575*s**2/(s**2 + 56.6666666666667*pi*s + 28900.0*pi**2) + 0.301144689321518*s**2/(s**2 + 40.0*pi*s + 10000.0*pi**2) + 0.275604039430618*s**2/(s**2 + 25.0*pi*s + 2500.0*pi**2) + 0.0118454191833735*s**2/(s**2 + 10.6666666666667*pi*s + 256.0*pi**2) + 25.6553571224213*pi*s/(s**2 + 72.0*pi*s + 129600.0*pi**2) - 22.899466753006*pi*s/(s**2 + 60.0*pi*s + 57600.0*pi**2) - 42.372816602389*pi*s/(s**2 + 56.6666666666667*pi*s + 28900.0*pi**2) + 1.29790529608727*pi*s/(s**2 + 40.0*pi*s + 10000.0*pi**2) - 17.0568123459816*pi*s/(s**2 + 25.0*pi*s + 2500.0*pi**2) - 4.62428188323975*pi*s/(s**2 + 10.6666666666667*pi*s + 256.0*pi**2) + 0.00370724825188518 + 15556.6895484924*pi**2/(s**2 + 72.0*pi*s + 129600.0*pi**2) + 19207.4953079224*pi**2/(s**2 + 60.0*pi*s + 57600.0*pi**2) + 8340.30824899673*pi**2/(s**2 + 56.6666666666667*pi*s + 28900.0*pi**2) + 7001.93881988525*pi**2/(s**2 + 40.0*pi*s + 10000.0*pi**2) + 1344.63042020798*pi**2/(s**2 + 25.0*pi*s + 2500.0*pi**2) + 97.5348052978516*pi**2/(s**2 + 10.6666666666667*pi*s + 256.0*pi**2)",
      "numerator_coeffs": [
        1.010526759084314,
        506.96541297064726,
        2480199.8736778554,
        816578330.8633901,
        1893221321046.3237,
        443611979195008.7,
        5.436742848067489e+17,
        8.595212381514618e+19,
        5.29965298936494e+22,
        4.266817003150165e+24,
        1.2180934501679693e+27,
        3.5990703087656685e+28,
        3.017905134480322e+30
      ],
      "denominator_coeffs": [
        1.0,
        830.4276580989019,
        2532788.3260522676,
        1459526863.3306742,
        1861400679700.8867,
        706722047844009.2,
        4.733966519244994e+17,
        1.0672803066180136e+20,
        3.7578034826402647e+22,
        4.1707342770340915e+24,
        6.841395530971847e+26,
        2.4057836793023434e+28,
        1.2761560215226024e+30
      ]
    },
    {
      "output_index": 9,
      "symbolic": "-0.518259763717651*s**2/(s**2 + 72.0*pi*s + 129600.0*pi**2) - 0.204493090510368*s**2/(s**2 + 60.0*pi*s + 57600.0*pi**2) - 0.64304518699646*s**2/(s**2 + 56.6666666666667*pi*s + 28900.0*pi**2) - 0.567450046539307*s**2/(s**2 + 40.0*pi*s + 10000.0*pi**2) - 0.588305771350861*s**2/(s**2 + 25.0*pi*s + 2500.0*pi**2) - 0.825699388980865*s**2/(s**2 + 10.6666666666667*pi*s + 256.0*pi**2) - 15.6873403787613*pi*s/(s**2 + 72.0*pi*s + 129600.0*pi**2) + 22.0736753940582*pi*s/(s**2 + 60.0*pi*s + 57600.0*pi**2) - 42.8634665409724*pi*s/(s**2 + 56.6666666666667*pi*s + 28900.0*pi**2) - 49.5342826843262*pi*s/(s**2 + 40.0*pi*s + 10000.0*pi**2) - 23.1439039111137*pi*s/(s**2 + 25.0*pi*s + 2500.0*pi**2) - 22.7132186889648*pi*s/(s**2 + 10.6666666666667*pi*s + 256.0*pi**2) - 0.0914420858025551 - 40174.860906601*pi**2/(s**2 + 72.0*pi*s + 129600.0*pi**2) - 2993.21308135986*pi**2/(s**2 + 60.0*pi*s + 57600.0*pi**2) - 2974.45613518357*pi**2/(s**2 + 56.6666666666667*pi*s + 28900.0*pi**2) - 5900.73049068451*pi**2/(s**2 + 40.0*pi*s + 10000.0*pi**2) - 1017.66474545002*pi**2/(s**2 + 25.0*pi*s + 2500.0*pi**2) - 236.124084472656*pi**2/(s**2 + 10.6666666666667*pi*s + 256.0*pi**2)",
      "numerator_coeffs": [
        -3.4386953338980675,
        -2854.4313393917632,
        -8217338.3389098905,
        -4840408630.582722,
        -5703301745971.814,
        -2286030422217222.0,
        -1.3683943012596106e+18,
        -3.3911020969967786e+20,
        -1.050593033655316e+23,
        -1.3237115616346059e+25,
        -1.828548745436371e+27,
        -8.347448961043824e+28,
        -3.159532360299656e+30
      ],
      "denominator_coeffs": [
        1.0,
        830.4276580989019,
        2532788.3260522676,
        1459526863.3306742,
        1861400679700.8867,
        706722047844009.2,
        4.733966519244994e+17,
        1.0672803066180136e+20,
        3.7578034826402647e+22,
        4.1707342770340915e+24,
        6.841395530971847e+26,
        2.4057836793023434e+28,
        1.2761560215226024e+30
      ]
    },
    {
      "output_index": 10,
      "symbolic": "-0.179450660943985*s**2/(s**2 + 72.0*pi*s + 129600.0*pi**2) + 0.095441922545433*s**2/(s**2 + 60.0*pi*s + 57600.0*pi**2) - 0.0609719343483448*s**2/(s**2 + 56.6666666666667*pi*s + 28900.0*pi**2) + 0.218196287751198*s**2/(s**2 + 40.0*pi*s + 10000.0*pi**2) + 0.379713863134384*s**2/(s**2 + 25.0*pi*s + 2500.0*pi**2) + 0.251526355743408*s**2/(s**2 + 10.6666666666667*pi*s + 256.0*pi**2) - 9.64443612098694*pi*s/(s**2 + 72.0*pi*s + 129600.0*pi**2) - 45.8644366264343*pi*s/(s**2 + 60.0*pi*s + 57600.0*pi**2) - 12.8545607626438*pi*s/(s**2 + 56.6666666666667*pi*s + 28900.0*pi**2) - 14.2597508430481*pi*s/(s**2 + 40.0*pi*s + 10000.0*pi**2) + 5.19509725272655*pi*s/(s**2 + 25.0*pi*s + 2500.0*pi**2) - 2.48718945185343*pi*s/(s**2 + 10.6666666666667*pi*s + 256.0*pi**2) - 0.0101085035130382 - 5448.64057302475*pi**2/(s**2 + 72.0*pi*s + 129600.0*pi**2) + 27820.4074859619*pi**2/(s**2 + 60.0*pi*s + 57600.0*pi**2) + 7044.21109706163*pi**2/(s**2 + 56.6666666666667*pi*s + 28900.0*pi**2) + 1020.47361433506*pi**2/(s**2 + 40.0*pi*s + 10000.0*pi**2) + 1019.6765512228*pi**2/(s**2 + 25.0*pi*s + 2500.0*pi**2) + 461.013854980469*pi**2/(s**2 + 10.6666666666667*pi*s + 256.0*pi**2)",
      "numerator_coeffs": [
        0.6943473303690553,
        293.32808831887553,
        2043692.1552283878,
        719994419.6736413,
        1803470622857.6726,
        504947438290787.9,
        5.425541493650818e+17,
        9.669424776445714e+19,
        4.754301388508785e+22,
        4.5365683058031375e+24,
        1.022299610361121e+27,
        3.491296827867475e+28,
        3.8097601071258075e+30
      ],
      "denominator_coeffs": [
        1.0,
        830.4276580989019,
        2532788.3260522676,
        1459526863.3306742,
        1861400679700.8867,
        706722047844009.2,
        4.733966519244994e+17,
        1.0672803066180136e+20,
        3.7578034826402647e+22,
        4.1707342770340915e+24,
        6.841395530971847e+26,
        2.4057836793023434e+28,
        1.2761560215226024e+30
      ]
    },
    {
      "output_index": 11,
      "symbolic": "0.246673628687859*s**2/(s**2 + 72.0*pi*s + 129600.0*pi**2) + 0.385391533374786*s**2/(s**2 + 60.0*pi*s + 57600.0*pi**2) - 0.211125284433365*s**2/(s**2 + 56.6666666666667*pi*s + 28900.0*pi**2) - 0.269981235265732*s**2/(s**2 + 40.0*pi*s + 10000.0*pi**2) + 0.0404942855238914*s**2/(s**2 + 25.0*pi*s + 2500.0*pi**2) + 0.333818167448044*s**2/(s**2 + 10.6666666666667*pi*s + 256.0*pi**2) - 25.8256709575653*pi*s/(s**2 + 72.0*pi*s + 129600.0*pi**2) - 33.5275626182556*pi*s/(s**2 + 60.0*pi*s + 57600.0*pi**2) - 45.7682637373606*pi*s/(s**2 + 56.6666666666667*pi*s + 28900.0*pi**2) - 21.3052821159363*pi*s/(s**2 + 40.0*pi*s + 10000.0*pi**2) - 12.5284999608994*pi*s/(s**2 + 25.0*pi*s + 2500.0*pi**2) - 10.5185019175212*pi*s/(s**2 + 10.6666666666667*pi*s + 256.0*pi**2) + 0.00405082572251558 + 55755.6015014648*pi**2/(s**2 + 72.0*pi*s + 129600.0*pi**2) - 7012.04624176025*pi**2/(s**2 + 60.0*pi*s + 57600.0*pi**2) - 11394.2833632231*pi**2/(s**2 + 56.6666666666667*pi*s + 28900.0*pi**2) - 2521.37988805771*pi**2/(s**2 + 40.0*pi*s + 10000.0*pi**2) + 890.9522742033*pi**2/(s**2 + 25.0*pi*s + 2500.0*pi**2) - 404.773864746094*pi**2/(s**2 + 10.6666666666667*pi*s + 256.0*pi**2)",
      "numerator_coeffs": [
        0.5293219210579991,
        -101.31766842544383,
        882842.5256800193,
        -301191404.1734575,
        178502321649.04178,
        -264557693326970.3,
        -4.5205883640564664e+16,
        -5.45236974217323e+19,
        -6.650191630538094e+21,
        -2.801938915417347e+24,
        -1.3295972224319812e+26,
        -3.2057626183051817e+28,
        -1.9890728778436212e+30
      ],
      "denominator_coeffs": [
        1.0,
        830.4276580989019,
        2532788.3260522676,
        1459526863.3306742,
        1861400679700.8867,
        706722047844009.2,
        4.733966519244994e+17,
        1.0672803066180136e+20,
        3.7578034826402647e+22,
        4.1707342770340915e+24,
        6.841395530971847e+26,
        2.4057836793023434e+28,
        1.2761560215226024e+30
      ]
    },
    {
      "output_index": 12,
      "symbolic": "-0.0980753749608994*s**2/(s**2 + 72.0*pi*s + 129600.0*pi**2) - 0.0403653979301453*s**2/(s**2 + 60.0*pi*s + 57600.0*pi**2) - 0.23818176984787*s**2/(s**2 + 56.6666666666667*pi*s + 28900.0*pi**2) + 0.206323578953743*s**2/(s**2 + 40.0*pi*s + 10000.0*pi**2) - 0.250195235013962*s**2/(s**2 + 25.0*pi*s + 2500.0*pi**2) - 0.119226023554802*s**2/(s**2 + 10.6666666666667*pi*s + 256.0*pi**2) + 34.7398552894592*pi*s/(s**2 + 72.0*pi*s + 129600.0*pi**2) + 17.3328691720963*pi*s/(s**2 + 60.0*pi*s + 57600.0*pi**2) - 8.50068345665932*pi*s/(s**2 + 56.6666666666667*pi*s + 28900.0*pi**2) - 7.92300462722778*pi*s/(s**2 + 40.0*pi*s + 10000.0*pi**2) + 10.211081802845*pi*s/(s**2 + 25.0*pi*s + 2500.0*pi**2) + 3.15845235188802*pi*s/(s**2 + 10.6666666666667*pi*s + 256.0*pi**2) - 0.0510267876088619 - 620.783536881208*pi**2/(s**2 + 72.0*pi*s + 129600.0*pi**2) - 16905.4424285889*pi**2/(s**2 + 60.0*pi*s + 57600.0*pi**2) + 4288.39032799006*pi**2/(s**2 + 56.6666666666667*pi*s + 28900.0*pi**2) + 1468.00369024277*pi**2/(s**2 + 40.0*pi*s + 10000.0*pi**2) - 839.401036500931*pi**2/(s**2 + 25.0*pi*s + 2500.0*pi**2) - 225.467254638672*pi**2/(s**2 + 10.6666666666667*pi*s + 256.0*pi**2)",
      "numerator_coeffs": [
        -0.5907470099627972,
        -266.66327265520255,
        -1276866.5245280913,
        -480935727.65656805,
        -874897359266.8518,
        -246085433956859.38,
        -1.919954506097505e+17,
        -3.1020782446658793e+19,
        -1.4312157924732002e+22,
        -6.414401299617404e+23,
        -3.295900494572171e+26,
        -8.068329923161244e+27,
        -1.621507256939577e+30
      ],
      "denominator_coeffs": [
        1.0,
        830.4276580989019,
        2532788.3260522676,
        1459526863.3306742,
        1861400679700.8867,
        706722047844009.2,
        4.733966519244994e+17,
        1.0672803066180136e+20,
        3.7578034826402647e+22,
        4.1707342770340915e+24,
        6.841395530971847e+26,
        2.4057836793023434e+28,
        1.2761560215226024e+30
      ]
    },
    {
      "output_index": 13,
      "symbolic": "-0.263561218976974*s**2/(s**2 + 72.0*pi*s + 129600.0*pi**2) - 0.0618165507912636*s**2/(s**2 + 60.0*pi*s + 57600.0*pi**2) - 0.0627580210566521*s**2/(s**2 + 56.6666666666667*pi*s + 28900.0*pi**2) - 0.433139562606812*s**2/(s**2 + 40.0*pi*s + 10000.0*pi**2) - 0.410400092601776*s**2/(s**2 + 25.0*pi*s + 2500.0*pi**2) - 0.562812924385071*s**2/(s**2 + 10.6666666666667*pi*s + 256.0*pi**2) + 71.7532410621643*pi*s/(s**2 + 72.0*pi*s + 129600.0*pi**2) + 59.9757170677185*pi*s/(s**2 + 60.0*pi*s + 57600.0*pi**2) + 39.7820548216502*pi*s/(s**2 + 56.6666666666667*pi*s + 28900.0*pi**2) + 42.003002166748*pi*s/(s**2 + 40.0*pi*s + 10000.0*pi**2) + 28.2419502735138*pi*s/(s**2 + 25.0*pi*s + 2500.0*pi**2) - 0.755175828933716*pi*s/(s**2 + 10.6666666666667*pi*s + 256.0*pi**2) - 0.000315131561364979 - 57980.2981853485*pi**2/(s**2 + 72.0*pi*s + 129600.0*pi**2) - 30273.8159179688*pi**2/(s**2 + 60.0*pi*s + 57600.0*pi**2) - 5247.38487005234*pi**2/(s**2 + 56.6666666666667*pi*s + 28900.0*pi**2) - 3542.55825281143*pi**2/(s**2 + 40.0*pi*s + 10000.0*pi**2) - 290.363635867834*pi**2/(s**2 + 25.0*pi*s + 2500.0*pi**2) - 1380.56994628906*pi**2/(s**2 + 10.6666666666667*pi*s + 256.0*pi**2)",
      "numerator_coeffs": [
        -1.7948035019799136,
        -545.3647498101179,
        -4450744.010264854,
        -1199706205.9694538,
        -3383490602499.278,
        -704065133962120.8,
        -9.00347406812482e+17,
        -1.1800429593675257e+20,
        -7.580301030974336e+22,
        -5.612776434355974e+24,
        -1.7225564325004773e+27,
        -6.974420216791414e+28,
        -8.956195807578729e+30
      ],
      "denominator_coeffs": [
        1.0,
        830.4276580989019,
        2532788.3260522676,
        1459526863.3306742,
        1861400679700.8867,
        706722047844009.2,
        4.733966519244994e+17,
        1.0672803066180136e+20,
        3.7578034826402647e+22,
        4.1707342770340915e+24,
        6.841395530971847e+26,
        2.4057836793023434e+28,
        1.2761560215226024e+30
      ]
    }
  ],
  "frequency_response": {
    "frequencies": [
      2.0,
      2.0110845797634256,
      2.0222305934811167,
      2.033438381637857,
      2.0447082866054953,
      2.0560406526534027,
      2.067435825958994,
      2.078894154618297,
      2.0904159886565896,
      2.1020016800390917,
      2.1136515826817153,
      2.1253660524618785,
      2.1371454472293734,
      2.148990126817301,
      2.1609004530530616,
      2.172876789769406,
      2.1849195028155535,
      2.197028960068365,
      2.209205531443582,
      2.221449588907125,
      2.23376150648646,
      2.2461416602820194,
      2.2585904284786937,
      2.2711081913573845,
      2.2836953313066197,
      2.296352232834235,
      2.3090792825791207,
      2.321876869323031,
      2.334745384002463,
      2.3476852197205953,
      2.3606967717592995,
      2.373780437591213,
      2.3869366168918824,
      2.400165711551972,
      2.41346812568954,
      2.426844265662386,
      2.4402945400804588,
      2.4538193598183455,
      2.4674191380278176,
      2.481094290150454,
      2.49484523393033,
      2.508672389426781,
      2.5225761790272334,
      2.5365570274601055,
      2.550615361807785,
      2.5647516115196733,
      2.5789662084253053,
      2.59325958674754,
      2.6076321831158253,
      2.622084436579537,
      2.636616788621388,
      2.651229683170918,
      2.6659235666180527,
      2.6806988878267397,
      2.6955560981486606,
      2.710495651437019,
      2.725518004060404,
      2.7406236149167342,
      2.755812945447271,
      2.771086459650716,
      2.7864446240973892,
      2.8018879079434766,
      2.8174167829453656,
      2.8330317234740514,
      2.8487332065296327,
      2.8645217117558808,
      2.880397721454892,
      2.89636172060182,
      2.9124141968596917,
      2.928555640594303,
      2.944786544889202,
      2.961107405560745,
      2.9775187211732494,
      2.994020993054218,
      3.010614725309658,
      3.027300424839477,
      3.0440786013529695,
      3.0609497673843866,
      3.077914438308592,
      3.094973132356807,
      3.112126370632441,
      3.1293746771270086,
      3.146718578736138,
      3.1641586052756643,
      3.181695289497818,
      3.1993291671074946,
      3.2170607767786237,
      3.2348906601706187,
      3.252819361944929,
      3.2708474297816754,
      3.2889754143963805,
      3.3072038695567922,
      3.325533352099798,
      3.3439644219484386,
      3.3624976421290107,
      3.381133578788265,
      3.399872801210703,
      3.418715881835963,
      3.4376633962763132,
      3.4567159233342304,
      3.47587404502008,
      3.4951383465699033,
      3.5145094164632837,
      3.533987846441332,
      3.5535742315247605,
      3.573269170032054,
      3.5930732635977596,
      3.61298711719085,
      3.633011339133215,
      3.6531465411182413,
      3.6733933382294937,
      3.693752348959515,
      3.7142241952287054,
      3.734809502404334,
      3.755508899319635,
      3.776323018293016,
      3.7972524951473803,
      3.818297969229544,
      3.8394600834297687,
      3.8607394842014022,
      3.8821368215806205,
      3.903652749206291,
      3.925287924339937,
      3.947043007885815,
      3.9689186644111065,
      3.990915562166213,
      4.013034373105176,
      4.035275772906203,
      4.057640440992301,
      4.080129060552042,
      4.102742318560421,
      4.1254809057998525,
      4.1483455168812675,
      4.171336850265326,
      4.194455608283768,
      4.217702497160851,
      4.24107822703494,
      4.264583511980189,
      4.2882190700283545,
      4.311985623190742,
      4.335883897480242,
      4.359914622933528,
      4.384078533633344,
      4.408376367730933,
      4.432808867468591,
      4.457376779202328,
      4.482080853424683,
      4.506921844787637,
      4.531900512125673,
      4.557017618478956,
      4.582273931116639,
      4.607670221560302,
      4.633207265607526,
      4.658885843355581,
      4.684706739225264,
      4.710670741984864,
      4.736778644774247,
      4.763031245129093,
      4.789429345005253,
      4.815973750803254,
      4.842665273392925,
      4.869504728138171,
      4.896492934921885,
      4.92363071817098,
      4.950918906881589,
      4.97835833464438,
      5.005949839670018,
      5.033694264814784,
      5.061592457606302,
      5.089645270269447,
      5.117853559752369,
      5.1462181877526705,
      5.17474002074374,
      5.203419930001202,
      5.232258791629549,
      5.261257486588901,
      5.290416900721906,
      5.319737924780821,
      5.349221454454697,
      5.378868390396762,
      5.408679638251923,
      5.43865610868443,
      5.468798717405709,
      5.49910838520231,
      5.529586037964058,
      5.5602326067123276,
      5.591049027628476,
      5.622036242082463,
      5.653195196661579,
      5.684526843199382,
      5.716032138804772,
      5.747712045891214,
      5.779567532206156,
      5.811599570860577,
      5.843809140358723,
      5.876197224627995,
      5.9087648130489985,
      5.9415129004857805,
      5.974442487316209,
      6.007554579462535,
      6.040850188422128,
      6.074330331298363,
      6.107996030831698,
      6.141848315430919,
      6.175888219204545,
      6.210116781992432,
      6.2445350493975225,
      6.2791440728177985,
      6.313944909478395,
      6.348938622463887,
      6.384126280750785,
      6.419508959240168,
      6.455087738790526,
      6.490863706250795,
      6.526837954493523,
      6.563011582448293,
      6.59938569513526,
      6.635961403698926,
      6.672739825442084,
      6.709722083859932,
      6.7469093086744145,
      6.784302635868715,
      6.821903207721966,
      6.859712172844148,
      6.897730686211162,
      6.935959909200131,
      6.974401009624858,
      7.013055161771506,
      7.051923546434487,
      7.0910073509525,
      7.130307769244837,
      7.169826001847822,
      7.209563255951501,
      7.249520745436531,
      7.289699690911228,
      7.330101319748891,
      7.370726866125266,
      7.411577571056259,
      7.452654682435854,
      7.493959455074215,
      7.53549315073604,
      7.577257038179082,
      7.619252393192916,
      7.661480498637926,
      7.703942644484464,
      7.746640127852287,
      7.789574253050154,
      7.832746331615682,
      7.876157682355419,
      7.919809631385114,
      7.963703512170228,
      8.007840665566691,
      8.052222439861827,
      8.096850190815575,
      8.141725281701877,
      8.186849083350335,
      8.2322229741881,
      8.277848340281942,
      8.323726575380642,
      8.369859080957518,
      8.416247266253269,
      8.462892548319019,
      8.509796352059587,
      8.556960110277045,
      8.604385263714454,
      8.652073261099893,
      8.700025559190728,
      8.74824362281807,
      8.796728924931573,
      8.845482946644394,
      8.89450717727844,
      8.943803114409894,
      8.993372263914916,
      9.043216140015689,
      9.093336265326641,
      9.14373417090097,
      9.194411396277427,
      9.245369489527317,
      9.296610007301823,
      9.348134514879522,
      9.399944586214225,
      9.452041803983063,
      9.504427759634801,
      9.557104053438497,
      9.610072294532348,
      9.66333410097286,
      9.716891099784291,
      9.770744927008334,
      9.824897227754084,
      9.879349656248335,
      9.93410387588606,
      9.989161559281268,
      10.044524388318068,
      10.100194054202058,
      10.156172257511999,
      10.212460708251736,
      10.269061125902471,
      10.325975239475252,
      10.383204787563809,
      10.440751518397677,
      10.498617189895565,
      10.556803569719102,
      10.615312435326787,
      10.674145574028314,
      10.733304783039182,
      10.792791869535556,
      10.852608650709517,
      10.912756953824536,
      10.973238616271304,
      11.034055485623886,
      11.095209419696113,
      11.15670228659838,
      11.218535964794679,
      11.280712343159987,
      11.343233321037998,
      11.406100808299088,
      11.469316725398723,
      11.532883003436062,
      11.596801584212978,
      11.661074420293394,
      11.725703475062888,
      11.790690722788689,
      11.856038148680009,
      11.921747748948633,
      11.987821530869965,
      12.054261512844286,
      12.121069724458438,
      12.188248206547842,
      12.255799011258793,
      12.3237242021112,
      12.39202585406158,
      12.460706053566465,
      12.529766898646146,
      12.599210498948729,
      12.669038975814622,
      12.739254462341307,
      12.8098591034485,
      12.880855055943712,
      12.952244488588073,
      13.024029582162648,
      13.096212529534998,
      13.168795535726195,
      13.241780817978198,
      13.315170605821532,
      13.388967141143457,
      13.463172678256404,
      13.537789483966852,
      13.6128198376446,
      13.688266031292352,
      13.76413036961578,
      13.840415170093879,
      13.91712276304979,
      13.994255491721997,
      14.071815712335866,
      14.149805794175675,
      14.228228119656938,
      14.307085084399208,
      14.386379097299281,
      14.46611258060473,
      14.546287969987928,
      14.626907714620474,
      14.707974277247956,
      14.789490134265243,
      14.871457775792074,
      14.95387970574916,
      15.036758441934687,
      15.120096516101174,
      15.203896474032886,
      15.288160875623529,
      15.37289229495449,
      15.458093320373479,
      15.543766554573551,
      15.629914614672671,
      15.71654013229361,
      15.803645753644348,
      15.891234139598946,
      15.97930796577877,
      16.06786992263428,
      16.156922715527177,
      16.246469064813052,
      16.336511705924526,
      16.42705338945475,
      16.518096881241483,
      16.60964496245154,
      16.701700429665774,
      16.79426609496451,
      16.88734478601342,
      16.98093934614994,
      17.075052634470087,
      17.169687525915815,
      17.264846911362874,
      17.360533697709034,
      17.456750807962983,
      17.55350118133354,
      17.650787773319472,
      17.748613555799803,
      17.846981517124544,
      17.945894662206012,
      18.045356012610643,
      18.145368606651235,
      18.24593549947983,
      18.347059763180983,
      18.448744486865635,
      18.550992776765497,
      18.653807756327886,
      18.7571925663112,
      18.861150364880807,
      18.965684327705542,
      19.070797648054747,
      19.176493536895745,
      19.28277522299202,
      19.38964595300175,
      19.497108991577058,
      19.605167621463732,
      19.713825143601447,
      19.823084877224687,
      19.932950159964065,
      20.043424347948314,
      20.154510815906825,
      20.2662129572727,
      20.378534184286423,
      20.49147792810013,
      20.605047638882386,
      20.719246785923566,
      20.834078857741904,
      20.949547362189968,
      21.065655826561898,
      21.1824077977011,
      21.299806842108605,
      21.417856546052064,
      21.536560515675216,
      21.65592237710814,
      21.77594577657795,
      21.896634380520194,
      22.01799187569092,
      22.14002196927919,
      22.262728389020427,
      22.386114883310217,
      22.51018522131884,
      22.63494319310644,
      22.76039260973873,
      22.886537303403497,
      23.013381127527598,
      23.140927956894686,
      23.26918168776363,
      23.39814623798745,
      23.527825547133087,
      23.65822357660167,
      23.789344309749563,
      23.92119175201007,
      24.05376993101574,
      24.18708289672146,
      24.32113472152811,
      24.455929500407002,
      24.591471351024992,
      24.7277644138702,
      24.864812852378574,
      25.002620853060996,
      25.14119262563121,
      25.28053240313444,
      25.42064444207665,
      25.56153302255458,
      25.703202448386556,
      25.845657047243854,
      25.988901170783016,
      26.132939194778686,
      26.277775519257315,
      26.423414568631618,
      26.569860791835637,
      26.71711866246075,
      26.865192678892228,
      27.01408736444671,
      27.163807267510393,
      27.314356961677902,
      27.465741045892102,
      27.617964144584498,
      27.771030907816527,
      27.924946011421657,
      28.079714157148125,
      28.23534007280268,
      28.391828512394895,
      28.549184256282455,
      28.707412111317208,
      28.866516910991912,
      29.026503515587997,
      29.187376812323947,
      29.34914171550462,
      29.511803166671417,
      29.675366134753148,
      29.83983561621792,
      30.00521663522566,
      30.17151424378166,
      30.33873352189093,
      30.506879577713278,
      30.67595754771947,
      30.845972596848053,
      31.01692991866314,
      31.18883473551315,
      31.3616922986902,
      31.53550788859061,
      31.710286814876223,
      31.886034416636512,
      32.062756062551784,
      32.2404571510571,
      32.419143110507186,
      32.598819399342354,
      32.7794915062551,
      32.96116495035791,
      33.14384528135175,
      33.32753807969563,
      33.51224895677713,
      33.6979835550837,
      33.884747548375174,
      34.07254664185693,
      34.26138657235427,
      34.45127310848768,
      34.64221205084897,
      34.834209232178544,
      35.02727051754351,
      35.2214018045169,
      35.41660902335782,
      35.612898137192545,
      35.81027514219678,
      36.00874606777873,
      36.208316976763335,
      36.40899396557751,
      36.610783164436256,
      36.813690737530095,
      37.01772288321322,
      37.22288583419289,
      37.42918585771989,
      37.63662925577988,
      37.845222365285956,
      38.05497155827226,
      38.26588324208852,
      38.47796385959596,
      38.691219889363914,
      38.90565784586784,
      39.12128427968838,
      39.3381057777113,
      39.55612896332886,
      39.77536049664205,
      39.99580707466405,
      40.2174754315249,
      40.440372338677065,
      40.664504605102415,
      40.88987907752015,
      41.11650264059593,
      41.34438221715233,
      41.5735247683801,
      41.80393729405104,
      42.03562683273162,
      42.26860046199811,
      42.50286529865281,
      42.73842849894132,
      42.97529725877131,
      43.213478813932205,
      43.45298044031626,
      43.69380945414089,
      43.93597321217205,
      44.17947911194908,
      44.42433459201059,
      44.67054713212169,
      44.91812425350263,
      45.16707351905832,
      45.41740253360958,
      45.669118944125294,
      45.92223043995604,
      46.176744753069094,
      46.432669658284475,
      46.69001297351248,
      46.94878255999262,
      47.20898632253359,
      47.47063220975489,
      47.73372821432953,
      47.99828237322822,
      48.26430276796496,
      48.53179752484376,
      48.80077481520704,
      49.07124285568512,
      49.343209908447236,
      49.61668428145406,
      49.89167432871128,
      50.168188450525015,
      50.44623509375823,
      50.72582275208885,
      51.00695996626932,
      51.28965532438728,
      51.57391746212818,
      51.85975506303883,
      52.1471768587928,
      52.43619162945718,
      52.726808203760655,
      53.01903545936337,
      53.31288232312799,
      53.608357771392384,
      53.90547083024402,
      54.20423057579542,
      54.50464613446169,
      54.80672668323906,
      55.11048144998536,
      55.41591971370194,
      55.72305080481698,
      56.03188410547069,
      56.34242904980175,
      56.65469512423557,
      56.968691867774155,
      57.28442887228734,
      57.6019157828059,
      57.92116229781622,
      58.24217816955643,
      58.564973204314484,
      58.88955726272755,
      59.215940260083286,
      59.544132166622866,
      59.874143007845284,
      60.2059828648139,
      60.539661874464144,
      60.87519022991327,
      61.21257818077187,
      61.551836033456695,
      61.892974151505776,
      62.23600295589479,
      62.58093292535547,
      62.927774596695826,
      63.27653856512177,
      63.62723548456106,
      63.97987606798851,
      64.33447108775334,
      64.69103137590835,
      65.04956782454059,
      65.41009138610434,
      65.77261307375547,
      66.13714396168793,
      66.50369518547218,
      66.87227794239512,
      67.24290349180235,
      67.61558315544197,
      67.99032831781045,
      68.3671504265006,
      68.74606099255094,
      69.12707159079754,
      69.51019386022766,
      69.89543950433507,
      70.28282029147782,
      70.67234805523753,
      71.06403469478093,
      71.45789217522352,
      71.85393252799476,
      72.25216785120594,
      72.65261031001951,
      73.05527213702072,
      73.46016563259153,
      73.86730316528595,
      74.27669717220834,
      74.68836015939293,
      75.10230470218602,
      75.51854344563027,
      75.93708910485064,
      76.3579544654432,
      76.78115238386532,
      77.20669578782864,
      77.63459767669401,
      78.06487112186836,
      78.49752926720431,
      78.9325853294014,
      79.37005259840996,
      79.80994443783715,
      80.252274285355,
      80.69705565311118,
      81.14430212814145,
      81.59402737278486,
      82.04624512510125,
      82.5009691992906,
      82.95821348611534,
      83.41799195332442,
      83.8803186460801,
      84.34520768738713,
      84.8126732785239,
      85.28272969947645,
      85.75539130937472,
      86.23067254693096,
      86.70858793088111,
      87.18915206042806,
      87.67237961568765,
      88.15828535813738,
      88.6468841310669,
      89.13819086003188,
      89.63222055330964,
      90.12898830235767,
      90.62850928227485,
      91.13079875226468,
      91.63587205610177,
      92.14374462260025,
      92.65443196608518,
      93.16794968686668,
      93.68431347171608,
      94.2035390943456,
      94.72564241588974,
      95.25063938539004,
      95.77854604028238,
      96.30937850688656,
      96.84315300089933,
      97.3798858278894,
      97.91959338379563,
      98.46229215542807,
      99.00799872097133,
      99.55672975049121,
      100.10850200644374,
      100.6633323441875,
      101.2212377124982,
      101.78223515408652,
      102.34634180611914,
      102.91357490074154,
      103.48395176560481,
      104.057489824395,
      104.63420659736519,
      105.21411970187073,
      105.79724685290773,
      106.3836058636537,
      106.97321464601195,
      107.56609121115886,
      108.16225367009376,
      108.7617202341928,
      109.36450921576446,
      109.97063902860948,
      110.58012818858326,
      111.19299531416125,
      111.80925912700827,
      112.42893845254972,
      113.05205222054701,
      113.67861946567584,
      114.30865932810742,
      114.94219105409377,
      115.57923399655479,
      116.21980761567002,
      116.86393147947298,
      117.51162526444874,
      118.16290875613554,
      118.81780184972844,
      119.47632455068755,
      120.13849697534909,
      120.80433935153964,
      121.4738720191947,
      122.14711543097917,
      122.8240901529127,
      123.50481686499779,
      124.18931636185135,
      124.87760955334049,
      125.56971746522046,
      126.26566123977751,
      126.96546213647453,
      127.66914153260039,
      128.3767209239235,
      129.08822192534765,
      129.8036662715728,
      130.523075817759,
      131.24647254019368,
      131.9738785369637,
      132.70531602862954,
      133.44080735890452,
      134.1803749953374,
      134.92404152999836,
      135.67182968016988,
      136.4237622890398,
      137.17986232639953,
      137.9401528893459,
      138.70465720298634,
      139.4733986211489,
      140.246400627095,
      141.02368683423722,
      141.80528098686045,
      142.59120696084724,
      143.3814887644076,
      144.1761505388115,
      144.9752165591271,
      145.7787112349619,
      146.5866591112084,
      147.39908486879457,
      148.21601332543665,
      149.03746943639803,
      149.8634782952515,
      150.6940651346454,
      151.52925532707536,
      152.36907438565808,
      153.2135479649117,
      154.06270186153895,
      154.91656201521553,
      155.77515450938205,
      156.63850557204168,
      157.50664157656024,
      158.3795890424726,
      159.25737463629255,
      160.14002517232728,
      161.02756761349713,
      161.92002907215826,
      162.81743681093153,
      163.7198182435352,
      164.62720093562206,
      165.53961260562227,
      166.4570811255891,
      167.37963452205094,
      168.3073009768673,
      169.24010882808963,
      170.17808657082756,
      171.1212628581183,
      172.0696665018028,
      173.02332647340546,
      173.98227190501916,
      174.94653209019577,
      175.91613648484005,
      176.89111470811,
      177.87149654332168,
      178.8573119388587,
      179.8485910090878,
      180.8453640352778,
      181.8476614665252,
      182.8555139206843,
      183.86895218530213,
      184.8880072185599,
      185.9127101502174,
      186.94309228256478,
      187.97918509137855,
      189.02102022688297,
      190.0686295147175,
      191.12204495690793,
      192.1812987328449,
      193.2464232002664,
      194.31745089624624,
      195.39441453818876,
      196.477347024827,
      197.5662814372285,
      198.6612510398057,
      199.76228928133185,
      200.86942979596358,
      201.9827064042672,
      203.10215311425256,
      204.2278041224118,
      205.3596938147639,
      206.49785676790492,
      207.64232775006508,
      208.7931417221696,
      209.95033383890743,
      211.11393944980506,
      212.28399410030627,
      213.4605335328578,
      214.643593688002,
      215.83321070547353,
      217.0294209253041,
      218.23226088893242,
      219.44176734032027,
      220.65797722707572,
      221.8809277015806,
      223.11065612212613,
      224.34720005405413,
      225.5905972709041,
      226.84088575556822,
      228.09810370145013,
      229.3622895136326,
      230.6334818100505,
      231.91171942267033,
      233.19704139867724,
      234.48948700166653,
      235.78909571284393,
      237.09590723223147,
      238.40996147987997,
      239.73129859708948,
      241.05995894763404,
      242.39598311899564,
      243.7394119236039,
      245.0902864000825,
      246.44864781450383,
      247.814537661648,
      249.1879976662715,
      250.56906978438158,
      251.95779620451754,
      253.35421934904053,
      254.758381875428,
      256.17032667757775,
      257.59009688711797,
      259.0177358747246,
      260.4532872514473,
      261.8967948700399,
      263.34830282630116,
      264.80785546042165,
      266.27549735833776,
      267.751273353095,
      269.23522852621556,
      270.7274082090771,
      272.22785798429663,
      273.73662368712314,
      275.25375140683855,
      276.7792874881642,
      278.31327853267754,
      279.85577140023554,
      281.4068132104058,
      282.9664513439069,
      284.53473344405444,
      286.1117074182173,
      287.6974214392809,
      289.29192394711845,
      290.89526365007185,
      292.50748952643784,
      294.12865082596545,
      295.7587970713601,
      297.397978059796,
      299.0462438644387,
      300.70364483597285,
      302.37023160414145,
      304.0460550792923,
      305.73116645393264,
      307.4256172042946,
      309.1294590919053,
      310.8427441651698,
      312.5655247609603,
      314.29785350621523,
      316.03978331954653,
      317.7913674128572,
      319.5526592929652,
      321.32371276323903,
      323.1045819252412,
      324.8953211803802,
      326.6959852315741,
      328.5066290849193,
      330.32730805137226,
      332.15807774843887,
      333.99899410187294,
      335.850113347386,
      337.7114920323634,
      339.58318701759254,
      341.465255479,
      343.35775490939744,
      345.26074312023945,
      347.17427824338745,
      349.0984187328868,
      351.033223366752,
      352.9787512487623,
      354.935061810268,
      356.90221481200416,
      358.8802703459177,
      360.8692888370023,
      362.8693310451442,
      364.8804580669796,
      366.902731337759,
      368.9362126332251,
      370.9809640714997,
      373.03704811498096,
      375.10452757225266,
      377.1834656000011,
      379.2739257049454,
      381.37597174577746,
      383.48966793511215,
      385.6150788414504,
      387.75226939114924,
      389.90130487040705,
      392.062250927257,
      394.23517357357235,
      396.4201391870845,
      398.6172145134083,
      400.82646666808256,
      403.0479631386198,
      405.2817717865676,
      407.527960849583,
      409.7865989435147,
      412.05775506450095,
      414.3414985910763,
      416.637899286291,
      418.9470272998435,
      421.26895317022115,
      423.60374782685625,
      425.95148259229273,
      428.3122291843642,
      430.6860597183866,
      433.0730467093586,
      435.4732630741785,
      437.886782133871,
      440.313677615827,
      442.754023656057,
      445.2078948014536,
      447.67536601207047,
      450.1565126634113,
      452.65141054873243,
      455.1601358813598,
      457.6827652970141,
      460.21937585615416,
      462.77004504633,
      465.33485078454964,
      467.91387141966123,
      470.50718573474353,
      473.11487294951445,
      475.7370127227505,
      478.3736851547201,
      481.02497078963034,
      483.69095061808895,
      486.37170607957574,
      489.067319064932,
      491.77787191886205,
      494.5034474424478,
      497.24412889568026,
      499.99999999999994
    ],
    "outputs": [
      {
        "index": 0,
        "magnitude_db": [
          10.219704739658349,
          10.220559900993308,
          10.22142555856582,
          10.222301851779445,
          10.223188922111285,
          10.224086913147083,
          10.22499597061696,
          10.225916242431857,
          10.22684787872062,
          10.227791031867824,
          10.228745856552283,
          10.229712509786307,
          10.230691150955668,
          10.231681941860353,
          10.23268504675605,
          10.233700632396449,
          10.23472886807632,
          10.235769925675413,
          10.236823979703153,
          10.237891207344239,
          10.238971788505031,
          10.240065905860867,
          10.241173744904223,
          10.242295493993808,
          10.243431344404561,
          10.244581490378605,
          10.245746129177125,
          10.24692546113325,
          10.248119689705879,
          10.249329021534567,
          10.250553666495366,
          10.25179383775775,
          10.253049751842585,
          10.254321628681149,
          10.255609691675255,
          10.256914167758502,
          10.258235287458586,
          10.259573284960819,
          10.260928398172755,
          10.262300868790025,
          10.263690942363324,
          10.265098868366634,
          10.266524900266651,
          10.267969295593478,
          10.269432316012526,
          10.270914227397718,
          10.272415299905989,
          10.273935808053045,
          10.275476030790468,
          10.277036251584132,
          10.278616758493975,
          10.280217844255091,
          10.281839806360228,
          10.283482947143643,
          10.285147573866302,
          10.286833998802553,
          10.288542539328125,
          10.29027351800956,
          10.29202726269508,
          10.293804106606819,
          10.295604388434516,
          10.2974284524306,
          10.299276648506687,
          10.301149332331507,
          10.303046865430211,
          10.304969615285088,
          10.306917955437655,
          10.308892265592132,
          10.31089293172024,
          10.312920346167367,
          10.314974907760007,
          10.317057021914497,
          10.319167100747,
          10.321305563184684,
          10.323472835078086,
          10.325669349314584,
          10.327895545932952,
          10.330151872238908,
          10.332438782921642,
          10.334756740171178,
          10.337106213796567,
          10.339487681344785,
          10.34190162822023,
          10.344348547804774,
          10.346828941578163,
          10.349343319238756,
          10.351892198824348,
          10.35447610683305,
          10.357095578343966,
          10.359751157137577,
          10.362443395815577,
          10.365172855920031,
          10.367940108051572,
          10.37074573198646,
          10.37359031679221,
          10.376474460941532,
          10.379398772424322,
          10.382363868857322,
          10.385370377591187,
          10.388418935814535,
          10.391510190654635,
          10.394644799274296,
          10.3978234289645,
          10.401046757232335,
          10.404315471883649,
          10.407630271099972,
          10.410991863509008,
          10.414400968248154,
          10.417858315020334,
          10.421364644141413,
          10.424920706578478,
          10.428527263978097,
          10.432185088683717,
          10.435894963741292,
          10.439657682892062,
          10.443474050551512,
          10.4473448817733,
          10.451271002197018,
          10.455253247978405,
          10.459292465700752,
          10.463389512265946,
          10.467545254763657,
          10.471760570316988,
          10.476036345902841,
          10.480373478145149,
          10.484772873078946,
          10.48923544588321,
          10.493762120580246,
          10.498353829699166,
          10.503011513901052,
          10.507736121563036,
          10.512528608318497,
          10.517389936550396,
          10.522321074834549,
          10.527322997329422,
          10.532396683108992,
          10.537543115434787,
          10.542763280963197,
          10.548058168883802,
          10.553428769984288,
          10.558876075637222,
          10.564401076703776,
          10.570004762349125,
          10.57568811876405,
          10.581452127786912,
          10.587297765419937,
          10.59322600023335,
          10.599237791650697,
          10.605334088108144,
          10.61151582508052,
          10.617783922966185,
          10.624139284822657,
          10.63058279394452,
          10.637115311274666,
          10.643737672639729,
          10.650450685799974,
          10.657255127303708,
          10.664151739135752,
          10.671141225149283,
          10.678224247269842,
          10.68540142146005,
          10.692673313433199,
          10.700040434103554,
          10.707503234760956,
          10.71506210195696,
          10.722717352089635,
          10.730469225673929,
          10.73831788128431,
          10.746263389156507,
          10.754305724434994,
          10.762444760053162,
          10.770680259233178,
          10.779011867592967,
          10.787439104848106,
          10.795961356097148,
          10.804577862679503,
          10.813287712596086,
          10.822089830484051,
          10.83098296713829,
          10.83996568857405,
          10.849036364626974,
          10.85819315708897,
          10.867434007381071,
          10.876756623767195,
          10.886158468116143,
          10.895636742222916,
          10.905188373704584,
          10.914810001490771,
          10.924497960933879,
          10.934248268570164,
          10.94405660656893,
          10.953918306914321,
          10.963828335371568,
          10.973781275298013,
          10.983771311368056,
          10.993792213290766,
          11.00383731960924,
          11.013899521681603,
          11.023971247955162,
          11.034044448657315,
          11.044110581039455,
          11.054160595323184,
          11.064184921511707,
          11.074173457242738,
          11.084115556873236,
          11.094000021999813,
          11.103815093632017,
          11.113548446248663,
          11.123187183979217,
          11.13271783916338,
          11.142126373551385,
          11.15139818241521,
          11.160518101846552,
          11.169470419520062,
          11.178238889200367,
          11.186806749267529,
          11.195156745527923,
          11.203271158565414,
          11.21113183587039,
          11.21872022896209,
          11.226017435691183,
          11.233004247875511,
          11.239661204381367,
          11.245968649715671,
          11.251906798141004,
          11.257455803265682,
          11.262595832995046,
          11.267307149658771,
          11.271570195052135,
          11.275365680048592,
          11.278674678356907,
          11.28147872391013,
          11.283759911287301,
          11.285500998483496,
          11.28668551126122,
          11.287297848238723,
          11.287323385799828,
          11.286748581848023,
          11.28556107737636,
          11.283749794786484,
          11.28130503186641,
          11.278218550329287,
          11.274483657825389,
          11.270095282368157,
          11.265050038162736,
          11.25934628189225,
          11.252984158602562,
          11.24596563642984,
          11.238294529535269,
          11.229976508746004,
          11.22101909954852,
          11.21143166723741,
          11.201225389185813,
          11.190413214370627,
          11.179009810451884,
          11.16703149886887,
          11.15449617857121,
          11.14142323914887,
          11.127833464257161,
          11.113748926349306,
          11.09919287382713,
          11.084189611799026,
          11.06876437769146,
          11.052943212996144,
          11.036752832448949,
          11.020220491929333,
          11.003373856341748,
          10.986240868693951,
          10.968849621523882,
          10.95122823174848,
          10.93340471991681,
          10.915406894748854,
          10.897262243732834,
          10.878997830440136,
          10.860640199100882,
          10.842215286866793,
          10.823748344073412,
          10.805263862703287,
          10.78678551314647,
          10.76833608925648,
          10.74993746160966,
          10.73161053879435,
          10.713375236484342,
          10.695250453988578,
          10.677254057916636,
          10.659402872556305,
          10.641712676526174,
          10.624198205241168,
          10.606873158712645,
          10.58975021419564,
          10.572841043194236,
          10.556156332339885,
          10.539705807667502,
          10.523498261828088,
          10.507541583794847,
          10.491842790640922,
          10.476408060990416,
          10.461242769769857,
          10.446351523913833,
          10.431738198705974,
          10.417405974463875,
          10.403357373304207,
          10.389594295751042,
          10.376118056976726,
          10.362929422489717,
          10.350028643107915,
          10.337415489078577,
          10.325089283227197,
          10.313048933037566,
          10.301292961583323,
          10.289819537248173,
          10.278626502187066,
          10.267711399494377,
          10.25707149905745,
          10.246703822084736,
          10.236605164307505,
          10.226772117862318,
          10.217201091868906,
          10.207888331724202,
          10.198829937138413,
          10.190021878943497,
          10.181460014707714,
          10.17314010319283,
          10.165057817692524,
          10.157208758292038,
          10.149588463090105,
          10.142192418424674,
          10.135016068143871,
          10.128054821963575,
          10.121304062952154,
          10.114759154182195,
          10.108415444587845,
          10.102268274065182,
          10.096312977851525,
          10.090544890218027,
          10.084959347508214,
          10.079551690553368,
          10.074317266493855,
          10.069251430033546,
          10.064349544152646,
          10.059606980302283,
          10.055019118102308,
          10.050581344561786,
          10.046289052839711,
          10.042137640561638,
          10.038122507705909,
          10.03423905407136,
          10.030482676336465,
          10.02684876471799,
          10.023332699235548,
          10.019929845586407,
          10.016635550633328,
          10.013445137506253,
          10.010353900317046,
          10.007357098484608,
          10.004449950666052,
          10.00162762828782,
          9.998885248668879,
          9.996217867726543,
          9.993620472253525,
          9.991087971753279,
          9.988615189818837,
          9.98619685503872,
          9.983827591411591,
          9.981501908249765,
          9.979214189549747,
          9.97695868280632,
          9.974729487244868,
          9.972520541444913,
          9.970325610325968,
          9.968138271465184,
          9.96595190071438,
          9.963759657082482,
          9.961554466847597,
          9.959329006861351,
          9.957075687006652,
          9.954786631768492,
          9.952453660876051,
          9.950068268973336,
          9.947621604274376,
          9.945104446158387,
          9.94250718165977,
          9.939819780807627,
          9.937031770769751,
          9.934132208756765,
          9.9311096536433,
          9.927952136265132,
          9.924647128353776,
          9.921181510073751,
          9.91754153613227,
          9.913712800437025,
          9.909680199284935,
          9.90542789307353,
          9.90093926653736,
          9.89619688752451,
          9.89118246434337,
          9.885876801727738,
          9.880259755489018,
          9.874310185948623,
          9.868005910271783,
          9.861323653856322,
          9.854239000967235,
          9.846726344850271,
          9.838758837606301,
          9.830308340162876,
          9.821345372741463,
          9.811839066288359,
          9.801757115415196,
          9.791065733481805,
          9.779729610550511,
          9.767711875047222,
          9.754974060081524,
          9.741476075505288,
          9.727176186927831,
          9.712031003054552,
          9.695995472875337,
          9.679022894398111,
          9.661064936799903,
          9.642071678051847,
          9.62199166026224,
          9.600771965170733,
          9.578358312412306,
          9.554695183347059,
          9.52972597341458,
          9.503393176112398,
          9.475638601807718,
          9.446403634659962,
          9.41562953094692,
          9.38325776203589,
          9.349230405108713,
          9.313490584519627,
          9.275982966320854,
          9.236654308014879,
          9.195454064966931,
          9.152335054119257,
          9.107254174675306,
          9.060173184253127,
          9.011059527635547,
          8.959887213665025,
          8.906637734047603,
          8.851301015854316,
          8.793876397361672,
          8.73437361458935,
          8.672813783519564,
          8.60923036058023,
          8.543670061619842,
          8.476193717386213,
          8.40687704155192,
          8.335811285722624,
          8.263103754751057,
          8.188878155192395,
          8.113274750010195,
          8.036450293804508,
          7.958577724996685,
          7.879845594657286,
          7.8004572160575725,
          7.720629524568193,
          7.640591644174368,
          7.560583164511402,
          7.480852140766034,
          7.401652837781363,
          7.323243248918807,
          7.245882429281254,
          7.169827691350692,
          7.095331718479365,
          7.022639657539709,
          6.951986255961325,
          6.883593110015513,
          6.817666090303382,
          6.754393006853578,
          6.693941570085905,
          6.636457695355672,
          6.582064188227944,
          6.530859835544154,
          6.4829189143421075,
          6.438291117440398,
          6.397001881671629,
          6.359053092977306,
          6.324424132401094,
          6.293073218853151,
          6.264938998632773,
          6.239942328199364,
          6.217988195530014,
          6.198967726418908,
          6.1827602249766445,
          6.169235202019326,
          6.158254350602329,
          6.149673434248956,
          6.14334406006806,
          6.139115315607036,
          6.136835254664397,
          6.136352223169467,
          6.1375160214705895,
          6.140178903864417,
          6.144196419907058,
          6.149428104978841,
          6.155738029767431,
          6.162995219854083,
          6.1710739575150715,
          6.179853978272686,
          6.189220574737668,
          6.199064619963782,
          6.209282521965227,
          6.219776120299924,
          6.230452534757854,
          6.241223975264585,
          6.2520075211580375,
          6.262724877053617,
          6.273302111604049,
          6.2836693846034954,
          6.293760667092554,
          6.303513458399051,
          6.3128685034029335,
          6.321769512742318,
          6.330162888181046,
          6.337997454932925,
          6.345224202380496,
          6.351796034332523,
          6.3576675297301835,
          6.36279471453285,
          6.367134845386293,
          6.370646205595873,
          6.373287913891606,
          6.37501974647881,
          6.3758019729150295,
          6.375595206441103,
          6.3743602695200785,
          6.3720580755035865,
          6.368649527551456,
          6.364095436179278,
          6.358356457101855,
          6.351393051381775,
          6.34316547028413,
          6.333633767685524,
          6.322757843390994,
          6.310497521281046,
          6.296812666845929,
          6.281663349368689,
          6.265010054794339,
          6.246813956168866,
          6.227037249446141,
          6.205643563435212,
          6.182598453681669,
          6.157869991123849,
          6.131429457405701,
          6.103252159718395,
          6.0733183789194145,
          6.04161446535686,
          6.008134097196742,
          5.97287971596752,
          5.935864153316102,
          5.8971124613843795,
          5.856663956485127,
          5.814574481548421,
          5.770918886735997,
          5.725793719246139,
          5.679320102188462,
          5.6316467680237015,
          5.582953194011981,
          5.5334527650802805,
          5.483395863408317,
          5.433072754092954,
          5.382816103246898,
          5.333002930286467,
          5.284055762333379,
          5.236442729036167,
          5.190676315310893,
          5.147310483210318,
          5.106935888864122,
          5.070172962878042,
          5.037662698605919,
          5.010055105988686,
          4.987995439035844,
          4.972108486915959,
          4.962981419802021,
          4.961145881992051,
          4.967060201618263,
          4.981092710899114,
          5.0035072174687345,
          5.034451616918031,
          5.073950482398511,
          5.121902217381393,
          5.17808103651297,
          5.2421436836076225,
          5.313640448256628,
          5.39202974508788,
          5.476695305426556,
          5.566964918972968,
          5.662129656044732,
          5.761462587148841,
          5.864236173722503,
          5.969737704047465,
          6.077282363758992,
          6.186223737194353,
          6.295961716623414,
          6.4059479408760955,
          6.515688989265191,
          6.624747622375093,
          6.732742393064017,
          6.839345955542578,
          6.944282384788641,
          7.047323789558745,
          7.148286465624585,
          7.24702679616449,
          7.343437066825879,
          7.437441326107148,
          7.528991388737376,
          7.6180630513143734,
          7.704652565742172,
          7.788773396794367,
          7.870453275020639,
          7.9497315447031145,
          8.026656798113795,
          8.101284781393904,
          8.173676553477675,
          8.243896877182289,
          8.31201282050727,
          8.378092546016273,
          8.442204266656882,
          8.504415347303327,
          8.564791532522165,
          8.623396282439092,
          8.680290200032225,
          8.735530534627317,
          8.789170747774676,
          8.841260129014815,
          8.891843450270686,
          8.940960648727035,
          8.988646529070381,
          9.034930476866256,
          9.079836175650481,
          9.12338132101651,
          9.165577325601348,
          9.206429009421734,
          9.245934270502568,
          9.284083731187632,
          9.320860355944282,
          9.356239036887587,
          9.390186143676276,
          9.422659034894231,
          9.453605528553597,
          9.482963329966385,
          9.510659415962543,
          9.536609375319333,
          9.56071670634948,
          9.582872073916217,
          9.602952529750974,
          9.620820701892868,
          9.636323961401935,
          9.649293577271829,
          9.659543873732039,
          9.666871407927259,
          9.671054190321692,
          9.67185097511008,
          9.66900065340658,
          9.662221787971124,
          9.651212334613739,
          9.635649602019454,
          9.61519050831433,
          9.589472198912523,
          9.558113095618808,
          9.52071445108744,
          9.476862484951312,
          9.426131177564942,
          9.36808579366181,
          9.302287200657354,
          9.228297034295363,
          9.145683747508102,
          9.054029556716735,
          8.952938273717429,
          8.842043981628734,
          8.72102048145087,
          8.589591403379588,
          8.447540846185706,
          8.294724380825306,
          8.131080232806974,
          7.9566404428456465,
          7.771541797023659,
          7.576036314660275,
          7.3705010813243454,
          7.1554472112627305,
          6.931527712032621,
          6.699543997818384,
          6.460450750799692,
          6.215358758028345,
          5.965535254405307,
          5.712401186225553,
          5.4575246879604675,
          5.202609960527807,
          4.949480685213859,
          4.700057144948549,
          4.45632639866077,
          4.220305204734432,
          3.9939959381347783,
          3.7793364816957236,
          3.5781459379622156,
          3.3920688936634575,
          3.222521718917761,
          3.0706448225656895,
          2.937264760680373,
          2.8228695246767406,
          2.727599244064747,
          2.6512530711276154,
          2.5933114081341326,
          2.5529711656609733,
          2.5291906431119555,
          2.5207400479475215,
          2.5262536482948637,
          2.544280005154847,
          2.573327503971919,
          2.611903325397184,
          2.6585449041917775,
          2.711843710107625,
          2.7704617842929298,
          2.833141864829317,
          2.8987121540812066,
          2.9660868555753597,
          3.0342635818489496,
          3.102318647079918,
          3.1694011419740664,
          3.234726567060424,
          3.297570689403326,
          3.357264194607972,
          3.4131886328191374,
          3.4647741014912814,
          3.5114990626033347,
          3.5528926480742995,
          3.5885397519651234,
          3.6180891267701276,
          3.641264577218794,
          3.6578791619222972,
          3.667852056848446,
          3.671227397572514,
          3.6681940042883254,
          3.6591044281228733,
          3.64449128767716,
          3.625078467604914,
          3.6017845292551858,
          3.5757157543864295,
          3.5481467156919964,
          3.520487208962168,
          3.4942357765296372,
          3.470921772634163,
          3.452039719584612,
          3.43898123851768,
          3.432970750165379,
          3.435011151273673,
          3.4458446831308214,
          3.465932356325352,
          3.495452931545463,
          3.5343200524126357,
          3.582214141704717,
          3.638624427347178,
          3.702896072978506,
          3.7742777615504934,
          3.851965992621019,
          3.9351435272253883,
          4.023010597648083,
          4.114808515664392,
          4.2098360706712725,
          4.307459591252288,
          4.407117782399796,
          4.5083225025818745,
          4.610656571655175,
          4.713769556601036,
          4.817372308878638,
          4.921230853146757,
          5.025160068975588,
          5.129017473007108,
          5.232697300989466,
          5.336125005829137,
          5.439252226073442,
          5.542052235198172,
          5.644515851897975,
          5.7466477718259075,
          5.84846326901414,
          5.949985208202683,
          6.0512413057044885,
          6.152261574876925,
          6.253075891748314,
          6.353711616142944,
          6.454191203255316,
          6.554529739713859,
          6.654732336550033,
          6.7547913090705975,
          6.854683070457336,
          6.954364662144739,
          7.053769839968678,
          7.152804631247345,
          7.25134227512951,
          7.349217457862145,
          7.446219757704734,
          7.542086223281487,
          7.636493027227189,
          7.7290461679944045,
          7.8192712416610535,
          7.906602378611215,
          7.990370544076322,
          8.069791544127888,
          8.143954266501982,
          8.211809922665443,
          8.272163342207408,
          8.323667691446127,
          8.36482431835982,
          8.393989718072689,
          8.409391794845053,
          8.40915757129353,
          8.391354151912221,
          8.354043981485233,
          8.295354188788608,
          8.21355810114207,
          8.10716501792819,
          7.975012353450675,
          7.816352731105712,
          7.6309279830837795,
          7.419022612044174,
          7.181491167573389,
          6.919756903707262,
          6.635782438310387,
          6.3320162165770855,
          6.011320757495592,
          5.676889572402467,
          5.332159279941746,
          4.9807221023580395,
          4.626242092809938,
          4.272376614770442,
          3.922703176336837,
          3.5806509535909807,
          3.249436279075665,
          2.932001927246512,
          2.6309609811321977,
          2.3485471217523943,
          2.086574032610857,
          1.8464069865466246,
          1.6289494166258325,
          1.4346463525227442,
          1.263505177044465,
          1.1151325002043913,
          0.9887843910502139,
          0.8834260456088684,
          0.7977963884507029,
          0.7304731465596559,
          0.6799345054716711,
          0.6446143804893151,
          0.622949404502135,
          0.6134167668991604,
          0.6145629082871676,
          0.6250237191114265,
          0.6435372969155707,
          0.6689505141646889,
          0.7002206826954112,
          0.7364135228873315,
          0.7766985015862072,
          0.8203424291149257,
          0.8667020282101529,
          0.9152160226626204,
          0.9653971494715498,
          1.0168243786943734,
          1.0691355296433258,
          1.1220203984254262,
          1.1752144568985932,
          1.2284931435510378,
          1.2816667394061305,
          1.3345758039960909,
          1.3870871353739702,
          1.439090212142498,
          1.4904940730759686,
          1.5412245899591106,
          1.591222090913655,
          1.6404392941065213,
          1.6888395148917035,
          1.7363951128209156,
          1.7830861483592875,
          1.8288992224273215,
          1.8738264749768119,
          1.9178647216531044,
          1.9610147101791462,
          2.003280480416427,
          2.0446688141234497,
          2.0851887622586935,
          2.1248512392810968,
          2.163668675308092,
          2.20165471821852,
          2.238823978856381,
          2.2751918134189513,
          2.310774137917377,
          2.3455872702939127,
          2.379647796382275,
          2.4129724564180566,
          2.445578049255429,
          2.477481351834442,
          2.508699051778294,
          2.5392476912886903,
          2.569143620757192,
          2.598402960725574,
          2.627041571014254,
          2.6550750259980997,
          2.682518595147845,
          2.7093872280748608,
          2.735695543420635,
          2.7614578210217067,
          2.786687996858246,
          2.811399660361251,
          2.8356060537114325,
          2.8593200728128125,
          2.8825542696675654,
          2.905320855916169,
          2.9276317073395597,
          2.949498369148103,
          2.9709320619068214,
          2.991943687967295,
          3.012543838295235,
          3.0327427995985,
          3.0525505616742783,
          3.0719768249060095,
          3.091031007851041,
          3.109722254869019,
          3.1280594437487825,
          3.146051193298229,
          3.1637058708675285,
          3.1810315997810235,
          3.198036266657544,
          3.2147275286026806,
          3.2311128202596224,
          3.247199360708172,
          3.2629941602038177,
          3.2785040267507464,
          3.2937355725046302,
          3.308695220002301,
          3.3233892082168426,
          3.337823598437664,
          3.352004279976044,
          3.3659369756973794,
          3.379627247382002,
