#ifndef GENERATED_CONV_STACK_MODEL_DATA_H
#define GENERATED_CONV_STACK_MODEL_DATA_H

#include <stdint.h>

typedef float port_float;

#define ACT_LINEAR 0u
#define ACT_RELU 1u
#define ACT_TANH 2u
#define ACT_SIGMOID 3u
#define ACT_SILU 4u

#define CONV_STACK_INPUT_DIM 1u
#define CONV_STACK_OUTPUT_UNITS 1u
#define BENCHMARK_ITERATIONS 10u
#define BENCHMARK_REPEAT_RUNS 1u
#define BENCHMARK_RESET_STATE_EACH_RUN 1u
#define VALIDATION_RECORD_COUNT 1u
#define VALIDATION_SEQ_LEN 400u

#define SCALER_INPUT_DATA_RANGE 44.71252906f
#define SCALER_OUTPUT_DATA_RANGE 53.37688572f

static const port_float validation_input[VALIDATION_RECORD_COUNT][VALIDATION_SEQ_LEN][CONV_STACK_INPUT_DIM] = {
    {
        { -0.00265106f },
        { -0.00256918f },
        { -0.00248111f },
        { -0.00241613f },
        { -0.00234087f },
        { -0.00226323f },
        { -0.00223715f },
        { -0.00223383f },
        { -0.00214781f },
        { -0.00198212f },
        { -0.00189901f },
        { -0.00200698f },
        { -0.00219156f },
        { -0.00226382f },
        { -0.00219819f },
        { -0.00209412f },
        { -0.00200165f },
        { -0.00192639f },
        { -0.00187893f },
        { -0.00181025f },
        { -0.00166097f },
        { -0.00151595f },
        { -0.00150904f },
        { -0.00158611f },
        { -0.00156338f },
        { -0.00139519f },
        { -0.00122052f },
        { -0.00113318f },
        { -0.00103853f },
        { -0.00083806f },
        { -0.00063530f },
        { -0.00057462f },
        { -0.00058965f },
        { -0.00052110f },
        { -0.00038254f },
        { -0.00032187f },
        { -0.00038041f },
        { -0.00043144f },
        { -0.00034601f },
        { -0.00013261f },
        { 0.00008208f },
        { 0.00016323f },
        { 0.00010017f },
        { 0.00004305f },
        { 0.00013594f },
        { 0.00035456f },
        { 0.00057684f },
        { 0.00071296f },
        { 0.00073143f },
        { 0.00068017f },
        { 0.00066288f },
        { 0.00071413f },
        { 0.00078858f },
        { 0.00086976f },
        { 0.00093872f },
        { 0.00092841f },
        { 0.00086762f },
        { 0.00091341f },
        { 0.00112259f },
        { 0.00135794f },
        { 0.00148923f },
        { 0.00155125f },
        { 0.00165147f },
        { 0.00181994f },
        { 0.00201192f },
        { 0.00217416f },
        { 0.00224855f },
        { 0.00222650f },
        { 0.00223793f },
        { 0.00240714f },
        { 0.00261369f },
        { 0.00264666f },
        { 0.00257154f },
        { 0.00262787f },
        { 0.00280621f },
        { 0.00288950f },
        { 0.00286840f },
        { 0.00294713f },
        { 0.00316138f },
        { 0.00329885f },
        { 0.00321027f },
        { 0.00300860f },
        { 0.00293004f },
        { 0.00308371f },
        { 0.00335901f },
        { 0.00352225f },
        { 0.00341395f },
        { 0.00314609f },
        { 0.00305184f },
        { 0.00330599f },
        { 0.00369158f },
        { 0.00386876f },
        { 0.00375255f },
        { 0.00354203f },
        { 0.00347588f },
        { 0.00359951f },
        { 0.00376401f },
        { 0.00384263f },
        { 0.00383287f },
        { 0.00373294f },
        { 0.00352192f },
        { 0.00329503f },
        { 0.00321302f },
        { 0.00330149f },
        { 0.00345284f },
        { 0.00357276f },
        { 0.00362006f },
        { 0.00360556f },
        { 0.00357392f },
        { 0.00350881f },
        { 0.00339315f },
        { 0.00337100f },
        { 0.00354858f },
        { 0.00371179f },
        { 0.00361617f },
        { 0.00338434f },
        { 0.00325363f },
        { 0.00317271f },
        { 0.00297188f },
        { 0.00271633f },
        { 0.00260458f },
        { 0.00263198f },
        { 0.00261538f },
        { 0.00250944f },
        { 0.00243467f },
        { 0.00242569f },
        { 0.00240480f },
        { 0.00234824f },
        { 0.00228183f },
        { 0.00218356f },
        { 0.00204237f },
        { 0.00196534f },
        { 0.00204757f },
        { 0.00210835f },
        { 0.00181715f },
        { 0.00122402f },
        { 0.00084719f },
        { 0.00098366f },
        { 0.00125348f },
        { 0.00115439f },
        { 0.00076748f },
        { 0.00051561f },
        { 0.00047698f },
        { 0.00039006f },
        { 0.00015329f },
        { -0.00012045f },
        { -0.00038115f },
        { -0.00058773f },
        { -0.00059313f },
        { -0.00041464f },
        { -0.00036246f },
        { -0.00064695f },
        { -0.00108620f },
        { -0.00135069f },
        { -0.00135355f },
        { -0.00130310f },
        { -0.00140450f },
        { -0.00163690f },
        { -0.00187945f },
        { -0.00208921f },
        { -0.00227872f },
        { -0.00244983f },
        { -0.00258293f },
        { -0.00269093f },
        { -0.00288834f },
        { -0.00322890f },
        { -0.00349042f },
        { -0.00343532f },
        { -0.00321925f },
        { -0.00323212f },
        { -0.00363362f },
        { -0.00421777f },
        { -0.00466104f },
        { -0.00487324f },
        { -0.00504767f },
        { -0.00531172f },
        { -0.00553480f },
        { -0.00556714f },
        { -0.00545809f },
        { -0.00539431f },
        { -0.00551482f },
        { -0.00577218f },
        { -0.00600514f },
        { -0.00614402f },
        { -0.00622409f },
        { -0.00625546f },
        { -0.00621566f },
        { -0.00609581f },
        { -0.00594307f },
        { -0.00593766f },
        { -0.00624600f },
        { -0.00668556f },
        { -0.00682980f },
        { -0.00659913f },
        { -0.00644502f },
        { -0.00671342f },
        { -0.00708505f },
        { -0.00701736f },
        { -0.00654869f },
        { -0.00621043f },
        { -0.00630107f },
        { -0.00667650f },
        { -0.00708014f },
        { -0.00730100f },
        { -0.00718061f },
        { -0.00680198f },
        { -0.00653261f },
        { -0.00656533f },
        { -0.00656293f },
        { -0.00618264f },
        { -0.00578320f },
        { -0.00593670f },
        { -0.00639791f },
        { -0.00642021f },
        { -0.00591716f },
        { -0.00544961f },
        { -0.00527245f },
        { -0.00511638f },
        { -0.00478210f },
        { -0.00443161f },
        { -0.00426002f },
        { -0.00424198f },
        { -0.00433324f },
        { -0.00455771f },
        { -0.00474199f },
        { -0.00460717f },
        { -0.00422311f },
        { -0.00387274f },
        { -0.00349256f },
        { -0.00281059f },
        { -0.00200165f },
        { -0.00166504f },
        { -0.00198502f },
        { -0.00226243f },
        { -0.00175839f },
        { -0.00086973f },
        { -0.00064746f },
        { -0.00115539f },
        { -0.00138754f },
        { -0.00086314f },
        { -0.00019870f },
        { -0.00002579f },
        { -0.00020307f },
        { -0.00019443f },
        { 0.00024476f },
        { 0.00085960f },
        { 0.00126604f },
        { 0.00144604f },
        { 0.00168835f },
        { 0.00206846f },
        { 0.00237956f },
        { 0.00259411f },
        { 0.00290133f },
        { 0.00325299f },
        { 0.00336127f },
        { 0.00321741f },
        { 0.00319528f },
        { 0.00351766f },
        { 0.00396536f },
        { 0.00423436f },
        { 0.00426908f },
        { 0.00423354f },
        { 0.00444685f },
        { 0.00517489f },
        { 0.00617957f },
        { 0.00676099f },
        { 0.00661095f },
        { 0.00633088f },
        { 0.00662194f },
        { 0.00726472f },
        { 0.00756893f },
        { 0.00748472f },
        { 0.00748282f },
        { 0.00771692f },
        { 0.00794316f },
        { 0.00790096f },
        { 0.00756697f },
        { 0.00731356f },
        { 0.00752541f },
        { 0.00797074f },
        { 0.00817565f },
        { 0.00824648f },
        { 0.00859443f },
        { 0.00917647f },
        { 0.00960887f },
        { 0.00969821f },
        { 0.00950892f },
        { 0.00921472f },
        { 0.00909460f },
        { 0.00937907f },
        { 0.00987367f },
        { 0.01003494f },
        { 0.00967862f },
        { 0.00928298f },
        { 0.00935895f },
        { 0.00979864f },
        { 0.01001248f },
        { 0.00966755f },
        { 0.00916107f },
        { 0.00905027f },
        { 0.00922554f },
        { 0.00930353f },
        { 0.00941365f },
        { 0.00966621f },
        { 0.00952080f },
        { 0.00882583f },
        { 0.00858652f },
        { 0.00936791f },
        { 0.00999327f },
        { 0.00929643f },
        { 0.00802830f },
        { 0.00757929f },
        { 0.00796504f },
        { 0.00836550f },
        { 0.00858064f },
        { 0.00882997f },
        { 0.00891158f },
        { 0.00847692f },
        { 0.00779240f },
        { 0.00762108f },
        { 0.00824318f },
        { 0.00891957f },
        { 0.00876902f },
        { 0.00793153f },
        { 0.00720614f },
        { 0.00689815f },
        { 0.00678251f },
        { 0.00671623f },
        { 0.00657169f },
        { 0.00609204f },
        { 0.00536351f },
        { 0.00490838f },
        { 0.00494118f },
        { 0.00507323f },
        { 0.00496177f },
        { 0.00467788f },
        { 0.00439041f },
        { 0.00419800f },
        { 0.00413085f },
        { 0.00399349f },
        { 0.00343284f },
        { 0.00230509f },
        { 0.00095757f },
        { 0.00013146f },
        { 0.00018878f },
        { 0.00040584f },
        { -0.00019652f },
        { -0.00139138f },
        { -0.00214113f },
        { -0.00222543f },
        { -0.00232423f },
        { -0.00272802f },
        { -0.00301948f },
        { -0.00297585f },
        { -0.00312501f },
        { -0.00421271f },
        { -0.00615333f },
        { -0.00773327f },
        { -0.00784944f },
        { -0.00698848f },
        { -0.00673995f },
        { -0.00773949f },
        { -0.00895627f },
        { -0.00928965f },
        { -0.00894543f },
        { -0.00878367f },
        { -0.00912053f },
        { -0.00963313f },
        { -0.00997246f },
        { -0.01021423f },
        { -0.01069169f },
        { -0.01141690f },
        { -0.01212211f },
        { -0.01287529f },
        { -0.01389124f },
        { -0.01482023f },
        { -0.01517727f },
        { -0.01527475f },
        { -0.01561918f },
        { -0.01578923f },
        { -0.01528470f },
        { -0.01485897f },
        { -0.01539930f },
        { -0.01624128f },
        { -0.01620674f },
        { -0.01555037f },
        { -0.01542412f },
        { -0.01602695f },
        { -0.01658565f },
        { -0.01677988f },
        { -0.01691615f },
        { -0.01690989f },
        { -0.01648104f },
        { -0.01622843f },
        { -0.01700793f },
        { -0.01838408f },
        { -0.01915026f },
        { -0.01902107f },
        { -0.01849923f },
        { -0.01782370f }
    }
};

static const port_float conv_stack_initial_kernel[20u][1u][4u] = {
    {
        { 0.58903766f, -0.31228653f, 0.83288926f, 0.02517047f }
    },
    {
        { 0.17701122f, -0.17208268f, 0.52689427f, -0.28186199f }
    },
    {
        { 0.09450480f, -0.10811798f, 0.19789034f, 0.09703866f }
    },
    {
        { -0.03927886f, 0.10374886f, 0.05538915f, 0.18769012f }
    },
    {
        { 0.16047043f, -0.02322039f, -0.23528510f, 0.48565486f }
    },
    {
        { -0.14397071f, -0.46033549f, -0.42630813f, 0.17311430f }
    },
    {
        { -0.20282032f, -0.05662119f, -0.21554179f, 0.05696904f }
    },
    {
        { 0.13879701f, -0.18010165f, -0.34772938f, -0.08299688f }
    },
    {
        { 0.02777678f, -0.01247384f, -0.31608638f, -0.36437231f }
    },
    {
        { 0.20714360f, 0.39358604f, -0.19702943f, -0.16920684f }
    },
    {
        { -0.08751715f, 0.42292386f, -0.14782637f, -0.13522314f }
    },
    {
        { 0.39120901f, 0.05935848f, 0.35344887f, 0.32070422f }
    },
    {
        { 0.11176863f, 0.35560146f, 0.43661454f, 0.24620359f }
    },
    {
        { 0.21885283f, 0.32200587f, 0.22725536f, 0.24767652f }
    },
    {
        { 0.32464629f, 0.00054650f, 0.33723584f, 0.15386824f }
    },
    {
        { 0.18845484f, -0.12485820f, 0.84731346f, -0.88209480f }
    },
    {
        { 0.27509525f, -0.31018856f, 0.59835291f, -1.48685730f }
    },
    {
        { 0.54565811f, -1.06824923f, 0.81376380f, -1.22721279f }
    },
    {
        { 1.10981786f, -1.55693901f, 1.10600841f, 0.74910837f }
    },
    {
        { 1.74580479f, -1.49127901f, 1.27607810f, 4.13712406f }
    }
};

static const port_float conv_stack_initial_bias[4u] = { 0.31430817f, -1.01298773f, -1.45254183f, 0.43785638f };

static const port_float conv_2_kernel[20u][4u][8u] = {
    {
        { -0.49324879f, 0.04030468f, -0.13868064f, -0.45159748f, -0.45220852f, -1.35188115f, -0.11006309f, 0.01646499f },
        { 0.05563137f, -0.41949365f, -0.21899161f, -2.60407019f, -0.13766788f, 1.32307315f, -0.48236686f, -0.11238681f },
        { 0.12757775f, -0.06494706f, -0.03188396f, 1.09473360f, -0.21356915f, -0.82003397f, -0.30482721f, -0.33658779f },
        { 0.06292602f, -0.34513098f, -0.41056964f, -0.35709170f, 0.03176082f, -1.34560978f, 0.09312378f, -0.21595412f }
    },
    {
        { 0.04303763f, -0.02734236f, -0.28257653f, -0.28324425f, -0.44229603f, -0.14030030f, -0.11553876f, -0.21832724f },
        { 0.34364748f, -0.20091200f, -0.37130129f, -0.31714615f, -0.01189707f, 0.60279346f, -0.49172884f, -0.13791849f },
        { 0.13554840f, -0.14058194f, -0.07540689f, 0.28882349f, -0.27727792f, -0.46645525f, -0.13919435f, -0.17430389f },
        { -0.06403223f, -0.11348269f, -0.51460552f, -0.01517625f, 0.06139473f, -0.49457675f, -0.12137122f, -0.16677564f }
    },
    {
        { 0.06959748f, -0.01959173f, -0.02706804f, -0.07006995f, -0.40765706f, 0.34861127f, -0.34369084f, -0.08006281f },
        { 0.02310758f, -0.07490268f, -0.34859362f, -0.31905350f, 0.07039405f, -0.31015056f, -0.29010791f, -0.31908676f },
        { 0.13579006f, -0.29262185f, -0.04184472f, 0.24960896f, -0.09899442f, -0.11310445f, -0.30744997f, -0.04763944f },
        { -0.00415074f, -0.03526930f, -0.26016262f, 0.06039615f, -0.07384818f, 0.09185086f, -0.16611159f, -0.12802964f }
    },
    {
        { 0.00934672f, -0.10253367f, -0.00195517f, -0.08729001f, -0.41940638f, 0.32271996f, -0.22334035f, 0.04496411f },
        { -0.28177947f, -0.01446911f, -0.41728994f, -0.76372796f, 0.03424420f, -0.97020346f, -0.32217383f, -0.27023757f },
        { 0.04916071f, -0.08199282f, -0.11081878f, 0.50465870f, -0.22775452f, -0.12989321f, -0.20945494f, -0.13560821f },
        { -0.09461891f, -0.03113416f, -0.51767588f, 0.21668121f, 0.05305135f, 0.33563754f, -0.20466220f, -0.24445449f }
    },
    {
        { 0.04052487f, -0.15779279f, 0.06545567f, 0.07503060f, -0.37750605f, -0.02151630f, -0.21722846f, 0.12317269f },
        { -0.31881431f, -0.05141723f, -0.37464797f, -1.15605140f, 0.04535203f, -1.08960474f, -0.54227144f, -0.25823462f },
        { 0.12881762f, -0.35051993f, -0.24095081f, 0.63519061f, -0.11685728f, -0.10314523f, -0.24845263f, -0.35068113f },
        { -0.00780602f, 0.14143166f, -0.21135426f, 0.36487994f, 0.04909296f, 0.39208484f, 0.02276294f, -0.33034259f }
    },
    {
        { 0.11058300f, -0.00170656f, -0.02793689f, 0.08277534f, -0.44618961f, -0.07754051f, -0.25599805f, 0.01866466f },
        { -0.32296303f, -0.10216301f, -0.14582101f, -1.33151746f, 0.05800262f, -1.19908059f, -0.33339700f, -0.07832364f },
        { 0.01587417f, -0.10036641f, -0.19952646f, 0.54672635f, -0.23354757f, -0.04481044f, -0.31464195f, -0.30920994f },
        { -0.03479912f, 0.20318075f, -0.44986504f, 0.12841232f, -0.12034810f, 0.41108006f, -0.01943326f, -0.12818760f }
    },
    {
        { -0.04411099f, -0.25618300f, -0.01824439f, -0.24321698f, -0.39983642f, -0.43920827f, -0.34600633f, 0.00600392f },
        { -0.13003042f, -0.19941138f, -0.34189558f, -1.26008224f, -0.14772472f, -0.69357014f, -0.27476332f, -0.14941601f },
        { 0.10409752f, -0.06402480f, -0.23161359f, 0.36995423f, 0.01977643f, -0.18552752f, -0.45658079f, -0.03478137f },
        { -0.00890568f, 0.19393267f, -0.21398069f, -0.12122941f, -0.10947181f, 0.40391007f, -0.14037129f, -0.17731170f }
    },
    {
        { 0.05802418f, -0.10174669f, -0.20279472f, -0.07842820f, -0.24864545f, -1.10605788f, -0.41695461f, 0.08312193f },
        { -0.14257932f, -0.00965250f, -0.23338901f, -0.87441432f, -0.10442593f, -0.26292625f, -0.38776743f, -0.03904063f },
        { -0.00911978f, -0.27469403f, -0.29326624f, 0.11315505f, -0.16807947f, -0.00311774f, -0.48348424f, -0.20647934f },
        { -0.02743455f, 0.30667713f, -0.32524607f, -0.03982720f, -0.19956118f, 0.63303375f, -0.14614873f, -0.10376135f }
    },
    {
        { 0.09911996f, -0.21625774f, -0.09843071f, -0.19425341f, -0.37006786f, -1.16296911f, -0.32911935f, 0.02727369f },
        { -0.16382226f, -0.24090537f, -0.04366516f, -0.86777121f, -0.10385504f, 0.14058685f, -0.33938614f, -0.18531033f },
        { 0.14320286f, -0.21211022f, -0.30325508f, 0.27613243f, 0.02504974f, -0.13126273f, -0.18697932f, -0.29756051f },
        { 0.15423958f, 0.05737899f, -0.40048796f, -0.40574548f, -0.11281734f, 0.55008745f, -0.08963398f, -0.24778646f }
    },
    {
        { -0.02850007f, -0.34785563f, 0.02450983f, -0.20015275f, -0.25426069f, -0.86041754f, -0.19918875f, 0.09904489f },
        { 0.01592451f, -0.32466006f, -0.32476047f, -1.33382118f, -0.14544119f, 0.18642490f, -0.46557856f, -0.09326899f },
        { 0.01029315f, -0.27822819f, -0.19782177f, 0.60057145f, -0.01201390f, -0.02896463f, -0.20864525f, -0.25553298f },
        { 0.37455592f, 0.00871004f, -0.31998265f, -0.30908668f, -0.25462514f, 0.72151119f, -0.12490224f, -0.31865141f }
    },
    {
        { 0.01889493f, -0.13843232f, -0.19567421f, 0.09476089f, -0.14322194f, -0.82498664f, -0.35545424f, 0.18068582f },
        { -0.01102231f, -0.25718665f, -0.01060032f, -1.48955810f, -0.19512974f, -0.17581423f, -0.38233724f, -0.31657791f },
        { 0.03013726f, -0.22170362f, -0.16792274f, 0.95438981f, -0.25951007f, -0.66962314f, -0.42122516f, -0.12039428f },
        { 0.49969223f, -0.00705962f, -0.35899431f, -0.24869265f, -0.05476977f, 0.85347325f, 0.03264188f, -0.30459934f }
    },
    {
        { 0.04182348f, -0.26287144f, -0.05993416f, 0.11097112f, -0.29385117f, -0.51786083f, -0.32090831f, 0.06279308f },
        { -0.13123325f, -0.33405334f, -0.23178086f, -1.45832276f, -0.34912059f, -0.30060586f, -0.22274856f, -0.17404796f },
        { 0.00576260f, -0.17210209f, -0.17745101f, 0.76317286f, -0.05297068f, -1.28697836f, -0.20548145f, -0.16667418f },
        { 0.72047466f, 0.17897433f, -0.36228499f, 0.15467206f, -0.05130892f, 0.91855514f, 0.00107397f, -0.09904662f }
    },
    {
        { -0.10565759f, -0.18444379f, -0.20179977f, 0.43084031f, -0.33047166f, -0.90361750f, -0.39248493f, -0.02905672f },
        { -0.15027358f, -0.36100769f, -0.29062283f, -1.47416747f, -0.16964211f, -0.42366201f, -0.14410798f, -0.27960986f },
        { -0.37811869f, -0.09811696f, -0.35820195f, 0.83055872f, -0.26999584f, -0.85633665f, -0.25150982f, -0.18379691f },
        { 0.78641129f, -0.11884946f, -0.42221084f, 0.01061237f, -0.23529485f, 0.53135335f, -0.03587659f, -0.23422329f }
    },
    {
        { -0.04894295f, -0.31241885f, -0.08554083f, 0.43485421f, -0.27596667f, -1.27006876f, -0.30079365f, -0.01027651f },
        { -0.18979746f, -0.38672614f, -0.06094791f, -1.49578857f, -0.14689824f, -0.42324644f, -0.02782667f, -0.10031032f },
        { -0.25116262f, -0.35853279f, -0.42201772f, 0.69492155f, -0.06503454f, 0.54904485f, -0.40451735f, -0.06819455f },
        { 0.36664173f, -0.13750926f, -0.23711714f, 0.08806159f, -0.04730935f, 0.37375516f, -0.21097706f, -0.20613991f }
    },
    {
        { -0.21477702f, -0.27136451f, -0.11287724f, 0.69461429f, -0.01956295f, -1.71832216f, -0.36480394f, 0.02129300f },
        { -0.08922490f, -0.34642023f, -0.18605469f, -1.60891485f, -0.25207523f, -0.05340038f, 0.03172582f, -0.23517054f },
        { 0.12134977f, -0.15278363f, -0.44561172f, 0.73917705f, -0.17311552f, 1.05429006f, -0.41460118f, -0.24422367f },
        { 0.24058688f, -0.08173694f, -0.22649752f, -0.02035607f, -0.26299316f, 0.13494597f, -0.04707901f, -0.36387941f }
    },
    {
        { -0.27925313f, -0.07446718f, 0.01502741f, 0.90654176f, 0.06315988f, -1.65278006f, -0.16337021f, 0.02956057f },
        { -0.15013503f, -0.30455783f, -0.20016026f, -1.12083328f, -0.45445892f, -0.02411326f, -0.06035668f, -0.17260586f },
        { 0.28712767f, -0.10324433f, -0.32111719f, 1.09513032f, 0.07988282f, 1.03666270f, -0.44923052f, 0.00132247f },
        { 0.13329877f, -0.22465007f, -0.33271226f, -0.05945740f, -0.12750870f, -0.08404978f, -0.17232294f, -0.17449766f }
    },
    {
        { -0.38574696f, -0.19558030f, 0.11180325f, 1.21151555f, 0.03599781f, -0.92956209f, -0.38910165f, 0.00765158f },
        { -0.27472916f, -0.44052455f, -0.13277064f, -0.24084876f, -0.39900815f, 0.20687310f, -0.17792898f, -0.05026682f },
        { -0.03593008f, -0.31801909f, -0.48713520f, 1.06475341f, -0.02822913f, 1.16248631f, -0.31799507f, -0.17716374f },
        { 0.25725722f, -0.05490625f, -0.38030693f, 0.00312457f, -0.30531603f, -0.47489432f, -0.04426656f, -0.19516578f }
    },
    {
        { -0.13065283f, -0.17986149f, 0.09280432f, 1.48499322f, 0.08540641f, -0.01924657f, -0.14325461f, -0.08631356f },
        { 0.08000266f, -0.33171186f, -0.29438466f, -0.56387168f, -0.28404066f, 0.49451125f, 0.10019560f, -0.08164773f },
        { -0.03110284f, -0.44161889f, -0.42359841f, 0.78056145f, -0.00213952f, 0.37959597f, -0.23800775f, -0.17671309f },
        { 0.38756967f, -0.07674623f, -0.21221404f, 0.65975779f, -0.33440465f, -0.69963133f, -0.07404442f, -0.11079456f }
    },
    {
        { 0.12659135f, -0.22520202f, 0.08414134f, 1.80193543f, 0.18519767f, 0.86855459f, -0.17165162f, -0.13482775f },
        { 0.08354620f, -0.14950882f, -0.11516188f, -0.59897667f, -0.33350810f, 0.77642572f, -0.14862323f, -0.08127853f },
        { -0.17134950f, -0.27288842f, -0.26733235f, 0.40790644f, -0.07648225f, -1.04100776f, -0.14874583f, -0.30899504f },
        { 0.10417444f, -0.14781104f, -0.35620356f, 1.60860991f, -0.19704866f, -1.20618904f, -0.16969000f, -0.30090544f }
    },
    {
        { -0.06276057f, -0.30638075f, -0.07423588f, 2.46527171f, 0.26934096f, 1.93078649f, -0.16475050f, 0.10077576f },
        { -0.56364393f, -0.08255003f, -0.34788454f, -1.50829041f, -0.39613760f, 0.70913845f, 0.01746360f, 0.06018818f },
        { -0.27191195f, -0.40969485f, -0.36717793f, -0.44201881f, 0.03917595f, -6.39065123f, -0.11526249f, -0.17359868f },
        { 0.29829368f, -0.21461335f, -0.39322165f, 3.11483884f, -0.27035165f, -0.62477702f, -0.15310732f, -0.06133983f }
    }
};

static const port_float conv_2_bias[8u] = { 3.81815672f, -0.33250085f, -0.32763365f, 0.25205037f, -0.25294143f, 1.87598884f, -0.17752856f, -0.23666653f };

static const port_float post_dense_1_kernel[1u][8u][8u] = {
    {
        { -9.20814610f, 0.54950976f, -0.29067186f, -0.10149533f, -0.28226385f, -0.31719548f, -1.20162976f, -0.44020122f },
        { -0.00375178f, -0.24198394f, -0.79531306f, 0.16317643f, 0.27585053f, 0.34196824f, -0.12343731f, -0.28053787f },
        { -0.28507298f, -0.57594621f, -0.19217326f, -0.00025834f, -0.22991970f, 0.17535891f, 0.04353935f, 0.30254135f },
        { -0.95807385f, 0.48629025f, -0.09834997f, -1.62648082f, -0.41710770f, -0.08621392f, -0.92184931f, 1.02121651f },
        { -0.63529623f, -0.08107922f, 0.07289553f, -0.20011021f, -0.49455789f, 0.23059508f, -0.74327725f, 0.70116663f },
        { 1.63973463f, -0.14335160f, -0.53448093f, 0.56369847f, -0.40962315f, -0.89056873f, -0.20670280f, 0.77171266f },
        { 0.31663978f, 0.17972071f, -0.37676048f, 0.17710459f, 0.03089904f, 0.35440692f, 0.31942362f, 0.04447767f },
        { 0.36673793f, -0.36715913f, 0.14282751f, -0.61712819f, -0.23132266f, 0.16356099f, -0.28118467f, 0.00958345f }
    }
};

static const port_float post_dense_1_bias[8u] = { 0.94922203f, -0.12297073f, -0.27756393f, -1.01070571f, -0.23823929f, -0.19159944f, -0.33962080f, -1.13676119f };

static const port_float post_dense_2_kernel[1u][8u][8u] = {
    {
        { 2.76055288f, 0.23645268f, -0.05826885f, -0.25800836f, -0.73800170f, -0.15933740f, 1.47270608f, -1.21509743f },
        { -0.63335627f, -0.41863555f, 0.31948459f, -0.06978430f, -0.65826648f, -0.37703660f, -0.82117462f, -0.60772306f },
        { -0.41121456f, 0.00262233f, 0.00885746f, -0.51695949f, -0.08716610f, -0.28353184f, 0.29958093f, -0.11358353f },
        { 0.39017501f, -0.30826342f, -0.16676298f, -0.40333575f, 0.44241813f, -0.15099718f, -0.16525917f, -0.28954068f },
        { 0.24132621f, -0.03324978f, -0.15490332f, 0.01782708f, 0.07978409f, 0.23721468f, 0.43113914f, -0.31151035f },
        { 0.17527655f, -0.35373464f, 0.02648987f, 0.08277677f, -0.75518912f, -0.63883895f, 0.31442761f, 0.79302573f },
        { 0.64432645f, -0.33889052f, -0.26009923f, -0.42823955f, -0.67662960f, -0.05209037f, -0.13165525f, -0.09258559f },
        { 0.27736270f, -0.15401274f, 0.71439755f, -0.44218454f, -0.19093589f, -0.34187737f, 0.15068999f, -0.00018079f }
    }
};

static const port_float post_dense_2_bias[8u] = { -1.26561618f, -0.23744462f, -0.72652638f, -0.23985480f, -0.42254460f, -0.23923047f, 1.85894823f, -1.19019854f };

static const port_float post_dense_3_kernel[1u][8u][8u] = {
    {
        { 1.59607041f, -0.47775871f, 5.30133533f, 0.06418025f, 2.65602469f, -0.42639762f, 0.29283676f, -0.14474361f },
        { -0.04324165f, -0.49678335f, -0.02981418f, -0.38924938f, 0.21103758f, 0.41521391f, 0.17467438f, 0.31232673f },
        { -0.69171697f, -0.02453357f, -1.90668356f, -0.33904812f, -0.82718122f, -0.62464744f, 0.41983628f, -0.02297465f },
        { -0.14420204f, -0.13465887f, 0.09059201f, -0.51326746f, 0.29540271f, 0.10678142f, -0.19030926f, 0.38256180f },
        { -0.04301807f, -0.19623566f, 1.36541355f, -0.20354724f, 0.22747201f, 0.13576093f, -0.16824424f, 0.35846591f },
        { -0.16769926f, 0.22808462f, 0.35338879f, -0.37353051f, 0.28986761f, -0.36921307f, -0.59512633f, 0.40049398f },
        { 2.00078487f, -0.53624362f, 0.09997718f, -0.44427598f, -0.68305248f, -0.17266922f, -0.81977350f, -1.16672730f },
        { -0.53807306f, -0.27358493f, 1.10728931f, -0.34898773f, -0.81973648f, -0.65265846f, -0.07334920f, 0.27823776f }
    }
};

static const port_float post_dense_3_bias[8u] = { 0.76349121f, 0.00000000f, -1.01974940f, 0.00000000f, -0.72441429f, -0.15437159f, -0.52842844f, -0.00094412f };

static const port_float post_dense_4_kernel[1u][8u][8u] = {
    {
        { -0.57709974f, -0.73075318f, -0.67341727f, -0.57099587f, 1.16491127f, -0.13542542f, -0.87114102f, -0.09207376f },
        { 0.27626771f, -0.19543880f, -0.18005294f, 0.19502592f, -0.49501178f, -0.14193106f, 0.12855387f, -0.18395627f },
        { -0.04763355f, -0.23393151f, -0.86576551f, -0.04108762f, 3.26400256f, -0.66054213f, -0.50374067f, -0.03902093f },
        { -0.14707613f, -0.40525490f, 0.12392050f, 0.52852756f, -0.49296585f, 0.58449489f, -0.17319131f, -0.03459477f },
        { 0.17440952f, 0.07719538f, -0.20902680f, 0.05336984f, 1.40635371f, -0.53724825f, -0.14642115f, -0.61075348f },
        { 0.25626189f, 0.00737782f, -0.25368822f, -0.27502719f, 0.27490062f, -0.52024394f, -0.26376247f, -0.15794769f },
        { -0.18505327f, -0.05064936f, -0.00991141f, -0.00518129f, -0.37329391f, 0.00605638f, 0.41228122f, 0.02803275f },
        { -0.46293965f, 0.03683168f, -0.53685951f, -0.48059863f, -0.95275855f, -0.81053990f, 0.32331458f, 0.00465823f }
    }
};

static const port_float post_dense_4_bias[8u] = { -0.25352108f, -0.05505367f, 0.04449027f, -0.02622187f, -0.45476916f, -0.47281274f, 0.18801646f, -0.96775746f };

static const port_float post_dense_5_kernel[1u][8u][8u] = {
    {
        { 0.52201229f, 0.16678198f, -0.21211338f, 0.21216609f, -0.34815159f, 0.60754442f, -0.10036925f, -0.15703152f },
        { -0.36410102f, -0.21562788f, 0.25439703f, 0.25182664f, 0.09180784f, -0.04628610f, -0.12805463f, -0.43358177f },
        { 0.38855675f, -0.58413392f, -0.39062771f, -0.23627295f, -0.03477160f, 0.03562783f, -0.75386482f, -0.56168950f },
        { 0.42960906f, -0.00327608f, 0.22221485f, 0.21042196f, 0.04092938f, 0.16967250f, -0.54678005f, -1.42340815f },
        { -0.60614896f, 0.70765662f, -0.19183733f, -0.35962632f, -0.42907453f, -0.77137405f, 0.00253457f, -0.90896726f },
        { 0.10022668f, -1.09693861f, 0.37329826f, 0.09837463f, 0.53692997f, -0.20973717f, -0.43513688f, -0.32553202f },
        { -0.71610612f, -0.54786420f, -0.31746271f, -0.35227272f, 0.33363414f, 0.36397305f, -0.73244256f, -0.00289279f },
        { -0.41486180f, -0.72193772f, 0.66906166f, 0.00171620f, -0.29248846f, 0.32928744f, 0.16611519f, -0.02683286f }
    }
};

static const port_float post_dense_5_bias[8u] = { -0.20480146f, -0.58384514f, -0.17289013f, -0.00216404f, 0.21895504f, 0.43170050f, -1.24802172f, -0.00542860f };

static const port_float post_dense_6_kernel[1u][8u][8u] = {
    {
        { 0.40226850f, -0.48987624f, 0.08520751f, -0.47484985f, 0.33087146f, -0.12898913f, -0.08465294f, 0.19081663f },
        { -0.43042386f, -0.16813536f, -0.07872054f, -0.29382220f, -0.30373427f, -0.02578400f, -0.47546345f, -0.02444854f },
        { -0.67621440f, 0.53370529f, -0.59077454f, 0.64071852f, -0.38543224f, 0.12778381f, 0.12071911f, 0.33776775f },
        { -0.41888109f, -0.46572599f, -0.34879029f, 0.31367126f, 0.23640764f, -0.43986601f, -0.36850783f, -0.31434205f },
        { -0.10757983f, -0.08570296f, -0.11428664f, 0.38201708f, -0.38832697f, -0.03060340f, 0.33407781f, -0.49762431f },
        { 0.07944024f, -0.21189700f, -0.38050535f, 0.60980892f, 0.02510948f, -0.06637736f, 0.27089554f, -0.65255344f },
        { 0.12576115f, -0.13011329f, -0.05443336f, -1.48999703f, -0.74985951f, -0.47578788f, -0.25666189f, 0.40281332f },
        { -0.73771620f, -0.18149576f, 0.09323949f, -0.31712964f, 0.40082446f, -0.48068804f, 0.23951218f, -0.45167542f }
    }
};

static const port_float post_dense_6_bias[8u] = { -0.33920345f, 0.40639907f, -0.07164926f, 1.36712754f, 0.81863737f, -0.23987971f, 1.30318117f, -0.39192811f };

static const port_float post_dense_7_kernel[1u][8u][8u] = {
    {
        { 0.36813673f, -0.01381827f, -0.02238270f, 0.03907665f, 0.13891140f, -0.10603365f, 0.58683693f, 0.33592239f },
        { -0.34811258f, -0.42879242f, 0.36840126f, -0.41574678f, 0.06974507f, -0.19440222f, -2.05071521f, -0.30661431f },
        { 0.44670385f, 0.24913973f, -0.28021029f, 0.03649265f, 0.20458283f, -0.05436230f, 0.08586270f, -0.08221871f },
        { -0.01912869f, -0.33332118f, -0.38228032f, -0.02811803f, 0.72606492f, -0.50548166f, -1.15644300f, -0.78302228f },
        { 0.17296489f, 0.33395952f, 0.17943215f, -0.35726532f, 0.30130780f, -0.40408230f, -1.22507453f, -0.15806444f },
        { -0.12848917f, 0.15538210f, -0.08348465f, -0.23909135f, -0.32797894f, 0.24384075f, 0.05555671f, -0.21250558f },
        { -0.54009926f, -0.67812282f, -0.59356171f, 0.02139790f, 0.65521109f, -0.48697034f, -0.91665363f, -0.54586214f },
        { -0.12189597f, -0.43015417f, 0.08555441f, -0.55803216f, 0.05776834f, 0.03655106f, -0.17333438f, 0.38461149f }
    }
};

static const port_float post_dense_7_bias[8u] = { -0.23994943f, -0.35579842f, -0.20357773f, -0.37587091f, -0.00186405f, -0.24001589f, -0.71273118f, -0.35513082f };

static const port_float post_dense_8_kernel[1u][8u][8u] = {
    {
        { -0.30882519f, -0.11787102f, 0.59587538f, -0.26740876f, -0.58909440f, 0.35957819f, 0.10323258f, -0.17921434f },
        { -0.45776138f, 0.40489379f, 0.15529124f, -0.31595454f, 0.30386367f, 0.19492066f, 0.26993647f, -0.35284838f },
        { 0.08128557f, -0.01330370f, -0.05669251f, -0.80361629f, -0.22455531f, -0.43902695f, -0.09323629f, 0.33041286f },
        { -0.37675390f, -0.15864334f, 0.42396495f, -0.40108529f, -0.58410186f, 0.01071459f, -0.12344559f, -0.31153217f },
        { -0.74241012f, 0.57886964f, -0.00910030f, -0.12653722f, 0.01023374f, -0.35527760f, 0.47154641f, -0.08980614f },
        { 0.24095458f, -0.33453515f, -0.16597904f, 0.24314874f, 0.16273172f, 0.30477715f, -0.38241103f, -0.03664187f },
        { 0.07557236f, 0.71501982f, -0.53186744f, -0.59612626f, 0.24369197f, -0.28973570f, -1.40300262f, -0.39874876f },
        { -0.56824934f, -0.22470626f, -0.17312886f, 0.18850783f, -0.33511642f, 0.30942672f, 0.11866973f, -0.12229776f }
    }
};

static const port_float post_dense_8_bias[8u] = { -0.28505340f, -0.00217211f, -0.22947894f, -0.45411858f, -0.53878170f, 0.00000000f, -1.63640237f, -0.26618269f };

static const port_float conv_stack_output_kernel[1u][8u][1u] = {
    {
        { 0.32621992f },
        { 0.44762796f },
        { -0.03531509f },
        { 0.21345517f },
        { -0.09079047f },
        { 0.47233713f },
        { -0.18568093f },
        { 0.13133985f }
    }
};

static const port_float conv_stack_output_bias[1u] = { -0.67270076f };

#endif
