{
  "project_name": "WNET5_EFF2_A1_PS-5_360",
  "task_type": "wnet5-circuit-validation",
  "analysis_layer": 2,
  "frequency_range": {
    "start_freq": 2,
    "stop_freq": 500
  },
  "svf": {
    "center_freqs": [
      8.0,
      25.0,
      50.0,
      85.0,
      120.0,
      180.0
    ],
    "quality_factors": [
      1.5,
      2.0,
      2.5,
      3.0,
      4.0,
      5.0
    ],
    "transfer_functions": [
      {
        "f0": 8.0,
        "Q": 1.5,
        "channels": {
          "high_pass": {
            "symbolic": "s**2/(s**2 + 10.6666666666667*pi*s + 256.0*pi**2)",
            "numerator_coeffs": [
              1.0,
              0.0,
              0.0
            ],
            "denominator_coeffs": [
              1.0,
              33.510321638291124,
              2526.6187266788756
            ]
          },
          "band_pass": {
            "symbolic": "10.6666666666667*pi*s/(s**2 + 10.6666666666667*pi*s + 256.0*pi**2)",
            "numerator_coeffs": [
              33.510321638291124,
              0.0
            ],
            "denominator_coeffs": [
              1.0,
              33.510321638291124,
              2526.6187266788756
            ]
          },
          "low_pass": {
            "symbolic": "256.0*pi**2/(s**2 + 10.6666666666667*pi*s + 256.0*pi**2)",
            "numerator_coeffs": [
              2526.6187266788756
            ],
            "denominator_coeffs": [
              1.0,
              33.510321638291124,
              2526.6187266788756
            ]
          }
        }
      },
      {
        "f0": 25.0,
        "Q": 2.0,
        "channels": {
          "high_pass": {
            "symbolic": "s**2/(s**2 + 25.0*pi*s + 2500.0*pi**2)",
            "numerator_coeffs": [
              1.0,
              0.0,
              0.0
            ],
            "denominator_coeffs": [
              1.0,
              78.53981633974483,
              24674.011002723397
            ]
          },
          "band_pass": {
            "symbolic": "25.0*pi*s/(s**2 + 25.0*pi*s + 2500.0*pi**2)",
            "numerator_coeffs": [
              78.53981633974483,
              0.0
            ],
            "denominator_coeffs": [
              1.0,
              78.53981633974483,
              24674.011002723397
            ]
          },
          "low_pass": {
            "symbolic": "2500.0*pi**2/(s**2 + 25.0*pi*s + 2500.0*pi**2)",
            "numerator_coeffs": [
              24674.011002723397
            ],
            "denominator_coeffs": [
              1.0,
              78.53981633974483,
              24674.011002723397
            ]
          }
        }
      },
      {
        "f0": 50.0,
        "Q": 2.5,
        "channels": {
          "high_pass": {
            "symbolic": "s**2/(s**2 + 40.0*pi*s + 10000.0*pi**2)",
            "numerator_coeffs": [
              1.0,
              0.0,
              0.0
            ],
            "denominator_coeffs": [
              1.0,
              125.66370614359172,
              98696.04401089359
            ]
          },
          "band_pass": {
            "symbolic": "40.0*pi*s/(s**2 + 40.0*pi*s + 10000.0*pi**2)",
            "numerator_coeffs": [
              125.66370614359172,
              0.0
            ],
            "denominator_coeffs": [
              1.0,
              125.66370614359172,
              98696.04401089359
            ]
          },
          "low_pass": {
            "symbolic": "10000.0*pi**2/(s**2 + 40.0*pi*s + 10000.0*pi**2)",
            "numerator_coeffs": [
              98696.04401089359
            ],
            "denominator_coeffs": [
              1.0,
              125.66370614359172,
              98696.04401089359
            ]
          }
        }
      },
      {
        "f0": 85.0,
        "Q": 3.0,
        "channels": {
          "high_pass": {
            "symbolic": "s**2/(s**2 + 56.6666666666667*pi*s + 28900.0*pi**2)",
            "numerator_coeffs": [
              1.0,
              0.0,
              0.0
            ],
            "denominator_coeffs": [
              1.0,
              178.02358370342162,
              285231.56719148246
            ]
          },
          "band_pass": {
            "symbolic": "56.6666666666667*pi*s/(s**2 + 56.6666666666667*pi*s + 28900.0*pi**2)",
            "numerator_coeffs": [
              178.02358370342162,
              0.0
            ],
            "denominator_coeffs": [
              1.0,
              178.02358370342162,
              285231.56719148246
            ]
          },
          "low_pass": {
            "symbolic": "28900.0*pi**2/(s**2 + 56.6666666666667*pi*s + 28900.0*pi**2)",
            "numerator_coeffs": [
              285231.56719148246
            ],
            "denominator_coeffs": [
              1.0,
              178.02358370342162,
              285231.56719148246
            ]
          }
        }
      },
      {
        "f0": 120.0,
        "Q": 4.0,
        "channels": {
          "high_pass": {
            "symbolic": "s**2/(s**2 + 60.0*pi*s + 57600.0*pi**2)",
            "numerator_coeffs": [
              1.0,
              0.0,
              0.0
            ],
            "denominator_coeffs": [
              1.0,
              188.4955592153876,
              568489.213502747
            ]
          },
          "band_pass": {
            "symbolic": "60.0*pi*s/(s**2 + 60.0*pi*s + 57600.0*pi**2)",
            "numerator_coeffs": [
              188.4955592153876,
              0.0
            ],
            "denominator_coeffs": [
              1.0,
              188.4955592153876,
              568489.213502747
            ]
          },
          "low_pass": {
            "symbolic": "57600.0*pi**2/(s**2 + 60.0*pi*s + 57600.0*pi**2)",
            "numerator_coeffs": [
              568489.213502747
            ],
            "denominator_coeffs": [
              1.0,
              188.4955592153876,
              568489.213502747
            ]
          }
        }
      },
      {
        "f0": 180.0,
        "Q": 5.0,
        "channels": {
          "high_pass": {
            "symbolic": "s**2/(s**2 + 72.0*pi*s + 129600.0*pi**2)",
            "numerator_coeffs": [
              1.0,
              0.0,
              0.0
            ],
            "denominator_coeffs": [
              1.0,
              226.1946710584651,
              1279100.730381181
            ]
          },
          "band_pass": {
            "symbolic": "72.0*pi*s/(s**2 + 72.0*pi*s + 129600.0*pi**2)",
            "numerator_coeffs": [
              226.1946710584651,
              0.0
            ],
            "denominator_coeffs": [
              1.0,
              226.1946710584651,
              1279100.730381181
            ]
          },
          "low_pass": {
            "symbolic": "129600.0*pi**2/(s**2 + 72.0*pi*s + 129600.0*pi**2)",
            "numerator_coeffs": [
              1279100.730381181
            ],
            "denominator_coeffs": [
              1.0,
              226.1946710584651,
              1279100.730381181
            ]
          }
        }
      }
    ]
  },
  "dense_layer": {
    "layer_name": "Dense_Layer_Model_2",
    "weights": [
      [
        0.12016622722148895,
        -0.6840417981147766,
        -0.47563472390174866,
        0.24179814755916595,
        0.17213213443756104,
        -0.3782932758331299,
        0.11534686386585236,
        -0.0017804204253479838,
        -0.18551774322986603,
        -0.28828343749046326,
        0.2963833212852478,
        0.027101734653115273,
        -0.014798078685998917,
        -0.35951459407806396
      ],
      [
        -1.0775871276855469,
        -0.01672757789492607,
        0.5944491028785706,
        -0.30167093873023987,
        0.015696020796895027,
        -0.11099765449762344,
        0.7934930920600891,
        0.06897525489330292,
        0.3142680525779724,
        -0.16583901643753052,
        -0.3482853174209595,
        0.8199368715286255,
        -1.157065749168396,
        -0.04781896248459816
      ],
      [
        0.2705895006656647,
        -0.3441871702671051,
        -0.1537507325410843,
        0.4086069166660309,
        0.43260636925697327,
        0.42443475127220154,
        -0.05817367509007454,
        0.2767609655857086,
        -0.0026438527274876833,
        0.1485666036605835,
        -0.1471623331308365,
        0.1164993941783905,
        0.05724215507507324,
        0.12962554395198822
      ],
      [
        0.08099105209112167,
        -0.4299406409263611,
        -0.33325254917144775,
        -0.4814693331718445,
        -0.1923028528690338,
        0.6075022220611572,
        -0.3319905698299408,
        -0.053255874663591385,
        0.030918067321181297,
        -0.5752087831497192,
        0.2694655656814575,
        -0.1568392515182495,
        -0.08141445368528366,
        0.3824053704738617
      ],
      [
        -0.3172471225261688,
        -0.31923288106918335,
        0.14344854652881622,
        0.05712100863456726,
        0.036815766245126724,
        0.4620196223258972,
        0.08455614000558853,
        -1.599966287612915,
        0.12008403241634369,
        0.19612692296504974,
        0.07240663468837738,
        -0.14996229112148285,
        0.01125522330403328,
        -0.052010007202625275
      ],
      [
        -0.5017998218536377,
        -0.21089178323745728,
        -3.298250198364258,
        0.03045858070254326,
        0.17597685754299164,
        -0.3649439811706543,
        -0.8191849589347839,
        -0.6556220054626465,
        -1.3839117288589478,
        -0.4941065311431885,
        -0.21220584213733673,
        0.06429453939199448,
        -0.1681535542011261,
        0.4008111357688904
      ],
      [
        -2.391655206680298,
        -0.4457031786441803,
        -0.8487743735313416,
        -0.4552222192287445,
        0.2322787195444107,
        0.14529837667942047,
        0.11655983328819275,
        0.036712292581796646,
        -0.6325423717498779,
        -0.33972546458244324,
        0.46022123098373413,
        -0.03162769228219986,
        -0.2969229519367218,
        0.007890298962593079
      ],
      [
        -0.25822675228118896,
        -0.6013922691345215,
        -0.9081204533576965,
        -0.026097405701875687,
        0.09951980412006378,
        0.19969625771045685,
        0.3008773922920227,
        -0.367775022983551,
        0.7232834100723267,
        0.1705649346113205,
        0.19471552968025208,
        0.09627246111631393,
        -3.1387455463409424,
        -0.17870832979679108
      ],
      [
        0.2337154746055603,
        -0.4567500650882721,
        0.07527944445610046,
        -0.3757888674736023,
        -0.04740056395530701,
        0.023932376876473427,
        0.3246007263660431,
        0.26680052280426025,
        -0.23002730309963226,
        -0.8911587595939636,
        -0.08794807642698288,
        0.34815192222595215,
        0.5864991545677185,
        0.2851189970970154
      ],
      [
        -0.15089201927185059,
        -0.10951901972293854,
        0.1325601488351822,
        0.6112393140792847,
        0.31954362988471985,
        -0.22805869579315186,
        -0.10110288858413696,
        -0.12230810523033142,
        -0.0078971479088068,
        -0.1926359087228775,
        -0.40741196274757385,
        -0.34363916516304016,
        0.12011972814798355,
        -0.7432047128677368
      ],
      [
        0.049142707139253616,
        -0.6910698413848877,
        0.6294354796409607,
        0.13495780527591705,
        0.1594538688659668,
        0.17060630023479462,
        0.14147154986858368,
        0.4459637403488159,
        -0.8520359396934509,
        0.19863717257976532,
        -0.2693467438220978,
        0.4927161931991577,
        0.008315887302160263,
        -0.3616299629211426
      ],
      [
        -0.5089102983474731,
        -0.5923061966896057,
        0.36013180017471313,
        0.27039510011672974,
        -0.16391606628894806,
        -0.05740085989236832,
        -0.43692344427108765,
        0.3110129237174988,
        -3.3711798191070557,
        -0.01740548200905323,
        -0.029097246006131172,
        -0.3892861008644104,
        -0.7794463038444519,
        0.08607297390699387
      ],
      [
        0.23390008509159088,
        -0.19037945568561554,
        -0.07313979417085648,
        0.25078919529914856,
        -0.16990719735622406,
        0.1710699051618576,
        0.2199186235666275,
        -1.0952568054199219,
        -0.2090023308992386,
        0.4269838035106659,
        -0.3034616708755493,
        0.3865933418273926,
        -1.6853150129318237,
        -0.38067618012428284
      ],
      [
        -16.621129989624023,
        -0.0885041281580925,
        -2.90925669670105,
        0.10176441818475723,
        0.0768255665898323,
        0.07505562156438828,
        0.29559990763664246,
        -1.118187427520752,
        0.6166330575942993,
        -0.13558192551136017,
        0.059554364532232285,
        0.1998143047094345,
        0.4954794645309448,
        0.06078023090958595
      ]
    ],
    "bias": [
      0.005339113064110279,
      -0.2729228138923645,
      0.017109816893935204,
      -0.008083646185696125,
      -0.01932688057422638,
      0.055350322276353836,
      -0.09590894728899002,
      -0.11020024120807648,
      -0.0010010201949626207,
      -0.021086229011416435,
      -0.3386151194572449,
      -0.02278069034218788,
      -0.22487296164035797,
      0.02528279274702072
    ]
  },
  "combined_transfer_functions": [
    {
      "output_index": 0,
      "symbolic": "0.233900085091591*s**2/(s**2 + 60.0*pi*s + 57600.0*pi**2) - 0.150892019271851*s**2/(s**2 + 56.6666666666667*pi*s + 28900.0*pi**2) - 2.3916552066803*s**2/(s**2 + 40.0*pi*s + 10000.0*pi**2) + 0.0809910520911217*s**2/(s**2 + 25.0*pi*s + 2500.0*pi**2) + 0.120166227221489*s**2/(s**2 + 10.6666666666667*pi*s + 256.0*pi**2) - 997.267799377441*pi*s/(s**2 + 60.0*pi*s + 57600.0*pi**2) + 2.7847534045577*pi*s/(s**2 + 56.6666666666667*pi*s + 28900.0*pi**2) - 10.3290700912476*pi*s/(s**2 + 40.0*pi*s + 10000.0*pi**2) - 7.93117806315422*pi*s/(s**2 + 25.0*pi*s + 2500.0*pi**2) - 11.4942626953125*pi*s/(s**2 + 10.6666666666667*pi*s + 256.0*pi**2) + 0.00533911306411028 - 14707.507622242*pi**2/(s**2 + 56.6666666666667*pi*s + 28900.0*pi**2) + 2337.1547460556*pi**2/(s**2 + 40.0*pi*s + 10000.0*pi**2) - 1254.49955463409*pi**2/(s**2 + 25.0*pi*s + 2500.0*pi**2) + 69.2709121704102*pi**2/(s**2 + 10.6666666666667*pi*s + 256.0*pi**2)",
      "numerator_coeffs": [
        -2.1021507484838367,
        -4214.996373518744,
        -3554812.917539618,
        -2181235030.719093,
        -904334124704.2424,
        -239328135686307.6,
        -3.9028182506919816e+16,
        -5.872729299145274e+18,
        -5.195986657795002e+20,
        -3.2365177793967355e+22,
        -4.999124920797979e+23
      ],
      "denominator_coeffs": [
        1.0,
        604.2329870404368,
        1117013.3139248015,
        433989549.1757024,
        334462010695.5605,
        75952174024733.81,
        2.840607273934968e+16,
        3.152247113385751e+18,
        5.3078493933223385e+20,
        1.8631967205365658e+22,
        9.976978288037558e+23
      ]
    },
    {
      "output_index": 1,
      "symbolic": "-0.190379455685616*s**2/(s**2 + 60.0*pi*s + 57600.0*pi**2) - 0.109519019722939*s**2/(s**2 + 56.6666666666667*pi*s + 28900.0*pi**2) - 0.44570317864418*s**2/(s**2 + 40.0*pi*s + 10000.0*pi**2) - 0.429940640926361*s**2/(s**2 + 25.0*pi*s + 2500.0*pi**2) - 0.684041798114777*s**2/(s**2 + 10.6666666666667*pi*s + 256.0*pi**2) - 5.31024768948555*pi*s/(s**2 + 60.0*pi*s + 57600.0*pi**2) - 39.1606243451436*pi*s/(s**2 + 56.6666666666667*pi*s + 28900.0*pi**2) - 24.0556907653809*pi*s/(s**2 + 40.0*pi*s + 10000.0*pi**2) - 7.98082202672958*pi*s/(s**2 + 25.0*pi*s + 2500.0*pi**2) - 0.178427497545878*pi*s/(s**2 + 10.6666666666667*pi*s + 256.0*pi**2) - 0.272922813892365 - 17117.6490843296*pi**2/(s**2 + 56.6666666666667*pi*s + 28900.0*pi**2) - 4567.50065088272*pi**2/(s**2 + 40.0*pi*s + 10000.0*pi**2) - 527.229458093643*pi**2/(s**2 + 25.0*pi*s + 2500.0*pi**2) - 88.1119155883789*pi**2/(s**2 + 10.6666666666667*pi*s + 256.0*pi**2)",
      "numerator_coeffs": [
        -2.1325069069862366,
        -1361.3653196752364,
        -2434514.4200943145,
        -990716419.5377252,
        -770609742250.586,
        -175379272197871.5,
        -6.550023292025858e+16,
        -6.76603562046216e+18,
        -1.124629165430902e+21,
        -3.1258799229623045e+22,
        -1.8727367202463599e+24
      ],
      "denominator_coeffs": [
        1.0,
        604.2329870404368,
        1117013.3139248015,
        433989549.1757024,
        334462010695.5605,
        75952174024733.81,
        2.840607273934968e+16,
        3.152247113385751e+18,
        5.3078493933223385e+20,
        1.8631967205365658e+22,
        9.976978288037558e+23
      ]
    },
    {
      "output_index": 2,
      "symbolic": "-0.0731397941708565*s**2/(s**2 + 60.0*pi*s + 57600.0*pi**2) + 0.132560148835182*s**2/(s**2 + 56.6666666666667*pi*s + 28900.0*pi**2) - 0.848774373531342*s**2/(s**2 + 40.0*pi*s + 10000.0*pi**2) - 0.333252549171448*s**2/(s**2 + 25.0*pi*s + 2500.0*pi**2) - 0.475634723901749*s**2/(s**2 + 10.6666666666667*pi*s + 256.0*pi**2) - 174.555401802063*pi*s/(s**2 + 60.0*pi*s + 57600.0*pi**2) + 35.6680105129878*pi*s/(s**2 + 56.6666666666667*pi*s + 28900.0*pi**2) - 36.3248181343079*pi*s/(s**2 + 40.0*pi*s + 10000.0*pi**2) + 3.58621366322041*pi*s/(s**2 + 25.0*pi*s + 2500.0*pi**2) + 6.34079043070475*pi*s/(s**2 + 10.6666666666667*pi*s + 256.0*pi**2) + 0.0171098168939352 + 10407.8090250492*pi**2/(s**2 + 56.6666666666667*pi*s + 28900.0*pi**2) + 752.794444561005*pi**2/(s**2 + 40.0*pi*s + 10000.0*pi**2) - 8245.62549591064*pi**2/(s**2 + 25.0*pi*s + 2500.0*pi**2) - 39.3601875305176*pi**2/(s**2 + 10.6666666666667*pi*s + 256.0*pi**2)",
      "numerator_coeffs": [
        -1.581131475046277,
        -1335.6704871851152,
        -1788772.0925977249,
        -748588923.9309733,
        -466500826579.33496,
        -100942500791235.34,
        -3.693980479075689e+16,
        -4.035976523917216e+18,
        -1.4230147030558098e+21,
        -3.7099636014464272e+22,
        -2.992574553221591e+24
      ],
      "denominator_coeffs": [
        1.0,
        604.2329870404368,
        1117013.3139248015,
        433989549.1757024,
        334462010695.5605,
        75952174024733.81,
        2.840607273934968e+16,
        3.152247113385751e+18,
        5.3078493933223385e+20,
        1.8631967205365658e+22,
        9.976978288037558e+23
      ]
    },
    {
      "output_index": 3,
      "symbolic": "0.250789195299149*s**2/(s**2 + 60.0*pi*s + 57600.0*pi**2) + 0.611239314079285*s**2/(s**2 + 56.6666666666667*pi*s + 28900.0*pi**2) - 0.455222219228745*s**2/(s**2 + 40.0*pi*s + 10000.0*pi**2) - 0.481469333171844*s**2/(s**2 + 25.0*pi*s + 2500.0*pi**2) + 0.241798147559166*s**2/(s**2 + 10.6666666666667*pi*s + 256.0*pi**2) + 6.10586509108543*pi*s/(s**2 + 60.0*pi*s + 57600.0*pi**2) + 7.6476089656353*pi*s/(s**2 + 56.6666666666667*pi*s + 28900.0*pi**2) - 1.04389622807503*pi*s/(s**2 + 40.0*pi*s + 10000.0*pi**2) + 1.42802521586418*pi*s/(s**2 + 25.0*pi*s + 2500.0*pi**2) - 3.21782334645589*pi*s/(s**2 + 10.6666666666667*pi*s + 256.0*pi**2) - 0.00808364618569613 + 7814.41839337349*pi**2/(s**2 + 56.6666666666667*pi*s + 28900.0*pi**2) - 3757.88867473602*pi**2/(s**2 + 40.0*pi*s + 10000.0*pi**2) + 76.1464517563581*pi**2/(s**2 + 25.0*pi*s + 2500.0*pi**2) + 104.603370666504*pi**2/(s**2 + 10.6666666666667*pi*s + 256.0*pi**2)",
      "numerator_coeffs": [
        0.15905145835131407,
        61.23866513655211,
        -51401.259952051005,
        -22166569.390676696,
        -62744613080.112465,
        -5667883673856.752,
        -4229663230844715.0,
        -7451279427004316.0,
        4.43491977925905e+19,
        -2.854101328881265e+21,
        3.248385243175809e+23
      ],
      "denominator_coeffs": [
        1.0,
        604.2329870404368,
        1117013.3139248015,
        433989549.1757024,
        334462010695.5605,
        75952174024733.81,
        2.840607273934968e+16,
        3.152247113385751e+18,
        5.3078493933223385e+20,
        1.8631967205365658e+22,
        9.976978288037558e+23
      ]
    },
    {
      "output_index": 4,
      "symbolic": "-0.169907197356224*s**2/(s**2 + 60.0*pi*s + 57600.0*pi**2) + 0.31954362988472*s**2/(s**2 + 56.6666666666667*pi*s + 28900.0*pi**2) + 0.232278719544411*s**2/(s**2 + 40.0*pi*s + 10000.0*pi**2) - 0.192302852869034*s**2/(s**2 + 25.0*pi*s + 2500.0*pi**2) + 0.172132134437561*s**2/(s**2 + 10.6666666666667*pi*s + 256.0*pi**2) + 4.60953399538994*pi*s/(s**2 + 60.0*pi*s + 57600.0*pi**2) + 9.03571923573812*pi*s/(s**2 + 56.6666666666667*pi*s + 28900.0*pi**2) + 3.98079216480255*pi*s/(s**2 + 40.0*pi*s + 10000.0*pi**2) + 0.920394156128168*pi*s/(s**2 + 25.0*pi*s + 2500.0*pi**2) + 0.167424221833547*pi*s/(s**2 + 10.6666666666667*pi*s + 256.0*pi**2) - 0.0193268805742264 - 4737.1743157506*pi**2/(s**2 + 56.6666666666667*pi*s + 28900.0*pi**2) - 474.00563955307*pi**2/(s**2 + 40.0*pi*s + 10000.0*pi**2) + 439.942143857479*pi**2/(s**2 + 25.0*pi*s + 2500.0*pi**2) + 110.747230529785*pi**2/(s**2 + 10.6666666666667*pi*s + 256.0*pi**2)",
      "numerator_coeffs": [
        0.34241755306720734,
        220.97799069633547,
        328991.4891523423,
        119440203.79480252,
        39097410572.223404,
        7641026704263.683,
        -669302448214568.4,
        1.3806643402723664e+17,
        5.772411644418308e+19,
        1.4965124602605113e+21,
        3.7706963405343424e+23
      ],
      "denominator_coeffs": [
        1.0,
        604.2329870404368,
        1117013.3139248015,
        433989549.1757024,
        334462010695.5605,
        75952174024733.81,
        2.840607273934968e+16,
        3.152247113385751e+18,
        5.3078493933223385e+20,
        1.8631967205365658e+22,
        9.976978288037558e+23
      ]
    },
    {
      "output_index": 5,
      "symbolic": "0.171069905161858*s**2/(s**2 + 60.0*pi*s + 57600.0*pi**2) - 0.228058695793152*s**2/(s**2 + 56.6666666666667*pi*s + 28900.0*pi**2) + 0.14529837667942*s**2/(s**2 + 40.0*pi*s + 10000.0*pi**2) + 0.607502222061157*s**2/(s**2 + 25.0*pi*s + 2500.0*pi**2) - 0.37829327583313*s**2/(s**2 + 10.6666666666667*pi*s + 256.0*pi**2) + 4.5033372938633*pi*s/(s**2 + 60.0*pi*s + 57600.0*pi**2) + 9.66769034663836*pi*s/(s**2 + 56.6666666666667*pi*s + 28900.0*pi**2) + 7.98785030841827*pi*s/(s**2 + 40.0*pi*s + 10000.0*pi**2) + 11.5504905581474*pi*s/(s**2 + 25.0*pi*s + 2500.0*pi**2) - 1.18397498130798*pi*s/(s**2 + 10.6666666666667*pi*s + 256.0*pi**2) + 0.0553503222763538 - 1658.88485088944*pi**2/(s**2 + 56.6666666666667*pi*s + 28900.0*pi**2) + 239.323768764734*pi**2/(s**2 + 40.0*pi*s + 10000.0*pi**2) - 912.359952926636*pi**2/(s**2 + 25.0*pi*s + 2500.0*pi**2) + 108.655296325684*pi**2/(s**2 + 10.6666666666667*pi*s + 256.0*pi**2)",
      "numerator_coeffs": [
        0.3728688545525074,
        282.53999188758524,
        359082.3012143948,
        174438975.17561227,
        93455429888.64714,
        22251848248521.82,
        2522500905287010.5,
        6.893057745523148e+16,
        -2.2428993963265153e+20,
        -2.5525820171889263e+21,
        8.118527568456975e+22
      ],
      "denominator_coeffs": [
        1.0,
        604.2329870404368,
        1117013.3139248015,
        433989549.1757024,
        334462010695.5605,
        75952174024733.81,
        2.840607273934968e+16,
        3.152247113385751e+18,
        5.3078493933223385e+20,
        1.8631967205365658e+22,
        9.976978288037558e+23
      ]
    },
    {
      "output_index": 6,
      "symbolic": "0.219918623566628*s**2/(s**2 + 60.0*pi*s + 57600.0*pi**2) - 0.101102888584137*s**2/(s**2 + 56.6666666666667*pi*s + 28900.0*pi**2) + 0.116559833288193*s**2/(s**2 + 40.0*pi*s + 10000.0*pi**2) - 0.331990569829941*s**2/(s**2 + 25.0*pi*s + 2500.0*pi**2) + 0.115346863865852*s**2/(s**2 + 10.6666666666667*pi*s + 256.0*pi**2) + 17.7359944581985*pi*s/(s**2 + 60.0*pi*s + 57600.0*pi**2) + 8.01672115921974*pi*s/(s**2 + 56.6666666666667*pi*s + 28900.0*pi**2) + 12.0350956916809*pi*s/(s**2 + 40.0*pi*s + 10000.0*pi**2) + 2.11390350013971*pi*s/(s**2 + 25.0*pi*s + 2500.0*pi**2) + 8.46392631530762*pi*s/(s**2 + 10.6666666666667*pi*s + 256.0*pi**2) - 0.09590894728899 - 12627.0875394344*pi**2/(s**2 + 56.6666666666667*pi*s + 28900.0*pi**2) + 3246.00726366043*pi**2/(s**2 + 40.0*pi*s + 10000.0*pi**2) - 2047.96239733696*pi**2/(s**2 + 25.0*pi*s + 2500.0*pi**2) - 14.8924608230591*pi**2/(s**2 + 10.6666666666667*pi*s + 256.0*pi**2)",
      "numerator_coeffs": [
        -0.07717708498239517,
        89.41904410487993,
        -233353.74916426878,
        -2217335.904133254,
        -114965891025.64899,
        -9629456247851.215,
        -1.167407005898963e+16,
        -5.3654065637236256e+17,
        -3.753138274090056e+20,
        -5.659213326635293e+21,
        -1.0830910845011093e+24
      ],
      "denominator_coeffs": [
        1.0,
        604.2329870404368,
        1117013.3139248015,
        433989549.1757024,
        334462010695.5605,
        75952174024733.81,
        2.840607273934968e+16,
        3.152247113385751e+18,
        5.3078493933223385e+20,
        1.8631967205365658e+22,
        9.976978288037558e+23
      ]
    },
    {
      "output_index": 7,
      "symbolic": "-1.09525680541992*s**2/(s**2 + 60.0*pi*s + 57600.0*pi**2) - 0.122308105230331*s**2/(s**2 + 56.6666666666667*pi*s + 28900.0*pi**2) + 0.0367122925817966*s**2/(s**2 + 40.0*pi*s + 10000.0*pi**2) - 0.0532558746635914*s**2/(s**2 + 25.0*pi*s + 2500.0*pi**2) - 0.00178042042534798*s**2/(s**2 + 10.6666666666667*pi*s + 256.0*pi**2) - 67.0912456512451*pi*s/(s**2 + 60.0*pi*s + 57600.0*pi**2) + 25.2712786197662*pi*s/(s**2 + 56.6666666666667*pi*s + 28900.0*pi**2) - 14.711000919342*pi*s/(s**2 + 40.0*pi*s + 10000.0*pi**2) - 39.9991571903229*pi*s/(s**2 + 25.0*pi*s + 2500.0*pi**2) + 0.735736052195231*pi*s/(s**2 + 10.6666666666667*pi*s + 256.0*pi**2) - 0.110200241208076 + 8988.27349543571*pi**2/(s**2 + 56.6666666666667*pi*s + 28900.0*pi**2) + 2668.0052280426*pi**2/(s**2 + 40.0*pi*s + 10000.0*pi**2) - 1639.05501365662*pi**2/(s**2 + 25.0*pi*s + 2500.0*pi**2) + 70.8508071899414*pi**2/(s**2 + 10.6666666666667*pi*s + 256.0*pi**2)",
      "numerator_coeffs": [
        -1.3460891543654725,
        -886.4446820214431,
        -794322.8608809207,
        -368545687.15460473,
        -93333916564.31662,
        -46445219861488.76,
        -3321462322822677.5,
        -2.0977791416643282e+18,
        -1.2492458740599379e+20,
        -5.186872424968394e+21,
        8.854784275787193e+22
      ],
      "denominator_coeffs": [
        1.0,
        604.2329870404368,
        1117013.3139248015,
        433989549.1757024,
        334462010695.5605,
        75952174024733.81,
        2.840607273934968e+16,
        3.152247113385751e+18,
        5.3078493933223385e+20,
        1.8631967205365658e+22,
        9.976978288037558e+23
      ]
    },
    {
      "output_index": 8,
      "symbolic": "-0.209002330899239*s**2/(s**2 + 60.0*pi*s + 57600.0*pi**2) - 0.0078971479088068*s**2/(s**2 + 56.6666666666667*pi*s + 28900.0*pi**2) - 0.632542371749878*s**2/(s**2 + 40.0*pi*s + 10000.0*pi**2) + 0.0309180673211813*s**2/(s**2 + 25.0*pi*s + 2500.0*pi**2) - 0.185517743229866*s**2/(s**2 + 10.6666666666667*pi*s + 256.0*pi**2) + 36.997983455658*pi*s/(s**2 + 60.0*pi*s + 57600.0*pi**2) - 48.2820365826289*pi*s/(s**2 + 56.6666666666667*pi*s + 28900.0*pi**2) + 28.9313364028931*pi*s/(s**2 + 40.0*pi*s + 10000.0*pi**2) + 3.00210081040859*pi*s/(s**2 + 25.0*pi*s + 2500.0*pi**2) + 3.35219256083171*pi*s/(s**2 + 10.6666666666667*pi*s + 256.0*pi**2) - 0.00100102019496262 - 97427.0967721939*pi**2/(s**2 + 56.6666666666667*pi*s + 28900.0*pi**2) - 2300.27303099632*pi**2/(s**2 + 40.0*pi*s + 10000.0*pi**2) - 3459.77932214737*pi**2/(s**2 + 25.0*pi*s + 2500.0*pi**2) - 0.676826298236847*pi**2/(s**2 + 10.6666666666667*pi*s + 256.0*pi**2)",
      "numerator_coeffs": [
        -1.0050425466615707,
        -407.7987147476129,
        -1862436.5752943926,
        -646193222.2383399,
        -958938455326.8085,
        -198417389697651.62,
        -1.0336217417648725e+17,
        -1.118987937426575e+19,
        -2.505814515391445e+21,
        -8.099698009442284e+22,
        -4.977278735837853e+24
      ],
      "denominator_coeffs": [
        1.0,
        604.2329870404368,
        1117013.3139248015,
        433989549.1757024,
        334462010695.5605,
        75952174024733.81,
        2.840607273934968e+16,
        3.152247113385751e+18,
        5.3078493933223385e+20,
        1.8631967205365658e+22,
        9.976978288037558e+23
      ]
    },
    {
      "output_index": 9,
      "symbolic": "0.426983803510666*s**2/(s**2 + 60.0*pi*s + 57600.0*pi**2) - 0.192635908722878*s**2/(s**2 + 56.6666666666667*pi*s + 28900.0*pi**2) - 0.339725464582443*s**2/(s**2 + 40.0*pi*s + 10000.0*pi**2) - 0.575208783149719*s**2/(s**2 + 25.0*pi*s + 2500.0*pi**2) - 0.288283437490463*s**2/(s**2 + 10.6666666666667*pi*s + 256.0*pi**2) - 8.13491553068161*pi*s/(s**2 + 60.0*pi*s + 57600.0*pi**2) + 11.2561064461867*pi*s/(s**2 + 56.6666666666667*pi*s + 28900.0*pi**2) + 6.82259738445282*pi*s/(s**2 + 40.0*pi*s + 10000.0*pi**2) + 4.90317307412624*pi*s/(s**2 + 25.0*pi*s + 2500.0*pi**2) - 1.76894950866699*pi*s/(s**2 + 10.6666666666667*pi*s + 256.0*pi**2) - 0.0210862290114164 - 503.018430061638*pi**2/(s**2 + 56.6666666666667*pi*s + 28900.0*pi**2) - 8911.58759593964*pi**2/(s**2 + 40.0*pi*s + 10000.0*pi**2) - 1235.26632785797*pi**2/(s**2 + 25.0*pi*s + 2500.0*pi**2) + 38.0330505371094*pi**2/(s**2 + 10.6666666666667*pi*s + 256.0*pi**2)",
      "numerator_coeffs": [
        -0.9899560194462538,
        -505.7406888168923,
        -1299388.4060181351,
        -401198323.55528796,
        -416246095221.33405,
        -73393263841552.9,
        -4.073554892771946e+16,
        -3.4832271971217833e+18,
        -8.10403304568578e+20,
        -2.4289222094504015e+22,
        -1.272254691492812e+24
      ],
      "denominator_coeffs": [
        1.0,
        604.2329870404368,
        1117013.3139248015,
        433989549.1757024,
        334462010695.5605,
        75952174024733.81,
        2.840607273934968e+16,
        3.152247113385751e+18,
        5.3078493933223385e+20,
        1.8631967205365658e+22,
        9.976978288037558e+23
      ]
    },
    {
      "output_index": 10,
      "symbolic": "-0.303461670875549*s**2/(s**2 + 60.0*pi*s + 57600.0*pi**2) - 0.407411962747574*s**2/(s**2 + 56.6666666666667*pi*s + 28900.0*pi**2) + 0.460221230983734*s**2/(s**2 + 40.0*pi*s + 10000.0*pi**2) + 0.269465565681458*s**2/(s**2 + 25.0*pi*s + 2500.0*pi**2) + 0.296383321285248*s**2/(s**2 + 10.6666666666667*pi*s + 256.0*pi**2) + 3.57326187193394*pi*s/(s**2 + 60.0*pi*s + 57600.0*pi**2) - 15.2629821499189*pi*s/(s**2 + 56.6666666666667*pi*s + 28900.0*pi**2) + 7.78862118721008*pi*s/(s**2 + 40.0*pi*s + 10000.0*pi**2) + 1.81016586720943*pi*s/(s**2 + 25.0*pi*s + 2500.0*pi**2) - 3.71504338582357*pi*s/(s**2 + 10.6666666666667*pi*s + 256.0*pi**2) - 0.338615119457245 - 840.910409577191*pi**2/(s**2 + 56.6666666666667*pi*s + 28900.0*pi**2) - 879.480764269829*pi**2/(s**2 + 40.0*pi*s + 10000.0*pi**2) - 530.514605343342*pi**2/(s**2 + 25.0*pi*s + 2500.0*pi**2) - 37.6735572814941*pi**2/(s**2 + 10.6666666666667*pi*s + 256.0*pi**2)",
      "numerator_coeffs": [
        -0.02341863512992859,
        8.411007689770312,
        189646.1693449855,
        53621070.80374636,
        78441207535.3368,
        4548854700876.988,
        -378396879242007.4,
        -9.162451430946118e+17,
        -2.3078940776467585e+20,
        -1.6713890226298272e+22,
        -8.13152281751995e+23
      ],
      "denominator_coeffs": [
        1.0,
        604.2329870404368,
        1117013.3139248015,
        433989549.1757024,
        334462010695.5605,
        75952174024733.81,
        2.840607273934968e+16,
        3.152247113385751e+18,
        5.3078493933223385e+20,
        1.8631967205365658e+22,
        9.976978288037558e+23
      ]
    },
    {
      "output_index": 11,
      "symbolic": "0.386593341827393*s**2/(s**2 + 60.0*pi*s + 57600.0*pi**2) - 0.34363916516304*s**2/(s**2 + 56.6666666666667*pi*s + 28900.0*pi**2) - 0.0316276922821999*s**2/(s**2 + 40.0*pi*s + 10000.0*pi**2) - 0.15683925151825*s**2/(s**2 + 25.0*pi*s + 2500.0*pi**2) + 0.0271017346531153*s**2/(s**2 + 10.6666666666667*pi*s + 256.0*pi**2) + 11.9888582825661*pi*s/(s**2 + 60.0*pi*s + 57600.0*pi**2) + 27.9205842812856*pi*s/(s**2 + 56.6666666666667*pi*s + 28900.0*pi**2) + 3.85089844465256*pi*s/(s**2 + 40.0*pi*s + 10000.0*pi**2) - 3.74905727803707*pi*s/(s**2 + 25.0*pi*s + 2500.0*pi**2) + 8.74599329630534*pi*s/(s**2 + 10.6666666666667*pi*s + 256.0*pi**2) - 0.0227806903421879 - 11250.3683149815*pi**2/(s**2 + 56.6666666666667*pi*s + 28900.0*pi**2) + 3481.51922225952*pi**2/(s**2 + 40.0*pi*s + 10000.0*pi**2) + 160.736348479986*pi**2/(s**2 + 25.0*pi*s + 2500.0*pi**2) + 29.823844909668*pi**2/(s**2 + 10.6666666666667*pi*s + 256.0*pi**2)",
      "numerator_coeffs": [
        -0.14119172282516956,
        71.55194560766492,
        -275381.6430873229,
        3806425.892940556,
        -80874044153.50412,
        -1810088591431.987,
        -2670985198201801.0,
        4.452059090037295e+17,
        6.0187738163705225e+19,
        1.1100766065751226e+22,
        1.1660998897379638e+23
      ],
      "denominator_coeffs": [
        1.0,
        604.2329870404368,
        1117013.3139248015,
        433989549.1757024,
        334462010695.5605,
        75952174024733.81,
        2.840607273934968e+16,
        3.152247113385751e+18,
        5.3078493933223385e+20,
        1.8631967205365658e+22,
        9.976978288037558e+23
      ]
    },
    {
      "output_index": 12,
      "symbolic": "-1.68531501293182*s**2/(s**2 + 60.0*pi*s + 57600.0*pi**2) + 0.120119728147984*s**2/(s**2 + 56.6666666666667*pi*s + 28900.0*pi**2) - 0.296922951936722*s**2/(s**2 + 40.0*pi*s + 10000.0*pi**2) - 0.0814144536852837*s**2/(s**2 + 25.0*pi*s + 2500.0*pi**2) - 0.0147980786859989*s**2/(s**2 + 10.6666666666667*pi*s + 256.0*pi**2) + 29.7287678718567*pi*s/(s**2 + 60.0*pi*s + 57600.0*pi**2) + 0.471233613789082*pi*s/(s**2 + 56.6666666666667*pi*s + 28900.0*pi**2) - 125.549821853638*pi*s/(s**2 + 40.0*pi*s + 10000.0*pi**2) + 0.281380582600832*pi*s/(s**2 + 25.0*pi*s + 2500.0*pi**2) - 12.3420346577962*pi*s/(s**2 + 10.6666666666667*pi*s + 256.0*pi**2) - 0.224872961640358 - 22525.9981811047*pi**2/(s**2 + 56.6666666666667*pi*s + 28900.0*pi**2) + 5864.99154567719*pi**2/(s**2 + 40.0*pi*s + 10000.0*pi**2) - 420.383885502815*pi**2/(s**2 + 25.0*pi*s + 2500.0*pi**2) + 14.6539916992188*pi**2/(s**2 + 10.6666666666667*pi*s + 256.0*pi**2)",
      "numerator_coeffs": [
        -2.1832037307322025,
        -1316.1108144334648,
        -1678446.333701231,
        -816063821.7945395,
        -458735434260.432,
        -150848335405163.8,
        -3.0923960182355084e+16,
        -4.727888721884411e+18,
        -4.629461889186615e+20,
        -2.942748914890602e+22,
        -5.275142795901763e+23
      ],
      "denominator_coeffs": [
        1.0,
        604.2329870404368,
        1117013.3139248015,
        433989549.1757024,
        334462010695.5605,
        75952174024733.81,
        2.840607273934968e+16,
        3.152247113385751e+18,
        5.3078493933223385e+20,
        1.8631967205365658e+22,
        9.976978288037558e+23
      ]
    },
    {
      "output_index": 13,
      "symbolic": "-0.380676180124283*s**2/(s**2 + 60.0*pi*s + 57600.0*pi**2) - 0.743204712867737*s**2/(s**2 + 56.6666666666667*pi*s + 28900.0*pi**2) + 0.00789029896259308*s**2/(s**2 + 40.0*pi*s + 10000.0*pi**2) + 0.382405370473862*s**2/(s**2 + 25.0*pi*s + 2500.0*pi**2) - 0.359514594078064*s**2/(s**2 + 10.6666666666667*pi*s + 256.0*pi**2) + 3.64681385457516*pi*s/(s**2 + 60.0*pi*s + 57600.0*pi**2) - 20.4923645655314*pi*s/(s**2 + 56.6666666666667*pi*s + 28900.0*pi**2) - 7.14833319187164*pi*s/(s**2 + 40.0*pi*s + 10000.0*pi**2) - 1.30025018006563*pi*s/(s**2 + 25.0*pi*s + 2500.0*pi**2) - 0.510068933169047*pi*s/(s**2 + 10.6666666666667*pi*s + 256.0*pi**2) + 0.0252827927470207 + 2487.50894591212*pi**2/(s**2 + 56.6666666666667*pi*s + 28900.0*pi**2) + 2851.18997097015*pi**2/(s**2 + 40.0*pi*s + 10000.0*pi**2) + 1002.02783942223*pi**2/(s**2 + 25.0*pi*s + 2500.0*pi**2) + 33.184139251709*pi**2/(s**2 + 10.6666666666667*pi*s + 256.0*pi**2)",
      "numerator_coeffs": [
        -1.0678170248866081,
        -541.1909514177322,
        -670417.9575933876,
        -215015522.1590842,
        -41055116392.252884,
        -8840874755576.967,
        6206987561534088.0,
        5.363336897905075e+17,
        2.418237484892783e+20,
        1.2636232851079387e+22,
        9.247775346452783e+23
      ],
      "denominator_coeffs": [
        1.0,
        604.2329870404368,
        1117013.3139248015,
        433989549.1757024,
        334462010695.5605,
        75952174024733.81,
        2.840607273934968e+16,
        3.152247113385751e+18,
        5.3078493933223385e+20,
        1.8631967205365658e+22,
        9.976978288037558e+23
      ]
    }
  ],
  "frequency_response": {
    "frequencies": [
      2.0,
      2.0110845797634256,
      2.0222305934811167,
      2.033438381637857,
      2.0447082866054953,
      2.0560406526534027,
      2.067435825958994,
      2.078894154618297,
      2.0904159886565896,
      2.1020016800390917,
      2.1136515826817153,
      2.1253660524618785,
      2.1371454472293734,
      2.148990126817301,
      2.1609004530530616,
      2.172876789769406,
      2.1849195028155535,
      2.197028960068365,
      2.209205531443582,
      2.221449588907125,
      2.23376150648646,
      2.2461416602820194,
      2.2585904284786937,
      2.2711081913573845,
      2.2836953313066197,
      2.296352232834235,
      2.3090792825791207,
      2.321876869323031,
      2.334745384002463,
      2.3476852197205953,
      2.3606967717592995,
      2.373780437591213,
      2.3869366168918824,
      2.400165711551972,
      2.41346812568954,
      2.426844265662386,
      2.4402945400804588,
      2.4538193598183455,
      2.4674191380278176,
      2.481094290150454,
      2.49484523393033,
      2.508672389426781,
      2.5225761790272334,
      2.5365570274601055,
      2.550615361807785,
      2.5647516115196733,
      2.5789662084253053,
      2.59325958674754,
      2.6076321831158253,
      2.622084436579537,
      2.636616788621388,
      2.651229683170918,
      2.6659235666180527,
      2.6806988878267397,
      2.6955560981486606,
      2.710495651437019,
      2.725518004060404,
      2.7406236149167342,
      2.755812945447271,
      2.771086459650716,
      2.7864446240973892,
      2.8018879079434766,
      2.8174167829453656,
      2.8330317234740514,
      2.8487332065296327,
      2.8645217117558808,
      2.880397721454892,
      2.89636172060182,
      2.9124141968596917,
      2.928555640594303,
      2.944786544889202,
      2.961107405560745,
      2.9775187211732494,
      2.994020993054218,
      3.010614725309658,
      3.027300424839477,
      3.0440786013529695,
      3.0609497673843866,
      3.077914438308592,
      3.094973132356807,
      3.112126370632441,
      3.1293746771270086,
      3.146718578736138,
      3.1641586052756643,
      3.181695289497818,
      3.1993291671074946,
      3.2170607767786237,
      3.2348906601706187,
      3.252819361944929,
      3.2708474297816754,
      3.2889754143963805,
      3.3072038695567922,
      3.325533352099798,
      3.3439644219484386,
      3.3624976421290107,
      3.381133578788265,
      3.399872801210703,
      3.418715881835963,
      3.4376633962763132,
      3.4567159233342304,
      3.47587404502008,
      3.4951383465699033,
      3.5145094164632837,
      3.533987846441332,
      3.5535742315247605,
      3.573269170032054,
      3.5930732635977596,
      3.61298711719085,
      3.633011339133215,
      3.6531465411182413,
      3.6733933382294937,
      3.693752348959515,
      3.7142241952287054,
      3.734809502404334,
      3.755508899319635,
      3.776323018293016,
      3.7972524951473803,
      3.818297969229544,
      3.8394600834297687,
      3.8607394842014022,
      3.8821368215806205,
      3.903652749206291,
      3.925287924339937,
      3.947043007885815,
      3.9689186644111065,
      3.990915562166213,
      4.013034373105176,
      4.035275772906203,
      4.057640440992301,
      4.080129060552042,
      4.102742318560421,
      4.1254809057998525,
      4.1483455168812675,
      4.171336850265326,
      4.194455608283768,
      4.217702497160851,
      4.24107822703494,
      4.264583511980189,
      4.2882190700283545,
      4.311985623190742,
      4.335883897480242,
      4.359914622933528,
      4.384078533633344,
      4.408376367730933,
      4.432808867468591,
      4.457376779202328,
      4.482080853424683,
      4.506921844787637,
      4.531900512125673,
      4.557017618478956,
      4.582273931116639,
      4.607670221560302,
      4.633207265607526,
      4.658885843355581,
      4.684706739225264,
      4.710670741984864,
      4.736778644774247,
      4.763031245129093,
      4.789429345005253,
      4.815973750803254,
      4.842665273392925,
      4.869504728138171,
      4.896492934921885,
      4.92363071817098,
      4.950918906881589,
      4.97835833464438,
      5.005949839670018,
      5.033694264814784,
      5.061592457606302,
      5.089645270269447,
      5.117853559752369,
      5.1462181877526705,
      5.17474002074374,
      5.203419930001202,
      5.232258791629549,
      5.261257486588901,
      5.290416900721906,
      5.319737924780821,
      5.349221454454697,
      5.378868390396762,
      5.408679638251923,
      5.43865610868443,
      5.468798717405709,
      5.49910838520231,
      5.529586037964058,
      5.5602326067123276,
      5.591049027628476,
      5.622036242082463,
      5.653195196661579,
      5.684526843199382,
      5.716032138804772,
      5.747712045891214,
      5.779567532206156,
      5.811599570860577,
      5.843809140358723,
      5.876197224627995,
      5.9087648130489985,
      5.9415129004857805,
      5.974442487316209,
      6.007554579462535,
      6.040850188422128,
      6.074330331298363,
      6.107996030831698,
      6.141848315430919,
      6.175888219204545,
      6.210116781992432,
      6.2445350493975225,
      6.2791440728177985,
      6.313944909478395,
      6.348938622463887,
      6.384126280750785,
      6.419508959240168,
      6.455087738790526,
      6.490863706250795,
      6.526837954493523,
      6.563011582448293,
      6.59938569513526,
      6.635961403698926,
      6.672739825442084,
      6.709722083859932,
      6.7469093086744145,
      6.784302635868715,
      6.821903207721966,
      6.859712172844148,
      6.897730686211162,
      6.935959909200131,
      6.974401009624858,
      7.013055161771506,
      7.051923546434487,
      7.0910073509525,
      7.130307769244837,
      7.169826001847822,
      7.209563255951501,
      7.249520745436531,
      7.289699690911228,
      7.330101319748891,
      7.370726866125266,
      7.411577571056259,
      7.452654682435854,
      7.493959455074215,
      7.53549315073604,
      7.577257038179082,
      7.619252393192916,
      7.661480498637926,
      7.703942644484464,
      7.746640127852287,
      7.789574253050154,
      7.832746331615682,
      7.876157682355419,
      7.919809631385114,
      7.963703512170228,
      8.007840665566691,
      8.052222439861827,
      8.096850190815575,
      8.141725281701877,
      8.186849083350335,
      8.2322229741881,
      8.277848340281942,
      8.323726575380642,
      8.369859080957518,
      8.416247266253269,
      8.462892548319019,
      8.509796352059587,
      8.556960110277045,
      8.604385263714454,
      8.652073261099893,
      8.700025559190728,
      8.74824362281807,
      8.796728924931573,
      8.845482946644394,
      8.89450717727844,
      8.943803114409894,
      8.993372263914916,
      9.043216140015689,
      9.093336265326641,
      9.14373417090097,
      9.194411396277427,
      9.245369489527317,
      9.296610007301823,
      9.348134514879522,
      9.399944586214225,
      9.452041803983063,
      9.504427759634801,
      9.557104053438497,
      9.610072294532348,
      9.66333410097286,
      9.716891099784291,
      9.770744927008334,
      9.824897227754084,
      9.879349656248335,
      9.93410387588606,
      9.989161559281268,
      10.044524388318068,
      10.100194054202058,
      10.156172257511999,
      10.212460708251736,
      10.269061125902471,
      10.325975239475252,
      10.383204787563809,
      10.440751518397677,
      10.498617189895565,
      10.556803569719102,
      10.615312435326787,
      10.674145574028314,
      10.733304783039182,
      10.792791869535556,
      10.852608650709517,
      10.912756953824536,
      10.973238616271304,
      11.034055485623886,
      11.095209419696113,
      11.15670228659838,
      11.218535964794679,
      11.280712343159987,
      11.343233321037998,
      11.406100808299088,
      11.469316725398723,
      11.532883003436062,
      11.596801584212978,
      11.661074420293394,
      11.725703475062888,
      11.790690722788689,
      11.856038148680009,
      11.921747748948633,
      11.987821530869965,
      12.054261512844286,
      12.121069724458438,
      12.188248206547842,
      12.255799011258793,
      12.3237242021112,
      12.39202585406158,
      12.460706053566465,
      12.529766898646146,
      12.599210498948729,
      12.669038975814622,
      12.739254462341307,
      12.8098591034485,
      12.880855055943712,
      12.952244488588073,
      13.024029582162648,
      13.096212529534998,
      13.168795535726195,
      13.241780817978198,
      13.315170605821532,
      13.388967141143457,
      13.463172678256404,
      13.537789483966852,
      13.6128198376446,
      13.688266031292352,
      13.76413036961578,
      13.840415170093879,
      13.91712276304979,
      13.994255491721997,
      14.071815712335866,
      14.149805794175675,
      14.228228119656938,
      14.307085084399208,
      14.386379097299281,
      14.46611258060473,
      14.546287969987928,
      14.626907714620474,
      14.707974277247956,
      14.789490134265243,
      14.871457775792074,
      14.95387970574916,
      15.036758441934687,
      15.120096516101174,
      15.203896474032886,
      15.288160875623529,
      15.37289229495449,
      15.458093320373479,
      15.543766554573551,
      15.629914614672671,
      15.71654013229361,
      15.803645753644348,
      15.891234139598946,
      15.97930796577877,
      16.06786992263428,
      16.156922715527177,
      16.246469064813052,
      16.336511705924526,
      16.42705338945475,
      16.518096881241483,
      16.60964496245154,
      16.701700429665774,
      16.79426609496451,
      16.88734478601342,
      16.98093934614994,
      17.075052634470087,
      17.169687525915815,
      17.264846911362874,
      17.360533697709034,
      17.456750807962983,
      17.55350118133354,
      17.650787773319472,
      17.748613555799803,
      17.846981517124544,
      17.945894662206012,
      18.045356012610643,
      18.145368606651235,
      18.24593549947983,
      18.347059763180983,
      18.448744486865635,
      18.550992776765497,
      18.653807756327886,
      18.7571925663112,
      18.861150364880807,
      18.965684327705542,
      19.070797648054747,
      19.176493536895745,
      19.28277522299202,
      19.38964595300175,
      19.497108991577058,
      19.605167621463732,
      19.713825143601447,
      19.823084877224687,
      19.932950159964065,
      20.043424347948314,
      20.154510815906825,
      20.2662129572727,
      20.378534184286423,
      20.49147792810013,
      20.605047638882386,
      20.719246785923566,
      20.834078857741904,
      20.949547362189968,
      21.065655826561898,
      21.1824077977011,
      21.299806842108605,
      21.417856546052064,
      21.536560515675216,
      21.65592237710814,
      21.77594577657795,
      21.896634380520194,
      22.01799187569092,
      22.14002196927919,
      22.262728389020427,
      22.386114883310217,
      22.51018522131884,
      22.63494319310644,
      22.76039260973873,
      22.886537303403497,
      23.013381127527598,
      23.140927956894686,
      23.26918168776363,
      23.39814623798745,
      23.527825547133087,
      23.65822357660167,
      23.789344309749563,
      23.92119175201007,
      24.05376993101574,
      24.18708289672146,
      24.32113472152811,
      24.455929500407002,
      24.591471351024992,
      24.7277644138702,
      24.864812852378574,
      25.002620853060996,
      25.14119262563121,
      25.28053240313444,
      25.42064444207665,
      25.56153302255458,
      25.703202448386556,
      25.845657047243854,
      25.988901170783016,
      26.132939194778686,
      26.277775519257315,
      26.423414568631618,
      26.569860791835637,
      26.71711866246075,
      26.865192678892228,
      27.01408736444671,
      27.163807267510393,
      27.314356961677902,
      27.465741045892102,
      27.617964144584498,
      27.771030907816527,
      27.924946011421657,
      28.079714157148125,
      28.23534007280268,
      28.391828512394895,
      28.549184256282455,
      28.707412111317208,
      28.866516910991912,
      29.026503515587997,
      29.187376812323947,
      29.34914171550462,
      29.511803166671417,
      29.675366134753148,
      29.83983561621792,
      30.00521663522566,
      30.17151424378166,
      30.33873352189093,
      30.506879577713278,
      30.67595754771947,
      30.845972596848053,
      31.01692991866314,
      31.18883473551315,
      31.3616922986902,
      31.53550788859061,
      31.710286814876223,
      31.886034416636512,
      32.062756062551784,
      32.2404571510571,
      32.419143110507186,
      32.598819399342354,
      32.7794915062551,
      32.96116495035791,
      33.14384528135175,
      33.32753807969563,
      33.51224895677713,
      33.6979835550837,
      33.884747548375174,
      34.07254664185693,
      34.26138657235427,
      34.45127310848768,
      34.64221205084897,
      34.834209232178544,
      35.02727051754351,
      35.2214018045169,
      35.41660902335782,
      35.612898137192545,
      35.81027514219678,
      36.00874606777873,
      36.208316976763335,
      36.40899396557751,
      36.610783164436256,
      36.813690737530095,
      37.01772288321322,
      37.22288583419289,
      37.42918585771989,
      37.63662925577988,
      37.845222365285956,
      38.05497155827226,
      38.26588324208852,
      38.47796385959596,
      38.691219889363914,
      38.90565784586784,
      39.12128427968838,
      39.3381057777113,
      39.55612896332886,
      39.77536049664205,
      39.99580707466405,
      40.2174754315249,
      40.440372338677065,
      40.664504605102415,
      40.88987907752015,
      41.11650264059593,
      41.34438221715233,
      41.5735247683801,
      41.80393729405104,
      42.03562683273162,
      42.26860046199811,
      42.50286529865281,
      42.73842849894132,
      42.97529725877131,
      43.213478813932205,
      43.45298044031626,
      43.69380945414089,
      43.93597321217205,
      44.17947911194908,
      44.42433459201059,
      44.67054713212169,
      44.91812425350263,
      45.16707351905832,
      45.41740253360958,
      45.669118944125294,
      45.92223043995604,
      46.176744753069094,
      46.432669658284475,
      46.69001297351248,
      46.94878255999262,
      47.20898632253359,
      47.47063220975489,
      47.73372821432953,
      47.99828237322822,
      48.26430276796496,
      48.53179752484376,
      48.80077481520704,
      49.07124285568512,
      49.343209908447236,
      49.61668428145406,
      49.89167432871128,
      50.168188450525015,
      50.44623509375823,
      50.72582275208885,
      51.00695996626932,
      51.28965532438728,
      51.57391746212818,
      51.85975506303883,
      52.1471768587928,
      52.43619162945718,
      52.726808203760655,
      53.01903545936337,
      53.31288232312799,
      53.608357771392384,
      53.90547083024402,
      54.20423057579542,
      54.50464613446169,
      54.80672668323906,
      55.11048144998536,
      55.41591971370194,
      55.72305080481698,
      56.03188410547069,
      56.34242904980175,
      56.65469512423557,
      56.968691867774155,
      57.28442887228734,
      57.6019157828059,
      57.92116229781622,
      58.24217816955643,
      58.564973204314484,
      58.88955726272755,
      59.215940260083286,
      59.544132166622866,
      59.874143007845284,
      60.2059828648139,
      60.539661874464144,
      60.87519022991327,
      61.21257818077187,
      61.551836033456695,
      61.892974151505776,
      62.23600295589479,
      62.58093292535547,
      62.927774596695826,
      63.27653856512177,
      63.62723548456106,
      63.97987606798851,
      64.33447108775334,
      64.69103137590835,
      65.04956782454059,
      65.41009138610434,
      65.77261307375547,
      66.13714396168793,
      66.50369518547218,
      66.87227794239512,
      67.24290349180235,
      67.61558315544197,
      67.99032831781045,
      68.3671504265006,
      68.74606099255094,
      69.12707159079754,
      69.51019386022766,
      69.89543950433507,
      70.28282029147782,
      70.67234805523753,
      71.06403469478093,
      71.45789217522352,
      71.85393252799476,
      72.25216785120594,
      72.65261031001951,
      73.05527213702072,
      73.46016563259153,
      73.86730316528595,
      74.27669717220834,
      74.68836015939293,
      75.10230470218602,
      75.51854344563027,
      75.93708910485064,
      76.3579544654432,
      76.78115238386532,
      77.20669578782864,
      77.63459767669401,
      78.06487112186836,
      78.49752926720431,
      78.9325853294014,
      79.37005259840996,
      79.80994443783715,
      80.252274285355,
      80.69705565311118,
      81.14430212814145,
      81.59402737278486,
      82.04624512510125,
      82.5009691992906,
      82.95821348611534,
      83.41799195332442,
      83.8803186460801,
      84.34520768738713,
      84.8126732785239,
      85.28272969947645,
      85.75539130937472,
      86.23067254693096,
      86.70858793088111,
      87.18915206042806,
      87.67237961568765,
      88.15828535813738,
      88.6468841310669,
      89.13819086003188,
      89.63222055330964,
      90.12898830235767,
      90.62850928227485,
      91.13079875226468,
      91.63587205610177,
      92.14374462260025,
      92.65443196608518,
      93.16794968686668,
      93.68431347171608,
      94.2035390943456,
      94.72564241588974,
      95.25063938539004,
      95.77854604028238,
      96.30937850688656,
      96.84315300089933,
      97.3798858278894,
      97.91959338379563,
      98.46229215542807,
      99.00799872097133,
      99.55672975049121,
      100.10850200644374,
      100.6633323441875,
      101.2212377124982,
      101.78223515408652,
      102.34634180611914,
      102.91357490074154,
      103.48395176560481,
      104.057489824395,
      104.63420659736519,
      105.21411970187073,
      105.79724685290773,
      106.3836058636537,
      106.97321464601195,
      107.56609121115886,
      108.16225367009376,
      108.7617202341928,
      109.36450921576446,
      109.97063902860948,
      110.58012818858326,
      111.19299531416125,
      111.80925912700827,
      112.42893845254972,
      113.05205222054701,
      113.67861946567584,
      114.30865932810742,
      114.94219105409377,
      115.57923399655479,
      116.21980761567002,
      116.86393147947298,
      117.51162526444874,
      118.16290875613554,
      118.81780184972844,
      119.47632455068755,
      120.13849697534909,
      120.80433935153964,
      121.4738720191947,
      122.14711543097917,
      122.8240901529127,
      123.50481686499779,
      124.18931636185135,
      124.87760955334049,
      125.56971746522046,
      126.26566123977751,
      126.96546213647453,
      127.66914153260039,
      128.3767209239235,
      129.08822192534765,
      129.8036662715728,
      130.523075817759,
      131.24647254019368,
      131.9738785369637,
      132.70531602862954,
      133.44080735890452,
      134.1803749953374,
      134.92404152999836,
      135.67182968016988,
      136.4237622890398,
      137.17986232639953,
      137.9401528893459,
      138.70465720298634,
      139.4733986211489,
      140.246400627095,
      141.02368683423722,
      141.80528098686045,
      142.59120696084724,
      143.3814887644076,
      144.1761505388115,
      144.9752165591271,
      145.7787112349619,
      146.5866591112084,
      147.39908486879457,
      148.21601332543665,
      149.03746943639803,
      149.8634782952515,
      150.6940651346454,
      151.52925532707536,
      152.36907438565808,
      153.2135479649117,
      154.06270186153895,
      154.91656201521553,
      155.77515450938205,
      156.63850557204168,
      157.50664157656024,
      158.3795890424726,
      159.25737463629255,
      160.14002517232728,
      161.02756761349713,
      161.92002907215826,
      162.81743681093153,
      163.7198182435352,
      164.62720093562206,
      165.53961260562227,
      166.4570811255891,
      167.37963452205094,
      168.3073009768673,
      169.24010882808963,
      170.17808657082756,
      171.1212628581183,
      172.0696665018028,
      173.02332647340546,
      173.98227190501916,
      174.94653209019577,
      175.91613648484005,
      176.89111470811,
      177.87149654332168,
      178.8573119388587,
      179.8485910090878,
      180.8453640352778,
      181.8476614665252,
      182.8555139206843,
      183.86895218530213,
      184.8880072185599,
      185.9127101502174,
      186.94309228256478,
      187.97918509137855,
      189.02102022688297,
      190.0686295147175,
      191.12204495690793,
      192.1812987328449,
      193.2464232002664,
      194.31745089624624,
      195.39441453818876,
      196.477347024827,
      197.5662814372285,
      198.6612510398057,
      199.76228928133185,
      200.86942979596358,
      201.9827064042672,
      203.10215311425256,
      204.2278041224118,
      205.3596938147639,
      206.49785676790492,
      207.64232775006508,
      208.7931417221696,
      209.95033383890743,
      211.11393944980506,
      212.28399410030627,
      213.4605335328578,
      214.643593688002,
      215.83321070547353,
      217.0294209253041,
      218.23226088893242,
      219.44176734032027,
      220.65797722707572,
      221.8809277015806,
      223.11065612212613,
      224.34720005405413,
      225.5905972709041,
      226.84088575556822,
      228.09810370145013,
      229.3622895136326,
      230.6334818100505,
      231.91171942267033,
      233.19704139867724,
      234.48948700166653,
      235.78909571284393,
      237.09590723223147,
      238.40996147987997,
      239.73129859708948,
      241.05995894763404,
      242.39598311899564,
      243.7394119236039,
      245.0902864000825,
      246.44864781450383,
      247.814537661648,
      249.1879976662715,
      250.56906978438158,
      251.95779620451754,
      253.35421934904053,
      254.758381875428,
      256.17032667757775,
      257.59009688711797,
      259.0177358747246,
      260.4532872514473,
      261.8967948700399,
      263.34830282630116,
      264.80785546042165,
      266.27549735833776,
      267.751273353095,
      269.23522852621556,
      270.7274082090771,
      272.22785798429663,
      273.73662368712314,
      275.25375140683855,
      276.7792874881642,
      278.31327853267754,
      279.85577140023554,
      281.4068132104058,
      282.9664513439069,
      284.53473344405444,
      286.1117074182173,
      287.6974214392809,
      289.29192394711845,
      290.89526365007185,
      292.50748952643784,
      294.12865082596545,
      295.7587970713601,
      297.397978059796,
      299.0462438644387,
      300.70364483597285,
      302.37023160414145,
      304.0460550792923,
      305.73116645393264,
      307.4256172042946,
      309.1294590919053,
      310.8427441651698,
      312.5655247609603,
      314.29785350621523,
      316.03978331954653,
      317.7913674128572,
      319.5526592929652,
      321.32371276323903,
      323.1045819252412,
      324.8953211803802,
      326.6959852315741,
      328.5066290849193,
      330.32730805137226,
      332.15807774843887,
      333.99899410187294,
      335.850113347386,
      337.7114920323634,
      339.58318701759254,
      341.465255479,
      343.35775490939744,
      345.26074312023945,
      347.17427824338745,
      349.0984187328868,
      351.033223366752,
      352.9787512487623,
      354.935061810268,
      356.90221481200416,
      358.8802703459177,
      360.8692888370023,
      362.8693310451442,
      364.8804580669796,
      366.902731337759,
      368.9362126332251,
      370.9809640714997,
      373.03704811498096,
      375.10452757225266,
      377.1834656000011,
      379.2739257049454,
      381.37597174577746,
      383.48966793511215,
      385.6150788414504,
      387.75226939114924,
      389.90130487040705,
      392.062250927257,
      394.23517357357235,
      396.4201391870845,
      398.6172145134083,
      400.82646666808256,
      403.0479631386198,
      405.2817717865676,
      407.527960849583,
      409.7865989435147,
      412.05775506450095,
      414.3414985910763,
      416.637899286291,
      418.9470272998435,
      421.26895317022115,
      423.60374782685625,
      425.95148259229273,
      428.3122291843642,
      430.6860597183866,
      433.0730467093586,
      435.4732630741785,
      437.886782133871,
      440.313677615827,
      442.754023656057,
      445.2078948014536,
      447.67536601207047,
      450.1565126634113,
      452.65141054873243,
      455.1601358813598,
      457.6827652970141,
      460.21937585615416,
      462.77004504633,
      465.33485078454964,
      467.91387141966123,
      470.50718573474353,
      473.11487294951445,
      475.7370127227505,
      478.3736851547201,
      481.02497078963034,
      483.69095061808895,
      486.37170607957574,
      489.067319064932,
      491.77787191886205,
      494.5034474424478,
      497.24412889568026,
      499.99999999999994
    ],
    "outputs": [
      {
        "index": 0,
        "magnitude_db": [
          -4.2806446571130365,
          -4.26350318185567,
          -4.246207549423977,
          -4.228756641231867,
          -4.211149334234368,
          -4.1933845009440285,
          -4.1754610094471705,
          -4.157377723420071,
          -4.139133502144957,
          -4.120727200525866,
          -4.10215766910433,
          -4.083423754074885,
          -4.064524297300365,
          -4.045458136327038,
          -4.026224104399442,
          -4.006821030475082,
          -3.9872477392388213,
          -3.967503051117054,
          -3.9475857822916223,
          -3.927494744713464,
          -3.9072287461159854,
          -3.8867865900282004,
          -3.8661670757875264,
          -3.845368998552381,
          -3.824391149314439,
          -3.8032323149106584,
          -3.7818912780350216,
          -3.760366817250001,
          -3.7386577069977807,
          -3.7167627176112368,
          -3.6946806153246685,
          -3.6724101622843315,
          -3.649950116558731,
          -3.627299232148778,
          -3.6044562589977636,
          -3.5814199430011957,
          -3.5581890260165734,
          -3.5347622458730203,
          -3.51113833638097,
          -3.487316027341794,
          -3.4632940445575406,
          -3.439071109840724,
          -3.4146459410243137,
          -3.390017251971929,
          -3.3651837525883135,
          -3.340144148830169,
          -3.3148971427173985,
          -3.289441432344894,
          -3.263775711894889,
          -3.2378986716500098,
          -3.211808998007144,
          -3.185505373492168,
          -3.158986476775734,
          -3.132250982690181,
          -3.1052975622477157,
          -3.0781248826600285,
          -3.0507316073594626,
          -3.0231163960219174,
          -2.995277904591677,
          -2.9672147853082906,
          -2.9389256867357294,
          -2.910409253794073,
          -2.8816641277938357,
          -2.8526889464732785,
          -2.8234823440388706,
          -2.794042951209184,
          -2.764369395262522,
          -2.7344603000885312,
          -2.7043142862441356,
          -2.6739299710140814,
          -2.6433059684764877,
          -2.6124408895737044,
          -2.581333342188916,
          -2.549981931228842,
          -2.5183852587129962,
          -2.486541923869932,
          -2.454450523240964,
          -2.4221096507918367,
          -2.389517898032898,
          -2.356673854148267,
          -2.3235761061346834,
          -2.29022323895053,
          -2.256613835675744,
          -2.2227464776832826,
          -2.1886197448228426,
          -2.154232215617582,
          -2.1195824674746286,
          -2.0846690769102376,
          -2.0494906197904093,
          -2.0140456715879074,
          -1.9783328076566922,
          -1.9423506035246354,
          -1.90609763520577,
          -1.8695724795330013,
          -1.8327737145125709,
          -1.7956999197014725,
          -1.7583496766090625,
          -1.7207215691242885,
          -1.6828141839698887,
          -1.644626111185123,
          -1.6061559446385452,
          -1.567402282572457,
          -1.5283637281808369,
          -1.4890388902224552,
          -1.4494263836711445,
          -1.4095248304051893,
          -1.3693328599379124,
          -1.32884911019167,
          -1.288072228317518,
          -1.2470008715630108,
          -1.2056337081906014,
          -1.1639694184492906,
          -1.1220066956023702,
          -1.079744247014057,
          -1.0371807952981724,
          -0.9943150795319675,
          -0.951145856538505,
          -0.9076719022410701,
          -0.8638920130932788,
          -0.8198050075887398,
          -0.7754097278542976,
          -0.7307050413310334,
          -0.6856898425474838,
          -0.6403630549896621,
          -0.5947236330727047,
          -0.5487705642192404,
          -0.5025028710496774,
          -0.45591961369003015,
          -0.40901989220300783,
          -0.3618028491483667,
          -0.31426767227894925,
          -0.2664135973788174,
          -0.218239911250526,
          -0.169745954858625,
          -0.12093112663682938,
          -0.07179488596681693,
          -0.022336756836603373,
          0.027443668312866043,
          0.0775467245441784,
          0.12797267017374608,
          0.17872168230633506,
          0.22979385214395565,
          0.2811891800587446,
          0.3329075704190901,
          0.3849488261579459,
          0.43731264307170603,
          0.48999860383783167,
          0.5430061717386961,
          0.5963346840790141,
          0.6499833452836011,
          0.7039512196618541,
          0.7582372238249525,
          0.8128401187413786,
          0.8677585014159072,
          0.9229907961769588,
          0.9785352455567015,
          1.0343899007481103,
          1.0905526116228086,
          1.1470210162931833,
          1.2037925302022814,
          1.2608643347244692,
          1.3182333652600289,
          1.3758962988066792,
          1.433849540990935,
          1.4920892125425966,
          1.550611135195509,
          1.6094108169983936,
          1.6684834370197723,
          1.7278238294316062,
          1.7874264669571704,
          1.8472854436694037,
          1.9073944571271542,
          1.9677467898382297,
          2.028335290039351,
          2.0891523517854282,
          2.1501898943422564,
          2.211439340879468,
          2.2728915964632797,
          2.33453702535164,
          2.396365427598203,
          2.4583660149753266,
          2.520527386231038,
          2.5828375016997995,
          2.64528365729253,
          2.7078524578976495,
          2.770529790231579,
          2.833300795184698,
          2.896149839717112,
          2.959060488367217,
          3.022015474446223,
          3.084996671001946,
          3.147985061646828,
          3.2109607113572864,
          3.273902737364567,
          3.3367892802713235,
          3.3995974755429117,
          3.4623034255380563,
          3.5248821722600825,
          3.5873076710270095,
          3.6495527652768045,
          3.711589162742532,
          3.7733874132509775,
          3.8349168884178297,
          3.8961457635315537,
          3.9570410019376903,
          4.017568342254193,
          4.07769228876673,
          4.1373761053705636,
          4.196581813441551,
          4.255270194033429,
          4.313400794810963,
          4.37093194213801,
          4.427820758746402,
          4.484023187414369,
          4.53949402108167,
          4.594186939822693,
          4.648054555086679,
          4.701048461596872,
          4.753119297275578,
          4.8042168115307335,
          4.854289942200189,
          4.903286901402375,
          4.9511552704863036,
          4.997842104209091,
          5.0432940441959975,
          5.087457441656117,
          5.130278489236369,
          5.171703361798561,
          5.211678365798856,
          5.25015009683758,
          5.287065604831115,
          5.322372566137474,
          5.356019461845893,
          5.387955761319154,
          5.418132109958371,
          5.446500520045703,
          5.47301456341308,
          5.4976295645877595,
          5.520302792980068,
          5.540993652608339,
          5.559663867802682,
          5.57627766329512,
          5.590801937090777,
          5.603206424524604,
          5.613463851941612,
          5.621550078496504,
          5.627444224650805,
          5.631128786051631,
          5.632589731604979,
          5.631816584706152,
          5.628802486758373,
          5.623544242294964,
          5.616042345217583,
          5.60630098586918,
          5.59432803887187,
          5.58013503187267,
          5.563737095550173,
          5.545152895438531,
          5.524404546318161,
          5.501517510101555,
          5.476520478304615,
          5.449445240336511,
          5.420326538961797,
          5.389201914386176,
          5.3561115384909215,
          5.321098040790097,
          5.284206327709623,
          5.2454833967889005,
          5.204978147384825,
          5.162741189417096,
          5.1188246516336955,
          5.0732819907994395,
          5.0261678031206,
          4.977537639117063,
          4.927447823043588,
          4.875955277845117,
          4.8231173565109655,
          4.768991680570886,
          4.7136359863545625,
          4.6571079795174075,
          4.599465198220304,
          4.540764885241753,
          4.48106386919777,
          4.420418454949177,
          4.358884323188748,
          4.296516439121282,
          4.233368970079466,
          4.169495211856901,
          4.104947523486263,
          4.039777270146188,
          3.974034773843745,
          3.9077692714898316,
          3.8410288799631904,
          3.7738605677425,
          3.7063101326764385,
          3.6384221854569554,
          3.5702401383608735,
          3.5018061988292546,
          3.4331613674613672,
          3.364345440010777,
          3.295397012984052,
          3.2263534924574366,
          3.1572511057436508,
          3.088124915558218,
          3.019008836353705,
          2.9499356525089633,
          2.88093703807968,
          2.8120435778359902,
          2.7432847893317773,
          2.674689145768907,
          2.606284099438069,
          2.538096105535205,
          2.4701506461693983,
          2.402472254394434,
          2.335084538111107,
          2.268010203702307,
          2.2012710792759598,
          2.1348881374041433,
          2.0688815172581245,
          2.0032705460503717,
          1.9380737597047224,
          1.8733089226851605,
          1.8089930469224826,
          1.7451424097858972,
          1.6817725710537534,
          1.6188983888442663,
          1.5565340344728529,
          1.4946930062079409,
          1.433388141902089,
          1.3726316304790478,
          1.3124350222615204,
          1.252809238127233,
          1.1937645774839387,
          1.135310725056367,
          1.0774567564798945,
          1.020211142697678,
          0.9635817531590216,
          0.9075758578177462,
          0.8522001279302311,
          0.7974606356527535,
          0.7433628524382099,
          0.6899116462319079,
          0.6371112774656967,
          0.5849653938490799,
          0.5334770239547847,
          0.4826485695953401,
          0.4324817969854554,
          0.3829778266833528,
          0.33413712230236986,
          0.2859594779816343,
          0.23844400460228524,
          0.19158911473277018,
          0.1453925062838146,
          0.09985114485006566,
          0.054961244711814176,
          0.01071824846616835,
          -0.032883194747396476,
          -0.07584925246704403,
          -0.11818693361886448,
          -0.15990411476822672,
          -0.20100956796853583,
          -0.24151299027035006,
          -0.2814250349607771,
          -0.3207573446103431,
          -0.359522586012713,
          -0.3977344871109273,
          -0.43540787601322456,
          -0.4725587222112071,
          -0.5092041801235844,
          -0.545362635100052,
          -0.5810537520318511,
          -0.616298526728388,
          -0.6511193402330978,
          -0.6855400162663766,
          -0.7195858819992382,
          -0.7532838323780429,
          -0.7866623982386662,
          -0.8197518184677834,
          -0.8525841164892979,
          -0.8851931813761544,
          -0.9176148539111141,
          -0.9498870179452579,
          -0.9820496974299665,
          -1.0141451595267972,
          -1.0462180242306443,
          -1.0783153809744097,
          -1.1104869127188288,
          -1.142785028069003,
          -1.1752650019994901,
          -1.2079851258134904,
          -1.2410068670079768,
          -1.274395039766458,
          -1.3082179868545887,
          -1.3425477737507505,
          -1.3774603959051364,
          -1.413036000086306,
          -1.449359120844143,
          -1.486518933193234,
          -1.524609522700454,
          -1.563730174245708,
          -1.603985680815706,
          -1.6454866737863867,
          -1.6883499762516443,
          -1.7326989810628595,
          -1.778664055355619,
          -1.8263829734565729,
          -1.8760013801822129,
          -1.9276732866624866,
          -1.9815616009413701,
          -2.037838695721067,
          -2.096687015720881,
          -2.1582997272081568,
          -2.2228814123172995,
          -2.2906488107886376,
          -2.3618316117121188,
          -2.436673297724566,
          -2.51543204384411,
          -2.5983816726817643,
          -2.6858126670742215,
          -2.778033240137034,
          -2.875370461208674,
          -2.978171433956459,
          -3.0868045197903218,
          -3.201660595325756,
          -3.32315432646417,
          -3.4517254330384612,
          -3.5878399059643877,
          -3.73199112212965,
          -3.884700779015973,
          -4.046519538724214,
          -4.218027226076481,
          -4.399832362778505,
          -4.592570732189713,
          -4.796902547192189,
          -5.013507623157906,
          -5.243077719880171,
          -5.4863048840905515,
          -5.74386416190444,
          -6.016388410718533,
          -6.304432062564277,
          -6.60841950545068,
          -6.928572187080326,
          -7.264806571266487,
          -7.616592763839677,
          -7.982761307214243,
          -8.361244218188359,
          -8.748737789751534,
          -9.140282822473848,
          -9.528779267352498,
          -9.904495707277125,
          -10.254707447936944,
          -10.563695232437546,
          -10.813419889970124,
          -10.985161542609394,
          -11.062151132128077,
          -11.032701172868427,
          -10.89280824510627,
          -10.647125880973023,
          -10.307849348817173,
          -9.89203569416918,
          -9.418478962308189,
          -8.905139597967452,
          -8.367578948268724,
          -7.818343129107945,
          -7.266999359236641,
          -6.720513181627512,
          -6.183741793728395,
          -5.659915935539218,
          -5.151053917554576,
          -4.658292933123992,
          -4.1821429061582105,
          -3.7226756147698863,
          -3.279662973884438,
          -2.8526768227645545,
          -2.4411602251474305,
          -2.044477993436187,
          -1.6619522031071645,
          -1.292886930092934,
          -0.9365852829678771,
          -0.5923609437178422,
          -0.2595458059270708,
          0.06250515194159213,
          0.37441094450991685,
          0.6767630270930054,
          0.9701246973731235,
          1.255031154304619,
          1.5319900023941648,
          1.801482050356561,
          2.0639622967674915,
          2.3198610266271538,
          2.56958496520776,
          2.8135184516834495,
          3.0520246066134056,
          3.2854464756472295,
          3.5141081377624683,
          3.7383157705825374,
          3.9583586683374268,
          4.174510210157277,
          4.387028777877942,
          4.596158623567976,
          4.8021306876829755,
          5.00516336921326,
          5.205463249479401,
          5.403225771396441,
          5.59863587610799,
          5.791868598910263,
          5.983089626361746,
          6.1724558164220245,
          6.360115683388806,
          6.546209849317143,
          6.73087146350939,
          6.914226591565211,
          7.096394575379667,
          7.27748836537354,
          7.457614826139125,
          7.6368750165825645,
          7.8153644455443985,
          7.993173303783116,
          8.170386673110006,
          8.347084713371713,
          8.523342827885452,
          8.699231807844315,
          8.87481795612483,
          9.05016319084616,
          9.225325128951702,
          9.400357150007556,
          9.575308440340569,
          9.750224017571778,
          9.92514473553792,
          10.100107269538508,
          10.275144081796482,
          10.45028336698003,
          10.625548977603184,
          10.800960329104372,
          10.97653228439822,
          11.152275017709359,
          11.328193857529708,
          11.504289108598453,
          11.68055585288795,
          11.85698372969606,
          12.03355669510037,
          12.210252761226641,
          12.387043716031556,
          12.563894824602336,
          12.740764513341302,
          12.91760403883992,
          13.094357143758382,
          13.270959702623863,
          13.447339361145826,
          13.62341517342533,
          13.799097242312172,
          13.974286369132503,
          14.148873720073208,
          14.322740517651312,
          14.495757766905598,
          14.667786027198911,
          14.83867524177807,
          15.008264638464965,
          15.176382715987778,
          15.342847331441025,
          15.507465905106306,
          15.670035759278731,
          15.830344607727174,
          15.988171211858209,
          16.143286218442828,
          16.29545319179675,
          16.44442985048228,
          16.589969514857383,
          16.731822767097405,
          16.869739319674217,
          17.003470081770246,
          17.132769405874072,
          17.257397489073043,
          17.37712289562552,
          17.491725159630622,
          17.60099741944789,
          17.704749029414472,
          17.802808089833064,
          17.895023833593584,
          17.981268807505074,
          18.06144078869996,
          18.1354643814266,
          18.20329224709599,
          18.264905930339403,
          18.320316255636534,
          18.369563282214074,
          18.412715818709653,
          18.449870512811042,
          18.481150543988008,
          18.506703958869597,
          18.526701698237286,
          18.541335371610973,
          18.550814839784852,
          18.555365667388003,
          18.555226506733444,
          18.550646471152394,
          18.54188255106862,
          18.529197119695144,
          18.512855567902538,
          18.49312409997326,
          18.47026771403819,
          18.444548383345627,
          18.4162234474232,
          18.385544215862865,
          18.35275478201806,
          18.31809103941065,
          18.28177989010605,
          18.244038631686045,
          18.20507450765418,
          18.165084405051566,
          18.12425468263311,
          18.082761113043762,
          18.040768922934333,
          17.99843291576527,
          17.955897663076463,
          17.913297751173584,
          17.870758071432867,
          17.82839414370446,
          17.78631246355928,
          17.744610865345432,
          17.70337889417686,
          17.662698181055184,
          17.622642816318518,
          17.58327971751612,
          17.54466898862628,
          17.5068642682718,
          17.469913065248875,
          17.433857080280134,
          17.398732513439334,
          17.364570357184434,
          17.331396675387666,
          17.299232869175942,
          17.268095930803785,
          17.237998687183797,
          17.20895003510776,
          17.18095517061442,
          17.154015815408144,
          17.128130443715634,
          17.103294513494138,
          17.079500706482282,
          17.056739182219726,
          17.034997851858154,
          17.014262678344657,
          16.99451801037481,
          16.97574695837717,
          16.957931821684515,
          16.94105457694039,
          16.92509743863884,
          16.91004350343795,
          16.89587749044047,
          16.88258658988503,
          16.870161432496776,
          16.858597190927075,
          16.84789482305115,
          16.838062464132875,
          16.829116970717514,
          16.82108561326073,
          16.814007906628234,
          16.807937557415805,
          16.802944494332838,
          16.799116932593524,
          16.796563405526406,
          16.795414676925795,
          16.795825426942763,
          16.79797558399464,
          16.802071157309676,
          16.808344411976847,
          16.81705322391939,
          16.82847945952033,
          16.84292624705569,
          16.86071404730522,
          16.882175489985883,
          16.907649020111982,
          16.937471490350145,
          16.9719699350913,
          17.01145285952244,
          17.056201460541526,
          17.106461253416498,
          17.162434597607003,
          17.224274589801432,
          17.292080720213484,
          17.365896574388884,
          17.44570971845444,
          17.53145374701873,
          17.623012318180244,
          17.72022486684104,
          17.8228935895621,
          17.93079123959087,
          18.043669260990086,
          18.161265821563102,
          18.283313366596175,
          18.40954539800719,
          18.539702274647922,
          18.67353591895332,
          18.810813395003112,
          18.951319388360677,
          19.094857666541465,
          19.24125163067432,
          19.39034408551099,
          19.54199635902733,
          19.69608689743189,
          19.852509449388734,
          20.011170937270407,
          20.17198909540495,
          20.334889937177966,
          20.499805095622968,
          20.666669066503445,
          20.835416369262965,
          21.005978629777555,
          21.178281579629047,
          21.352241959601695,
          21.52776431025074,
          21.704737629696073,
          21.883031878324633,
          22.06249431200574,
          22.24294563000771,
          22.42417593145558,
          22.6059404854097,
          22.787955335106528,
          22.969892777292543,
          23.15137678361928,
          23.331978463377368,
          23.51121170581574,
          23.68852918583932,
          23.863318968179247,
          24.03490200026079,
          24.20253083953146,
          24.36539001165539,
          24.522598434256402,
          24.673214357122404,
          24.81624325247114,
          24.950649025715816,
          25.075368796879054,
          25.189331317761976,
          25.291478839521858,
          25.380791939115635,
          25.456316473678257,
          25.517191495304967,
          25.56267667170551,
          25.59217757211937,
          25.605267138951277,
          25.601701803822202,
          25.581431026253973,
          25.54459950720176,
          25.491541902393557,
          25.422770456707347,
          25.33895652064721,
          25.240907324721423,
          25.129539632781647,
          25.005851957443706,
          24.87089691545444,
          24.725755066414553,
          24.571511264284798,
          24.409234208036317,
          24.23995954849486,
          24.06467662335478,
          23.884318668469,
          23.69975619582229,
          23.511793133078214,
          23.32116527673158,
          23.128540608707247,
          22.934521052586234,
          22.739645289682713,
          22.544392308167506,
          22.349185413794256,
          22.154396484061245,
          21.96035029610039,
          21.767328800817793,
          21.575575251366296,
          21.385298123088575,
          21.19667478517691,
          21.009854902197777,
          20.824963557122214,
          20.64210409736915,
          20.46136071232248,
          20.282800755445617,
          20.10647682702194,
          19.93242863512769,
          19.760684653049335,
          19.5912635912681,
          19.42417570156399,
          19.25942392990849,
          19.097004933740234,
          18.936909978042795,
          18.77912572343625,
          18.62363491829527,
          18.470417005753625,
          18.319448655361583,
          18.170704228145045,
          18.024156182876347,
          17.87977543050976,
          17.73753164295577,
          17.59739352166813,
          17.459329030886902,
          17.323305599818294,
          17.189290297530572,
          17.057249983898547,
          16.9271514395344,
          16.79896147729203,
          16.672647037622305,
          16.54817526978389,
          16.425513600672264,
          16.30462979281783,
          16.18549199291638,
          16.06806877209031,
          15.95232915893445,
          15.838242666271816,
          15.725779312433303,
          15.614909637775957,
          15.50560471706773,
          15.397836168290585,
          15.291576158346015,
          15.18679740608846,
          15.083473183059992,
          14.981577312253634,
          14.88108416519303,
          14.781968657579938,
          14.684206243730824,
          14.58777290999549,
          14.49264516732722,
          14.398800043152459,
          14.306215072668984,
          14.214868289685704,
          14.124738217102228,
          14.035803857113695,
          13.948044681215388,
          13.86144062007128,
          13.77597205330237,
          13.691619799242915,
          13.608365104705687,
          13.526189634791958,
          13.445075462776085,
          13.36500506009054,
          13.28596128643295,
          13.207927380013125,
          13.130886947955362,
          13.05482395686796,
          12.979722723590172,
          12.905567906124366,
          12.832344494759468,
          12.760037803390162,
          12.688633461035156,
          12.618117403556235,
          12.548475865579206,
          12.47969537261681,
          12.411762733392786,
          12.344665032365818,
          12.278389622451563,
          12.21292411794018,
          12.148256387606846,
          12.084374548012043,
          12.021266956988246,
          11.958922207309687,
          11.897329120541125,
          11.83647674106198,
          11.776354330261835,
          11.71695136090316,
          11.658257511647305,
          11.60026266173955,
          11.542956885849058,
          11.486330449059839,
          11.430373802008244,
          11.37507757616347,
          11.320432579246518,
          11.266429790784096,
          11.213060357793335,
          11.160315590593548,
          11.108186958741433,
          11.056666087085807,
          11.005744751938508,
          10.955414877357835,
          10.905668531541107,
          10.85649792332315,
          10.807895398777257,
          10.759853437915602,
          10.712364651485991,
          10.665421777861908,
          10.619017680023111,
          10.573145342623743,
          10.527797869145328,
          10.482968479132053,
          10.438650505505588,
          10.39483739195716,
          10.351522690414248,
          10.308700058579657,
          10.266363257540744,
          10.224506149446434,
          10.183122695250077,
          10.142206952515915,
          10.101753073287272,
          10.06175530201449,
          10.022207973540677,
          9.98310551114362,
          9.94444242463187,
          9.906213308493536,
          9.868412840095978,
          9.831035777934874,
          9.794076959931152,
          9.757531301774218,
          9.721393795310142,
          9.685659506973307,
          9.65032357626023,
          9.615381214244316,
          9.58082770213011,
          9.546658389846034,
          9.512868694674268,
          9.4794540999167,
          9.446410153595929,
          9.413732467190036,
          9.381416714400329,
          9.349458629950924,
          9.317854008419182,
          9.286598703096232,
          9.255688624876452,
          9.225119741175194,
          9.19488807487384,
          9.164989703291432,
          9.135420757181958,
          9.1061774197567,
          9.077255925730732,
          9.048652560393021,
          9.020363658699235,
          8.992385604386786,
          8.964714829111355,
          8.937347811604226,
          8.910281076849953,
          8.88351119528366,
          8.85703478200737,
          8.830848496025022,
          8.80494903949535,
          8.779333157002334,
          8.753997634842609,
          8.728939300329342,
          8.704155021112205,
          8.679641704512859,
          8.655396296875585,
          8.631415782932635,
          8.607697185183806,
          8.584237563290008,
          8.561034013480201,
          8.538083667971554,
          8.515383694402278,
          8.492931295276893,
          8.470723707423572,
          8.448758201463155,
          8.427032081289598,
          8.405542683561501,
          8.384287377204402,
          8.3632635629236,
          8.342468672727152,
          8.321900169458807,
          8.30155554634061,
          8.281432326524891,
          8.261528062655437,
          8.241840336437551,
          8.222366758216774,
          8.20310496656607,
          8.184052627881202,
          8.165207435984158,
          8.146567111734322,
          8.128129402647264,
          8.109892082520933,
          8.091852951068983,
          8.074009833561256,
          8.056360580470946,
          8.038903067128544,
          8.021635193382217,
          8.004554883264523,
          7.987660084665328,
          7.970948769010706,
          7.95441893094771,
          7.938068588034877,
          7.921895780438296,
          7.905898570633141,
          7.890075043110455,
          7.874423304089186,
          7.858941481233227,
          7.8436277233733875,
          7.8284802002341936,
          7.813497102165382,
          7.798676639877971,
          7.784017044184802,
          7.769516565745458,
          7.755173474815469,
          7.740986060999642,
          7.726952633009496,
          7.713071518424684,
          7.699341063458247,
          7.685759632725739,
          7.672325609018001,
          7.659037393077601,
          7.645893403378797,
          7.632892075910975,
          7.620031863965503,
          7.607311237925848,
          7.594728685060969,
          7.582282709321902,
          7.569971831141384,
          7.55779458723659,
          7.54574953041478
        ],
        "phase_deg": [
          -150.66004086918466,
          -150.53424768755846,
          -150.4082663525417,
          -150.28210208583104,
          -150.15576020202585,
          -150.02924610967605,
          -149.9025653123445,
          -149.77572340968368,
          -149.64872609852745,
          -149.5215791739986,
          -149.3942885306319,
          -149.2668601635146,
          -149.13930016944306,
          -149.01161474809797,
          -148.88381020323746,
          -148.75589294390937,
          -148.6278694856829,
          -148.4997464519008,
          -148.37153057495232,
          -148.243228697568,
          -148.1148477741367,
          -147.9863948720461,
          -147.85787717304692,
          -147.72930197464197,
          -147.60067669150132,
          -147.47200885690327,
          -147.34330612420342,
          -147.21457626833185,
          -147.08582718731967,
          -146.95706690385603,
          -146.8283035668766,
          -146.69954545318433,
          -146.57080096910403,
          -146.44207865217146,
          -146.3133871728586,
          -146.18473533633582,
          -146.05613208427252,
          -145.92758649667746,
          -145.79910779378002,
          -145.67070533795413,
          -145.54238863568537,
          -145.4141673395842,
          -145.28605125044507,
          -145.15805031935463,
          -145.0301746498493,
          -144.90243450012454,
          -144.77484028529767,
          -144.64740257972514,
          -144.5201321193771,
          -144.39303980427036,
          -144.2661367009618,
          -144.1394340451045,
          -144.01294324406837,
          -143.88667587962684,
          -143.7606437107131,
          -143.63485867624655,
          -143.50933289803254,
          -143.3840786837377,
          -143.2591085299429,
          -143.1344351252767,
          -143.01007135363122,
          -142.8860302974635,
          -142.76232524118498,
          -142.6389696746415,
          -142.5159772966866,
          -142.39336201885155,
          -142.2711379691142,
          -142.14931949577058,
          -142.0279211714112,
          -141.9069577970066,
          -141.78644440610395,
          -141.66639626913937,
          -141.54682889786818,
          -141.42775804991754,
          -141.30919973346448,
          -141.19117021204318,
          -141.0736860094851,
          -140.95676391499626,
          -140.8404209883748,
          -140.7246745653738,
          -140.60954226321243,
          -140.49504198624078,
          -140.38119193176152,
          -140.26801059601365,
          -140.1555167803223,
          -140.04372959741949,
          -139.9326684779403,
          -139.8223531770991,
          -139.71280378155137,
          -139.6040407164448,
          -139.49608475266626,
          -139.38895701428825,
          -139.28267898622127,
          -139.17727252207652,
          -139.07275985224493,
          -138.9691635921976,
          -138.8665067510131,
          -138.76481274013807,
          -138.6641053823853,
          -138.56440892117664,
          -138.46574803003543,
          -138.36814782233463,
          -138.2716338613069,
          -138.1762321703218,
          -138.08196924343684,
          -137.98887205622785,
          -137.8969680769047,
          -137.80628527771876,
          -137.71685214666732,
          -137.62869769950154,
          -137.54185149204335,
          -137.45634363281738,
          -137.3722047960032,
          -137.28946623471407,
          -137.20815979460673,
          -137.1283179278286,
          -137.04997370730615,
          -136.97316084138058,
          -136.8979136887943,
          -136.82426727403296,
          -136.7522573030274,
          -136.68192017921734,
          -136.61329301998248,
          -136.54641367344084,
          -136.48132073561874,
          -136.41805356799188,
          -136.35665231539969,
          -136.29715792433205,
          -136.2396121615879,
          -136.18405763330352,
          -136.13053780434828,
          -136.07909701808316,
          -136.02978051647744,
          -135.98263446057652,
          -135.93770595131338,
          -135.89504305065336,
          -135.85469480306134,
          -135.81671125727786,
          -135.78114348838866,
          -135.74804362016965,
          -135.7174648476877,
          -135.6894614601338,
          -135.66408886386284,
          -135.64140360561134,
          -135.62146339586016,
          -135.60432713230648,
