{
  "project_name": "WNET5q1h2u6l3",
  "task_type": "wnet5-circuit-validation",
  "analysis_layer": 1,
  "frequency_range": {
    "start_freq": 2,
    "stop_freq": 500
  },
  "svf": {
    "center_freqs": [
      10.0,
      80.0
    ],
    "quality_factors": [
      1.0,
      1.0
    ],
    "transfer_functions": []
  },
  "dense_layer": {
    "layer_name": "Dense_Layer_Model_1",
    "weights": [
      [
        -2.046748638153076,
        -1.2283607721328735,
        0.21272553503513336,
        0.740289568901062,
        0.24052532017230988,
        -0.8589311242103577
      ],
      [
        -1.016248106956482,
        -0.21796871721744537,
        -0.22137361764907837,
        0.3102911710739136,
        0.5055362582206726,
        -1.684627890586853
      ],
      [
        -0.11413031816482544,
        -1.883636474609375,
        0.2896444797515869,
        0.6695430874824524,
        0.4967893064022064,
        -1.0125218629837036
      ],
      [
        -0.9089112281799316,
        -1.5107314586639404,
        -0.26455867290496826,
        -1.6553466320037842,
        0.7438374161720276,
        -0.0195899810642004
      ],
      [
        -1.309861660003662,
        0.8926913738250732,
        1.0764018297195435,
        -1.0301365852355957,
        -0.07125196605920792,
        1.1303753852844238
      ],
      [
        -0.6977548003196716,
        0.19576731324195862,
        0.04893237352371216,
        1.4898195266723633,
        1.3476253747940063,
        -0.2916993200778961
      ]
    ],
    "bias": [
      0.1549340933561325,
      -0.01355718169361353,
      0.2636565864086151,
      -0.013300067745149136,
      0.369514524936676,
      -0.02773674950003624
    ]
  },
  "combined_transfer_functions": [],
  "frequency_response": null,
  "artifacts": {
    "plots": [
      "plots\\svf_fit_comparison.png",
      "plots\\svf_error_comparison_merged.png",
      "plots\\svf_dense_error_comparison.png"
    ],
    "report": null
  }
}