#ifndef GENERATED_GRN_MODEL_DATA_H
#define GENERATED_GRN_MODEL_DATA_H

#include <stdint.h>

typedef float port_float;

#define GRU_INPUT_DIM 1u
#define GRU_UNITS 16u
#define DENSE_UNITS 16u
#define OUTPUT_UNITS 1u
#define BENCHMARK_ITERATIONS 10u
#define BENCHMARK_REPEAT_RUNS 1u
#define BENCHMARK_RESET_STATE_EACH_RUN 1u
#define VALIDATION_RECORD_COUNT 1u
#define VALIDATION_SEQ_LEN 400u

#define SCALER_INPUT_DATA_RANGE 44.71252906f
#define SCALER_OUTPUT_DATA_RANGE 53.37688575f

static const port_float validation_input[VALIDATION_RECORD_COUNT][VALIDATION_SEQ_LEN][GRU_INPUT_DIM] = {
    {
        { -0.00265106f },
        { -0.00256918f },
        { -0.00248111f },
        { -0.00241613f },
        { -0.00234087f },
        { -0.00226323f },
        { -0.00223715f },
        { -0.00223383f },
        { -0.00214781f },
        { -0.00198212f },
        { -0.00189901f },
        { -0.00200698f },
        { -0.00219156f },
        { -0.00226382f },
        { -0.00219819f },
        { -0.00209412f },
        { -0.00200165f },
        { -0.00192639f },
        { -0.00187893f },
        { -0.00181025f },
        { -0.00166097f },
        { -0.00151595f },
        { -0.00150904f },
        { -0.00158611f },
        { -0.00156338f },
        { -0.00139519f },
        { -0.00122052f },
        { -0.00113318f },
        { -0.00103853f },
        { -0.00083806f },
        { -0.00063530f },
        { -0.00057462f },
        { -0.00058965f },
        { -0.00052110f },
        { -0.00038254f },
        { -0.00032187f },
        { -0.00038041f },
        { -0.00043144f },
        { -0.00034601f },
        { -0.00013261f },
        { 0.00008208f },
        { 0.00016323f },
        { 0.00010017f },
        { 0.00004305f },
        { 0.00013594f },
        { 0.00035456f },
        { 0.00057684f },
        { 0.00071296f },
        { 0.00073143f },
        { 0.00068017f },
        { 0.00066288f },
        { 0.00071413f },
        { 0.00078858f },
        { 0.00086976f },
        { 0.00093872f },
        { 0.00092841f },
        { 0.00086762f },
        { 0.00091341f },
        { 0.00112259f },
        { 0.00135794f },
        { 0.00148923f },
        { 0.00155125f },
        { 0.00165147f },
        { 0.00181994f },
        { 0.00201192f },
        { 0.00217416f },
        { 0.00224855f },
        { 0.00222650f },
        { 0.00223793f },
        { 0.00240714f },
        { 0.00261369f },
        { 0.00264666f },
        { 0.00257154f },
        { 0.00262787f },
        { 0.00280621f },
        { 0.00288950f },
        { 0.00286840f },
        { 0.00294713f },
        { 0.00316138f },
        { 0.00329885f },
        { 0.00321027f },
        { 0.00300860f },
        { 0.00293004f },
        { 0.00308371f },
        { 0.00335901f },
        { 0.00352225f },
        { 0.00341395f },
        { 0.00314609f },
        { 0.00305184f },
        { 0.00330599f },
        { 0.00369158f },
        { 0.00386876f },
        { 0.00375255f },
        { 0.00354203f },
        { 0.00347588f },
        { 0.00359951f },
        { 0.00376401f },
        { 0.00384263f },
        { 0.00383287f },
        { 0.00373294f },
        { 0.00352192f },
        { 0.00329503f },
        { 0.00321302f },
        { 0.00330149f },
        { 0.00345284f },
        { 0.00357276f },
        { 0.00362006f },
        { 0.00360556f },
        { 0.00357392f },
        { 0.00350881f },
        { 0.00339315f },
        { 0.00337100f },
        { 0.00354858f },
        { 0.00371179f },
        { 0.00361617f },
        { 0.00338434f },
        { 0.00325363f },
        { 0.00317271f },
        { 0.00297188f },
        { 0.00271633f },
        { 0.00260458f },
        { 0.00263198f },
        { 0.00261538f },
        { 0.00250944f },
        { 0.00243467f },
        { 0.00242569f },
        { 0.00240480f },
        { 0.00234824f },
        { 0.00228183f },
        { 0.00218356f },
        { 0.00204237f },
        { 0.00196534f },
        { 0.00204757f },
        { 0.00210835f },
        { 0.00181715f },
        { 0.00122402f },
        { 0.00084719f },
        { 0.00098366f },
        { 0.00125348f },
        { 0.00115439f },
        { 0.00076748f },
        { 0.00051561f },
        { 0.00047698f },
        { 0.00039006f },
        { 0.00015329f },
        { -0.00012045f },
        { -0.00038115f },
        { -0.00058773f },
        { -0.00059313f },
        { -0.00041464f },
        { -0.00036246f },
        { -0.00064695f },
        { -0.00108620f },
        { -0.00135069f },
        { -0.00135355f },
        { -0.00130310f },
        { -0.00140450f },
        { -0.00163690f },
        { -0.00187945f },
        { -0.00208921f },
        { -0.00227872f },
        { -0.00244983f },
        { -0.00258293f },
        { -0.00269093f },
        { -0.00288834f },
        { -0.00322890f },
        { -0.00349042f },
        { -0.00343532f },
        { -0.00321925f },
        { -0.00323212f },
        { -0.00363362f },
        { -0.00421777f },
        { -0.00466104f },
        { -0.00487324f },
        { -0.00504767f },
        { -0.00531172f },
        { -0.00553480f },
        { -0.00556714f },
        { -0.00545809f },
        { -0.00539431f },
        { -0.00551482f },
        { -0.00577218f },
        { -0.00600514f },
        { -0.00614402f },
        { -0.00622409f },
        { -0.00625546f },
        { -0.00621566f },
        { -0.00609581f },
        { -0.00594307f },
        { -0.00593766f },
        { -0.00624600f },
        { -0.00668556f },
        { -0.00682980f },
        { -0.00659913f },
        { -0.00644502f },
        { -0.00671342f },
        { -0.00708505f },
        { -0.00701736f },
        { -0.00654869f },
        { -0.00621043f },
        { -0.00630107f },
        { -0.00667650f },
        { -0.00708014f },
        { -0.00730100f },
        { -0.00718061f },
        { -0.00680198f },
        { -0.00653261f },
        { -0.00656533f },
        { -0.00656293f },
        { -0.00618264f },
        { -0.00578320f },
        { -0.00593670f },
        { -0.00639791f },
        { -0.00642021f },
        { -0.00591716f },
        { -0.00544961f },
        { -0.00527245f },
        { -0.00511638f },
        { -0.00478210f },
        { -0.00443161f },
        { -0.00426002f },
        { -0.00424198f },
        { -0.00433324f },
        { -0.00455771f },
        { -0.00474199f },
        { -0.00460717f },
        { -0.00422311f },
        { -0.00387274f },
        { -0.00349256f },
        { -0.00281059f },
        { -0.00200165f },
        { -0.00166504f },
        { -0.00198502f },
        { -0.00226243f },
        { -0.00175839f },
        { -0.00086973f },
        { -0.00064746f },
        { -0.00115539f },
        { -0.00138754f },
        { -0.00086314f },
        { -0.00019870f },
        { -0.00002579f },
        { -0.00020307f },
        { -0.00019443f },
        { 0.00024476f },
        { 0.00085960f },
        { 0.00126604f },
        { 0.00144604f },
        { 0.00168835f },
        { 0.00206846f },
        { 0.00237956f },
        { 0.00259411f },
        { 0.00290133f },
        { 0.00325299f },
        { 0.00336127f },
        { 0.00321741f },
        { 0.00319528f },
        { 0.00351766f },
        { 0.00396536f },
        { 0.00423436f },
        { 0.00426908f },
        { 0.00423354f },
        { 0.00444685f },
        { 0.00517489f },
        { 0.00617957f },
        { 0.00676099f },
        { 0.00661095f },
        { 0.00633088f },
        { 0.00662194f },
        { 0.00726472f },
        { 0.00756893f },
        { 0.00748472f },
        { 0.00748282f },
        { 0.00771692f },
        { 0.00794316f },
        { 0.00790096f },
        { 0.00756697f },
        { 0.00731356f },
        { 0.00752541f },
        { 0.00797074f },
        { 0.00817565f },
        { 0.00824648f },
        { 0.00859443f },
        { 0.00917647f },
        { 0.00960887f },
        { 0.00969821f },
        { 0.00950892f },
        { 0.00921472f },
        { 0.00909460f },
        { 0.00937907f },
        { 0.00987367f },
        { 0.01003494f },
        { 0.00967862f },
        { 0.00928298f },
        { 0.00935895f },
        { 0.00979864f },
        { 0.01001248f },
        { 0.00966755f },
        { 0.00916107f },
        { 0.00905027f },
        { 0.00922554f },
        { 0.00930353f },
        { 0.00941365f },
        { 0.00966621f },
        { 0.00952080f },
        { 0.00882583f },
        { 0.00858652f },
        { 0.00936791f },
        { 0.00999327f },
        { 0.00929643f },
        { 0.00802830f },
        { 0.00757929f },
        { 0.00796504f },
        { 0.00836550f },
        { 0.00858064f },
        { 0.00882997f },
        { 0.00891158f },
        { 0.00847692f },
        { 0.00779240f },
        { 0.00762108f },
        { 0.00824318f },
        { 0.00891957f },
        { 0.00876902f },
        { 0.00793153f },
        { 0.00720614f },
        { 0.00689815f },
        { 0.00678251f },
        { 0.00671623f },
        { 0.00657169f },
        { 0.00609204f },
        { 0.00536351f },
        { 0.00490838f },
        { 0.00494118f },
        { 0.00507323f },
        { 0.00496177f },
        { 0.00467788f },
        { 0.00439041f },
        { 0.00419800f },
        { 0.00413085f },
        { 0.00399349f },
        { 0.00343284f },
        { 0.00230509f },
        { 0.00095757f },
        { 0.00013146f },
        { 0.00018878f },
        { 0.00040584f },
        { -0.00019652f },
        { -0.00139138f },
        { -0.00214113f },
        { -0.00222543f },
        { -0.00232423f },
        { -0.00272802f },
        { -0.00301948f },
        { -0.00297585f },
        { -0.00312501f },
        { -0.00421271f },
        { -0.00615333f },
        { -0.00773327f },
        { -0.00784944f },
        { -0.00698848f },
        { -0.00673995f },
        { -0.00773949f },
        { -0.00895627f },
        { -0.00928965f },
        { -0.00894543f },
        { -0.00878367f },
        { -0.00912053f },
        { -0.00963313f },
        { -0.00997246f },
        { -0.01021423f },
        { -0.01069169f },
        { -0.01141690f },
        { -0.01212211f },
        { -0.01287529f },
        { -0.01389124f },
        { -0.01482023f },
        { -0.01517727f },
        { -0.01527475f },
        { -0.01561918f },
        { -0.01578923f },
        { -0.01528470f },
        { -0.01485897f },
        { -0.01539930f },
        { -0.01624128f },
        { -0.01620674f },
        { -0.01555037f },
        { -0.01542412f },
        { -0.01602695f },
        { -0.01658565f },
        { -0.01677988f },
        { -0.01691615f },
        { -0.01690989f },
        { -0.01648104f },
        { -0.01622843f },
        { -0.01700793f },
        { -0.01838408f },
        { -0.01915026f },
        { -0.01902107f },
        { -0.01849923f },
        { -0.01782370f }
    }
};

static const port_float gru_kernel[GRU_INPUT_DIM][GRU_UNITS * 3u] = {
    { -0.37863287f, 0.48144194f, 0.24436843f, -0.48440546f, -0.30745950f, 2.72860980f, -3.24200463f, -1.38455200f, -0.89154369f, -0.27050671f, 1.32489085f, 2.05299950f, 1.40308022f, -0.36686173f, -1.57680440f, -1.38574731f, 0.02257420f, -0.16097608f, 0.10469372f, 0.06879596f, -1.02591777f, 0.18159188f, -0.31175014f, 0.16846201f, 0.09306137f, -0.08048557f, -0.22223443f, 0.23073718f, -0.83243525f, -0.21992825f, 0.26222122f, 0.02915858f, -0.03619082f, -0.48329592f, -0.10703940f, -0.79746687f, 0.35678318f, -0.88531810f, 0.69387579f, -0.53711408f, 0.32001907f, 0.04820530f, 1.17554319f, 0.18109438f, 0.83041877f, -0.29764006f, 0.14913836f, -0.26034349f }
};

static const port_float gru_recurrent_kernel[GRU_UNITS][GRU_UNITS * 3u] = {
    { -0.08677153f, 0.92973763f, -0.66004020f, 0.92531902f, 0.26086950f, -1.77467561f, 0.90491366f, -1.24038255f, -0.34654522f, 0.00158580f, -0.32480612f, 0.19818188f, -0.72024077f, 0.09830251f, 0.38412887f, 0.41403878f, -0.46816346f, 0.90155965f, 0.22561307f, -0.12585627f, -0.15513036f, 0.68106240f, -0.12514366f, -0.44466496f, 0.52510774f, -0.27115431f, 0.66560113f, 0.11354740f, -0.12108015f, -0.20729229f, 0.11077671f, 0.08556928f, 0.12489632f, 0.45018154f, 0.07553099f, -0.15040444f, -0.21665817f, 0.13459116f, -0.14879718f, -0.12377096f, 0.27143115f, -0.34076306f, -0.41592780f, 0.07131618f, -0.19632995f, 0.07289359f, 0.03244495f, -0.22478372f },
    { -0.80703151f, 0.81775630f, -1.19064164f, -1.90850449f, -0.51567721f, 1.36961317f, -0.56692886f, -1.59468102f, -1.12458706f, -0.33696097f, -1.01139975f, 0.87914020f, 0.77953750f, -0.88551903f, -0.81697994f, -0.80497748f, 0.64887261f, 0.60448891f, 0.35668719f, -0.11549809f, 0.59920245f, -0.04960078f, 0.78162295f, 0.97402143f, 0.05785986f, 0.28033844f, 0.12712534f, -0.53351015f, 0.42609423f, 0.82970417f, 0.37044784f, 0.44275150f, -0.36790338f, 0.14510293f, 0.18010285f, 0.07114093f, -0.09289259f, -0.24225600f, -0.03640907f, 0.10432711f, 0.51010019f, -0.17632274f, -0.63876361f, 0.15090308f, 0.03232907f, 0.21056630f, -0.03749543f, 0.20733319f },
    { 0.22483972f, 0.29085186f, 0.35561860f, 0.52330774f, 0.38668475f, 1.01393425f, -0.94457722f, 0.25363985f, -0.20927761f, 0.82418865f, -0.35974151f, -0.06675784f, 1.62981510f, -0.16954754f, -0.26608202f, -0.89852077f, -0.17806394f, -0.86897850f, -0.10907938f, -0.34783363f, -0.15180860f, -0.67921466f, -0.26358512f, -0.39613295f, -0.56876969f, -0.40042138f, -0.31277785f, -0.06345908f, -0.09387065f, -0.18828698f, -0.18657789f, -0.47764635f, -0.25791150f, -0.38238558f, 0.05215028f, 0.30505666f, -0.23130322f, -0.80082530f, -0.36643130f, 0.03555838f, -0.20841579f, 0.39292687f, 0.15991063f, 0.31229770f, -0.06712454f, 0.38362390f, -0.25536805f, 0.18405695f },
    { 0.38563699f, 1.22946048f, -0.01249095f, 0.33022904f, 0.96397293f, 0.28465655f, 0.27726367f, -1.98229253f, -0.46240538f, -0.17452940f, -0.64036584f, 0.47376406f, 1.29455817f, 0.28020146f, 0.88428283f, -0.11847917f, -0.12929825f, -0.64287561f, 0.00868378f, 0.20736524f, 0.13059530f, -0.11615412f, 0.24192883f, 0.01624438f, -0.10250114f, -0.21248342f, 0.03664503f, -0.18392375f, 0.59841740f, 0.02528536f, -0.06590048f, 0.20427571f, -0.10920890f, 0.11911521f, 0.13368046f, 0.26931986f, -0.45748687f, -0.54104352f, -0.38770419f, 0.23314555f, 0.00376318f, 0.11559582f, -0.36999199f, -0.04454726f, -0.49796936f, -0.13521856f, -0.38891813f, 0.34242755f },
    { -0.86273170f, -0.13594161f, -0.21639267f, 0.22769652f, -1.28920543f, -0.59908414f, 0.29838032f, 0.42341006f, 0.45441473f, -0.65564936f, 0.42425752f, -0.21191183f, -1.22560418f, -0.08042535f, -0.63720793f, 0.33607090f, -0.35147426f, 0.49909174f, 0.02610048f, 0.10855812f, -0.50976086f, 0.16630983f, -0.68387890f, 0.28724152f, 0.11189341f, -0.02902311f, 0.01925138f, 0.12712578f, -0.70669186f, -0.40190074f, 0.20648675f, -0.23254997f, 0.23617631f, -0.14462851f, 0.01161384f, 0.10559238f, 0.13152069f, 0.34110320f, 0.20111315f, 0.32604507f, -0.06692705f, 0.17626822f, 0.27212292f, -0.16487339f, 0.05431660f, -0.04687676f, 0.23945870f, -0.19266668f },
    { -1.20507193f, 1.33163357f, -0.78761506f, -0.81890982f, 0.69883114f, 0.57871503f, 2.02608919f, -0.98566687f, -0.15917119f, -0.61224872f, -0.72929549f, 1.27098787f, -1.75996125f, 0.50267422f, 0.65558034f, 0.96785879f, 0.60385799f, 0.74549443f, -0.10905973f, -0.25997135f, 0.10237258f, -0.58114010f, -0.05032058f, 0.78935301f, 0.11456800f, 0.19013380f, 1.04198778f, -0.55414879f, 0.16617811f, 0.74080718f, 0.26223734f, 0.51598841f, 0.29222327f, 0.10673416f, -0.00223763f, 0.43042395f, -0.25163034f, 0.41070867f, -0.43085155f, 0.53733081f, -0.29691434f, -0.38419446f, -0.50880045f, -0.09962091f, -0.53412396f, 0.15067258f, -0.36173534f, 0.07710160f },
    { -1.35951686f, -1.45950031f, 0.03112395f, -2.89486909f, -0.44148573f, -0.11792139f, -0.18639575f, 1.59265518f, 0.85619450f, -1.48671269f, 1.92811298f, -0.49475604f, 1.02657247f, 0.28968933f, -1.96027708f, -0.37967390f, -0.24446724f, 0.37916446f, -0.17604934f, 0.14866026f, -0.22223613f, -0.01159338f, -0.66168815f, -0.06938680f, 0.01125948f, 0.83194673f, -0.51941353f, 0.66732472f, -0.69512314f, -0.05687538f, 0.13220215f, -0.08918815f, 0.17715752f, 0.13956931f, 0.11848173f, -0.31551024f, 0.38522577f, 0.08814080f, 0.24120006f, -0.26013023f, 0.14331344f, -0.19396870f, 0.43713227f, -0.24078067f, 0.22790897f, -0.02690104f, 0.53140944f, -0.17156526f },
    { -0.08829311f, 1.07861233f, 0.01754846f, -0.01808533f, 0.38315842f, 0.53540432f, 1.19134426f, -1.47044718f, -0.71940815f, 0.74329793f, -1.76866317f, 0.41613057f, -0.62035805f, -0.22763385f, 0.49909130f, 0.70712698f, 0.15255007f, -0.58276510f, 0.11732199f, -0.09685555f, 0.40293723f, -0.02893955f, 0.32759362f, -0.12651780f, -0.22924769f, -0.14320643f, 0.09422914f, -0.47390315f, 0.58552653f, 0.31746742f, 0.01846358f, 0.02643707f, -0.17067969f, -0.11270881f, 0.06396654f, 0.55854684f, -0.31314448f, -0.49058145f, 0.10320090f, 0.03691360f, -0.17063276f, -0.18033265f, -0.63519669f, 0.06970122f, 0.02917060f, 0.08105791f, -0.33798656f, 0.25880244f },
    { -1.24443412f, -1.75541544f, -0.29452202f, -2.42304778f, -0.45017371f, -0.00091218f, 0.26181969f, 0.37962815f, 0.59567666f, -1.09030068f, 1.62550855f, -0.46607363f, -0.32631841f, -0.02078357f, -1.21196413f, -0.24609914f, 0.25727004f, 0.45929968f, -0.01780076f, 0.10748892f, 0.14854991f, 0.98333216f, 0.16110550f, 0.20726722f, 0.16927199f, 0.34863746f, -0.39976448f, 0.52930021f, 0.17072135f, -0.05475619f, 0.03772962f, 0.07219764f, -0.12240133f, 0.15807419f, -0.29452100f, -0.42462778f, -0.03851466f, 0.47735953f, 0.23408940f, -0.23811127f, 0.01517266f, 0.10007554f, 0.01361346f, -0.12615824f, 0.19280408f, -0.17734708f, 0.25251785f, -0.16955866f },
    { 0.54659659f, 0.52407223f, 1.23906672f, 1.99822509f, 0.27149662f, -0.33103678f, 0.07730618f, 1.10528243f, 0.62294894f, -0.19009334f, 0.09546880f, -0.21444815f, -0.02975350f, 0.00141334f, 0.92670184f, 0.34113237f, -0.20955497f, -1.04603958f, -0.35644889f, -0.10013032f, -0.07743415f, -0.04610498f, -0.39459735f, -0.25205821f, -0.78755593f, -0.33947501f, -0.29707822f, -0.25115716f, -0.28641173f, -0.52738321f, -0.03180919f, -0.30553788f, 0.29514316f, -0.11426783f, -0.14253837f, 0.11557329f, 0.26101407f, 0.03905692f, 0.00112057f, -0.03442942f, -0.04895194f, -0.08980767f, 0.38550878f, -0.00848136f, -0.10411437f, 0.08623604f, 0.22368759f, -0.04497617f },
    { -0.53475970f, 0.62646884f, 0.38897482f, 1.30513799f, -0.68139285f, -0.28555274f, 0.05163937f, 0.71719944f, 0.33084074f, 0.39500588f, -0.52766556f, 0.32377121f, -0.99867737f, -0.72645366f, 0.03065195f, -0.40910977f, -0.38626775f, 0.07144694f, -0.36085814f, -0.05728758f, 0.08764596f, -0.14971313f, -0.44439718f, -0.17078017f, 0.18339728f, -0.38337529f, 0.35975409f, 0.33070534f, -0.81655264f, -0.16296858f, 0.17033365f, 0.01257687f, 0.07785586f, -0.45721373f, 0.04226292f, 0.13279872f, 0.31704149f, 0.26010931f, -0.20153338f, -0.07346971f, -0.33127853f, -0.06729011f, 0.83844638f, 0.25545251f, 0.44365555f, -0.29522464f, -0.04369481f, 0.13737826f },
    { 0.15375409f, 0.44831222f, 0.58969277f, 2.59982204f, -0.74193561f, -0.07572473f, -1.71077263f, 0.35713115f, -0.21582399f, 0.60667568f, -0.74953753f, -0.10949868f, 0.69059008f, -0.42208627f, 0.22920655f, -0.53058803f, -0.60902518f, -0.99219513f, -0.44758385f, 0.00860272f, -0.34857938f, -0.66798234f, -0.23836744f, -0.13224486f, -0.38465789f, -0.45313081f, 0.25037369f, -0.08090097f, -0.44217044f, -0.36121336f, -0.17475182f, -0.37667230f, -0.01449203f, -0.41284278f, 0.53947073f, -0.12666236f, -0.10392261f, -0.19566655f, -0.22109321f, 0.07322538f, -0.10088770f, 0.31516117f, 0.15756537f, 0.30712765f, 0.02738321f, -0.30424723f, -0.06768822f, 0.11285864f },
    { -0.82528830f, -0.41795549f, 0.12220901f, 1.18229043f, -1.44184244f, -0.47952124f, -0.84472662f, -0.49544102f, -0.00806320f, 0.00396718f, -1.00509870f, 0.00360959f, -1.65081143f, -0.93064928f, -0.48306757f, -0.49986067f, -0.39756486f, 0.25394893f, -0.01395372f, 0.11967643f, -0.26441926f, -0.11931491f, -0.22948627f, 0.34833860f, 0.27582401f, -0.28941816f, -0.07720334f, 0.52777493f, -0.49941811f, 0.15791255f, -0.05851933f, -0.12556478f, -0.04073159f, 0.04106041f, -0.17681311f, -0.14749713f, 0.30051151f, 0.30958703f, 0.04379683f, -0.26759487f, -0.21869200f, 0.01076858f, 0.42887804f, 0.12636848f, 0.44409949f, -0.04474471f, -0.09547447f, 0.18568675f },
    { 0.39920574f, -0.13545054f, 0.46706122f, -0.25827083f, 0.60906506f, 0.90613538f, -0.40168995f, -0.35780975f, 0.03646494f, 0.34971467f, -0.63856465f, 0.25870407f, 0.90894502f, 0.18819298f, 0.23555760f, -0.17034207f, 0.08566884f, -0.36596811f, 0.04907195f, -0.23055358f, -0.06680173f, -0.17029284f, 0.14885716f, 0.16511129f, -0.49358737f, -0.28004199f, -0.16460620f, -0.36695743f, 0.51636159f, 0.04443201f, -0.04953460f, -0.15237351f, -0.43144453f, 0.02926212f, 0.32367563f, 0.30350131f, 0.21377312f, -0.25489172f, -0.02420133f, 0.19761333f, -0.28271195f, 0.03375379f, -0.29286972f, 0.20003062f, -0.41819441f, 0.15895203f, -0.24727292f, 0.17947422f },
    { -0.23469779f, -0.12037453f, -0.17161117f, -1.61621284f, 0.44434801f, -1.04291713f, 1.63665402f, 0.98205411f, 0.38351566f, -0.97362983f, 0.98678511f, -0.52850491f, -1.48108840f, 1.40932691f, 0.15077870f, 1.46262443f, -0.20811038f, 0.71856076f, 0.19098008f, -0.00082204f, -0.40027109f, 0.74938047f, -0.53147805f, -0.39949736f, 0.29914269f, 0.62013495f, 0.34645027f, 0.08805660f, -0.19969733f, -0.15921357f, -0.12784792f, -0.41114074f, 0.08846224f, 0.01302346f, -0.16766536f, -0.15661789f, 0.51261806f, 0.12445151f, -0.07577109f, 0.00720987f, 0.14350338f, 0.01542082f, -0.36877462f, -0.08859392f, -0.13423362f, -0.36141378f, 0.32169715f, -0.26746339f },
    { 0.75913173f, 0.75283420f, 0.38247004f, 1.79879618f, 0.04994816f, 0.89361793f, -0.95366287f, -0.64318883f, -0.22262639f, 0.93314856f, -2.03432465f, 0.06562869f, 0.80760270f, -0.74420142f, 0.62801123f, -0.75033641f, 0.18930063f, -0.52241933f, -0.02736910f, 0.16908321f, 0.24380279f, -0.28406441f, 0.20178711f, 0.08480071f, -0.19239600f, -0.41287082f, 0.14338326f, -0.17224067f, 0.44120070f, 0.12468251f, 0.05901300f, -0.02121779f, -0.06356166f, -0.12946965f, 0.22502153f, 0.16564330f, -0.05193627f, -0.37588441f, -0.26170513f, -0.02749172f, -0.20964859f, -0.19594336f, 0.16927592f, 0.15832235f, 0.06116706f, 0.06990508f, -0.43056127f, 0.01827578f }
};

static const port_float gru_input_bias[GRU_UNITS * 3u] = { 0.15525894f, 0.01944010f, 0.30518240f, -0.25090250f, 0.02207327f, -0.76493293f, 0.05805153f, -0.82616282f, -0.02517325f, 0.04892747f, 0.14695831f, 0.26505908f, 0.06202517f, 0.19167943f, 0.61050874f, 0.17570299f, 0.05229495f, 0.01091795f, 0.01493388f, 0.08882158f, 0.11701705f, 0.14604080f, 0.09232747f, 0.24916814f, 0.01061372f, 0.06705140f, 0.48981512f, -0.16468148f, 0.20943157f, -0.03724738f, 0.36115679f, 0.03702829f, 0.00073028f, 0.01142605f, -0.00091208f, -0.00717727f, 0.00209254f, -0.00080195f, 0.00019685f, 0.00030585f, -0.00312070f, -0.00147898f, 0.00577278f, -0.00370468f, 0.01187429f, -0.00360519f, -0.00133859f, 0.00481626f };

static const port_float gru_recurrent_bias[GRU_UNITS * 3u] = { 0.15525894f, 0.01944010f, 0.30518240f, -0.25090250f, 0.02207327f, -0.76493293f, 0.05805153f, -0.82616282f, -0.02517325f, 0.04892747f, 0.14695831f, 0.26505908f, 0.06202517f, 0.19167943f, 0.61050874f, 0.17570299f, 0.05229495f, 0.01091795f, 0.01493388f, 0.08882158f, 0.11701705f, 0.14604080f, 0.09232747f, 0.24916814f, 0.01061372f, 0.06705140f, 0.48981512f, -0.16468148f, 0.20943157f, -0.03724738f, 0.36115679f, 0.03702829f, -0.00077892f, 0.02153932f, -0.00083706f, -0.00657881f, -0.00142176f, 0.00031311f, -0.00240987f, 0.01006266f, -0.00003271f, -0.00219508f, 0.00182876f, 0.00267329f, 0.01193045f, -0.00043284f, -0.00026688f, 0.00616493f };

static const port_float dense_kernel[GRU_UNITS][DENSE_UNITS] = {
    { 0.16014375f, -0.23319335f, -0.27197063f, 0.13448498f, -0.02391777f, -0.30809692f, 0.27385962f, -0.07727172f, -0.32929772f, 0.33197129f, -0.35714549f, -0.29268065f, 0.03771351f, -0.32179996f, -0.12011293f, -0.40361080f },
    { 0.28828356f, 0.41777837f, 0.32783517f, -0.02288768f, 0.33332857f, 0.14605807f, -0.10650769f, 0.27076435f, 0.07832544f, 0.13148057f, -0.07662925f, -0.24920885f, 0.38753787f, -0.36213753f, -0.23551072f, -0.30591530f },
    { -0.41996324f, 0.28748694f, 0.08572762f, -0.37114224f, 0.06009996f, 0.03084607f, 0.27478436f, 0.06020176f, -0.15524581f, -0.23572092f, 0.15014343f, 0.01971415f, -0.32155737f, 0.07467455f, 0.08057518f, 0.20213570f },
    { 0.47006100f, -0.37583178f, 0.37646699f, -0.00392685f, -0.18424939f, -0.15529098f, -0.20230927f, -0.04866575f, 0.15958756f, 0.26346728f, 0.33322680f, -0.26661259f, 0.29884389f, 0.15756524f, 0.22735420f, 0.12022460f },
    { 0.18936993f, 0.25747794f, -0.45249376f, -0.40263763f, 0.14279158f, -0.26051319f, 0.21094544f, -0.31493384f, 0.02935155f, 0.43371665f, 0.40844935f, -0.16881803f, -0.40889850f, -0.31677309f, -0.17111742f, -0.04177989f },
    { -0.12668635f, 0.58647949f, 0.71014696f, 0.36881423f, 0.44457418f, 0.03607273f, 0.09788523f, 0.20078331f, -0.47389957f, 0.27469119f, 0.48618966f, 0.24549012f, 0.15785366f, 0.01299065f, -0.21145858f, -0.07750550f },
    { 0.33149493f, -0.23618796f, -0.50761908f, -0.51807350f, -0.42106342f, 0.20261508f, 0.26803979f, -0.03630691f, 0.25082329f, 0.48941916f, 0.11262301f, 0.23907788f, 0.03779949f, 0.26354000f, 0.26183319f, -0.00103012f },
    { -0.18623763f, 0.06883442f, -0.00522815f, -0.34983286f, 0.29281342f, 0.19252811f, 0.20145175f, -0.09316187f, 0.26746911f, -0.18976319f, 0.29944181f, -0.19815561f, -0.32128990f, 0.05517016f, -0.17010964f, 0.13248828f },
    { 0.18610020f, 0.16618259f, -0.20196387f, -0.37410581f, 0.21301730f, 0.10951095f, -0.01355868f, -0.21149676f, -0.04145636f, 0.32455912f, 0.20225970f, -0.00726953f, 0.36545762f, -0.01271394f, -0.08675915f, -0.32243288f },
    { 0.24739940f, -0.15667130f, 0.09998917f, -0.09974392f, -0.04335788f, 0.16243021f, 0.35289451f, -0.03434918f, -0.15758160f, -0.11197975f, 0.29805240f, -0.24893272f, 0.38129354f, -0.05386145f, 0.29296455f, 0.13607916f },
    { -0.35675189f, -0.27248153f, -0.18242578f, 0.38303745f, -0.09619708f, 0.21462360f, 0.00724537f, 0.50513709f, 0.45350856f, 0.38191599f, -0.27909806f, -0.18521172f, 0.02857834f, 0.26335070f, 0.16080755f, -0.11354802f },
    { -0.40965712f, 0.49615979f, 0.28625146f, -0.14476050f, -0.05647854f, 0.40972936f, 0.10391781f, 0.05495784f, 0.01469029f, -0.24995035f, 0.22993137f, -0.00842413f, -0.08069818f, -0.33338213f, 0.02646367f, -0.11388753f },
    { 0.37993887f, 0.11205886f, -0.11137389f, -0.15154538f, -0.12745318f, -0.27853462f, 0.24956566f, 0.46593061f, 0.33902147f, 0.05036940f, 0.25977996f, -0.03944711f, -0.12376925f, 0.24183458f, 0.21912770f, -0.22961350f },
    { 0.16904148f, 0.31646430f, -0.32681325f, 0.34100622f, -0.15322338f, 0.36095837f, 0.36688745f, -0.34517974f, 0.00239913f, 0.01995306f, -0.11408313f, 0.08370403f, -0.30557323f, 0.19021772f, 0.01070657f, -0.18559027f },
    { -0.12858586f, -0.29192889f, -0.52265567f, 0.10984531f, -0.02963054f, 0.06074770f, 0.26837757f, -0.19294435f, -0.28773877f, -0.42416403f, -0.44543916f, -0.18623593f, 0.26301661f, -0.30057022f, 0.23211025f, 0.30873251f },
    { -0.34666985f, -0.02916725f, 0.36305624f, 0.03237083f, 0.03656484f, 0.36675590f, -0.03749642f, -0.29957527f, -0.02591044f, -0.42119944f, 0.13150924f, 0.18508676f, 0.07731514f, -0.34421310f, -0.09332504f, -0.10266838f }
};

static const port_float dense_bias[DENSE_UNITS] = { -0.00133875f, -0.00108934f, -0.00335383f, -0.00275381f, -0.00815853f, -0.00159869f, -0.00023026f, -0.00184180f, -0.00186985f, -0.00273889f, -0.00269232f, -0.00214811f, -0.00621710f, -0.00121108f, 0.00840654f, 0.00119523f };

static const port_float output_kernel[DENSE_UNITS][OUTPUT_UNITS] = {
    { 0.16749138f },
    { -0.32152140f },
    { -0.05351793f },
    { -0.37540212f },
    { -0.02444861f },
    { -0.29630995f },
    { -0.22788100f },
    { 0.19831872f },
    { 0.07848602f },
    { 0.46377823f },
    { -0.43023559f },
    { -0.11788519f },
    { 0.03946175f },
    { -0.17517026f },
    { 0.00534103f },
    { 0.03605910f }
};

static const port_float output_bias[OUTPUT_UNITS] = { -0.00031939f };

#endif
