#ifndef GENERATED_TCN_MODEL_DATA_H
#define GENERATED_TCN_MODEL_DATA_H

#include <stdint.h>

typedef float port_float;

#define ACT_LINEAR 0u
#define ACT_RELU 1u
#define ACT_TANH 2u
#define ACT_SIGMOID 3u
#define ACT_SILU 4u

#define TCN_INPUT_DIM 1u
#define TCN_BLOCK_COUNT 4u
#define TCN_OUTPUT_UNITS 1u
#define TCN_HAS_INITIAL_PROJECTION 1u
#define TCN_HAS_CHANNEL_PROJECTION 0u
#define TCN_HAS_OUTPUT_CONV 1u
#define BENCHMARK_ITERATIONS 10u
#define BENCHMARK_REPEAT_RUNS 1u
#define BENCHMARK_RESET_STATE_EACH_RUN 1u
#define VALIDATION_RECORD_COUNT 1u
#define VALIDATION_SEQ_LEN 360u

#define SCALER_INPUT_DATA_RANGE 44.71252906f
#define SCALER_OUTPUT_DATA_RANGE 53.37688572f

static const port_float validation_input[VALIDATION_RECORD_COUNT][VALIDATION_SEQ_LEN][TCN_INPUT_DIM] = {
    {
        { -0.00265106f },
        { -0.00256918f },
        { -0.00248111f },
        { -0.00241613f },
        { -0.00234087f },
        { -0.00226323f },
        { -0.00223715f },
        { -0.00223383f },
        { -0.00214781f },
        { -0.00198212f },
        { -0.00189901f },
        { -0.00200698f },
        { -0.00219156f },
        { -0.00226382f },
        { -0.00219819f },
        { -0.00209412f },
        { -0.00200165f },
        { -0.00192639f },
        { -0.00187893f },
        { -0.00181025f },
        { -0.00166097f },
        { -0.00151595f },
        { -0.00150904f },
        { -0.00158611f },
        { -0.00156338f },
        { -0.00139519f },
        { -0.00122052f },
        { -0.00113318f },
        { -0.00103853f },
        { -0.00083806f },
        { -0.00063530f },
        { -0.00057462f },
        { -0.00058965f },
        { -0.00052110f },
        { -0.00038254f },
        { -0.00032187f },
        { -0.00038041f },
        { -0.00043144f },
        { -0.00034601f },
        { -0.00013261f },
        { 0.00008208f },
        { 0.00016323f },
        { 0.00010017f },
        { 0.00004305f },
        { 0.00013594f },
        { 0.00035456f },
        { 0.00057684f },
        { 0.00071296f },
        { 0.00073143f },
        { 0.00068017f },
        { 0.00066288f },
        { 0.00071413f },
        { 0.00078858f },
        { 0.00086976f },
        { 0.00093872f },
        { 0.00092841f },
        { 0.00086762f },
        { 0.00091341f },
        { 0.00112259f },
        { 0.00135794f },
        { 0.00148923f },
        { 0.00155125f },
        { 0.00165147f },
        { 0.00181994f },
        { 0.00201192f },
        { 0.00217416f },
        { 0.00224855f },
        { 0.00222650f },
        { 0.00223793f },
        { 0.00240714f },
        { 0.00261369f },
        { 0.00264666f },
        { 0.00257154f },
        { 0.00262787f },
        { 0.00280621f },
        { 0.00288950f },
        { 0.00286840f },
        { 0.00294713f },
        { 0.00316138f },
        { 0.00329885f },
        { 0.00321027f },
        { 0.00300860f },
        { 0.00293004f },
        { 0.00308371f },
        { 0.00335901f },
        { 0.00352225f },
        { 0.00341395f },
        { 0.00314609f },
        { 0.00305184f },
        { 0.00330599f },
        { 0.00369158f },
        { 0.00386876f },
        { 0.00375255f },
        { 0.00354203f },
        { 0.00347588f },
        { 0.00359951f },
        { 0.00376401f },
        { 0.00384263f },
        { 0.00383287f },
        { 0.00373294f },
        { 0.00352192f },
        { 0.00329503f },
        { 0.00321302f },
        { 0.00330149f },
        { 0.00345284f },
        { 0.00357276f },
        { 0.00362006f },
        { 0.00360556f },
        { 0.00357392f },
        { 0.00350881f },
        { 0.00339315f },
        { 0.00337100f },
        { 0.00354858f },
        { 0.00371179f },
        { 0.00361617f },
        { 0.00338434f },
        { 0.00325363f },
        { 0.00317271f },
        { 0.00297188f },
        { 0.00271633f },
        { 0.00260458f },
        { 0.00263198f },
        { 0.00261538f },
        { 0.00250944f },
        { 0.00243467f },
        { 0.00242569f },
        { 0.00240480f },
        { 0.00234824f },
        { 0.00228183f },
        { 0.00218356f },
        { 0.00204237f },
        { 0.00196534f },
        { 0.00204757f },
        { 0.00210835f },
        { 0.00181715f },
        { 0.00122402f },
        { 0.00084719f },
        { 0.00098366f },
        { 0.00125348f },
        { 0.00115439f },
        { 0.00076748f },
        { 0.00051561f },
        { 0.00047698f },
        { 0.00039006f },
        { 0.00015329f },
        { -0.00012045f },
        { -0.00038115f },
        { -0.00058773f },
        { -0.00059313f },
        { -0.00041464f },
        { -0.00036246f },
        { -0.00064695f },
        { -0.00108620f },
        { -0.00135069f },
        { -0.00135355f },
        { -0.00130310f },
        { -0.00140450f },
        { -0.00163690f },
        { -0.00187945f },
        { -0.00208921f },
        { -0.00227872f },
        { -0.00244983f },
        { -0.00258293f },
        { -0.00269093f },
        { -0.00288834f },
        { -0.00322890f },
        { -0.00349042f },
        { -0.00343532f },
        { -0.00321925f },
        { -0.00323212f },
        { -0.00363362f },
        { -0.00421777f },
        { -0.00466104f },
        { -0.00487324f },
        { -0.00504767f },
        { -0.00531172f },
        { -0.00553480f },
        { -0.00556714f },
        { -0.00545809f },
        { -0.00539431f },
        { -0.00551482f },
        { -0.00577218f },
        { -0.00600514f },
        { -0.00614402f },
        { -0.00622409f },
        { -0.00625546f },
        { -0.00621566f },
        { -0.00609581f },
        { -0.00594307f },
        { -0.00593766f },
        { -0.00624600f },
        { -0.00668556f },
        { -0.00682980f },
        { -0.00659913f },
        { -0.00644502f },
        { -0.00671342f },
        { -0.00708505f },
        { -0.00701736f },
        { -0.00654869f },
        { -0.00621043f },
        { -0.00630107f },
        { -0.00667650f },
        { -0.00708014f },
        { -0.00730100f },
        { -0.00718061f },
        { -0.00680198f },
        { -0.00653261f },
        { -0.00656533f },
        { -0.00656293f },
        { -0.00618264f },
        { -0.00578320f },
        { -0.00593670f },
        { -0.00639791f },
        { -0.00642021f },
        { -0.00591716f },
        { -0.00544961f },
        { -0.00527245f },
        { -0.00511638f },
        { -0.00478210f },
        { -0.00443161f },
        { -0.00426002f },
        { -0.00424198f },
        { -0.00433324f },
        { -0.00455771f },
        { -0.00474199f },
        { -0.00460717f },
        { -0.00422311f },
        { -0.00387274f },
        { -0.00349256f },
        { -0.00281059f },
        { -0.00200165f },
        { -0.00166504f },
        { -0.00198502f },
        { -0.00226243f },
        { -0.00175839f },
        { -0.00086973f },
        { -0.00064746f },
        { -0.00115539f },
        { -0.00138754f },
        { -0.00086314f },
        { -0.00019870f },
        { -0.00002579f },
        { -0.00020307f },
        { -0.00019443f },
        { 0.00024476f },
        { 0.00085960f },
        { 0.00126604f },
        { 0.00144604f },
        { 0.00168835f },
        { 0.00206846f },
        { 0.00237956f },
        { 0.00259411f },
        { 0.00290133f },
        { 0.00325299f },
        { 0.00336127f },
        { 0.00321741f },
        { 0.00319528f },
        { 0.00351766f },
        { 0.00396536f },
        { 0.00423436f },
        { 0.00426908f },
        { 0.00423354f },
        { 0.00444685f },
        { 0.00517489f },
        { 0.00617957f },
        { 0.00676099f },
        { 0.00661095f },
        { 0.00633088f },
        { 0.00662194f },
        { 0.00726472f },
        { 0.00756893f },
        { 0.00748472f },
        { 0.00748282f },
        { 0.00771692f },
        { 0.00794316f },
        { 0.00790096f },
        { 0.00756697f },
        { 0.00731356f },
        { 0.00752541f },
        { 0.00797074f },
        { 0.00817565f },
        { 0.00824648f },
        { 0.00859443f },
        { 0.00917647f },
        { 0.00960887f },
        { 0.00969821f },
        { 0.00950892f },
        { 0.00921472f },
        { 0.00909460f },
        { 0.00937907f },
        { 0.00987367f },
        { 0.01003494f },
        { 0.00967862f },
        { 0.00928298f },
        { 0.00935895f },
        { 0.00979864f },
        { 0.01001248f },
        { 0.00966755f },
        { 0.00916107f },
        { 0.00905027f },
        { 0.00922554f },
        { 0.00930353f },
        { 0.00941365f },
        { 0.00966621f },
        { 0.00952080f },
        { 0.00882583f },
        { 0.00858652f },
        { 0.00936791f },
        { 0.00999327f },
        { 0.00929643f },
        { 0.00802830f },
        { 0.00757929f },
        { 0.00796504f },
        { 0.00836550f },
        { 0.00858064f },
        { 0.00882997f },
        { 0.00891158f },
        { 0.00847692f },
        { 0.00779240f },
        { 0.00762108f },
        { 0.00824318f },
        { 0.00891957f },
        { 0.00876902f },
        { 0.00793153f },
        { 0.00720614f },
        { 0.00689815f },
        { 0.00678251f },
        { 0.00671623f },
        { 0.00657169f },
        { 0.00609204f },
        { 0.00536351f },
        { 0.00490838f },
        { 0.00494118f },
        { 0.00507323f },
        { 0.00496177f },
        { 0.00467788f },
        { 0.00439041f },
        { 0.00419800f },
        { 0.00413085f },
        { 0.00399349f },
        { 0.00343284f },
        { 0.00230509f },
        { 0.00095757f },
        { 0.00013146f },
        { 0.00018878f },
        { 0.00040584f },
        { -0.00019652f },
        { -0.00139138f },
        { -0.00214113f },
        { -0.00222543f },
        { -0.00232423f },
        { -0.00272802f },
        { -0.00301948f },
        { -0.00297585f },
        { -0.00312501f },
        { -0.00421271f },
        { -0.00615333f },
        { -0.00773327f },
        { -0.00784944f },
        { -0.00698848f }
    }
};

static const port_float tcn_initial_projection_kernel[1u][1u][8u] = {
    {
        { 0.49499813f, 0.45920533f, 0.33252466f, 0.87357020f, -0.67767155f, -0.89684218f, 0.67153430f, 0.67618269f }
    }
};

static const port_float tcn_initial_projection_bias[8u] = { -0.22557555f, 0.01829794f, -0.18121810f, 0.00647719f, -0.00598910f, 0.00148666f, -0.02008268f, 0.02080290f };

static const port_float temporal_block_1_conv_1_kernel[3u][8u][8u] = {
    {
        { -0.11711434f, 0.28672194f, -0.68986285f, 0.77933973f, 0.02566790f, 0.04136298f, -0.13167235f, -0.27964813f },
        { 0.21258877f, 0.34380966f, -1.21193421f, 0.01625069f, 0.00872021f, -0.13216227f, -0.08970673f, 0.17559339f },
        { -0.21181670f, 0.71148765f, -1.27534211f, 0.84451514f, 0.29965648f, -0.11958689f, 0.51892674f, 0.28112298f },
        { -0.13710168f, 0.14000411f, -0.48032737f, 0.31414497f, -0.09338760f, -0.14732657f, 0.38171268f, -0.35130218f },
        { 0.11876362f, 0.33251667f, 0.06066421f, -0.00413056f, 0.24811788f, 0.13698541f, -0.13875520f, 0.27353412f },
        { 0.22105569f, 0.02413754f, 0.64374524f, 0.28083149f, 0.11019062f, 0.35771030f, -0.18687455f, 0.26408151f },
        { 0.37715912f, -0.20474678f, -0.83157557f, 0.26312858f, -0.29165858f, -0.36097732f, 0.16560920f, -0.39241806f },
        { -0.00574994f, -0.00353224f, -1.03572857f, 0.25419980f, 0.00474468f, -0.09893294f, 0.27204385f, -0.19849679f }
    },
    {
        { -0.06254073f, 0.20339453f, 1.37424529f, 0.71835905f, 0.12373731f, 0.03792161f, -0.15121777f, -0.31816307f },
        { 0.14451660f, -0.11957974f, -0.04894858f, 0.35341820f, -0.09259854f, -0.29831460f, -0.06305454f, 0.26721004f },
        { -0.21498303f, 0.37585518f, 0.43670619f, 0.27588049f, 0.20450078f, -0.03737414f, 0.03542111f, -0.18573812f },
        { 0.32800287f, 0.36809930f, 0.09698432f, -0.18190321f, -0.10459480f, -0.19988923f, 0.45424703f, -0.14291959f },
        { 0.04687604f, -0.28858289f, -0.25606576f, -0.15523575f, -0.19420686f, -0.00398296f, 0.19624452f, 0.23902361f },
        { 0.08046113f, 0.08042485f, 0.03228769f, 0.29714426f, -0.37195796f, 0.14787944f, -0.34168199f, 0.22254312f },
        { 0.23793410f, 0.45444953f, 0.07037178f, -0.09981848f, -0.27857867f, 0.00801292f, 0.37570858f, -0.49444374f },
        { 0.37430736f, 0.18223435f, -0.40265700f, 0.19326811f, -0.19250779f, -0.25970882f, 0.07389481f, -0.04600240f }
    },
    {
        { 0.27620384f, 0.36646843f, 2.06098914f, 0.19955294f, -0.15750054f, 0.04010465f, 0.00910839f, -0.41617996f },
        { -0.16265203f, 0.34539723f, 0.25465596f, 0.03159146f, -0.26644936f, 0.03029420f, 0.11663434f, 0.28872976f },
        { -0.51605153f, 0.18622671f, 1.53069949f, 0.20072861f, 0.33954573f, 0.07668667f, 0.58409297f, -0.14483541f },
        { -0.38480926f, 0.41273436f, 0.54232568f, 0.31863412f, -0.23321152f, 0.16699475f, 0.63852578f, 0.08000649f },
        { 0.30932525f, -0.01941340f, -0.48399875f, -0.54768944f, 0.26126444f, -0.42844376f, -0.09431535f, 0.26689669f },
        { 0.27695674f, -0.20810296f, -0.50283706f, -0.37259850f, -0.20388180f, -0.34580532f, -0.05929288f, 0.04309404f },
        { -0.35281497f, 0.28884390f, 0.94466096f, -0.09325533f, -0.07154373f, 0.10416099f, 0.15882042f, -0.01930843f },
        { -0.36605111f, 0.50650984f, 0.36144170f, 0.11318523f, -0.21347420f, 0.49668980f, 0.33443096f, -0.22476412f }
    }
};

static const port_float temporal_block_1_conv_1_bias[8u] = { 0.01917818f, 0.01560749f, -0.03437125f, 0.04666381f, -0.03539959f, 0.05719187f, 0.00088771f, -0.02224719f };

static const port_float temporal_block_1_conv_2_kernel[3u][8u][8u] = {
    {
        { 0.37833029f, 0.15726881f, 0.21240430f, -0.09141928f, 0.17952752f, -0.23818077f, -0.06243732f, -0.16834109f },
        { -0.23186196f, -0.11601246f, -0.17063048f, -0.15481846f, 0.13857114f, 0.08125003f, -0.20737526f, -0.13358068f },
        { 0.82903647f, -0.89656669f, -0.24034284f, 0.15263352f, 0.39155406f, -0.22472654f, 0.05652446f, 0.77186364f },
        { 0.43957251f, 0.07798623f, 0.13959645f, -0.29150328f, 0.06760028f, 0.22127759f, -0.34598157f, -0.20565741f },
        { 0.17572354f, 0.32435209f, 0.26290774f, -0.11440133f, 0.42534840f, 0.22817001f, 0.23340833f, -0.08526990f },
        { 0.21876441f, -0.33840430f, 0.12596174f, 0.23905383f, 0.49287254f, 0.36352941f, -0.00544770f, 0.39879552f },
        { -0.57829052f, -0.14672333f, -0.02129684f, -0.25452203f, -0.44052285f, 0.19056715f, 0.19286904f, -0.22174932f },
        { 0.15061709f, 0.25065228f, 0.39178810f, -0.02417428f, 0.05270612f, -0.03805318f, 0.20678706f, 0.39852354f }
    },
    {
        { -0.00276215f, -0.20303813f, 0.05179295f, -0.05695540f, 0.24967226f, -0.61769760f, -0.38564146f, 0.09082271f },
        { -0.08385713f, 0.28087330f, 0.35871416f, 0.04927704f, -0.03026219f, 0.34186846f, -0.28003329f, 0.29405773f },
        { -0.23586431f, 0.10666911f, 0.10131980f, 0.09684187f, 0.39160478f, -1.44716251f, 0.16900684f, 0.36219651f },
        { 0.39208820f, 0.15746517f, 0.24738337f, -0.31806532f, -0.05912662f, -0.34528083f, -0.19123268f, 0.10569277f },
        { 0.07371997f, -0.18949072f, 0.01195112f, 0.20902574f, -0.13790645f, 0.09342963f, -0.35569620f, -0.03052056f },
        { -0.22264209f, -0.08717372f, -0.01455999f, -0.05214864f, -0.30081493f, 0.24402790f, 0.12504499f, 0.19447297f },
        { -0.41440779f, -0.21227960f, 0.29238787f, -0.15404892f, -0.17178336f, -0.31287590f, 0.25397122f, -0.18081170f },
        { 0.24721719f, -0.08356281f, -0.16977242f, 0.23705685f, 0.14038137f, 0.34500769f, -0.05001565f, -0.09981839f }
    },
    {
        { 0.42694911f, -0.21932225f, -0.29655093f, -0.09478863f, 0.07408469f, -0.65623355f, -0.35140872f, -0.22201684f },
        { -0.18180458f, 0.49317092f, 0.47342777f, -0.30162257f, 0.09072684f, 0.12897374f, -0.07011984f, 0.11134788f },
        { 0.38919479f, 0.43607530f, -0.48838651f, -0.24762487f, 0.25689006f, 0.04076883f, 0.04335596f, 0.48451874f },
        { -0.47702435f, 0.46748492f, 0.24248183f, -0.03515369f, -0.37441775f, 0.08390844f, -0.09116338f, -0.12932502f },
        { 0.10969143f, -0.08859110f, 0.27639568f, -0.01022873f, 0.41119078f, 0.13844186f, 0.10207450f, 0.20353867f },
        { 0.05032187f, -0.44281930f, 0.36101913f, -0.00987263f, -0.60365206f, -0.01557753f, -0.06363319f, 0.57065380f },
        { 0.43668053f, 0.43315983f, 0.21516444f, -0.35258391f, -0.20889865f, 0.36202309f, -0.01607759f, 0.32762015f },
        { 0.26652342f, 0.21062700f, -0.26264966f, -0.09856732f, 0.30543214f, -0.12669562f, -0.26034737f, -0.07325480f }
    }
};

static const port_float temporal_block_1_conv_2_bias[8u] = { -0.04918729f, 0.00452185f, 0.06619029f, -0.01561622f, 0.03599226f, -0.03079195f, -0.10520135f, 0.04307295f };

static const port_float temporal_block_2_conv_1_kernel[3u][8u][8u] = {
    {
        { -0.17188707f, 0.29048589f, -0.09047581f, -0.27947673f, -0.07628560f, -0.07345288f, -0.08244549f, 0.03312642f },
        { -0.17488228f, -0.17515945f, -0.16867928f, 0.21829887f, 0.14899033f, -0.12201145f, -0.00163345f, -0.21836939f },
        { -0.14760180f, -0.06646104f, 0.23929612f, 0.34923136f, -0.22443835f, -0.18804553f, -0.22805755f, 0.24152021f },
        { -0.34587994f, 0.21700265f, 0.25326061f, -0.01037547f, -0.02317638f, 0.10170427f, 0.21372211f, -0.02819657f },
        { 0.09604397f, -0.02692130f, -0.25969774f, 0.01523850f, -0.07970124f, 0.23368551f, 0.22332615f, 0.46339351f },
        { 0.16917668f, -0.53258228f, 0.07938831f, -0.31632766f, 0.16357219f, -0.13062774f, -0.14094840f, -0.30632409f },
        { -0.14463437f, -0.31867486f, 0.06376056f, -0.34508219f, -0.11396631f, -0.33843639f, -0.26507002f, 0.20973900f },
        { 0.56754732f, 0.21132068f, -0.19094180f, 0.14710778f, 0.32266203f, -0.16801907f, -0.12563622f, -0.15157692f }
    },
    {
        { 0.29157826f, 0.13923101f, -0.29428509f, 0.19691542f, -0.02999361f, 0.03478813f, -0.18360691f, 0.14568590f },
        { 0.34128144f, -0.08327847f, -0.20043692f, -0.22574738f, 0.06626043f, 0.36523086f, 0.13423960f, 0.23910911f },
        { -0.07377467f, -0.07056936f, 0.36996609f, -0.35683876f, 0.36583120f, -0.33983916f, 0.30901498f, 0.21746558f },
        { 0.06174696f, -0.09819381f, -0.02680117f, 0.31076038f, -0.16695318f, 0.03141838f, -0.15838994f, -0.08043274f },
        { 0.04647344f, 0.10565706f, -0.19843164f, -0.23963334f, 0.07904741f, -0.36055216f, 0.15823267f, -0.01100883f },
        { -0.33652484f, 0.07850354f, 0.25676930f, 0.01449855f, -0.23479274f, -0.23294976f, 0.23391820f, -0.01592157f },
        { 0.24395195f, -0.05877871f, 0.30200776f, -0.14978880f, -0.05824674f, 0.05717689f, 0.18207079f, -0.30930418f },
        { -0.05479628f, 0.21080528f, 0.21558543f, -0.21715738f, 0.15041621f, 0.17941231f, 0.31406704f, 0.02432104f }
    },
    {
        { 0.36137441f, 0.49303153f, -0.26947331f, 0.04369931f, -0.17803027f, -0.08231325f, -0.09429121f, 0.32991236f },
        { 0.09649249f, 0.28163153f, 0.13869378f, 0.00570187f, -0.38964757f, 0.25513357f, 0.32850757f, 0.07809284f },
        { -0.31575680f, -0.40336007f, -0.06945367f, -0.25021663f, -0.02921158f, -0.28374684f, 0.39392275f, -0.13195318f },
        { 0.19229461f, -0.25999215f, -0.32733425f, 0.22835839f, -0.11618495f, -0.29581299f, 0.06138924f, -0.07407025f },
        { 0.31486219f, 0.33619732f, -0.31455261f, 0.15080632f, 0.07221914f, 0.33755478f, -0.06834545f, 0.23967078f },
        { -0.53409159f, -1.76627481f, 0.19887008f, -0.04010467f, -0.18712424f, 0.23326209f, 0.22080936f, -0.48173639f },
        { -0.26988426f, -0.29247296f, -0.16335657f, 0.33528510f, -0.16118188f, -0.12042099f, -0.15065454f, 0.16239260f },
        { -0.38629916f, -0.34529954f, 0.28023207f, -0.23514181f, 0.09395187f, 0.25493082f, 0.06418590f, -0.39699018f }
    }
};

static const port_float temporal_block_2_conv_1_bias[8u] = { -0.19292663f, 0.08835316f, -0.07751745f, 0.10604768f, 0.08491144f, 0.08372859f, 0.04968118f, 0.02881675f };

static const port_float temporal_block_2_conv_2_kernel[3u][8u][8u] = {
    {
        { 0.16490863f, -0.10328072f, -0.00130684f, -0.05865403f, -0.51810759f, 0.04707194f, -0.27252051f, -0.14310412f },
        { 0.05840541f, -0.35872594f, -0.21457134f, -0.05679601f, -0.04299570f, 0.39452767f, 0.02972459f, -0.18832526f },
        { 0.32495388f, -0.40305275f, 0.27524531f, 0.35637832f, 0.14800714f, -0.42353055f, -0.11083401f, 0.13805293f },
        { -0.15762372f, -0.78698558f, 0.50845075f, 0.34541187f, 0.13266371f, -0.32653496f, 0.03767429f, 0.15638800f },
        { -0.38783351f, -0.10447620f, -0.30608714f, 0.17221053f, -0.07670182f, 0.09919409f, -0.25112033f, 0.10193031f },
        { 0.41489708f, 0.21871381f, -0.59711534f, -0.11727151f, -0.11332874f, 0.04069138f, -0.04105898f, 0.10355567f },
        { 0.06962692f, -0.24408266f, -0.24524859f, -0.08823593f, 0.35138211f, -0.07067572f, 0.34363562f, 0.06357394f },
        { -0.03833947f, -0.95097858f, -0.43980867f, 0.12347768f, -0.24833205f, 0.23777167f, -0.09910388f, -0.25344643f }
    },
    {
        { -0.02937902f, 0.03253342f, -0.22608215f, -0.42901328f, -0.19180372f, 0.19564848f, -0.24526402f, -0.30749613f },
        { 0.30534655f, 0.46228430f, -0.96436548f, -0.22761925f, -0.11571324f, 0.03155291f, 0.38544708f, 0.27155033f },
        { -0.02974436f, 0.03809740f, -0.08521770f, -0.17414190f, 0.17034215f, -1.59811127f, 0.37928575f, -0.10188046f },
        { 0.19062701f, 0.63369232f, 0.34680647f, 0.62174767f, 0.09365201f, -0.20039597f, -0.36694622f, -0.25087509f },
        { 0.20224987f, -0.25223717f, -0.18159504f, 0.04227532f, 0.21056998f, 0.56387538f, -0.43305150f, -0.19213127f },
        { -0.07735192f, 0.15128905f, 0.24681419f, -0.04156181f, 0.21249728f, -0.12485614f, 0.15543717f, -0.09391329f },
        { 0.08852138f, -0.38854915f, -0.17085056f, -0.33753169f, 0.04450367f, -0.21058494f, 0.11965965f, -0.25419122f },
        { 0.25823876f, -0.66302294f, -0.24252608f, -0.18612950f, 0.06226699f, 0.23831710f, 0.40851223f, -0.18496589f }
    },
    {
        { 0.26653254f, -0.04152534f, -0.61436421f, -0.13770954f, 0.37337443f, 0.35515344f, 0.15357958f, -0.12802882f },
        { 0.55186927f, -0.02901589f, -1.30862868f, -0.00199141f, 0.51749390f, 0.45426235f, -0.35092530f, 0.08507005f },
        { -0.05547897f, 0.39169964f, 0.10882035f, -0.17006548f, -0.29255989f, 0.19039726f, 0.02048464f, -0.17264941f },
        { 0.29473981f, -0.36547676f, 0.42344895f, -0.20769890f, 0.08329628f, 0.13339758f, -0.40179655f, -0.31210122f },
        { 0.27065146f, 0.27775529f, 0.08060017f, -0.23355123f, 0.23569126f, 0.16568555f, 0.04726752f, -0.09502239f },
        { 0.42435759f, 1.09922552f, -0.15324436f, -0.31427476f, 0.03254784f, 0.13218991f, 0.25336254f, 0.09817973f },
        { -0.30114365f, 0.18966477f, 0.16451208f, 0.37755626f, -0.31624895f, -0.25433719f, 0.37130171f, -0.20426588f },
        { 0.50976896f, 0.00554449f, -0.23628095f, 0.14081065f, 0.01340395f, -0.16049127f, -0.24118645f, -0.19443354f }
    }
};

static const port_float temporal_block_2_conv_2_bias[8u] = { 0.23784685f, -0.04805923f, 0.14563875f, -0.01949433f, -0.02402425f, -0.06074164f, 0.04537467f, -0.07109914f };

static const port_float temporal_block_3_conv_1_kernel[3u][8u][8u] = {
    {
        { 0.08308628f, 0.13244449f, 0.20070541f, 0.01428960f, 0.22217691f, 0.24363941f, 0.25078481f, 0.19441342f },
        { -0.82057500f, 0.19807933f, -0.76957607f, -0.94545323f, -0.25508976f, 0.03372991f, 0.76290119f, 0.35271981f },
        { 0.50890392f, 0.11765761f, 0.10014705f, -0.05915381f, 0.13007620f, -0.19442040f, -0.02727430f, -1.29799926f },
        { -0.05520358f, -0.29962233f, 0.16955119f, -0.57227743f, -0.14979652f, -0.16753347f, 0.02873862f, 0.08167952f },
        { 0.52066714f, -0.33888865f, -0.09280064f, -0.20478684f, -0.00262405f, 0.11308596f, -0.23629712f, -0.00574991f },
        { 0.01934042f, 0.37354890f, 0.07498027f, -0.09288425f, 0.14460509f, -0.10250065f, -0.03557787f, 0.11639225f },
        { 0.28069735f, -0.20197433f, -0.03047034f, -0.06317279f, 0.15653294f, 0.18458901f, 0.07608099f, 0.17840736f },
        { -0.26089567f, -0.30715898f, -0.26494595f, -0.13050468f, -0.42346531f, -0.11790329f, 0.08328675f, 0.04150316f }
    },
    {
        { -0.06005188f, -0.16646771f, 0.12436383f, 0.42115846f, -0.06042150f, 0.15577050f, -0.19925256f, -0.10073034f },
        { 0.07471292f, -0.23515430f, 0.14275615f, -0.80351812f, 1.14862192f, 0.58054072f, 1.36762953f, 0.82943010f },
        { -0.18165450f, -0.35325012f, 0.02602901f, -0.38153264f, -0.16860293f, 0.17507201f, -0.52924711f, 0.15039733f },
        { -0.04827082f, -0.20766129f, -0.12558465f, -0.08278196f, -0.31101587f, -0.45152241f, -0.31768143f, 0.18336149f },
        { -0.18748850f, 0.00184156f, -0.14306530f, -0.34558359f, -0.21208571f, -0.33074158f, 0.27674013f, 0.25314018f },
        { 0.06876252f, 0.30446801f, -0.27875662f, -0.15771328f, 0.37024337f, 0.22824611f, 0.25354177f, -0.30368116f },
        { 0.25991830f, -0.08953977f, 0.30193651f, 0.01366767f, -0.29717329f, 0.10642760f, 0.31187540f, 0.36274588f },
        { 0.08391701f, 0.00383345f, -0.37650126f, 0.11438508f, -0.07893939f, -0.35118949f, 0.34654045f, -0.38318530f }
    },
    {
        { -0.32643330f, 0.42191833f, -0.06492477f, -0.43686128f, -0.34736365f, -0.40401474f, -0.28438279f, -0.36818263f },
        { -0.14510760f, 0.39396024f, 0.70161498f, 0.21072060f, 2.48489618f, 2.55516315f, 2.83246827f, 1.20933175f },
        { -0.89961618f, -0.68895864f, 0.24418469f, -0.45129466f, 0.03457728f, -0.58866268f, 0.20735453f, -0.81084514f },
        { -0.19106963f, 0.15498559f, 0.02520712f, -0.02506222f, 0.39053795f, -0.27462393f, -0.21998838f, -0.20610416f },
        { 0.27252814f, 0.23136066f, -0.08154931f, -1.17378342f, -0.34480172f, -0.02250314f, -0.26104531f, -0.15288831f },
        { -1.13216555f, 0.28492656f, -0.11526155f, 0.46179223f, -0.29643309f, -0.05216682f, 0.12472892f, -0.20747688f },
        { -0.38109332f, -0.00715143f, 0.61540794f, 0.21975510f, -0.13118877f, 0.12401807f, 0.20948075f, -0.13538533f },
        { -0.21710259f, -0.14010586f, 0.12930007f, 0.22676942f, -0.00894271f, 0.01753427f, -0.42748332f, -0.07699619f }
    }
};

static const port_float temporal_block_3_conv_1_bias[8u] = { -0.31651950f, -0.04162283f, 0.02163665f, 0.15559146f, 0.08601189f, -0.00467427f, 0.05274838f, -0.11188404f };

static const port_float temporal_block_3_conv_2_kernel[3u][8u][8u] = {
    {
        { -0.44267491f, 0.54023904f, -0.18566076f, -0.14298382f, -0.37235260f, 0.24323979f, -0.15715231f, -0.29613853f },
        { -0.25046727f, -0.18935508f, 0.02176469f, -0.12594528f, 0.03321678f, -0.13364133f, -0.06734693f, -0.15532398f },
        { -0.56134892f, 0.24452902f, 0.14185789f, 0.34195685f, 0.17637374f, -0.11235284f, 0.27547473f, -0.06808618f },
        { -0.66615945f, -0.27442205f, 0.15380751f, 0.07451419f, -0.14084901f, -0.08531200f, -0.10498419f, -0.07429329f },
        { -0.09899803f, -0.13787356f, -0.09844938f, -0.19611381f, -0.83235139f, 0.35200649f, 0.14499167f, 0.25529763f },
        { 1.02722704f, 0.27238300f, -0.16965494f, 0.29614818f, -0.07387798f, -0.04940809f, 0.17844296f, -0.06904200f },
        { -0.32186189f, -0.18131174f, 0.25904986f, 0.05227936f, 0.28946966f, 0.00375999f, 0.28814694f, -0.20278645f },
        { 0.22873567f, 0.17503679f, -0.33272213f, -0.13595352f, -0.37400210f, -0.29508424f, 0.13871028f, -0.15430485f }
    },
    {
        { -0.31342632f, -0.13869132f, 0.10843185f, -0.00739001f, -0.20471911f, 0.45533279f, 0.09856535f, -0.33005443f },
        { -0.12601958f, -0.14031579f, -0.07112749f, 0.46062499f, 0.20947860f, -0.03840381f, 0.15905258f, -0.21637276f },
        { -0.01139042f, -0.27768433f, 0.07997522f, 0.07958158f, -0.31995690f, -0.13742992f, 0.29476857f, -0.40241861f },
        { -1.96487224f, 0.45336056f, -0.11510139f, 0.23162046f, -0.22191387f, -0.06877432f, 0.30078441f, -0.00377606f },
        { -1.63020182f, 0.28131476f, -0.36355752f, 0.04109820f, -0.05560877f, 0.42419204f, 0.24663548f, 0.13926752f },
        { 0.89723438f, -0.28450224f, -0.26445743f, -0.08662072f, 0.18949798f, 0.47260651f, 0.27997893f, -0.23662655f },
        { -0.13381991f, -0.00173816f, -0.02446675f, 0.07636346f, -0.06500712f, -0.21516147f, 0.10694588f, 0.19504438f },
        { -0.14767076f, -0.15089966f, 0.21209873f, -0.23945464f, -0.45747578f, -0.03540099f, 0.26510903f, 0.01181751f }
    },
    {
        { -0.12851530f, -0.32010940f, 0.08512999f, -0.48266926f, 0.00859082f, -0.35855731f, -0.08482265f, 0.22922723f },
        { -0.05033619f, 0.18417473f, 0.32245433f, 0.45357823f, -0.28932080f, 0.33774424f, -0.08715482f, -0.25334859f },
        { -0.84762400f, 0.06065644f, -0.04939339f, -0.32167798f, 0.04074338f, -0.31308392f, 0.42938602f, -0.00498978f },
        { -0.83149838f, 0.01533533f, -0.15630095f, -0.21992889f, 0.48161295f, 0.13335051f, 0.44503883f, 0.07555111f },
        { -1.00314176f, 0.06147271f, -0.07291182f, 0.05641785f, 0.23079450f, 0.18257341f, 0.29252726f, -0.01629675f },
        { 0.18548411f, -0.26515821f, -0.22638513f, -0.23911768f, 0.23134145f, -0.23269421f, 0.01731531f, -0.07567669f },
        { -0.32433078f, 0.09252993f, 0.02053681f, 0.12150683f, -0.45874619f, -0.09628330f, 0.48106793f, -0.20984444f },
        { -0.47574759f, 0.12207270f, -0.00057940f, -0.12120122f, -0.02579037f, -0.73647934f, 0.10464913f, 0.18565649f }
    }
};

static const port_float temporal_block_3_conv_2_bias[8u] = { 0.22426285f, 0.01702604f, 0.00833476f, 0.05575272f, -0.08017641f, -0.16532682f, 0.00947506f, -0.02543744f };

static const port_float temporal_block_4_conv_1_kernel[3u][8u][8u] = {
    {
        { -0.23964114f, 0.68062222f, -0.65878302f, -0.01060047f, 0.30565783f, -0.13541876f, -0.00161734f, 0.07248037f },
        { 0.10434265f, 0.09535430f, 0.67158175f, 0.15957259f, -0.18851276f, -0.44883031f, 0.20232123f, -0.19626413f },
        { 0.16879520f, 0.31782433f, -0.01242060f, 0.14670281f, -0.07656993f, 0.05762148f, 0.15906410f, -0.22214819f },
        { 0.35585263f, -0.05063818f, 0.05039876f, -0.22390522f, -0.03623762f, -0.50842088f, 0.23688066f, -0.11306800f },
        { 0.26212427f, -0.01610976f, -2.06943321f, -0.24110018f, -0.01842177f, 0.16640465f, 0.49304098f, 0.14215071f },
        { -0.42692566f, 0.02330658f, -0.53618413f, -0.14172924f, -0.15974785f, 0.22296281f, 0.23787752f, 0.21638553f },
        { 0.00148895f, 0.13327913f, 0.21329305f, -0.08577023f, -0.00094675f, -0.04669107f, 0.19606684f, -0.16669559f },
        { -0.33610508f, -0.29622325f, 0.24023604f, -0.20066530f, 0.20353952f, -0.21055356f, 0.16287798f, -0.22383492f }
    },
    {
        { -0.34356615f, 0.56233793f, -0.09154052f, 0.07981578f, 0.67277199f, -0.59546047f, 0.47748682f, -0.27716124f },
        { 0.15922996f, 0.11414542f, 0.13107009f, -0.12852190f, 0.06110556f, -0.24768344f, -0.18238795f, -0.20947599f },
        { 0.02922868f, -0.22697955f, 0.25809059f, 0.32662323f, 0.16058710f, 0.08909332f, 0.23899238f, -0.27154177f },
        { -0.07177531f, 0.22533065f, -0.36067683f, -0.27403533f, 0.02288224f, -0.23551461f, 0.23363267f, -0.32150510f },
        { 0.45802602f, 0.10801659f, -0.13288863f, -0.44836634f, 0.37839925f, 0.15857865f, -0.09454709f, 0.24522930f },
        { -0.46010241f, 0.21366787f, 0.19663616f, -0.53626370f, 0.08429369f, 0.02576070f, 0.38796973f, 0.07901092f },
        { 0.08686675f, 0.23164757f, -0.12499987f, 0.04748110f, 0.33251682f, -0.55488461f, -0.05969374f, 0.04589668f },
        { -0.07158034f, 0.07882195f, -0.23999292f, -0.02012046f, 0.07321787f, 0.18566392f, -0.30361593f, 0.06392109f }
    },
    {
        { -0.53960449f, -0.01096589f, -0.17034800f, 0.67367882f, -0.09407498f, 2.48667049f, 0.29856768f, -0.29158026f },
        { -0.37357318f, 0.21088874f, -0.00532283f, 0.06171472f, -0.29263422f, -0.12444318f, -0.16816963f, -0.23885137f },
        { 0.17226818f, 0.36297464f, 0.52450484f, 0.02850004f, -0.16175871f, -0.19726653f, -0.04019161f, -0.01104668f },
        { 0.07186258f, 0.38172984f, 0.24245754f, 0.56591022f, -0.31011948f, 0.17208080f, 0.36529973f, -0.25609335f },
        { 0.16424370f, 0.11241533f, -0.39812508f, 0.17756329f, -0.56657898f, 1.92697906f, 0.25628507f, -0.17734620f },
        { -0.29928181f, 0.38665974f, 0.44005954f, -0.19195142f, 0.10317398f, 0.77991861f, -0.06940200f, 0.20115325f },
        { -0.29904926f, -0.21869883f, -0.13110158f, -0.09005231f, 0.13457817f, -0.08238701f, -0.22422080f, -0.10147633f },
        { 0.27952036f, 0.18610282f, 0.25528088f, 0.22669885f, -0.16091867f, -0.25536799f, -0.08036612f, -0.26166338f }
    }
};

static const port_float temporal_block_4_conv_1_bias[8u] = { 0.02650028f, 0.06209090f, -0.15389504f, 0.04439449f, 0.06957299f, -0.03253578f, -0.01350392f, -0.01347190f };

static const port_float temporal_block_4_conv_2_kernel[3u][8u][8u] = {
    {
        { 0.38454896f, 0.26793730f, -0.05258537f, 0.28396025f, 0.39194024f, -0.02999948f, 0.00741160f, -0.28390509f },
        { 0.13558081f, 0.02724834f, 0.40323883f, -0.13842513f, -0.14927055f, 0.18523370f, -0.27651450f, 0.32590401f },
        { 0.24742128f, -0.54589164f, 0.24332246f, -0.28673005f, -0.13822788f, 0.09485438f, 0.24989285f, 0.35618380f },
        { 0.15454584f, 0.54576945f, 0.29539457f, -0.40587297f, -0.46827969f, -0.29009247f, 0.19487469f, 0.13776459f },
        { 0.30308610f, -0.05009310f, 0.03912830f, 0.10043038f, 0.13559736f, -0.16375786f, -1.22385538f, 0.02300595f },
        { 0.63627189f, -0.61040783f, 0.23596336f, 0.24575192f, 0.14977886f, -0.01326375f, 0.67964989f, 0.67530245f },
        { 0.02893039f, -0.35360786f, 0.20018819f, -0.26877299f, 0.08913237f, 0.17146516f, 0.25732929f, 0.18870547f },
        { 0.35190484f, 0.01806212f, -0.23470220f, -0.16666736f, 0.30975124f, -0.19002680f, -0.11152561f, -0.15320106f }
    },
    {
        { -0.24636339f, 0.36688700f, 0.17176892f, -0.03764708f, 0.32220748f, -0.20860516f, -0.22676417f, -0.03655505f },
        { 0.24064724f, -0.25246656f, -0.07994832f, -0.14712106f, -0.16030402f, -0.35512128f, -0.21726681f, 0.00102191f },
        { 0.03772548f, -0.05159568f, 0.18318531f, -0.25858241f, -0.16363770f, 0.21341664f, 0.29409677f, 0.28226364f },
        { 0.13974330f, 1.01076317f, 0.28338423f, 0.13532601f, 0.12398169f, 0.07526884f, -0.77689445f, 0.08155072f },
        { 0.07431727f, -0.15116866f, 0.38667479f, -0.10388899f, -0.23866858f, 0.12085136f, -0.87648284f, -0.08308313f },
        { 0.28483573f, 0.50207204f, -0.08533464f, -0.30659628f, 0.93315428f, 0.36053404f, -0.47768724f, -0.01768460f },
        { 0.23768413f, -0.06178845f, -0.04988934f, 0.24010789f, -0.01436752f, 0.17872430f, 0.08106917f, -0.12272622f },
        { 0.31102252f, 0.16363548f, 0.21937205f, 0.32252228f, -0.17113845f, 0.14021671f, 0.24956143f, 0.08310506f }
    },
    {
        { 0.37114590f, 0.40359002f, -0.10342810f, -0.06667250f, -0.10720968f, -0.11150812f, 0.27793941f, 0.01689778f },
        { 0.37201229f, 0.01751691f, -0.40758336f, -0.17184117f, 0.42257160f, -0.02695205f, -0.06054898f, -0.15567930f },
        { 0.19078667f, 0.41147819f, 0.21726236f, 0.33850822f, -0.56253576f, 0.34920719f, -0.75632721f, 0.09065141f },
        { 0.44156414f, 0.58480686f, -0.10477889f, -0.06339084f, 0.19631556f, 0.09207511f, 0.67989439f, 0.12797028f },
        { 0.18810742f, -0.42120516f, 0.46469417f, 0.43207589f, 0.10606172f, 0.07325617f, 0.16385607f, -0.14128114f },
        { 1.18170607f, 1.25962329f, 0.14625469f, 0.10121085f, 0.93752736f, -0.40582171f, -0.74070293f, 0.50111812f },
        { 0.33607191f, -0.04806843f, -0.21347661f, 0.01098569f, -0.11746323f, 0.24663170f, -0.02031569f, -0.00105794f },
        { 0.14176117f, -0.26080707f, -0.03092601f, 0.01453967f, 0.16789825f, 0.32511732f, 0.10128035f, 0.27631986f }
    }
};

static const port_float temporal_block_4_conv_2_bias[8u] = { 0.00471437f, -0.29982433f, 0.03907662f, -0.01336429f, -0.04467198f, -0.27671620f, 0.14603876f, 0.00179035f };

static const port_float post_dense_1_kernel[1u][8u][8u] = {
    {
        { -0.02447506f, -0.12969057f, 0.33368325f, 0.21067747f, -0.46953994f, 0.10266582f, -0.57892346f, 0.07011709f },
        { 0.49649143f, 0.12404007f, 0.43187886f, -0.14682564f, 0.53648478f, -0.75791544f, -0.34549129f, -0.11103925f },
        { -1.39496946f, -0.80528992f, -0.17750344f, 0.08057076f, 0.11820302f, -0.16221069f, -0.05548619f, 0.54419351f },
        { -2.32652521f, -0.40040231f, -0.10722531f, 0.12478536f, -0.60317141f, 0.04392028f, -0.39105120f, 0.49499300f },
        { 0.87530869f, -0.50808311f, -0.12621261f, 0.02538861f, -0.42798734f, 0.31835449f, -0.58547896f, -0.34316844f },
        { 0.15938328f, -0.35857308f, -0.12268770f, 0.53784472f, 0.53181142f, 0.20650052f, -0.03287544f, -0.18009396f },
        { -0.21508193f, 0.63008529f, 0.06054459f, -0.30443102f, -0.48241454f, -0.41967794f, 0.25136974f, 0.03693008f },
        { 0.42569575f, 0.26520336f, 0.35375386f, -0.13277456f, 0.05491010f, 0.22547564f, -0.47014067f, -0.23840329f }
    }
};

static const port_float post_dense_1_bias[8u] = { -0.03248133f, -0.07460030f, 0.01965474f, -0.03137771f, -0.05413502f, 0.07590971f, -0.12814529f, 0.01020864f };

static const port_float tcn_output_kernel[1u][8u][1u] = {
    {
        { -0.27108374f },
        { -0.74033660f },
        { -0.48371100f },
        { -0.09492701f },
        { 0.01963285f },
        { -0.19047226f },
        { -0.15297937f },
        { 0.69532865f }
    }
};

static const port_float tcn_output_bias[1u] = { -0.01772561f };

#endif
