{
  "project_name": "WNET5_EFF2_B1",
  "task_type": "wnet5-circuit-validation",
  "analysis_layer": 2,
  "frequency_range": {
    "start_freq": 2,
    "stop_freq": 500
  },
  "svf": {
    "center_freqs": [
      10.0,
      30.0,
      60.0,
      100.0,
      160.0
    ],
    "quality_factors": [
      1.5,
      2.0,
      2.5,
      3.5,
      4.5
    ],
    "transfer_functions": [
      {
        "f0": 10.0,
        "Q": 1.5,
        "channels": {
          "high_pass": {
            "symbolic": "s**2/(s**2 + 13.3333333333333*pi*s + 400.0*pi**2)",
            "numerator_coeffs": [
              1.0,
              0.0,
              0.0
            ],
            "denominator_coeffs": [
              1.0,
              41.8879020478639,
              3947.8417604357433
            ]
          },
          "band_pass": {
            "symbolic": "13.3333333333333*pi*s/(s**2 + 13.3333333333333*pi*s + 400.0*pi**2)",
            "numerator_coeffs": [
              41.8879020478639,
              0.0
            ],
            "denominator_coeffs": [
              1.0,
              41.8879020478639,
              3947.8417604357433
            ]
          },
          "low_pass": {
            "symbolic": "400.0*pi**2/(s**2 + 13.3333333333333*pi*s + 400.0*pi**2)",
            "numerator_coeffs": [
              3947.8417604357433
            ],
            "denominator_coeffs": [
              1.0,
              41.8879020478639,
              3947.8417604357433
            ]
          }
        }
      },
      {
        "f0": 30.0,
        "Q": 2.0,
        "channels": {
          "high_pass": {
            "symbolic": "s**2/(s**2 + 30.0*pi*s + 3600.0*pi**2)",
            "numerator_coeffs": [
              1.0,
              0.0,
              0.0
            ],
            "denominator_coeffs": [
              1.0,
              94.2477796076938,
              35530.57584392169
            ]
          },
          "band_pass": {
            "symbolic": "30.0*pi*s/(s**2 + 30.0*pi*s + 3600.0*pi**2)",
            "numerator_coeffs": [
              94.2477796076938,
              0.0
            ],
            "denominator_coeffs": [
              1.0,
              94.2477796076938,
              35530.57584392169
            ]
          },
          "low_pass": {
            "symbolic": "3600.0*pi**2/(s**2 + 30.0*pi*s + 3600.0*pi**2)",
            "numerator_coeffs": [
              35530.57584392169
            ],
            "denominator_coeffs": [
              1.0,
              94.2477796076938,
              35530.57584392169
            ]
          }
        }
      },
      {
        "f0": 60.0,
        "Q": 2.5,
        "channels": {
          "high_pass": {
            "symbolic": "s**2/(s**2 + 48.0*pi*s + 14400.0*pi**2)",
            "numerator_coeffs": [
              1.0,
              0.0,
              0.0
            ],
            "denominator_coeffs": [
              1.0,
              150.79644737231007,
              142122.30337568675
            ]
          },
          "band_pass": {
            "symbolic": "48.0*pi*s/(s**2 + 48.0*pi*s + 14400.0*pi**2)",
            "numerator_coeffs": [
              150.79644737231007,
              0.0
            ],
            "denominator_coeffs": [
              1.0,
              150.79644737231007,
              142122.30337568675
            ]
          },
          "low_pass": {
            "symbolic": "14400.0*pi**2/(s**2 + 48.0*pi*s + 14400.0*pi**2)",
            "numerator_coeffs": [
              142122.30337568675
            ],
            "denominator_coeffs": [
              1.0,
              150.79644737231007,
              142122.30337568675
            ]
          }
        }
      },
      {
        "f0": 100.0,
        "Q": 3.5,
        "channels": {
          "high_pass": {
            "symbolic": "s**2/(s**2 + 57.1428571428571*pi*s + 40000.0*pi**2)",
            "numerator_coeffs": [
              1.0,
              0.0,
              0.0
            ],
            "denominator_coeffs": [
              1.0,
              179.51958020513104,
              394784.17604357435
            ]
          },
          "band_pass": {
            "symbolic": "57.1428571428571*pi*s/(s**2 + 57.1428571428571*pi*s + 40000.0*pi**2)",
            "numerator_coeffs": [
              179.51958020513104,
              0.0
            ],
            "denominator_coeffs": [
              1.0,
              179.51958020513104,
              394784.17604357435
            ]
          },
          "low_pass": {
            "symbolic": "40000.0*pi**2/(s**2 + 57.1428571428571*pi*s + 40000.0*pi**2)",
            "numerator_coeffs": [
              394784.17604357435
            ],
            "denominator_coeffs": [
              1.0,
              179.51958020513104,
              394784.17604357435
            ]
          }
        }
      },
      {
        "f0": 160.0,
        "Q": 4.5,
        "channels": {
          "high_pass": {
            "symbolic": "s**2/(s**2 + 71.1111111111111*pi*s + 102400.0*pi**2)",
            "numerator_coeffs": [
              1.0,
              0.0,
              0.0
            ],
            "denominator_coeffs": [
              1.0,
              223.4021442552742,
              1010647.4906715503
            ]
          },
          "band_pass": {
            "symbolic": "71.1111111111111*pi*s/(s**2 + 71.1111111111111*pi*s + 102400.0*pi**2)",
            "numerator_coeffs": [
              223.4021442552742,
              0.0
            ],
            "denominator_coeffs": [
              1.0,
              223.4021442552742,
              1010647.4906715503
            ]
          },
          "low_pass": {
            "symbolic": "102400.0*pi**2/(s**2 + 71.1111111111111*pi*s + 102400.0*pi**2)",
            "numerator_coeffs": [
              1010647.4906715503
            ],
            "denominator_coeffs": [
              1.0,
              223.4021442552742,
              1010647.4906715503
            ]
          }
        }
      }
    ]
  },
  "dense_layer": {
    "layer_name": "Dense_Layer_Model_2",
    "weights": [
      [
        0.2780100405216217,
        -0.2303960919380188,
        0.65977942943573,
        0.5658092498779297,
        0.08583768457174301,
        -4.537108898162842,
        -0.5617554783821106,
        0.020401477813720703,
        -0.3131243884563446,
        -1.6340402364730835,
        0.3137640357017517,
        -0.11557808518409729,
        -0.16688832640647888,
        -1.2275981903076172,
        0.3092219829559326,
        0.07896977663040161
      ],
      [
        0.6370612382888794,
        -3.3706486225128174,
        0.2789730727672577,
        -0.40716618299484253,
        0.0839008316397667,
        -0.17825864255428314,
        0.13325810432434082,
        0.16871614754199982,
        1.212424874305725,
        0.20510314404964447,
        0.30163535475730896,
        0.3292042016983032,
        -0.675285279750824,
        0.3166382610797882,
        0.5542520880699158,
        -0.3552641272544861
      ],
      [
        -1.4446790218353271,
        -0.6948989033699036,
        -1.1736562252044678,
        0.32010698318481445,
        0.1363915354013443,
        -0.2923656105995178,
        -0.12766270339488983,
        -0.07093662023544312,
        0.10843407362699509,
        0.06417632102966309,
        0.0558551624417305,
        -0.02997341752052307,
        -1.9366581439971924,
        0.153683602809906,
        0.009397771209478378,
        0.13659797608852386
      ],
      [
        0.4946081042289734,
        0.2466149479150772,
        -0.03711060807108879,
        -0.018650559708476067,
        0.08659449219703674,
        0.1694973260164261,
        -0.23044902086257935,
        -0.1518058180809021,
        0.8228679299354553,
        -0.5780487656593323,
        -0.6996867060661316,
        -0.06531763076782227,
        0.3103454113006592,
        -0.6408588290214539,
        -0.3279728889465332,
        0.0339638851583004
      ],
      [
        -0.919062614440918,
        -0.22764825820922852,
        0.35803917050361633,
        -0.43502864241600037,
        0.023159006610512733,
        -6.907983779907227,
        0.3531694710254669,
        -3.4083056449890137,
        0.5319826006889343,
        0.2181042581796646,
        0.18797925114631653,
        0.2831745147705078,
        0.2282048463821411,
        -0.02030402235686779,
        -0.7354460954666138,
        -0.263592392206192
      ],
      [
        -1.2953896522521973,
        -0.7100920081138611,
        -0.3455961048603058,
        -0.06750213354825974,
        0.17656931281089783,
        -0.15476304292678833,
        -0.09841106086969376,
        0.2797907590866089,
        0.2192973792552948,
        0.022615935653448105,
        0.10912515223026276,
        -0.41562381386756897,
        0.6468629837036133,
        0.5571523308753967,
        0.34701818227767944,
        -0.063834048807621
      ],
      [
        0.5126791596412659,
        -0.13808761537075043,
        0.9986029267311096,
        0.3340895473957062,
        -0.5259273648262024,
        -0.08628278970718384,
        0.2763780951499939,
        0.48051726818084717,
        -1.8843063116073608,
        0.8173262476921082,
        0.09238647669553757,
        -0.454001247882843,
        -1.6183817386627197,
        -0.8625896573066711,
        0.3223426640033722,
        0.2591680586338043
      ],
      [
        -0.40193846821784973,
        -0.8006917834281921,
        -0.4825032949447632,
        -0.12464706599712372,
        -0.07246426492929459,
        0.24132010340690613,
        -0.38605451583862305,
        0.8110234141349792,
        -0.1421615183353424,
        -0.5849049091339111,
        -0.8434829711914062,
        0.4710615575313568,
        -0.12179415673017502,
        0.769970178604126,
        0.33630427718162537,
        0.5376273989677429
      ],
      [
        0.15476568043231964,
        -0.4676179587841034,
        0.4046701192855835,
        -0.045668892562389374,
        0.6883661150932312,
        0.12060375511646271,
        0.45717912912368774,
        -0.3327144384384155,
        0.3908083140850067,
        -0.10814950615167618,
        -0.03814948722720146,
        0.2289835661649704,
        0.12418446689844131,
        -0.1348511129617691,
        0.1281186193227768,
        0.5994304418563843
      ],
      [
        -0.3735681474208832,
        -0.18328462541103363,
        0.2689707577228546,
        -0.519911527633667,
        -0.5925669074058533,
        0.20630204677581787,
        -0.7149626016616821,
        0.13075880706310272,
        -0.8659240007400513,
        -2.54704213142395,
        -0.3370640277862549,
        0.08807801455259323,
        0.42694175243377686,
        0.4213838577270508,
        0.5987201929092407,
        -1.9647680521011353
      ],
      [
        0.23172113299369812,
        0.5321450233459473,
        0.3229140341281891,
        0.5301603674888611,
        -0.30125871300697327,
        -0.14509055018424988,
        -0.030162489041686058,
        -0.17944690585136414,
        -4.010581970214844,
        0.17996791005134583,
        0.36746343970298767,
        0.6341875195503235,
        0.17548108100891113,
        -0.0721001923084259,
        -0.040047746151685715,
        0.10821855068206787
      ],
      [
        0.16159404814243317,
        -0.2782672941684723,
        0.5125293731689453,
        -0.14884985983371735,
        0.2354375123977661,
        0.1240411102771759,
        -0.3616761863231659,
        0.3053341805934906,
        -0.0850050300359726,
        0.7716907262802124,
        -0.8068971633911133,
        0.14379757642745972,
        -0.05990080162882805,
        -0.745822012424469,
        -0.29905441403388977,
        -0.29457417130470276
      ],
      [
        -0.45139065384864807,
        -1.0951541662216187,
        -0.2962753176689148,
        -0.19154120981693268,
        -0.27424830198287964,
        0.2457629293203354,
        0.09713532030582428,
        0.1394452154636383,
        -0.44854825735092163,
        -2.094172239303589,
        -0.6275414824485779,
        0.09398415684700012,
        -0.006177406758069992,
        0.5480958223342896,
        0.13419191539287567,
        0.006815596017986536
      ],
      [
        -0.02212785743176937,
        0.04197034612298012,
        -0.9589505791664124,
        0.5842297077178955,
        -0.004260119516402483,
        -0.7818977236747742,
        0.24783219397068024,
        -2.0313868522644043,
        -0.173897385597229,
        -0.24004928767681122,
        0.17762191593647003,
        0.5808600783348083,
        0.08883086591959,
        -1.063530683517456,
        0.6719760894775391,
        -0.30923959612846375
      ],
      [
        0.5573660731315613,
        -0.3914487659931183,
        -0.7001059651374817,
        -0.4372917711734772,
        0.14299236238002777,
        0.19918377697467804,
        0.5520877242088318,
        0.5367638468742371,
        -0.03990110754966736,
        -0.3855920732021332,
        0.28988882899284363,
        -0.4065872132778168,
        -0.16661512851715088,
        -0.29329991340637207,
        0.6417960524559021,
        0.18165995180606842
      ],
      [
        -0.32424426078796387,
        0.11961270868778229,
        -1.2653154134750366,
        0.48261743783950806,
        0.38102784752845764,
        -0.2821024954319,
        -0.5096643567085266,
        0.024423914030194283,
        -0.675944983959198,
        0.6747310757637024,
        -0.2827095091342926,
        0.5337820053100586,
        -1.4487138986587524,
        0.24191081523895264,
        -0.3427325189113617,
        0.5283201336860657
      ]
    ],
    "bias": [
      -0.172927126288414,
      -0.2310275286436081,
      -0.09515618532896042,
      0.16851574182510376,
      0.10767940431833267,
      -0.019782831892371178,
      -0.06193479523062706,
      0.017519976943731308,
      -0.13557688891887665,
      -0.0310435239225626,
      0.0005928183090873063,
      -0.27426353096961975,
      -0.18618156015872955,
      0.036289189010858536,
      -0.3163950443267822,
      0.041863229125738144
    ]
  },
  "combined_transfer_functions": [
    {
      "output_index": 0,
      "symbolic": "-0.451390653848648*s**2/(s**2 + 71.1111111111111*pi*s + 102400.0*pi**2) - 0.373568147420883*s**2/(s**2 + 57.1428571428571*pi*s + 40000.0*pi**2) + 0.512679159641266*s**2/(s**2 + 48.0*pi*s + 14400.0*pi**2) + 0.494608104228973*s**2/(s**2 + 30.0*pi*s + 3600.0*pi**2) - 0.0462342202663422*s**2/(s**2 + 13.3333333333333*pi*s + 400.0*pi**2) - 1.57353652848138*pi*s/(s**2 + 71.1111111111111*pi*s + 102400.0*pi**2) + 13.2412075996399*pi*s/(s**2 + 57.1428571428571*pi*s + 40000.0*pi**2) - 19.2930464744568*pi*s/(s**2 + 48.0*pi*s + 14400.0*pi**2) - 27.5718784332275*pi*s/(s**2 + 30.0*pi*s + 3600.0*pi**2) + 8.49414984385172*pi*s/(s**2 + 13.3333333333333*pi*s + 400.0*pi**2) - 0.172927126288414 + 57074.2858886719*pi**2/(s**2 + 71.1111111111111*pi*s + 102400.0*pi**2) + 6463.76192569733*pi**2/(s**2 + 57.1428571428571*pi*s + 40000.0*pi**2) + 2228.6257982254*pi**2/(s**2 + 48.0*pi*s + 14400.0*pi**2) - 4663.40274810791*pi**2/(s**2 + 30.0*pi*s + 3600.0*pi**2) - 577.871608734131*pi**2/(s**2 + 13.3333333333333*pi*s + 400.0*pi**2)",
      "numerator_coeffs": [
        -0.03683288395404816,
        -63.38440231813204,
        1010719.3139937632,
        300459638.958733,
        639964301914.3091,
        78452758573821.58,
        4.837686993396291e+16,
        -1.521568680025533e+18,
        -1.567944481177963e+21,
        -6.5136472479906346e+22,
        -1.6220281577992769e+25
      ],
      "denominator_coeffs": [
        1.0,
        689.853853488273,
        1767225.2539945075,
        795187431.0952163,
        792021019882.4027,
        213111688800330.88,
        9.937119347634656e+16,
        1.32729908083943e+19,
        2.7361947847020894e+21,
        1.1930725782134321e+23,
        7.953964697452779e+24
      ]
    },
    {
      "output_index": 1,
      "symbolic": "-1.09515416622162*s**2/(s**2 + 71.1111111111111*pi*s + 102400.0*pi**2) - 0.183284625411034*s**2/(s**2 + 57.1428571428571*pi*s + 40000.0*pi**2) - 0.13808761537075*s**2/(s**2 + 48.0*pi*s + 14400.0*pi**2) + 0.246614947915077*s**2/(s**2 + 30.0*pi*s + 3600.0*pi**2) - 0.110783383250237*s**2/(s**2 + 13.3333333333333*pi*s + 400.0*pi**2) + 2.98455794652303*pi*s/(s**2 + 71.1111111111111*pi*s + 102400.0*pi**2) + 30.4082870483398*pi*s/(s**2 + 57.1428571428571*pi*s + 40000.0*pi**2) - 38.4332056045532*pi*s/(s**2 + 48.0*pi*s + 14400.0*pi**2) - 6.82944774627686*pi*s/(s**2 + 30.0*pi*s + 3600.0*pi**2) - 44.9419816335042*pi*s/(s**2 + 13.3333333333333*pi*s + 400.0*pi**2) - 0.231027528643608 - 40084.3536376953*pi**2/(s**2 + 71.1111111111111*pi*s + 102400.0*pi**2) - 11130.6917667389*pi**2/(s**2 + 57.1428571428571*pi*s + 40000.0*pi**2) - 6733.69860649109*pi**2/(s**2 + 48.0*pi*s + 14400.0*pi**2) - 2556.3312292099*pi**2/(s**2 + 30.0*pi*s + 3600.0*pi**2) - 277.959561347961*pi**2/(s**2 + 13.3333333333333*pi*s + 400.0*pi**2)",
      "numerator_coeffs": [
        -1.51172237098217,
        -941.5633429877614,
        -2065909.1586335595,
        -1072476132.5212604,
        -997072355186.9109,
        -385683335755690.3,
        -1.704568107304506e+17,
        -3.5545942842863534e+19,
        -7.03339748197774e+21,
        -5.4563766741162464e+23,
        -2.2059147553061026e+25
      ],
      "denominator_coeffs": [
        1.0,
        689.853853488273,
        1767225.2539945075,
        795187431.0952163,
        792021019882.4027,
        213111688800330.88,
        9.937119347634656e+16,
        1.32729908083943e+19,
        2.7361947847020894e+21,
        1.1930725782134321e+23,
        7.953964697452779e+24
      ]
    },
    {
      "output_index": 2,
      "symbolic": "-0.296275317668915*s**2/(s**2 + 71.1111111111111*pi*s + 102400.0*pi**2) + 0.268970757722855*s**2/(s**2 + 57.1428571428571*pi*s + 40000.0*pi**2) + 0.99860292673111*s**2/(s**2 + 48.0*pi*s + 14400.0*pi**2) - 0.0371106080710888*s**2/(s**2 + 30.0*pi*s + 3600.0*pi**2) - 0.605535984039307*s**2/(s**2 + 13.3333333333333*pi*s + 400.0*pi**2) - 68.1920411851671*pi*s/(s**2 + 71.1111111111111*pi*s + 102400.0*pi**2) + 18.4522305216108*pi*s/(s**2 + 57.1428571428571*pi*s + 40000.0*pi**2) - 23.1601581573486*pi*s/(s**2 + 48.0*pi*s + 14400.0*pi**2) + 10.7411751151085*pi*s/(s**2 + 30.0*pi*s + 3600.0*pi**2) + 3.7196409702301*pi*s/(s**2 + 13.3333333333333*pi*s + 400.0*pi**2) - 0.0951561853289604 - 71690.8508300781*pi**2/(s**2 + 71.1111111111111*pi*s + 102400.0*pi**2) + 20501.1749267578*pi**2/(s**2 + 57.1428571428571*pi*s + 40000.0*pi**2) + 5827.2497177124*pi**2/(s**2 + 48.0*pi*s + 14400.0*pi**2) - 1244.1459774971*pi**2/(s**2 + 30.0*pi*s + 3600.0*pi**2) - 469.462490081787*pi**2/(s**2 + 13.3333333333333*pi*s + 400.0*pi**2)",
      "numerator_coeffs": [
        0.2334955893456936,
        -126.33470638029554,
        -135272.82251642775,
        -311368650.4386003,
        -192448706010.67993,
        -107347775931992.48,
        -5.0243909527688296e+16,
        -5.414505871730234e+18,
        -1.9777798734216222e+21,
        -3.789882000493428e+22,
        -1.1114194086383619e+25
      ],
      "denominator_coeffs": [
        1.0,
        689.853853488273,
        1767225.2539945075,
        795187431.0952163,
        792021019882.4027,
        213111688800330.88,
        9.937119347634656e+16,
        1.32729908083943e+19,
        2.7361947847020894e+21,
        1.1930725782134321e+23,
        7.953964697452779e+24
      ]
    },
    {
      "output_index": 3,
      "symbolic": "-0.191541209816933*s**2/(s**2 + 71.1111111111111*pi*s + 102400.0*pi**2) - 0.519911527633667*s**2/(s**2 + 57.1428571428571*pi*s + 40000.0*pi**2) + 0.334089547395706*s**2/(s**2 + 48.0*pi*s + 14400.0*pi**2) - 0.0186505597084761*s**2/(s**2 + 30.0*pi*s + 3600.0*pi**2) + 1.04842668771744*s**2/(s**2 + 13.3333333333333*pi*s + 400.0*pi**2) + 41.5452236599392*pi*s/(s**2 + 71.1111111111111*pi*s + 102400.0*pi**2) + 30.2948781422206*pi*s/(s**2 + 57.1428571428571*pi*s + 40000.0*pi**2) - 5.98305916786194*pi*s/(s**2 + 48.0*pi*s + 14400.0*pi**2) - 13.05085927248*pi*s/(s**2 + 30.0*pi*s + 3600.0*pi**2) - 5.42888243993123*pi*s/(s**2 + 13.3333333333333*pi*s + 400.0*pi**2) + 0.168515741825104 - 44778.6773681641*pi**2/(s**2 + 71.1111111111111*pi*s + 102400.0*pi**2) - 5953.99439334869*pi**2/(s**2 + 57.1428571428571*pi*s + 40000.0*pi**2) - 657.632052898407*pi**2/(s**2 + 48.0*pi*s + 14400.0*pi**2) - 243.007680773735*pi**2/(s**2 + 30.0*pi*s + 3600.0*pi**2) + 128.042793273926*pi**2/(s**2 + 13.3333333333333*pi*s + 400.0*pi**2)",
      "numerator_coeffs": [
        0.8209286797791719,
        758.7478724687655,
        1367176.8212600132,
        655813288.9667871,
        582323579582.2881,
        105400374124562.84,
        4.7700391784241864e+16,
        3.0966408398630605e+17,
        6.053705631957055e+20,
        -9.068331102845397e+22,
        -1.6758202820951614e+24
      ],
      "denominator_coeffs": [
        1.0,
        689.853853488273,
        1767225.2539945075,
        795187431.0952163,
        792021019882.4027,
        213111688800330.88,
        9.937119347634656e+16,
        1.32729908083943e+19,
        2.7361947847020894e+21,
        1.1930725782134321e+23,
        7.953964697452779e+24
      ]
    },
    {
      "output_index": 4,
      "symbolic": "-0.27424830198288*s**2/(s**2 + 71.1111111111111*pi*s + 102400.0*pi**2) - 0.592566907405853*s**2/(s**2 + 57.1428571428571*pi*s + 40000.0*pi**2) - 0.525927364826202*s**2/(s**2 + 48.0*pi*s + 14400.0*pi**2) + 0.0865944921970367*s**2/(s**2 + 30.0*pi*s + 3600.0*pi**2) + 0.466865532100201*s**2/(s**2 + 13.3333333333333*pi*s + 400.0*pi**2) - 0.30294183227751*pi*s/(s**2 + 71.1111111111111*pi*s + 102400.0*pi**2) - 17.2147836003985*pi*s/(s**2 + 57.1428571428571*pi*s + 40000.0*pi**2) - 3.47828471660614*pi*s/(s**2 + 48.0*pi*s + 14400.0*pi**2) + 0.694770198315382*pi*s/(s**2 + 30.0*pi*s + 3600.0*pi**2) + 1.11867775519689*pi*s/(s**2 + 13.3333333333333*pi*s + 400.0*pi**2) + 0.107679404318333 + 14642.4179077148*pi**2/(s**2 + 71.1111111111111*pi*s + 102400.0*pi**2) + 9417.50049591064*pi**2/(s**2 + 57.1428571428571*pi*s + 40000.0*pi**2) + 9912.47205734253*pi**2/(s**2 + 48.0*pi*s + 14400.0*pi**2) + 635.649526119232*pi**2/(s**2 + 30.0*pi*s + 3600.0*pi**2) + 54.5566141605377*pi**2/(s**2 + 13.3333333333333*pi*s + 400.0*pi**2)",
      "numerator_coeffs": [
        -0.7316031455993652,
        -345.7274026071207,
        -292142.46894522826,
        49870039.7110578,
        431597285129.8183,
        158105396844068.25,
        1.2948125026712426e+17,
        1.725967874681355e+19,
        4.4467057874789754e+21,
        1.611742540958047e+23,
        1.183101536177414e+25
      ],
      "denominator_coeffs": [
        1.0,
        689.853853488273,
        1767225.2539945075,
        795187431.0952163,
        792021019882.4027,
        213111688800330.88,
        9.937119347634656e+16,
        1.32729908083943e+19,
        2.7361947847020894e+21,
        1.1930725782134321e+23,
        7.953964697452779e+24
      ]
    },
    {
      "output_index": 5,
      "symbolic": "0.245762929320335*s**2/(s**2 + 71.1111111111111*pi*s + 102400.0*pi**2) + 0.206302046775818*s**2/(s**2 + 57.1428571428571*pi*s + 40000.0*pi**2) - 0.0862827897071838*s**2/(s**2 + 48.0*pi*s + 14400.0*pi**2) + 0.169497326016426*s**2/(s**2 + 30.0*pi*s + 3600.0*pi**2) - 4.81921139359474*s**2/(s**2 + 13.3333333333333*pi*s + 400.0*pi**2) - 55.6016159057617*pi*s/(s**2 + 71.1111111111111*pi*s + 102400.0*pi**2) - 8.29088858195714*pi*s/(s**2 + 57.1428571428571*pi*s + 40000.0*pi**2) + 11.5833649635315*pi*s/(s**2 + 48.0*pi*s + 14400.0*pi**2) - 207.239513397217*pi*s/(s**2 + 30.0*pi*s + 3600.0*pi**2) - 2.37678190072377*pi*s/(s**2 + 13.3333333333333*pi*s + 400.0*pi**2) - 0.0197828318923712 + 20396.418762207*pi**2/(s**2 + 71.1111111111111*pi*s + 102400.0*pi**2) + 4961.64441108704*pi**2/(s**2 + 57.1428571428571*pi*s + 40000.0*pi**2) + 1736.69407367706*pi**2/(s**2 + 48.0*pi*s + 14400.0*pi**2) - 557.146954536438*pi**2/(s**2 + 30.0*pi*s + 3600.0*pi**2) - 116.946244239807*pi**2/(s**2 + 13.3333333333333*pi*s + 400.0*pi**2)",
      "numerator_coeffs": [
        -4.3037147130817175,
        -3684.833376846811,
        -8033408.6157713495,
        -4374682327.029478,
        -3734661418349.8716,
        -1231016871086121.2,
        -4.7057426759487674e+17,
        -8.007235492019886e+19,
        -1.0863084455003268e+22,
        -1.372867229788453e+23,
        -1.8360011873941244e+23
      ],
      "denominator_coeffs": [
        1.0,
        689.853853488273,
        1767225.2539945075,
        795187431.0952163,
        792021019882.4027,
        213111688800330.88,
        9.937119347634656e+16,
        1.32729908083943e+19,
        2.7361947847020894e+21,
        1.1930725782134321e+23,
        7.953964697452779e+24
      ]
    },
    {
      "output_index": 6,
      "symbolic": "0.0971353203058243*s**2/(s**2 + 71.1111111111111*pi*s + 102400.0*pi**2) - 0.714962601661682*s**2/(s**2 + 57.1428571428571*pi*s + 40000.0*pi**2) + 0.276378095149994*s**2/(s**2 + 48.0*pi*s + 14400.0*pi**2) - 0.230449020862579*s**2/(s**2 + 30.0*pi*s + 3600.0*pi**2) - 1.07141983509064*s**2/(s**2 + 13.3333333333333*pi*s + 400.0*pi**2) + 17.6236226823595*pi*s/(s**2 + 71.1111111111111*pi*s + 102400.0*pi**2) - 1.72357080238206*pi*s/(s**2 + 57.1428571428571*pi*s + 40000.0*pi**2) - 18.5306167602539*pi*s/(s**2 + 48.0*pi*s + 14400.0*pi**2) + 10.595084130764*pi*s/(s**2 + 30.0*pi*s + 3600.0*pi**2) + 1.77677472432454*pi*s/(s**2 + 13.3333333333333*pi*s + 400.0*pi**2) - 0.0619347952306271 + 56533.7829589844*pi**2/(s**2 + 71.1111111111111*pi*s + 102400.0*pi**2) - 14467.0474529266*pi**2/(s**2 + 57.1428571428571*pi*s + 40000.0*pi**2) + 6583.3794593811*pi**2/(s**2 + 48.0*pi*s + 14400.0*pi**2) - 354.279819130898*pi**2/(s**2 + 30.0*pi*s + 3600.0*pi**2) - 51.0650813579559*pi**2/(s**2 + 13.3333333333333*pi*s + 400.0*pi**2)",
      "numerator_coeffs": [
        -1.7052528373897076,
        -1014.2005134306088,
        -2290132.247567642,
        -846308261.3558208,
        -745593625720.7921,
        -157141754396019.56,
        -6.383272289354901e+16,
        -2.639831906816294e+18,
        -8.43299381529773e+20,
        6.7996349715027245e+22,
        2.860103389003164e+24
      ],
      "denominator_coeffs": [
        1.0,
        689.853853488273,
        1767225.2539945075,
        795187431.0952163,
        792021019882.4027,
        213111688800330.88,
        9.937119347634656e+16,
        1.32729908083943e+19,
        2.7361947847020894e+21,
        1.1930725782134321e+23,
        7.953964697452779e+24
      ]
    },
    {
      "output_index": 7,
      "symbolic": "0.139445215463638*s**2/(s**2 + 71.1111111111111*pi*s + 102400.0*pi**2) + 0.130758807063103*s**2/(s**2 + 57.1428571428571*pi*s + 40000.0*pi**2) + 0.480517268180847*s**2/(s**2 + 48.0*pi*s + 14400.0*pi**2) - 0.151805818080902*s**2/(s**2 + 30.0*pi*s + 3600.0*pi**2) + 0.044825391843915*s**2/(s**2 + 13.3333333333333*pi*s + 400.0*pi**2) - 144.454176161024*pi*s/(s**2 + 71.1111111111111*pi*s + 102400.0*pi**2) - 10.2541089057922*pi*s/(s**2 + 57.1428571428571*pi*s + 40000.0*pi**2) + 38.929123878479*pi*s/(s**2 + 48.0*pi*s + 14400.0*pi**2) - 102.24916934967*pi*s/(s**2 + 30.0*pi*s + 3600.0*pi**2) + 2.24954863389333*pi*s/(s**2 + 13.3333333333333*pi*s + 400.0*pi**2) + 0.0175199769437313 + 54964.6179199219*pi**2/(s**2 + 71.1111111111111*pi*s + 102400.0*pi**2) + 12213.3672237396*pi**2/(s**2 + 57.1428571428571*pi*s + 40000.0*pi**2) - 4791.08791351318*pi**2/(s**2 + 48.0*pi*s + 14400.0*pi**2) + 1007.24673271179*pi**2/(s**2 + 30.0*pi*s + 3600.0*pi**2) - 28.3746480941772*pi**2/(s**2 + 13.3333333333333*pi*s + 400.0*pi**2)",
      "numerator_coeffs": [
        0.6612608414143324,
        -336.37239999263306,
        1131157.7810301378,
        -121177842.38697314,
        452690977947.5207,
        -45110500045477.555,
        2.803189694265097e+16,
        -1.0014942232031906e+19,
        1.3589716293814969e+21,
        3.3576787532941867e+22,
        5.852190810050643e+24
      ],
      "denominator_coeffs": [
        1.0,
        689.853853488273,
        1767225.2539945075,
        795187431.0952163,
        792021019882.4027,
        213111688800330.88,
        9.937119347634656e+16,
        1.32729908083943e+19,
        2.7361947847020894e+21,
        1.1930725782134321e+23,
        7.953964697452779e+24
      ]
    },
    {
      "output_index": 8,
      "symbolic": "-0.448548257350922*s**2/(s**2 + 71.1111111111111*pi*s + 102400.0*pi**2) - 0.865924000740051*s**2/(s**2 + 57.1428571428571*pi*s + 40000.0*pi**2) - 1.88430631160736*s**2/(s**2 + 48.0*pi*s + 14400.0*pi**2) + 0.822867929935455*s**2/(s**2 + 30.0*pi*s + 3600.0*pi**2) - 0.989069372415543*s**2/(s**2 + 13.3333333333333*pi*s + 400.0*pi**2) - 12.3660363091363*pi*s/(s**2 + 71.1111111111111*pi*s + 102400.0*pi**2) - 229.176112583705*pi*s/(s**2 + 57.1428571428571*pi*s + 40000.0*pi**2) - 6.82375288009644*pi*s/(s**2 + 48.0*pi*s + 14400.0*pi**2) + 15.959478020668*pi*s/(s**2 + 30.0*pi*s + 3600.0*pi**2) + 16.165664990743*pi*s/(s**2 + 13.3333333333333*pi*s + 400.0*pi**2) - 0.135576888918877 - 4085.87341308594*pi**2/(s**2 + 71.1111111111111*pi*s + 102400.0*pi**2) - 3400.2012014389*pi**2/(s**2 + 57.1428571428571*pi*s + 40000.0*pi**2) + 5627.6397228241*pi**2/(s**2 + 48.0*pi*s + 14400.0*pi**2) + 789.470565319061*pi**2/(s**2 + 30.0*pi*s + 3600.0*pi**2) + 43.373629450798*pi**2/(s**2 + 13.3333333333333*pi*s + 400.0*pi**2)",
      "numerator_coeffs": [
        -3.5005569010972977,
        -2590.53282787717,
        -5233185.8064582,
        -2432581953.37,
        -1654769591287.907,
        -350128249840830.25,
        -7.607371125295414e+16,
        -4.3134120059494743e+18,
        -7.51312699995381e+20,
        1.3548515899415433e+23,
        3.6433671430712425e+24
      ],
      "denominator_coeffs": [
        1.0,
        689.853853488273,
        1767225.2539945075,
        795187431.0952163,
        792021019882.4027,
        213111688800330.88,
        9.937119347634656e+16,
        1.32729908083943e+19,
        2.7361947847020894e+21,
        1.1930725782134321e+23,
        7.953964697452779e+24
      ]
    },
    {
      "output_index": 9,
      "symbolic": "-2.09417223930359*s**2/(s**2 + 71.1111111111111*pi*s + 102400.0*pi**2) - 2.54704213142395*s**2/(s**2 + 57.1428571428571*pi*s + 40000.0*pi**2) + 0.817326247692108*s**2/(s**2 + 48.0*pi*s + 14400.0*pi**2) - 0.578048765659332*s**2/(s**2 + 30.0*pi*s + 3600.0*pi**2) - 0.959309160709381*s**2/(s**2 + 13.3333333333333*pi*s + 400.0*pi**2) - 17.0701715681288*pi*s/(s**2 + 71.1111111111111*pi*s + 102400.0*pi**2) + 10.2838805743626*pi*s/(s**2 + 57.1428571428571*pi*s + 40000.0*pi**2) - 28.0754356384277*pi*s/(s**2 + 48.0*pi*s + 14400.0*pi**2) + 6.54312774538994*pi*s/(s**2 + 30.0*pi*s + 3600.0*pi**2) + 2.73470858732859*pi*s/(s**2 + 13.3333333333333*pi*s + 400.0*pi**2) - 0.0310435239225626 - 39484.6282958984*pi**2/(s**2 + 71.1111111111111*pi*s + 102400.0*pi**2) + 30867.6290512085*pi**2/(s**2 + 57.1428571428571*pi*s + 40000.0*pi**2) - 1557.35288858414*pi**2/(s**2 + 48.0*pi*s + 14400.0*pi**2) + 81.4173683524132*pi**2/(s**2 + 30.0*pi*s + 3600.0*pi**2) + 25.6705284118652*pi**2/(s**2 + 13.3333333333333*pi*s + 400.0*pi**2)",
      "numerator_coeffs": [
        -5.392289573326707,
        -2903.7660338711803,
        -6193225.126844119,
        -2088149617.2303042,
        -1396019541640.4072,
        -284403498076276.3,
        -1.1047560235392139e+17,
        -6.965207572288941e+18,
        -1.2923003607601062e+21,
        4.992266118277083e+22,
        2.654221154644858e+24
      ],
      "denominator_coeffs": [
        1.0,
        689.853853488273,
        1767225.2539945075,
        795187431.0952163,
        792021019882.4027,
        213111688800330.88,
        9.937119347634656e+16,
        1.32729908083943e+19,
        2.7361947847020894e+21,
        1.1930725782134321e+23,
        7.953964697452779e+24
      ]
    },
    {
      "output_index": 10,
      "symbolic": "-0.627541482448578*s**2/(s**2 + 71.1111111111111*pi*s + 102400.0*pi**2) - 0.337064027786255*s**2/(s**2 + 57.1428571428571*pi*s + 40000.0*pi**2) + 0.0923864766955376*s**2/(s**2 + 48.0*pi*s + 14400.0*pi**2) - 0.699686706066132*s**2/(s**2 + 30.0*pi*s + 3600.0*pi**2) + 0.0310545265674591*s**2/(s**2 + 13.3333333333333*pi*s + 400.0*pi**2) + 12.6308917999268*pi*s/(s**2 + 71.1111111111111*pi*s + 102400.0*pi**2) + 20.9979108401707*pi*s/(s**2 + 57.1428571428571*pi*s + 40000.0*pi**2) - 40.4871826171875*pi*s/(s**2 + 48.0*pi*s + 14400.0*pi**2) + 5.6393775343895*pi*s/(s**2 + 30.0*pi*s + 3600.0*pi**2) + 4.02180473009745*pi*s/(s**2 + 13.3333333333333*pi*s + 400.0*pi**2) + 0.000592818309087306 + 29684.6160888672*pi**2/(s**2 + 71.1111111111111*pi*s + 102400.0*pi**2) - 32275.8865356445*pi**2/(s**2 + 57.1428571428571*pi*s + 40000.0*pi**2) - 549.352616071701*pi**2/(s**2 + 48.0*pi*s + 14400.0*pi**2) + 392.850548028946*pi**2/(s**2 + 30.0*pi*s + 3600.0*pi**2) + 22.3420649766922*pi**2/(s**2 + 13.3333333333333*pi*s + 400.0*pi**2)",
      "numerator_coeffs": [
        -1.5402583947288804,
        -802.3326633074221,
        -1840437.8865271406,
        -658456360.1544875,
        -763748768448.4128,
        -182708090772210.53,
        -8.86989772307792e+16,
        -6.941196200832587e+18,
        -1.2117414949481066e+21,
        -2.6820552607742913e+22,
        -3.098742860145615e+24
      ],
      "denominator_coeffs": [
        1.0,
        689.853853488273,
        1767225.2539945075,
        795187431.0952163,
        792021019882.4027,
        213111688800330.88,
        9.937119347634656e+16,
        1.32729908083943e+19,
        2.7361947847020894e+21,
        1.1930725782134321e+23,
        7.953964697452779e+24
      ]
    },
    {
      "output_index": 11,
      "symbolic": "0.0939841568470001*s**2/(s**2 + 71.1111111111111*pi*s + 102400.0*pi**2) + 0.0880780145525932*s**2/(s**2 + 57.1428571428571*pi*s + 40000.0*pi**2) - 0.454001247882843*s**2/(s**2 + 48.0*pi*s + 14400.0*pi**2) - 0.0653176307678223*s**2/(s**2 + 30.0*pi*s + 3600.0*pi**2) + 0.418203920125961*s**2/(s**2 + 13.3333333333333*pi*s + 400.0*pi**2) + 41.3056055704753*pi*s/(s**2 + 71.1111111111111*pi*s + 102400.0*pi**2) + 36.2392868314471*pi*s/(s**2 + 57.1428571428571*pi*s + 40000.0*pi**2) + 22.6109547615051*pi*s/(s**2 + 48.0*pi*s + 14400.0*pi**2) + 8.49523544311523*pi*s/(s**2 + 30.0*pi*s + 3600.0*pi**2) + 4.38938935597738*pi*s/(s**2 + 13.3333333333333*pi*s + 400.0*pi**2) - 0.27426353096962 - 41634.5306396484*pi**2/(s**2 + 71.1111111111111*pi*s + 102400.0*pi**2) + 5751.90305709839*pi**2/(s**2 + 57.1428571428571*pi*s + 40000.0*pi**2) + 3297.36335277557*pi**2/(s**2 + 48.0*pi*s + 14400.0*pi**2) - 1496.24572992325*pi**2/(s**2 + 30.0*pi*s + 3600.0*pi**2) - 11.9893670082092*pi**2/(s**2 + 13.3333333333333*pi*s + 400.0*pi**2)",
      "numerator_coeffs": [
        -0.19331631809473038,
        242.05925104269642,
        -549575.375604822,
        125733657.85741821,
        -188700490829.40906,
        35725815286519.61,
        -5225795890336121.0,
        1.791105872065417e+18,
        -7.211665409604245e+20,
        -3.930896330104801e+22,
        -5.994639383665843e+24
      ],
      "denominator_coeffs": [
        1.0,
        689.853853488273,
        1767225.2539945075,
        795187431.0952163,
        792021019882.4027,
        213111688800330.88,
        9.937119347634656e+16,
        1.32729908083943e+19,
        2.7361947847020894e+21,
        1.1930725782134321e+23,
        7.953964697452779e+24
      ]
    },
    {
      "output_index": 12,
      "symbolic": "-0.00617740675806999*s**2/(s**2 + 71.1111111111111*pi*s + 102400.0*pi**2) + 0.426941752433777*s**2/(s**2 + 57.1428571428571*pi*s + 40000.0*pi**2) - 1.61838173866272*s**2/(s**2 + 48.0*pi*s + 14400.0*pi**2) + 0.310345411300659*s**2/(s**2 + 30.0*pi*s + 3600.0*pi**2) - 1.61560222506523*s**2/(s**2 + 13.3333333333333*pi*s + 400.0*pi**2) + 6.31686157650418*pi*s/(s**2 + 71.1111111111111*pi*s + 102400.0*pi**2) + 10.0274903433663*pi*s/(s**2 + 57.1428571428571*pi*s + 40000.0*pi**2) - 5.8461195230484*pi*s/(s**2 + 48.0*pi*s + 14400.0*pi**2) + 6.84614539146423*pi*s/(s**2 + 30.0*pi*s + 3600.0*pi**2) - 9.00380373001099*pi*s/(s**2 + 13.3333333333333*pi*s + 400.0*pi**2) - 0.18618156015873 - 17061.3891601563*pi**2/(s**2 + 71.1111111111111*pi*s + 102400.0*pi**2) - 2396.03206515312*pi**2/(s**2 + 57.1428571428571*pi*s + 40000.0*pi**2) + 1788.25632333755*pi**2/(s**2 + 48.0*pi*s + 14400.0*pi**2) + 2328.70674133301*pi**2/(s**2 + 30.0*pi*s + 3600.0*pi**2) - 774.663257598877*pi**2/(s**2 + 13.3333333333333*pi*s + 400.0*pi**2)",
      "numerator_coeffs": [
        -2.6890557669103146,
        -1621.6461166051286,
        -4718735.7550704945,
        -1812372898.819046,
        -1960996842735.9082,
        -415888814471165.3,
        -1.735084327966676e+17,
        -1.8272078529337993e+19,
        -3.4852096455778674e+21,
        -9.14595998404225e+22,
        -1.2553807574849396e+25
      ],
      "denominator_coeffs": [
        1.0,
        689.853853488273,
        1767225.2539945075,
        795187431.0952163,
        792021019882.4027,
        213111688800330.88,
        9.937119347634656e+16,
        1.32729908083943e+19,
        2.7361947847020894e+21,
        1.1930725782134321e+23,
        7.953964697452779e+24
      ]
    },
    {
      "output_index": 13,
      "symbolic": "0.54809582233429*s**2/(s**2 + 71.1111111111111*pi*s + 102400.0*pi**2) + 0.421383857727051*s**2/(s**2 + 57.1428571428571*pi*s + 40000.0*pi**2) - 0.862589657306671*s**2/(s**2 + 48.0*pi*s + 14400.0*pi**2) - 0.640858829021454*s**2/(s**2 + 30.0*pi*s + 3600.0*pi**2) - 0.985687375068665*s**2/(s**2 + 13.3333333333333*pi*s + 400.0*pi**2) - 75.6288486056858*pi*s/(s**2 + 71.1111111111111*pi*s + 102400.0*pi**2) - 4.12001098905291*pi*s/(s**2 + 57.1428571428571*pi*s + 40000.0*pi**2) + 36.958568572998*pi*s/(s**2 + 48.0*pi*s + 14400.0*pi**2) - 0.609120670706034*pi*s/(s**2 + 30.0*pi*s + 3600.0*pi**2) + 4.22184348106384*pi*s/(s**2 + 13.3333333333333*pi*s + 400.0*pi**2) + 0.0362891890108585 - 30033.9111328125*pi**2/(s**2 + 71.1111111111111*pi*s + 102400.0*pi**2) - 29832.8804969788*pi**2/(s**2 + 57.1428571428571*pi*s + 40000.0*pi**2) - 1941.85602664948*pi**2/(s**2 + 48.0*pi*s + 14400.0*pi**2) + 2005.74839115143*pi**2/(s**2 + 30.0*pi*s + 3600.0*pi**2) + 61.4734411239624*pi**2/(s**2 + 13.3333333333333*pi*s + 400.0*pi**2)",
      "numerator_coeffs": [
        -1.4833669923245907,
        -1112.715477726143,
        -3792363.10813432,
        -1502922649.2520864,
        -1982426985747.6516,
        -404910722576929.06,
        -2.175166246982049e+17,
        -1.920712331052407e+19,
        -3.710480179431804e+21,
        -4.063840159410276e+22,
        -3.3951332558124414e+24
      ],
      "denominator_coeffs": [
        1.0,
        689.853853488273,
        1767225.2539945075,
        795187431.0952163,
        792021019882.4027,
        213111688800330.88,
        9.937119347634656e+16,
        1.32729908083943e+19,
        2.7361947847020894e+21,
        1.1930725782134321e+23,
        7.953964697452779e+24
      ]
    },
    {
      "output_index": 14,
      "symbolic": "0.134191915392876*s**2/(s**2 + 71.1111111111111*pi*s + 102400.0*pi**2) + 0.598720192909241*s**2/(s**2 + 57.1428571428571*pi*s + 40000.0*pi**2) + 0.322342664003372*s**2/(s**2 + 48.0*pi*s + 14400.0*pi**2) - 0.327972888946533*s**2/(s**2 + 30.0*pi*s + 3600.0*pi**2) - 0.0335105359554291*s**2/(s**2 + 13.3333333333333*pi*s + 400.0*pi**2) + 47.7849663628472*pi*s/(s**2 + 71.1111111111111*pi*s + 102400.0*pi**2) - 2.28844263723918*pi*s/(s**2 + 57.1428571428571*pi*s + 40000.0*pi**2) + 16.142605304718*pi*s/(s**2 + 48.0*pi*s + 14400.0*pi**2) - 22.0633828639984*pi*s/(s**2 + 30.0*pi*s + 3600.0*pi**2) + 7.39002784093221*pi*s/(s**2 + 13.3333333333333*pi*s + 400.0*pi**2) - 0.316395044326782 + 65719.9157714844*pi**2/(s**2 + 71.1111111111111*pi*s + 102400.0*pi**2) - 11962.1765613556*pi**2/(s**2 + 57.1428571428571*pi*s + 40000.0*pi**2) + 1844.90811824799*pi**2/(s**2 + 48.0*pi*s + 14400.0*pi**2) + 1249.26545619965*pi**2/(s**2 + 30.0*pi*s + 3600.0*pi**2) + 3.75910848379135*pi**2/(s**2 + 13.3333333333333*pi*s + 400.0*pi**2)",
      "numerator_coeffs": [
        0.3773763030767441,
        254.12734218629276,
        813773.6044882843,
        271166716.7790297,
        152226175992.36533,
        23862711848033.977,
        7057005462868223.0,
        1.3524752461380846e+18,
        1.1440240269152176e+21,
        8.684277334134853e+22,
        4.0635307661571624e+24
      ],
      "denominator_coeffs": [
        1.0,
        689.853853488273,
        1767225.2539945075,
        795187431.0952163,
        792021019882.4027,
        213111688800330.88,
        9.937119347634656e+16,
        1.32729908083943e+19,
        2.7361947847020894e+21,
        1.1930725782134321e+23,
        7.953964697452779e+24
      ]
    },
    {
      "output_index": 15,
      "symbolic": "0.00681559601798654*s**2/(s**2 + 71.1111111111111*pi*s + 102400.0*pi**2) - 1.96476805210114*s**2/(s**2 + 57.1428571428571*pi*s + 40000.0*pi**2) + 0.259168058633804*s**2/(s**2 + 48.0*pi*s + 14400.0*pi**2) + 0.0339638851583004*s**2/(s**2 + 30.0*pi*s + 3600.0*pi**2) + 0.607289910316467*s**2/(s**2 + 13.3333333333333*pi*s + 400.0*pi**2) - 21.9903712802463*pi*s/(s**2 + 71.1111111111111*pi*s + 102400.0*pi**2) + 6.18391718183245*pi*s/(s**2 + 57.1428571428571*pi*s + 40000.0*pi**2) + 25.8061151504517*pi*s/(s**2 + 48.0*pi*s + 14400.0*pi**2) - 7.90777176618576*pi*s/(s**2 + 30.0*pi*s + 3600.0*pi**2) - 4.73685503005981*pi*s/(s**2 + 13.3333333333333*pi*s + 400.0*pi**2) + 0.0418632291257381 + 18601.9790649414*pi**2/(s**2 + 71.1111111111111*pi*s + 102400.0*pi**2) - 11782.9668521881*pi**2/(s**2 + 57.1428571428571*pi*s + 40000.0*pi**2) + 8631.79836273193*pi**2/(s**2 + 48.0*pi*s + 14400.0*pi**2) - 229.802575707436*pi**2/(s**2 + 30.0*pi*s + 3600.0*pi**2) + 54.6391904354095*pi**2/(s**2 + 13.3333333333333*pi*s + 400.0*pi**2)",
      "numerator_coeffs": [
        -1.0156673728488386,
        -425.5004823795978,
        -779026.7362726417,
        12493577.497832082,
        317892221344.50385,
        122205717733023.44,
        8.397951449631226e+16,
        8.638281293241756e+18,
        2.327922658391274e+21,
        2.6068026353305034e+22,
        4.781473212799451e+24
      ],
      "denominator_coeffs": [
        1.0,
        689.853853488273,
        1767225.2539945075,
        795187431.0952163,
        792021019882.4027,
        213111688800330.88,
        9.937119347634656e+16,
        1.32729908083943e+19,
        2.7361947847020894e+21,
        1.1930725782134321e+23,
        7.953964697452779e+24
      ]
    }
  ],
  "frequency_response": {
    "frequencies": [
      2.0,
      2.0110845797634256,
      2.0222305934811167,
      2.033438381637857,
      2.0447082866054953,
      2.0560406526534027,
      2.067435825958994,
      2.078894154618297,
      2.0904159886565896,
      2.1020016800390917,
      2.1136515826817153,
      2.1253660524618785,
      2.1371454472293734,
      2.148990126817301,
      2.1609004530530616,
      2.172876789769406,
      2.1849195028155535,
      2.197028960068365,
      2.209205531443582,
      2.221449588907125,
      2.23376150648646,
      2.2461416602820194,
      2.2585904284786937,
      2.2711081913573845,
      2.2836953313066197,
      2.296352232834235,
      2.3090792825791207,
      2.321876869323031,
      2.334745384002463,
      2.3476852197205953,
      2.3606967717592995,
      2.373780437591213,
      2.3869366168918824,
      2.400165711551972,
      2.41346812568954,
      2.426844265662386,
      2.4402945400804588,
      2.4538193598183455,
      2.4674191380278176,
      2.481094290150454,
      2.49484523393033,
      2.508672389426781,
      2.5225761790272334,
      2.5365570274601055,
      2.550615361807785,
      2.5647516115196733,
      2.5789662084253053,
      2.59325958674754,
      2.6076321831158253,
      2.622084436579537,
      2.636616788621388,
      2.651229683170918,
      2.6659235666180527,
      2.6806988878267397,
      2.6955560981486606,
      2.710495651437019,
      2.725518004060404,
      2.7406236149167342,
      2.755812945447271,
      2.771086459650716,
      2.7864446240973892,
      2.8018879079434766,
      2.8174167829453656,
      2.8330317234740514,
      2.8487332065296327,
      2.8645217117558808,
      2.880397721454892,
      2.89636172060182,
      2.9124141968596917,
      2.928555640594303,
      2.944786544889202,
      2.961107405560745,
      2.9775187211732494,
      2.994020993054218,
      3.010614725309658,
      3.027300424839477,
      3.0440786013529695,
      3.0609497673843866,
      3.077914438308592,
      3.094973132356807,
      3.112126370632441,
      3.1293746771270086,
      3.146718578736138,
      3.1641586052756643,
      3.181695289497818,
      3.1993291671074946,
      3.2170607767786237,
      3.2348906601706187,
      3.252819361944929,
      3.2708474297816754,
      3.2889754143963805,
      3.3072038695567922,
      3.325533352099798,
      3.3439644219484386,
      3.3624976421290107,
      3.381133578788265,
      3.399872801210703,
      3.418715881835963,
      3.4376633962763132,
      3.4567159233342304,
      3.47587404502008,
      3.4951383465699033,
      3.5145094164632837,
      3.533987846441332,
      3.5535742315247605,
      3.573269170032054,
      3.5930732635977596,
      3.61298711719085,
      3.633011339133215,
      3.6531465411182413,
      3.6733933382294937,
      3.693752348959515,
      3.7142241952287054,
      3.734809502404334,
      3.755508899319635,
      3.776323018293016,
      3.7972524951473803,
      3.818297969229544,
      3.8394600834297687,
      3.8607394842014022,
      3.8821368215806205,
      3.903652749206291,
      3.925287924339937,
      3.947043007885815,
      3.9689186644111065,
      3.990915562166213,
      4.013034373105176,
      4.035275772906203,
      4.057640440992301,
      4.080129060552042,
      4.102742318560421,
      4.1254809057998525,
      4.1483455168812675,
      4.171336850265326,
      4.194455608283768,
      4.217702497160851,
      4.24107822703494,
      4.264583511980189,
      4.2882190700283545,
      4.311985623190742,
      4.335883897480242,
      4.359914622933528,
      4.384078533633344,
      4.408376367730933,
      4.432808867468591,
      4.457376779202328,
      4.482080853424683,
      4.506921844787637,
      4.531900512125673,
      4.557017618478956,
      4.582273931116639,
      4.607670221560302,
      4.633207265607526,
      4.658885843355581,
      4.684706739225264,
      4.710670741984864,
      4.736778644774247,
      4.763031245129093,
      4.789429345005253,
      4.815973750803254,
      4.842665273392925,
      4.869504728138171,
      4.896492934921885,
      4.92363071817098,
      4.950918906881589,
      4.97835833464438,
      5.005949839670018,
      5.033694264814784,
      5.061592457606302,
      5.089645270269447,
      5.117853559752369,
      5.1462181877526705,
      5.17474002074374,
      5.203419930001202,
      5.232258791629549,
      5.261257486588901,
      5.290416900721906,
      5.319737924780821,
      5.349221454454697,
      5.378868390396762,
      5.408679638251923,
      5.43865610868443,
      5.468798717405709,
      5.49910838520231,
      5.529586037964058,
      5.5602326067123276,
      5.591049027628476,
      5.622036242082463,
      5.653195196661579,
      5.684526843199382,
      5.716032138804772,
      5.747712045891214,
      5.779567532206156,
      5.811599570860577,
      5.843809140358723,
      5.876197224627995,
      5.9087648130489985,
      5.9415129004857805,
      5.974442487316209,
      6.007554579462535,
      6.040850188422128,
      6.074330331298363,
      6.107996030831698,
      6.141848315430919,
      6.175888219204545,
      6.210116781992432,
      6.2445350493975225,
      6.2791440728177985,
      6.313944909478395,
      6.348938622463887,
      6.384126280750785,
      6.419508959240168,
      6.455087738790526,
      6.490863706250795,
      6.526837954493523,
      6.563011582448293,
      6.59938569513526,
      6.635961403698926,
      6.672739825442084,
      6.709722083859932,
      6.7469093086744145,
      6.784302635868715,
      6.821903207721966,
      6.859712172844148,
      6.897730686211162,
      6.935959909200131,
      6.974401009624858,
      7.013055161771506,
      7.051923546434487,
      7.0910073509525,
      7.130307769244837,
      7.169826001847822,
      7.209563255951501,
      7.249520745436531,
      7.289699690911228,
      7.330101319748891,
      7.370726866125266,
      7.411577571056259,
      7.452654682435854,
      7.493959455074215,
      7.53549315073604,
      7.577257038179082,
      7.619252393192916,
      7.661480498637926,
      7.703942644484464,
      7.746640127852287,
      7.789574253050154,
      7.832746331615682,
      7.876157682355419,
      7.919809631385114,
      7.963703512170228,
      8.007840665566691,
      8.052222439861827,
      8.096850190815575,
      8.141725281701877,
      8.186849083350335,
      8.2322229741881,
      8.277848340281942,
      8.323726575380642,
      8.369859080957518,
      8.416247266253269,
      8.462892548319019,
      8.509796352059587,
      8.556960110277045,
      8.604385263714454,
      8.652073261099893,
      8.700025559190728,
      8.74824362281807,
      8.796728924931573,
      8.845482946644394,
      8.89450717727844,
      8.943803114409894,
      8.993372263914916,
      9.043216140015689,
      9.093336265326641,
      9.14373417090097,
      9.194411396277427,
      9.245369489527317,
      9.296610007301823,
      9.348134514879522,
      9.399944586214225,
      9.452041803983063,
      9.504427759634801,
      9.557104053438497,
      9.610072294532348,
      9.66333410097286,
      9.716891099784291,
      9.770744927008334,
      9.824897227754084,
      9.879349656248335,
      9.93410387588606,
      9.989161559281268,
      10.044524388318068,
      10.100194054202058,
      10.156172257511999,
      10.212460708251736,
      10.269061125902471,
      10.325975239475252,
      10.383204787563809,
      10.440751518397677,
      10.498617189895565,
      10.556803569719102,
      10.615312435326787,
      10.674145574028314,
      10.733304783039182,
      10.792791869535556,
      10.852608650709517,
      10.912756953824536,
      10.973238616271304,
      11.034055485623886,
      11.095209419696113,
      11.15670228659838,
      11.218535964794679,
      11.280712343159987,
      11.343233321037998,
      11.406100808299088,
      11.469316725398723,
      11.532883003436062,
      11.596801584212978,
      11.661074420293394,
      11.725703475062888,
      11.790690722788689,
      11.856038148680009,
      11.921747748948633,
      11.987821530869965,
      12.054261512844286,
      12.121069724458438,
      12.188248206547842,
      12.255799011258793,
      12.3237242021112,
      12.39202585406158,
      12.460706053566465,
      12.529766898646146,
      12.599210498948729,
      12.669038975814622,
      12.739254462341307,
      12.8098591034485,
      12.880855055943712,
      12.952244488588073,
      13.024029582162648,
      13.096212529534998,
      13.168795535726195,
      13.241780817978198,
      13.315170605821532,
      13.388967141143457,
      13.463172678256404,
      13.537789483966852,
      13.6128198376446,
      13.688266031292352,
      13.76413036961578,
      13.840415170093879,
      13.91712276304979,
      13.994255491721997,
      14.071815712335866,
      14.149805794175675,
      14.228228119656938,
      14.307085084399208,
      14.386379097299281,
      14.46611258060473,
      14.546287969987928,
      14.626907714620474,
      14.707974277247956,
      14.789490134265243,
      14.871457775792074,
      14.95387970574916,
      15.036758441934687,
      15.120096516101174,
      15.203896474032886,
      15.288160875623529,
      15.37289229495449,
      15.458093320373479,
      15.543766554573551,
      15.629914614672671,
      15.71654013229361,
      15.803645753644348,
      15.891234139598946,
      15.97930796577877,
      16.06786992263428,
      16.156922715527177,
      16.246469064813052,
      16.336511705924526,
      16.42705338945475,
      16.518096881241483,
      16.60964496245154,
      16.701700429665774,
      16.79426609496451,
      16.88734478601342,
      16.98093934614994,
      17.075052634470087,
      17.169687525915815,
      17.264846911362874,
      17.360533697709034,
      17.456750807962983,
      17.55350118133354,
      17.650787773319472,
      17.748613555799803,
      17.846981517124544,
      17.945894662206012,
      18.045356012610643,
      18.145368606651235,
      18.24593549947983,
      18.347059763180983,
      18.448744486865635,
      18.550992776765497,
      18.653807756327886,
      18.7571925663112,
      18.861150364880807,
      18.965684327705542,
      19.070797648054747,
      19.176493536895745,
      19.28277522299202,
      19.38964595300175,
      19.497108991577058,
      19.605167621463732,
      19.713825143601447,
      19.823084877224687,
      19.932950159964065,
      20.043424347948314,
      20.154510815906825,
      20.2662129572727,
      20.378534184286423,
      20.49147792810013,
      20.605047638882386,
      20.719246785923566,
      20.834078857741904,
      20.949547362189968,
      21.065655826561898,
      21.1824077977011,
      21.299806842108605,
      21.417856546052064,
      21.536560515675216,
      21.65592237710814,
      21.77594577657795,
      21.896634380520194,
      22.01799187569092,
      22.14002196927919,
      22.262728389020427,
      22.386114883310217,
      22.51018522131884,
      22.63494319310644,
      22.76039260973873,
      22.886537303403497,
      23.013381127527598,
      23.140927956894686,
      23.26918168776363,
      23.39814623798745,
      23.527825547133087,
      23.65822357660167,
      23.789344309749563,
      23.92119175201007,
      24.05376993101574,
      24.18708289672146,
      24.32113472152811,
      24.455929500407002,
      24.591471351024992,
      24.7277644138702,
      24.864812852378574,
      25.002620853060996,
      25.14119262563121,
      25.28053240313444,
      25.42064444207665,
      25.56153302255458,
      25.703202448386556,
      25.845657047243854,
      25.988901170783016,
      26.132939194778686,
      26.277775519257315,
      26.423414568631618,
      26.569860791835637,
      26.71711866246075,
      26.865192678892228,
      27.01408736444671,
      27.163807267510393,
      27.314356961677902,
      27.465741045892102,
      27.617964144584498,
      27.771030907816527,
      27.924946011421657,
      28.079714157148125,
      28.23534007280268,
      28.391828512394895,
      28.549184256282455,
      28.707412111317208,
      28.866516910991912,
      29.026503515587997,
      29.187376812323947,
      29.34914171550462,
      29.511803166671417,
      29.675366134753148,
      29.83983561621792,
      30.00521663522566,
      30.17151424378166,
      30.33873352189093,
      30.506879577713278,
      30.67595754771947,
      30.845972596848053,
      31.01692991866314,
      31.18883473551315,
      31.3616922986902,
      31.53550788859061,
      31.710286814876223,
      31.886034416636512,
      32.062756062551784,
      32.2404571510571,
      32.419143110507186,
      32.598819399342354,
      32.7794915062551,
      32.96116495035791,
      33.14384528135175,
      33.32753807969563,
      33.51224895677713,
      33.6979835550837,
      33.884747548375174,
      34.07254664185693,
      34.26138657235427,
      34.45127310848768,
      34.64221205084897,
      34.834209232178544,
      35.02727051754351,
      35.2214018045169,
      35.41660902335782,
      35.612898137192545,
      35.81027514219678,
      36.00874606777873,
      36.208316976763335,
      36.40899396557751,
      36.610783164436256,
      36.813690737530095,
      37.01772288321322,
      37.22288583419289,
      37.42918585771989,
      37.63662925577988,
      37.845222365285956,
      38.05497155827226,
      38.26588324208852,
      38.47796385959596,
      38.691219889363914,
      38.90565784586784,
      39.12128427968838,
      39.3381057777113,
      39.55612896332886,
      39.77536049664205,
      39.99580707466405,
      40.2174754315249,
      40.440372338677065,
      40.664504605102415,
      40.88987907752015,
      41.11650264059593,
      41.34438221715233,
      41.5735247683801,
      41.80393729405104,
      42.03562683273162,
      42.26860046199811,
      42.50286529865281,
      42.73842849894132,
      42.97529725877131,
      43.213478813932205,
      43.45298044031626,
      43.69380945414089,
      43.93597321217205,
      44.17947911194908,
      44.42433459201059,
      44.67054713212169,
      44.91812425350263,
      45.16707351905832,
      45.41740253360958,
      45.669118944125294,
      45.92223043995604,
      46.176744753069094,
      46.432669658284475,
      46.69001297351248,
      46.94878255999262,
      47.20898632253359,
      47.47063220975489,
      47.73372821432953,
      47.99828237322822,
      48.26430276796496,
      48.53179752484376,
      48.80077481520704,
      49.07124285568512,
      49.343209908447236,
      49.61668428145406,
      49.89167432871128,
      50.168188450525015,
      50.44623509375823,
      50.72582275208885,
      51.00695996626932,
      51.28965532438728,
      51.57391746212818,
      51.85975506303883,
      52.1471768587928,
      52.43619162945718,
      52.726808203760655,
      53.01903545936337,
      53.31288232312799,
      53.608357771392384,
      53.90547083024402,
      54.20423057579542,
      54.50464613446169,
      54.80672668323906,
      55.11048144998536,
      55.41591971370194,
      55.72305080481698,
      56.03188410547069,
      56.34242904980175,
      56.65469512423557,
      56.968691867774155,
      57.28442887228734,
      57.6019157828059,
      57.92116229781622,
      58.24217816955643,
      58.564973204314484,
      58.88955726272755,
      59.215940260083286,
      59.544132166622866,
      59.874143007845284,
      60.2059828648139,
      60.539661874464144,
      60.87519022991327,
      61.21257818077187,
      61.551836033456695,
      61.892974151505776,
      62.23600295589479,
      62.58093292535547,
      62.927774596695826,
      63.27653856512177,
      63.62723548456106,
      63.97987606798851,
      64.33447108775334,
      64.69103137590835,
      65.04956782454059,
      65.41009138610434,
      65.77261307375547,
      66.13714396168793,
      66.50369518547218,
      66.87227794239512,
      67.24290349180235,
      67.61558315544197,
      67.99032831781045,
      68.3671504265006,
      68.74606099255094,
      69.12707159079754,
      69.51019386022766,
      69.89543950433507,
      70.28282029147782,
      70.67234805523753,
      71.06403469478093,
      71.45789217522352,
      71.85393252799476,
      72.25216785120594,
      72.65261031001951,
      73.05527213702072,
      73.46016563259153,
      73.86730316528595,
      74.27669717220834,
      74.68836015939293,
      75.10230470218602,
      75.51854344563027,
      75.93708910485064,
      76.3579544654432,
      76.78115238386532,
      77.20669578782864,
      77.63459767669401,
      78.06487112186836,
      78.49752926720431,
      78.9325853294014,
      79.37005259840996,
      79.80994443783715,
      80.252274285355,
      80.69705565311118,
      81.14430212814145,
      81.59402737278486,
      82.04624512510125,
      82.5009691992906,
      82.95821348611534,
      83.41799195332442,
      83.8803186460801,
      84.34520768738713,
      84.8126732785239,
      85.28272969947645,
      85.75539130937472,
      86.23067254693096,
      86.70858793088111,
      87.18915206042806,
      87.67237961568765,
      88.15828535813738,
      88.6468841310669,
      89.13819086003188,
      89.63222055330964,
      90.12898830235767,
      90.62850928227485,
      91.13079875226468,
      91.63587205610177,
      92.14374462260025,
      92.65443196608518,
      93.16794968686668,
      93.68431347171608,
      94.2035390943456,
      94.72564241588974,
      95.25063938539004,
      95.77854604028238,
      96.30937850688656,
      96.84315300089933,
      97.3798858278894,
      97.91959338379563,
      98.46229215542807,
      99.00799872097133,
      99.55672975049121,
      100.10850200644374,
      100.6633323441875,
      101.2212377124982,
      101.78223515408652,
      102.34634180611914,
      102.91357490074154,
      103.48395176560481,
      104.057489824395,
      104.63420659736519,
      105.21411970187073,
      105.79724685290773,
      106.3836058636537,
      106.97321464601195,
      107.56609121115886,
      108.16225367009376,
      108.7617202341928,
      109.36450921576446,
      109.97063902860948,
      110.58012818858326,
      111.19299531416125,
      111.80925912700827,
      112.42893845254972,
      113.05205222054701,
      113.67861946567584,
      114.30865932810742,
      114.94219105409377,
      115.57923399655479,
      116.21980761567002,
      116.86393147947298,
      117.51162526444874,
      118.16290875613554,
      118.81780184972844,
      119.47632455068755,
      120.13849697534909,
      120.80433935153964,
      121.4738720191947,
      122.14711543097917,
      122.8240901529127,
      123.50481686499779,
      124.18931636185135,
      124.87760955334049,
      125.56971746522046,
      126.26566123977751,
      126.96546213647453,
      127.66914153260039,
      128.3767209239235,
      129.08822192534765,
      129.8036662715728,
      130.523075817759,
      131.24647254019368,
      131.9738785369637,
      132.70531602862954,
      133.44080735890452,
      134.1803749953374,
      134.92404152999836,
      135.67182968016988,
      136.4237622890398,
      137.17986232639953,
      137.9401528893459,
      138.70465720298634,
      139.4733986211489,
      140.246400627095,
      141.02368683423722,
      141.80528098686045,
      142.59120696084724,
      143.3814887644076,
      144.1761505388115,
      144.9752165591271,
      145.7787112349619,
      146.5866591112084,
      147.39908486879457,
      148.21601332543665,
      149.03746943639803,
      149.8634782952515,
      150.6940651346454,
      151.52925532707536,
      152.36907438565808,
      153.2135479649117,
      154.06270186153895,
      154.91656201521553,
      155.77515450938205,
      156.63850557204168,
      157.50664157656024,
      158.3795890424726,
      159.25737463629255,
      160.14002517232728,
      161.02756761349713,
      161.92002907215826,
      162.81743681093153,
      163.7198182435352,
      164.62720093562206,
      165.53961260562227,
      166.4570811255891,
      167.37963452205094,
      168.3073009768673,
      169.24010882808963,
      170.17808657082756,
      171.1212628581183,
      172.0696665018028,
      173.02332647340546,
      173.98227190501916,
      174.94653209019577,
      175.91613648484005,
      176.89111470811,
      177.87149654332168,
      178.8573119388587,
      179.8485910090878,
      180.8453640352778,
      181.8476614665252,
      182.8555139206843,
      183.86895218530213,
      184.8880072185599,
      185.9127101502174,
      186.94309228256478,
      187.97918509137855,
      189.02102022688297,
      190.0686295147175,
      191.12204495690793,
      192.1812987328449,
      193.2464232002664,
      194.31745089624624,
      195.39441453818876,
      196.477347024827,
      197.5662814372285,
      198.6612510398057,
      199.76228928133185,
      200.86942979596358,
      201.9827064042672,
      203.10215311425256,
      204.2278041224118,
      205.3596938147639,
      206.49785676790492,
      207.64232775006508,
      208.7931417221696,
      209.95033383890743,
      211.11393944980506,
      212.28399410030627,
      213.4605335328578,
      214.643593688002,
      215.83321070547353,
      217.0294209253041,
      218.23226088893242,
      219.44176734032027,
      220.65797722707572,
      221.8809277015806,
      223.11065612212613,
      224.34720005405413,
      225.5905972709041,
      226.84088575556822,
      228.09810370145013,
      229.3622895136326,
      230.6334818100505,
      231.91171942267033,
      233.19704139867724,
      234.48948700166653,
      235.78909571284393,
      237.09590723223147,
      238.40996147987997,
      239.73129859708948,
      241.05995894763404,
      242.39598311899564,
      243.7394119236039,
      245.0902864000825,
      246.44864781450383,
      247.814537661648,
      249.1879976662715,
      250.56906978438158,
      251.95779620451754,
      253.35421934904053,
      254.758381875428,
      256.17032667757775,
      257.59009688711797,
      259.0177358747246,
      260.4532872514473,
      261.8967948700399,
      263.34830282630116,
      264.80785546042165,
      266.27549735833776,
      267.751273353095,
      269.23522852621556,
      270.7274082090771,
      272.22785798429663,
      273.73662368712314,
      275.25375140683855,
      276.7792874881642,
      278.31327853267754,
      279.85577140023554,
      281.4068132104058,
      282.9664513439069,
      284.53473344405444,
      286.1117074182173,
      287.6974214392809,
      289.29192394711845,
      290.89526365007185,
      292.50748952643784,
      294.12865082596545,
      295.7587970713601,
      297.397978059796,
      299.0462438644387,
      300.70364483597285,
      302.37023160414145,
      304.0460550792923,
      305.73116645393264,
      307.4256172042946,
      309.1294590919053,
      310.8427441651698,
      312.5655247609603,
      314.29785350621523,
      316.03978331954653,
      317.7913674128572,
      319.5526592929652,
      321.32371276323903,
      323.1045819252412,
      324.8953211803802,
      326.6959852315741,
      328.5066290849193,
      330.32730805137226,
      332.15807774843887,
      333.99899410187294,
      335.850113347386,
      337.7114920323634,
      339.58318701759254,
      341.465255479,
      343.35775490939744,
      345.26074312023945,
      347.17427824338745,
      349.0984187328868,
      351.033223366752,
      352.9787512487623,
      354.935061810268,
      356.90221481200416,
      358.8802703459177,
      360.8692888370023,
      362.8693310451442,
      364.8804580669796,
      366.902731337759,
      368.9362126332251,
      370.9809640714997,
      373.03704811498096,
      375.10452757225266,
      377.1834656000011,
      379.2739257049454,
      381.37597174577746,
      383.48966793511215,
      385.6150788414504,
      387.75226939114924,
      389.90130487040705,
      392.062250927257,
      394.23517357357235,
      396.4201391870845,
      398.6172145134083,
      400.82646666808256,
      403.0479631386198,
      405.2817717865676,
      407.527960849583,
      409.7865989435147,
      412.05775506450095,
      414.3414985910763,
      416.637899286291,
      418.9470272998435,
      421.26895317022115,
      423.60374782685625,
      425.95148259229273,
      428.3122291843642,
      430.6860597183866,
      433.0730467093586,
      435.4732630741785,
      437.886782133871,
      440.313677615827,
      442.754023656057,
      445.2078948014536,
      447.67536601207047,
      450.1565126634113,
      452.65141054873243,
      455.1601358813598,
      457.6827652970141,
      460.21937585615416,
      462.77004504633,
      465.33485078454964,
      467.91387141966123,
      470.50718573474353,
      473.11487294951445,
      475.7370127227505,
      478.3736851547201,
      481.02497078963034,
      483.69095061808895,
      486.37170607957574,
      489.067319064932,
      491.77787191886205,
      494.5034474424478,
      497.24412889568026,
      499.99999999999994
    ],
    "outputs": [
      {
        "index": 0,
        "magnitude_db": [
          6.385496979668588,
          6.387674270870763,
          6.389875704324695,
          6.392101546022912,
          6.394352064824378,
          6.396627532483,
          6.398928223676256,
          6.401254416034048,
          6.4036063901677185,
          6.4059844296992665,
          6.408388821290697,
          6.410819854673609,
          6.413277822678887,
          6.415763021266576,
          6.41827574955596,
          6.420816309855714,
          6.423385007694286,
          6.425982151850349,
          6.428608054383467,
          6.431263030664818,
          6.433947399408103,
          6.436661482700518,
          6.439405606033899,
          6.442180098335907,
          6.444985292001356,
          6.447821522923594,
          6.450689130525982,
          6.453588457793426,
          6.456519851303982,
          6.4594836612604745,
          6.462480241522188,
          6.465509949636553,
          6.468573146870863,
          6.471670198243965,
          6.474801472557946,
          6.477967342429782,
          6.481168184322961,
          6.484404378578987,
          6.4876763094488705,
          6.490984365124476,
          6.494328937769758,
          6.497710423551872,
          6.50112922267213,
          6.504585739396742,
          6.508080382087394,
          6.511613563231586,
          6.515185699472714,
          6.518797211639878,
          6.522448524777377,
          6.526140068173891,
          6.529872275391279,
          6.533645584292964,
          6.537460437071959,
          6.541317280278348,
          6.545216564846312,
          6.549158746120608,
          6.553144283882474,
          6.557173642374909,
          6.561247290327295,
          6.565365700979325,
          6.5695293521041265,
          6.573738726030662,
          6.57799430966519,
          6.58229659451187,
          6.58664607669237,
          6.5910432569644755,
          6.595488640739569,
          6.599982738098986,
          6.604526063809139,
          6.6091191373353455,
          6.613762482854292,
          6.618456629265038,
          6.623202110198512,
          6.627999464025387,
          6.632849233862254,
          6.637751967575992,
          6.642708217786267,
          6.64771854186602,
          6.6527835019398776,
          6.657903664880318,
          6.663079602301551,
          6.6683118905509255,
          6.673601110697786,
          6.678947848519579,
          6.684352694485175,
          6.6898162437351765,
          6.695339096059064,
          6.70092185586908,
          6.706565132170631,
          6.712269538529067,
          6.718035693032624,
          6.7238642182514,
          6.7297557411921005,
          6.7357108932483705,
          6.741730310146552,
          6.747814631886531,
          6.753964502677552,
          6.760180570868686,
          6.766463488873714,
          6.77281391309015,
          6.779232503812141,
          6.785719925136937,
          6.792276844864606,
          6.798903934390723,
          6.805601868591643,
          6.8123713257020215,
          6.81921298718426,
          6.826127537589413,
          6.8331156644092275,
          6.840178057918841,
          6.847315411009754,
          6.8545284190125475,
          6.861817779508929,
          6.869184192132581,
          6.876628358358252,
          6.884150981278624,
          6.89175276536827,
          6.89943441623421,
          6.907196640352343,
          6.91504014478917,
          6.922965636908066,
          6.930973824059398,
          6.939065413253759,
          6.947241110817482,
          6.95550162202964,
          6.963847650739656,
          6.9722798989646275,
          6.980799066465418,
          6.989405850300497,
          6.998100944356528,
          7.006885038854613,
          7.015758819831035,
          7.024722968591309,
          7.033778161136375,
          7.042925067559475,
          7.052164351412516,
          7.0614966690403955,
          7.070922668881798,
          7.080442990734955,
          7.090058264986664,
          7.099769111802901,
          7.109576140279209,
          7.119479947549017,
          7.129481117847822,
          7.139580221531369,
          7.14977781404545,
          7.1600744348452325,
          7.170470606261698,
          7.180966832312689,
          7.191563597456047,
          7.202261365282082,
          7.213060577142565,
          7.223961650713248,
          7.234964978486856,
          7.24607092619328,
          7.257279831143556,
          7.268592000494092,
          7.280007709427433,
          7.291527199245652,
          7.303150675372315,
          7.314878305258741,
          7.326710216190123,
          7.338646492986855,
          7.350687175596163,
          7.362832256569016,
          7.375081678416925,
          7.387435330843122,
          7.399893047842307,
          7.4124546046628526,
          7.425119714625199,
          7.437888025789778,
          7.450759117467572,
          7.463732496566102,
          7.476807593763351,
          7.4899837595017456,
          7.50326025979407,
          7.516636271832754,
          7.5301108793937175,
          7.543683068025466,
          7.557351720013922,
          7.571115609112898,
          7.584973395029891,
          7.598923617656405,
          7.612964691031486,
          7.6270948970270105,
          7.641312378742518,
          7.655615133597179,
          7.6700010061059025,
          7.684467680326302,
          7.699012671962583,
          7.7136333201122165,
          7.728326778640572,
          7.7430900071685045,
          7.757919761657247,
          7.772812584574674,
          7.787764794626595,
          7.802772476036286,
          7.817831467355239,
          7.83293734978767,
          7.848085435011116,
          7.86327075247525,
          7.878488036160713,
          7.89373171077983,
          7.908995877400891,
          7.924274298477706,
          7.939560382266414,
          7.954847166611475,
          7.970127302083431,
          7.9853930344512305,
          8.000636186472672,
          8.01584813898734,
          8.031019811297217,
          8.046141640821515,
          8.061203562013636,
          8.076194984529689,
          8.09110477064021,
          8.105921211878673,
          8.12063200492321,
          8.13522422671079,
          8.1496843087864,
          8.163998010893748,
          8.178150393817981,
          8.192125791495922,
          8.205907782414448,
          8.21947916032353,
          8.232821904297046,
          8.245917148181444,
          8.258745149480358,
          8.271285257731678,
          8.283515882443043,
          8.295414460661735,
          8.306957424265988,
          8.318120167076454,
          8.328877011899246,
          8.339201177625444,
          8.349064746526382,
          8.358438631899167,
          8.367292546232937,
          8.375594970083203,
          8.383313121858988,
          8.390412928745688,
          8.396858999005186,
          8.402614595913624,
          8.40764161361659,
          8.411900555200502,
          8.415350513298025,
          8.41794915356383,
          8.419652701374611,
          8.42041593212383,
          8.42019216549663,
          8.41893326412335,
          8.416589637020662,
          8.413110248236983,
          8.408442631122973,
          8.402532908648014,
          8.395325820179082,
          8.38676475512862,
          8.376791793862514,
          8.365347756237137,
          8.352372258105538,
          8.337803776096344,
          8.321579720924436,
          8.303636519439863,
          8.28390970555997,
          8.262334020159896,
          8.238843519917932,
          8.213371695025163,
          8.185851595573865,
          8.156215966336704,
          8.124397389540068,
          8.09032843512065,
          8.053941817836424,
          8.01517056048287,
          7.973948162344511,
          7.930208771893065,
          7.8838873626284105,
          7.834919910850227,
          7.783243574048981,
          7.728796868516829,
          7.671519844706133,
          7.611354258806076,
          7.548243738970574,
          7.4821339446141675,
          7.412972717198745,
          7.3407102209649615,
          7.265299072117627,
          7.186694455055878,
          7.104854224345436,
          7.019738991261589,
          6.931312193885985,
          6.839540149916731,
          6.744392091546234,
          6.645840181973403,
          6.543859513341722,
          6.4384280861301,
          6.329526770265334,
          6.217139248469826,
          6.101251942603345,
          5.981853923998887,
          5.858936809028591,
          5.73249464136304,
          5.602523762604662,
          5.469022673183495,
          5.331991885598746,
          5.191433772276126,
          5.0473524104877825,
          4.899753426951962,
          4.748643844898263,
          4.5940319365523345,
          4.435927084169903,
          4.274339652937872,
          4.109280879266874,
          3.940762778234612,
          3.7687980742093745,
          3.593400158998766,
          3.414583082241362,
          3.232361579197482,
          3.0467511416160593,
          2.85776813796613,
          2.6654299900424783,
          2.4697554137972477,
          2.270764733229096,
          2.068480277295231,
          1.8629268711133227,
          1.6541324342036914,
          1.4421287002005294,
          1.2269520743374542,
          1.0086446470911716,
          0.7872553846336039,
          0.5628415191709032,
          0.3354701647900936,
          0.10522018700587311,
          -0.12781564331999898,
          -0.36352817881165067,
          -0.6017890726268125,
          -0.8424475684192141,
          -1.085326868553619,
          -1.3302200486033473,
          -1.5768854917657749,
          -1.825041826445104,
          -2.074362365224595,
          -2.3244690654181666,
          -2.5749260622313823,
          -2.825232867333009,
          -3.074817380400772,
          -3.3230289307227237,
          -3.5691316512091964,
          -3.8122985877265125,
          -4.0516070596326585,
          -4.286035906349739,
          -4.514465368515458,
          -4.735680443605219,
          -4.948378601434725,
          -5.151182715603393,
          -5.342659930898405,
          -5.521346914801494,
          -5.685781515367053,
          -5.834540271045057,
          -5.966280525219588,
          -6.079785161886317,
          -6.174007307398801,
          -6.248111866887056,
          -6.301510608806779,
          -6.33388776505023,
          -6.345213795414648,
          -6.335746005291536,
          -6.306015954747477,
          -6.256804856500494,
          -6.189109228013657,
          -6.1040997830968085,
          -6.0030768439052835,
          -5.887425435413504,
          -5.758572773806629,
          -5.617950201657067,
          -5.466960887441124,
          -5.306953906218018,
          -5.1392047283952245,
          -4.964901702606668,
          -4.785137832625245,
          -4.600907000334858,
          -4.41310374860562,
          -4.2225257776020255,
          -4.029878396140052,
          -3.8357802821340883,
          -3.6407700252175323,
          -3.4453130385299398,
          -3.2498085286034213,
          -3.0545962990903215,
          -2.8599632350994684,
          -2.666149371036739,
          -2.473353487794763,
          -2.2817382169540896,
          -2.0914346524060705,
          -1.90254648539382,
          -1.7151536890428094,
          -1.5293157844011285,
          -1.3450747229470341,
          -1.162457421324509,
          -0.9814779834148817,
          -0.8021396432491451,
          -0.6244364600877871,
          -0.44835479451305627,
          -0.2738745917801747,
          -0.10097049609106767,
          0.07038718303121325,
          0.24023163342468706,
          0.4085988153401372,
          0.5755268341414317,
          0.7410553977066534,
          0.9052253471692802,
          1.0680782510510176,
          1.2296560540858679,
          1.3900007731364261,
          1.549154233569006,
          1.7071578403002838,
          1.8640523784679877,
          2.019877839321735,
          2.1746732674924187,
          2.328476626286057,
          2.481324678072663,
          2.633252877209234,
          2.784295273256072,
          2.9344844225233393,
          3.083851306226916,
          3.2324252537424734,
          3.380233869629707,
          3.5273029632593387,
          3.6736564800150666,
          3.819316433166884,
          3.9643028356216514,
          4.108633630854716,
          4.252324622415583,
          4.395389401481215,
          4.537839272006904,
          4.6796831730958095,
          4.82092759827752,
          4.961576511454639,
          5.1016312593444,
          5.2410904803133,
          5.379950009575547,
          5.518202780803783,
          5.655838724283619,
          5.79284466183243,
          5.929204198800012,
          6.064897613574224,
          6.199901745129093,
          6.334189879278717,
          6.467731634435361,
          6.600492847818153,
          6.732435463216976,
          6.863517421586282,
          6.99369255592461,
          7.12291049208593,
          7.251116557368578,
          7.378251698932431,
          7.50425241430391,
          7.629050696437133,
          7.752573996002791,
          7.874745203770179,
          7.995482656123824,
          8.114700166908161,
          8.232307088912648,
          8.348208408385116,
          8.462304875983607,
          8.574493177535324,
          8.684666147852061,
          8.792713030646546,
          8.898519787288674,
          9.001969456727517,
          9.10294256837476,
          9.201317609091928,
          9.296971544646137,
          9.389780395097807,
          9.479619862566008,
          9.56636600869599,
          9.649895977945823,
          9.730088761542344,
          9.8068259956603,
          9.879992786091506,
          9.949478550435645,
          10.015177867707294,
          10.076991324264409,
          10.134826344170214,
          10.18859799154934,
          10.238229732232185,
          10.283654142030123,
          10.324813549372694,
          10.361660600774892,
          10.394158738684002,
          10.422282582661833,
          10.446018206554823,
          10.465363306243123,
          10.480327254679487,
          10.490931043160685,
          10.497207110041893,
          10.49919906033145,
          10.496961281714148,
          10.490558464476285,
          10.480065034486035,
          10.465564509769687,
          10.44714879228521,
          10.424917407210355,
          10.39897670242965,
          10.369439020934266,
          10.336421858563352,
          10.300047018949405,
          10.260439776724722,
          10.217728059047033,
          10.172041654360184,
          10.123511456067343,
          10.072268747507865,
          10.0184445333362,
          9.96216892113943,
          9.903570555931223,
          9.842776109047527,
          9.779909821962887,
          9.715093104657026,
          9.6484441873957,
          9.58007782415054,
          9.510105045365151,
          9.438632957375484,
          9.36576458550143,
          9.291598757634473,
          9.216230025042462,
          9.139748617084452,
          9.062240426566099,
          8.983787022557198,
          8.904465687627638,
          8.824349476627349,
          8.743507294330172,
          8.662003989474876,
          8.57990046296167,
          8.497253788194305,
          8.414117341792457,
          8.330540943132771,
          8.246571001407029,
          8.162250669111511,
          8.077620001100145,
          7.9927161185465465,
          7.9075733773652255,
          7.822223540840502,
          7.736695956404592,
          7.651017736693216,
          7.565213945190173,
          7.479307786952489,
          7.393320805085299,
          7.3072730838137,
          7.22118345917626,
          7.13506973854485,
          7.048948930358088,
          6.962837485640718,
          6.876751553071778,
          6.790707249556896,
          6.704720948457343,
          6.618809587826757,
          6.53299100120492,
          6.447284273713239,
          6.36171012638303,
          6.276291331820337,
          6.1910531644599125,
          6.106023888775383,
          6.021235288878683,
          5.936723242940014,
          5.852528345768414,
          5.768696582683819,
          5.685280057449795,
          5.6023377764821936,
          5.5199364907523405,
          5.438151595709386,
          5.357068088088557,
          5.276781576577619,
          5.19739934090373,
          5.119041430891396,
          5.0418417933446396,
          4.965949410142895,
          4.8915294256429185,
          4.818764235307881,
          4.747854500439244,
          4.67902004602624,
          4.612500590198224,
          4.54855624482004,
          4.487467717808418,
          4.42953613933185,
          4.375082426943286,
          4.324446099844444,
          4.277983451042355,
          4.236064989442301,
          4.199072073309795,
          4.167392673365145,
          4.141416229160645,
          4.121527596996859,
          4.1081001314258,
          4.101487994373297,
          4.102017843937543,
          4.109980115566224,
          4.125620166953331,
          4.1491296090659295,
          4.180638183212373,
          4.220206562271709,
          4.267820448501195,
          4.3233863080419495,
          4.386729023267713,
          4.457591661322414,
          4.535637456262646,
          4.6204539911329405,
          4.711559454346105,
          4.808410741335527,
          4.910413085927264,
          5.016930842498518,
          5.1272990032785675,
          5.2408350257487,
          5.356850561013216,
          5.474662711199584,
          5.593604497086881,
          5.713034280458795,
          5.832343953546083,
          5.950965775496254,
          6.068377799225322,
          6.1841078885232195,
          6.297736373206638,
          6.408897428660537,
          6.5172792952176986,
          6.622623472950812,
          6.724723039400617,
          6.823420242547618,
          6.918603520067351,
          7.010204089728943,
          7.098192245811471,
          7.182573483670885,
          7.263384560044813,
          7.340689581183857,
          7.4145761951746305,
          7.485151949474053,
          7.552540860184564,
          7.616880226315496,
          7.678317710435143,
          7.737008696851701,
          7.793113929812012,
          7.846797427143994,
          7.898224659204146,
          7.947560978797156,
          7.994970284757508,
          8.040613899955156,
          8.084649643440505,
          8.127231076113969,
          8.168506899539164,
          8.20862048818016,
          8.247709536310264,
          8.285905802011076,
          8.323334931970281,
          8.360116352125615,
          8.396363210537041,
          8.43218236015742,
          8.467674370383861,
          8.502933557386562,
          8.538048024215158,
          8.573099702567575,
          8.608164388869435,
          8.643311767954053,
          8.678605418157886,
          8.714102792057842,
          8.749855167383492,
          8.785907562845791,
          8.822298613744053,
          8.859060402254892,
          8.896218237281923,
          8.933790378667027,
          8.971787700447996,
          9.010213287712718,
          9.04906196146859,
          9.088319725846002,
          9.127963131920291,
          9.167958552510237,
          9.208261362544945,
          9.248815020050008,
          9.289550043566214,
          9.330382882976311,
          9.37121468239088,
          9.411929936069264,
          9.452395041481997,
          9.492456757735328,
          9.531940582872332,
          9.5706490702479,
          9.608360112454978,
          9.644825231352065,
          9.679767924756884,
          9.712882134403042,
          9.743830915751735,
          9.77224540796915,
          9.797724221323104,
          9.81983337857798,
          9.838106965413706,
          9.852048660707363,
          9.861134328411795,
          9.864815855954907,
          9.862526416375427,
          9.853687309452004,
          9.837716497723697,
          9.814038894132654,
          9.782098378021008,
          9.741371416456271,
          9.691382052138328,
          9.631717894365204,
          9.562046625677654,
          9.48213242625673,
          9.391851634412285,
          9.29120691727437,
          9.180339230767343,
          9.059536906679952,
          8.929241315145308,
          8.790048704205155,
          8.642707999540422,
          8.48811453847783,
          8.327299894110261,
          8.16141810166403,
          7.991728719451453,
          7.819577237137122,
          7.646373387798572,
          7.473567935962694,
          7.3026285129168755,
          7.1350150644972015,
          6.972155473744342,
          6.815421924899605,
          6.666108584058724,
          6.52541117799688,
          6.39440904522469,
          6.274050200270049,
          6.16513988358377,
          6.068332960246593,
          5.9841303824278205,
          5.9128797521555265,
          5.854779827438339,
          5.809888624930283,
          5.778134605489481,
          5.759330301691508,
          5.753187669713365,
          5.759334426200832,
          5.777330661014506,
          5.8066850906033975,
          5.846870421907767,
          5.897337419403936,
          5.957527395038441,
          6.026882961369728,
          6.104856994257083,
          6.190919838138922,
          6.284564852485075,
          6.385312442879993,
          6.4927127465097065,
          6.606347152622942,
          6.725828837204457,
          6.850802480945553,
          6.980943323573251,
          7.1159556881626,
          7.255571088117492,
          7.399546008461648,
          7.547659432881555,
          7.699710169183355,
          7.855514008766522,
          8.01490074047398,
          8.177711025715352,
          8.343793129974037,
          8.512999495564701,
          8.685183131695354,
          8.86019379044412,
          9.037873891205816,
          9.218054151638611,
          9.400548880432511,
          9.585150886810291,
          9.771625964267235,
          9.959706912644306,
          10.149087074519297,
          10.33941338074753,
          10.530278927811702,
          10.721215148788339,
          10.911683692749845,
          11.10106819679225,
          11.288666222621044,
          11.473681736599614,
          11.655218637073471,
          11.832275970897788,
          12.003745622685333,
          12.1684133890314,
          12.32496444174555,
          12.471994206891278,
          12.608025602161312,
          12.731533344705767,
          12.840975633512082,
          12.934832913160362,
          13.011652661165849,
          13.070098276053113,
          13.108999292887981,
          13.127399470003475,
          13.124598938306537,
          13.100186715737859,
          13.054060523023905,
          12.986431946627055,
          12.897816426003425,
          12.789009061583814,
          12.66104859178329,
          12.515172858217687,
          12.352769546104707,
          12.175325940532094,
          11.984380965466304,
          11.781482018412888,
          11.568148243346295,
          11.345841040904624,
          11.115941898118711,
          10.879737081903308,
          10.63840839102469,
          10.39302898087712,
          10.14456322909665,
          9.893869658294307,
          9.641706038495316,
          9.388735926604376,
          9.135536041814502,
          8.882604010267062,
          8.630366131483223,
          8.379184919651921,
          8.129366254297668,
          7.881166038494869,
          7.634796310891644,
          7.390430792926686,
          7.148209877306959,
          6.9082450803498,
          6.670622991148054,
          6.435408756306887,
          6.202649141511371,
          5.972375211420188,
          5.744604668095899,
          5.519343885942826,
          5.296589678338007,
          5.076330828093907,
          4.858549410789599,
          4.643221936975136,
          4.43032033637827,
          4.219812804572637,
          4.011664530120804,
          3.805838317997767,
          3.6022951231197182,
          3.40099450604263,
          3.2018950213378723,
          3.004954547782135,
          2.8101305682955235,
          2.6173804065122597,
          2.42666142595065,
          2.2379311969514717,
          2.0511476358597265,
          1.8662691203237114,
          1.683254584061362,
          1.5020635939929814,
          1.3226564122463103,
          1.1449940452008416,
          0.9690382814449301,
          0.7947517202639773,
          0.6220977920590895,
          0.45104077190452074,
          0.2815457872876113,
          0.11357882093278504,
          -0.05289329051313975,
          -0.2179028612629408,
          -0.3814813640597728,
          -0.5436594402386826,
          -0.7044669117491241,
          -0.8639327947699955,
          -1.0220853145998503,
          -1.1789519215503057,
          -1.3345593076097308,
          -1.4889334236777856,
          -1.6420994972011957,
          -1.7940820500659642,
          -1.9449049166232775,
          -2.0945912617457614,
          -2.243163598826236,
          -2.3906438076466046,
          -2.5370531520555035,
          -2.6824122974048463,
          -2.8267413277041307,
          -2.9700597624590337,
          -3.1123865731683487,
          -3.2537401994582966,
          -3.3941385648387206,
          -3.533599092069938,
          -3.672138718132145,
          -3.8097739087934523,
          -3.9465206727740103,
          -4.082394575506766,
          -4.217410752497072,
          -4.351583922284518,
          -4.484928399012499,
          -4.617458104611159,
          -4.749186580600901,
          -4.88012699952418,
          -5.010292176013413,
          -5.13969457750421,
          -5.268346334602372,
          -5.3962592511141505,
          -5.523444813748995,
          -5.649914201504,
          -5.775678294739908,
          -5.900747683957592,
          -6.025132678284631,
          -6.148843313681108,
          -6.271889360873573,
          -6.3942803330263684,
          -6.5160254931588435,
          -6.637133861317089,
          -6.757614221508624,
          -6.877475128407957,
          -6.996724913841238,
          -7.115371693057569,
          -7.2334233707944176,
          -7.350887647144518,
          -7.46777202323109,
          -7.584083806698558,
          -7.699830117024931,
          -7.815017890662551,
          -7.929653886013179,
          -8.043744688243603,
          -8.15729671394704,
          -8.270316215656544,
          -8.382809286215195,
          -8.494781863008553,
          -8.606239732064237,
          -8.717188532023366,
          -8.827633757988666,
          -8.937580765253513,
          -9.047034772916216,
          -9.15600086738395,
          -9.264484005769694,
          -9.372489019186727,
          -9.4800206159439,
          -9.587083384645322,
          -9.693681797198034,
          -9.79982021173065,
          -9.905502875426494,
          -10.010733927273996,
          -10.115517400737396,
          -10.219857226350634,
          -10.323757234236894,
          -10.427221156556774,
          -10.530252629887272,
          -10.632855197534251,
          -10.735032311780557,
          -10.836787336072017,
          -10.938123547143668,
          -11.039044137088105,
          -11.139552215367981,
          -11.239650810774751,
          -11.339342873335152,
          -11.438631276167657,
          -11.537518817290309,
          -11.636008221381658,
          -11.734102141496463,
          -11.831803160737621,
          -11.929113793885861,
          -12.026036488988595,
          -12.122573628909246,
          -12.21872753283861,
          -12.314500457769064,
          -12.409894599933374,
          -12.50491209620899,
          -12.599555025488918,
          -12.693825410020539,
          -12.787725216713074,
          -12.881256358415074,
          -12.974420695162648,
          -13.067220035399536,
          -13.15965613716985,
          -13.251730709284358,
          -13.343445412461277,
          -13.434801860442281,
          -13.525801621084474,
          -13.61644621742932,
          -13.706737128748902,
          -13.796675791570458,
          -13.886263600680051,
          -13.975501910105443,
          -14.064392034079464,
          -14.15293524798403,
