#ifndef GENERATED_FRIKAN_MODEL_DATA_H
#define GENERATED_FRIKAN_MODEL_DATA_H

#include <stdint.h>

typedef float port_float;

#define FRIKAN_INPUT_DIM 1u
#define FRIKAN_FEATURES 8u
#define FRIKAN_KAN_LAYER_COUNT 7u
#define FRIKAN_MAX_LAYER_INPUTS 8u
#define FRIKAN_MAX_LAYER_OUTPUTS 6u
#define FRIKAN_LUT_POINTS 769u
#define FRIKAN_LUT_INTERPOLATION 0u
#define FRIKAN_USE_SYMMETRY 0u
#define FRIKAN_USE_EVEN 0u
#define OUTPUT_UNITS 1u
#define BENCHMARK_ITERATIONS 10u
#define BENCHMARK_REPEAT_RUNS 1u
#define BENCHMARK_RESET_STATE_EACH_RUN 1u
#define VALIDATION_RECORD_COUNT 1u
#define VALIDATION_SEQ_LEN 400u

#define SCALER_INPUT_DATA_RANGE 44.71252906f
#define SCALER_OUTPUT_DATA_RANGE 53.37688572f

static const port_float validation_input[VALIDATION_RECORD_COUNT][VALIDATION_SEQ_LEN][FRIKAN_INPUT_DIM] = {
    {
        { -0.00265106f },
        { -0.00256918f },
        { -0.00248111f },
        { -0.00241613f },
        { -0.00234087f },
        { -0.00226323f },
        { -0.00223715f },
        { -0.00223383f },
        { -0.00214781f },
        { -0.00198212f },
        { -0.00189901f },
        { -0.00200698f },
        { -0.00219156f },
        { -0.00226382f },
        { -0.00219819f },
        { -0.00209412f },
        { -0.00200165f },
        { -0.00192639f },
        { -0.00187893f },
        { -0.00181025f },
        { -0.00166097f },
        { -0.00151595f },
        { -0.00150904f },
        { -0.00158611f },
        { -0.00156338f },
        { -0.00139519f },
        { -0.00122052f },
        { -0.00113318f },
        { -0.00103853f },
        { -0.00083806f },
        { -0.00063530f },
        { -0.00057462f },
        { -0.00058965f },
        { -0.00052110f },
        { -0.00038254f },
        { -0.00032187f },
        { -0.00038041f },
        { -0.00043144f },
        { -0.00034601f },
        { -0.00013261f },
        { 0.00008208f },
        { 0.00016323f },
        { 0.00010017f },
        { 0.00004305f },
        { 0.00013594f },
        { 0.00035456f },
        { 0.00057684f },
        { 0.00071296f },
        { 0.00073143f },
        { 0.00068017f },
        { 0.00066288f },
        { 0.00071413f },
        { 0.00078858f },
        { 0.00086976f },
        { 0.00093872f },
        { 0.00092841f },
        { 0.00086762f },
        { 0.00091341f },
        { 0.00112259f },
        { 0.00135794f },
        { 0.00148923f },
        { 0.00155125f },
        { 0.00165147f },
        { 0.00181994f },
        { 0.00201192f },
        { 0.00217416f },
        { 0.00224855f },
        { 0.00222650f },
        { 0.00223793f },
        { 0.00240714f },
        { 0.00261369f },
        { 0.00264666f },
        { 0.00257154f },
        { 0.00262787f },
        { 0.00280621f },
        { 0.00288950f },
        { 0.00286840f },
        { 0.00294713f },
        { 0.00316138f },
        { 0.00329885f },
        { 0.00321027f },
        { 0.00300860f },
        { 0.00293004f },
        { 0.00308371f },
        { 0.00335901f },
        { 0.00352225f },
        { 0.00341395f },
        { 0.00314609f },
        { 0.00305184f },
        { 0.00330599f },
        { 0.00369158f },
        { 0.00386876f },
        { 0.00375255f },
        { 0.00354203f },
        { 0.00347588f },
        { 0.00359951f },
        { 0.00376401f },
        { 0.00384263f },
        { 0.00383287f },
        { 0.00373294f },
        { 0.00352192f },
        { 0.00329503f },
        { 0.00321302f },
        { 0.00330149f },
        { 0.00345284f },
        { 0.00357276f },
        { 0.00362006f },
        { 0.00360556f },
        { 0.00357392f },
        { 0.00350881f },
        { 0.00339315f },
        { 0.00337100f },
        { 0.00354858f },
        { 0.00371179f },
        { 0.00361617f },
        { 0.00338434f },
        { 0.00325363f },
        { 0.00317271f },
        { 0.00297188f },
        { 0.00271633f },
        { 0.00260458f },
        { 0.00263198f },
        { 0.00261538f },
        { 0.00250944f },
        { 0.00243467f },
        { 0.00242569f },
        { 0.00240480f },
        { 0.00234824f },
        { 0.00228183f },
        { 0.00218356f },
        { 0.00204237f },
        { 0.00196534f },
        { 0.00204757f },
        { 0.00210835f },
        { 0.00181715f },
        { 0.00122402f },
        { 0.00084719f },
        { 0.00098366f },
        { 0.00125348f },
        { 0.00115439f },
        { 0.00076748f },
        { 0.00051561f },
        { 0.00047698f },
        { 0.00039006f },
        { 0.00015329f },
        { -0.00012045f },
        { -0.00038115f },
        { -0.00058773f },
        { -0.00059313f },
        { -0.00041464f },
        { -0.00036246f },
        { -0.00064695f },
        { -0.00108620f },
        { -0.00135069f },
        { -0.00135355f },
        { -0.00130310f },
        { -0.00140450f },
        { -0.00163690f },
        { -0.00187945f },
        { -0.00208921f },
        { -0.00227872f },
        { -0.00244983f },
        { -0.00258293f },
        { -0.00269093f },
        { -0.00288834f },
        { -0.00322890f },
        { -0.00349042f },
        { -0.00343532f },
        { -0.00321925f },
        { -0.00323212f },
        { -0.00363362f },
        { -0.00421777f },
        { -0.00466104f },
        { -0.00487324f },
        { -0.00504767f },
        { -0.00531172f },
        { -0.00553480f },
        { -0.00556714f },
        { -0.00545809f },
        { -0.00539431f },
        { -0.00551482f },
        { -0.00577218f },
        { -0.00600514f },
        { -0.00614402f },
        { -0.00622409f },
        { -0.00625546f },
        { -0.00621566f },
        { -0.00609581f },
        { -0.00594307f },
        { -0.00593766f },
        { -0.00624600f },
        { -0.00668556f },
        { -0.00682980f },
        { -0.00659913f },
        { -0.00644502f },
        { -0.00671342f },
        { -0.00708505f },
        { -0.00701736f },
        { -0.00654869f },
        { -0.00621043f },
        { -0.00630107f },
        { -0.00667650f },
        { -0.00708014f },
        { -0.00730100f },
        { -0.00718061f },
        { -0.00680198f },
        { -0.00653261f },
        { -0.00656533f },
        { -0.00656293f },
        { -0.00618264f },
        { -0.00578320f },
        { -0.00593670f },
        { -0.00639791f },
        { -0.00642021f },
        { -0.00591716f },
        { -0.00544961f },
        { -0.00527245f },
        { -0.00511638f },
        { -0.00478210f },
        { -0.00443161f },
        { -0.00426002f },
        { -0.00424198f },
        { -0.00433324f },
        { -0.00455771f },
        { -0.00474199f },
        { -0.00460717f },
        { -0.00422311f },
        { -0.00387274f },
        { -0.00349256f },
        { -0.00281059f },
        { -0.00200165f },
        { -0.00166504f },
        { -0.00198502f },
        { -0.00226243f },
        { -0.00175839f },
        { -0.00086973f },
        { -0.00064746f },
        { -0.00115539f },
        { -0.00138754f },
        { -0.00086314f },
        { -0.00019870f },
        { -0.00002579f },
        { -0.00020307f },
        { -0.00019443f },
        { 0.00024476f },
        { 0.00085960f },
        { 0.00126604f },
        { 0.00144604f },
        { 0.00168835f },
        { 0.00206846f },
        { 0.00237956f },
        { 0.00259411f },
        { 0.00290133f },
        { 0.00325299f },
        { 0.00336127f },
        { 0.00321741f },
        { 0.00319528f },
        { 0.00351766f },
        { 0.00396536f },
        { 0.00423436f },
        { 0.00426908f },
        { 0.00423354f },
        { 0.00444685f },
        { 0.00517489f },
        { 0.00617957f },
        { 0.00676099f },
        { 0.00661095f },
        { 0.00633088f },
        { 0.00662194f },
        { 0.00726472f },
        { 0.00756893f },
        { 0.00748472f },
        { 0.00748282f },
        { 0.00771692f },
        { 0.00794316f },
        { 0.00790096f },
        { 0.00756697f },
        { 0.00731356f },
        { 0.00752541f },
        { 0.00797074f },
        { 0.00817565f },
        { 0.00824648f },
        { 0.00859443f },
        { 0.00917647f },
        { 0.00960887f },
        { 0.00969821f },
        { 0.00950892f },
        { 0.00921472f },
        { 0.00909460f },
        { 0.00937907f },
        { 0.00987367f },
        { 0.01003494f },
        { 0.00967862f },
        { 0.00928298f },
        { 0.00935895f },
        { 0.00979864f },
        { 0.01001248f },
        { 0.00966755f },
        { 0.00916107f },
        { 0.00905027f },
        { 0.00922554f },
        { 0.00930353f },
        { 0.00941365f },
        { 0.00966621f },
        { 0.00952080f },
        { 0.00882583f },
        { 0.00858652f },
        { 0.00936791f },
        { 0.00999327f },
        { 0.00929643f },
        { 0.00802830f },
        { 0.00757929f },
        { 0.00796504f },
        { 0.00836550f },
        { 0.00858064f },
        { 0.00882997f },
        { 0.00891158f },
        { 0.00847692f },
        { 0.00779240f },
        { 0.00762108f },
        { 0.00824318f },
        { 0.00891957f },
        { 0.00876902f },
        { 0.00793153f },
        { 0.00720614f },
        { 0.00689815f },
        { 0.00678251f },
        { 0.00671623f },
        { 0.00657169f },
        { 0.00609204f },
        { 0.00536351f },
        { 0.00490838f },
        { 0.00494118f },
        { 0.00507323f },
        { 0.00496177f },
        { 0.00467788f },
        { 0.00439041f },
        { 0.00419800f },
        { 0.00413085f },
        { 0.00399349f },
        { 0.00343284f },
        { 0.00230509f },
        { 0.00095757f },
        { 0.00013146f },
        { 0.00018878f },
        { 0.00040584f },
        { -0.00019652f },
        { -0.00139138f },
        { -0.00214113f },
        { -0.00222543f },
        { -0.00232423f },
        { -0.00272802f },
        { -0.00301948f },
        { -0.00297585f },
        { -0.00312501f },
        { -0.00421271f },
        { -0.00615333f },
        { -0.00773327f },
        { -0.00784944f },
        { -0.00698848f },
        { -0.00673995f },
        { -0.00773949f },
        { -0.00895627f },
        { -0.00928965f },
        { -0.00894543f },
        { -0.00878367f },
        { -0.00912053f },
        { -0.00963313f },
        { -0.00997246f },
        { -0.01021423f },
        { -0.01069169f },
        { -0.01141690f },
        { -0.01212211f },
        { -0.01287529f },
        { -0.01389124f },
        { -0.01482023f },
        { -0.01517727f },
        { -0.01527475f },
        { -0.01561918f },
        { -0.01578923f },
        { -0.01528470f },
        { -0.01485897f },
        { -0.01539930f },
        { -0.01624128f },
        { -0.01620674f },
        { -0.01555037f },
        { -0.01542412f },
        { -0.01602695f },
        { -0.01658565f },
        { -0.01677988f },
        { -0.01691615f },
        { -0.01690989f },
        { -0.01648104f },
        { -0.01622843f },
        { -0.01700793f },
        { -0.01838408f },
        { -0.01915026f },
        { -0.01902107f },
        { -0.01849923f },
        { -0.01782370f }
    }
};

static const uint16_t frikan_layer_input_dims[FRIKAN_KAN_LAYER_COUNT] = { 8u, 6u, 6u, 6u, 6u, 6u, 6u };

static const uint16_t frikan_layer_output_dims[FRIKAN_KAN_LAYER_COUNT] = { 6u, 6u, 6u, 6u, 6u, 6u, 1u };

static const port_float frikan_iir_b0[FRIKAN_FEATURES] = { 1.01834738f, 0.91181785f, 0.58737868f, 0.45533237f, 0.37560672f, 0.29861164f, 0.24232961f, 0.22203322f };

static const port_float frikan_iir_b1[FRIKAN_FEATURES] = { -1.79074121f, -1.66158426f, -1.04488528f, -0.78031272f, -0.61713415f, -0.47297889f, -0.36367595f, -0.32793313f };

static const port_float frikan_iir_b2[FRIKAN_FEATURES] = { 0.78366315f, 0.76070124f, 0.46838361f, 0.33610496f, 0.25434569f, 0.18742403f, 0.13480040f, 0.12066228f };

static const port_float frikan_iir_a1[FRIKAN_FEATURES] = { -1.82044137f, -1.82044137f, -1.82044137f, -1.82044137f, -1.82044137f, -1.82044137f, -1.82044137f, -1.82044137f };

static const port_float frikan_iir_a2[FRIKAN_FEATURES] = { 0.83121359f, 0.83121359f, 0.83121359f, 0.83121359f, 0.83121359f, 0.83121359f, 0.83121359f, 0.83121359f };

static const port_float frikan_layer_bias[FRIKAN_KAN_LAYER_COUNT][FRIKAN_MAX_LAYER_OUTPUTS] = {
    { 0.00685836f, -0.00685190f, -0.00080622f, 0.02339058f, 0.00225506f, 0.01806012f },
    { 0.00044133f, -0.00882709f, 0.00368960f, 0.02209264f, 0.00489242f, -0.00607142f },
    { -0.00746441f, 0.00879542f, -0.01019905f, -0.01893615f, -0.02924215f, -0.00739343f },
    { -0.01693107f, 0.03641507f, 0.00907474f, 0.01022348f, 0.01788197f, -0.01006986f },
    { -0.01712898f, -0.00128766f, 0.00787949f, -0.00623002f, -0.01399999f, -0.01283190f },
    { -0.03907518f, -0.09703295f, -0.01088622f, -0.00507722f, 0.02194886f, -0.02848992f },
    { -0.01542750f, 0.00000000f, 0.00000000f, 0.00000000f, 0.00000000f, 0.00000000f }
};

static const port_float frikan_layer_lut[FRIKAN_KAN_LAYER_COUNT][FRIKAN_MAX_LAYER_INPUTS][FRIKAN_MAX_LAYER_OUTPUTS][FRIKAN_LUT_POINTS] = {
    {
        {
            { 0.00000000f, 0.00000278f, 0.00001114f, 0.00002506f, 0.00004456f, 0.00006962f, 0.00010025f, 0.00013645f, 0.00017823f, 0.00022557f, 0.00027848f, 0.00033696f, 0.00040101f, 0.00047063f, 0.00054582f, 0.00062658f, 0.00071290f, 0.00080480f, 0.00090227f, 0.00100531f, 0.00111391f, 0.00122809f, 0.00134784f, 0.00147315f, 0.00160404f, 0.00174049f, 0.00188251f, 0.00203011f, 0.00218327f, 0.00234200f, 0.00250631f, 0.00267618f, 0.00285162f, 0.00303263f, 0.00321921f, 0.00341136f, 0.00360908f, 0.00381237f, 0.00402123f, 0.00423566f, 0.00445565f, 0.00468122f, 0.00491236f, 0.00514907f, 0.00539134f, 0.00563919f, 0.00589260f, 0.00615159f, 0.00641614f, 0.00668627f, 0.00696196f, 0.00724322f, 0.00753006f, 0.00782246f, 0.00812043f, 0.00842397f, 0.00873308f, 0.00904776f, 0.00936801f, 0.00969383f, 0.01002522f, 0.01036218f, 0.01070471f, 0.01105281f, 0.01140647f, 0.01177070f, 0.01215048f, 0.01254580f, 0.01295667f, 0.01338309f, 0.01382506f, 0.01428258f, 0.01475565f, 0.01524426f, 0.01574843f, 0.01626814f, 0.01680340f, 0.01735421f, 0.01792057f, 0.01850247f, 0.01909993f, 0.01971293f, 0.02034148f, 0.02098558f, 0.02164523f, 0.02232043f, 0.02301118f, 0.02371747f, 0.02443932f, 0.02517671f, 0.02592965f, 0.02669814f, 0.02748218f, 0.02828176f, 0.02909690f, 0.02992758f, 0.03077381f, 0.03163559f, 0.03251292f, 0.03340580f, 0.03431422f, 0.03523820f, 0.03617772f, 0.03713279f, 0.03810342f, 0.03908958f, 0.04009130f, 0.04110857f, 0.04214138f, 0.04318975f, 0.04425366f, 0.04533312f, 0.04642813f, 0.04753868f, 0.04866479f, 0.04980644f, 0.05096365f, 0.05213640f, 0.05332470f, 0.05452855f, 0.05574795f, 0.05698289f, 0.05823339f, 0.05949943f, 0.06078102f, 0.06207816f, 0.06339085f, 0.06471909f, 0.06606287f, 0.06737466f, 0.06860689f, 0.06975957f, 0.07083269f, 0.07182627f, 0.07274029f, 0.07357476f, 0.07432968f, 0.07500504f, 0.07560085f, 0.07611711f, 0.07655382f, 0.07691098f, 0.07718858f, 0.07738663f, 0.07750513f, 0.07754408f, 0.07750347f, 0.07738331f, 0.07718360f, 0.07690434f, 0.07654552f, 0.07610715f, 0.07558923f, 0.07499176f, 0.07431473f, 0.07355815f, 0.07272202f, 0.07180634f, 0.07081111f, 0.06973632f, 0.06858198f, 0.06734809f, 0.06603464f, 0.06464164f, 0.06316910f, 0.06161699f, 0.05998534f, 0.05827413f, 0.05648337f, 0.05461306f, 0.05266320f, 0.05063378f, 0.04852482f, 0.04633629f, 0.04406822f, 0.04172060f, 0.03929342f, 0.03678669f, 0.03420041f, 0.03153457f, 0.02878918f, 0.02596424f, 0.02305975f, 0.02007571f, 0.01701211f, 0.01386896f, 0.01064626f, 0.00734401f, 0.00396220f, 0.00050084f, -0.00304007f, -0.00666053f, -0.01036055f, -0.01406960f, -0.01771717f, -0.02130325f, -0.02482785f, -0.02829097f, -0.03169260f, -0.03503275f, -0.03831141f, -0.04152859f, -0.04468429f, -0.04777851f, -0.05081124f, -0.05378248f, -0.05669225f, -0.05954053f, -0.06232733f, -0.06505264f, -0.06771647f, -0.07031881f, -0.07285968f, -0.07533905f, -0.07775695f, -0.08011336f, -0.08240829f, -0.08464173f, -0.08681369f, -0.08892417f, -0.09097317f, -0.09296068f, -0.09488670f, -0.09675125f, -0.09855430f, -0.10029588f, -0.10197597f, -0.10359458f, -0.10515171f, -0.10664735f, -0.10808151f, -0.10945418f, -0.11076537f, -0.11201508f, -0.11320330f, -0.11433004f, -0.11539530f, -0.11639907f, -0.11734136f, -0.11822217f, -0.11904149f, -0.11979933f, -0.12049568f, -0.12113055f, -0.12170394f, -0.12221585f, -0.12266627f, -0.12305520f, -0.12338266f, -0.12364863f, -0.12385311f, -0.12399612f, -0.12407764f, -0.12409767f, -0.12405622f, -0.12395329f, -0.12378888f, -0.12355865f, -0.12325829f, -0.12288779f, -0.12244715f, -0.12193637f, -0.12135546f, -0.12070440f, -0.11998321f, -0.11919188f, -0.11833042f, -0.11739881f, -0.11639707f, -0.11532519f, -0.11418317f, -0.11297101f, -0.11168872f, -0.11033629f, -0.10891372f, -0.10742101f, -0.10585817f, -0.10422518f, -0.10252206f, -0.10074880f, -0.09890540f, -0.09699187f, -0.09500820f, -0.09295439f, -0.09083044f, -0.08863635f, -0.08637213f, -0.08403776f, -0.08163326f, -0.07915863f, -0.07661385f, -0.07399894f, -0.07131388f, -0.06855870f, -0.06573337f, -0.06283790f, -0.05987230f, -0.05683656f, -0.05373068f, -0.05055466f, -0.04730851f, -0.04399221f, -0.04060578f, -0.03714922f, -0.03362251f, -0.03002567f, -0.02635868f, -0.02262156f, -0.01881431f, -0.01493691f, -0.01098938f, -0.00697170f, -0.00288389f, 0.00127405f, 0.00550214f, 0.00980036f, 0.01416872f, 0.01860722f, 0.02311586f, 0.02769463f, 0.03234354f, 0.03698954f, 0.04155957f, 0.04605362f, 0.05047170f, 0.05481382f, 0.05907996f, 0.06327013f, 0.06738433f, 0.07142256f, 0.07538482f, 0.07927111f, 0.08308143f, 0.08681578f, 0.09047415f, 0.09405656f, 0.09756299f, 0.10099346f, 0.10434795f, 0.10762647f, 0.11082903f, 0.11395561f, 0.11700622f, 0.11998086f, 0.12287953f, 0.12570223f, 0.12844895f, 0.13111971f, 0.13371450f, 0.13623331f, 0.13867616f, 0.14104303f, 0.14333393f, 0.14554887f, 0.14768783f, 0.14975082f, 0.15173784f, 0.15364889f, 0.15548397f, 0.15724308f, 0.15892621f, 0.16053338f, 0.16206458f, 0.16351980f, 0.16489906f, 0.16620234f, 0.16742965f, 0.16858100f, 0.16965637f, 0.17065577f, 0.17157920f, 0.17242666f, 0.17319815f, 0.17389367f, 0.17451321f, 0.17505679f, 0.17552439f, 0.17591603f, 0.17623169f, 0.17647139f, 0.17663511f, 0.17672286f, 0.17673464f, 0.17667045f, 0.17653029f, 0.17635967f, 0.17620408f, 0.17606353f, 0.17593801f, 0.17582754f, 0.17573210f, 0.17565170f, 0.17558633f, 0.17553601f, 0.17550072f, 0.17548047f, 0.17547526f, 0.17548508f, 0.17550994f, 0.17554984f, 0.17560478f, 0.17567476f, 0.17575977f, 0.17585982f, 0.17597491f, 0.17610503f, 0.17625020f, 0.17641040f, 0.17658564f, 0.17677591f, 0.17698123f, 0.17720158f, 0.17743697f, 0.17768739f, 0.17795286f, 0.17823336f, 0.17852890f, 0.17883947f, 0.17916509f, 0.17950574f, 0.17986143f, 0.18023216f, 0.18061792f, 0.18101873f, 0.18143457f, 0.18186544f, 0.18231136f, 0.18277231f, 0.18324830f, 0.18373933f, 0.18424540f, 0.18476650f, 0.18530264f, 0.18585382f, 0.18642004f, 0.18700129f, 0.18759758f, 0.18820891f, 0.18883528f, 0.18947668f, 0.19013313f, 0.19080461f, 0.19149112f, 0.19219268f, 0.19290927f, 0.19364090f, 0.19438757f, 0.19514928f, 0.19592602f, 0.19669069f, 0.19741618f, 0.19810249f, 0.19874961f, 0.19935755f, 0.19992632f, 0.20045590f, 0.20094630f, 0.20139751f, 0.20180955f, 0.20218240f, 0.20251607f, 0.20281056f, 0.20306587f, 0.20328199f, 0.20345894f, 0.20359670f, 0.20369528f, 0.20375468f, 0.20377490f, 0.20375593f, 0.20369778f, 0.20360046f, 0.20346395f, 0.20328825f, 0.20307338f, 0.20281932f, 0.20252609f, 0.20219367f, 0.20182207f, 0.20141128f, 0.20096132f, 0.20047217f, 0.19994384f, 0.19937633f, 0.19876964f, 0.19812377f, 0.19743871f, 0.19671447f, 0.19595106f, 0.19514845f, 0.19430667f, 0.19342571f, 0.19250556f, 0.19154623f, 0.19054772f, 0.18951003f, 0.18843316f, 0.18731710f, 0.18616187f, 0.18496745f, 0.18373385f, 0.18246106f, 0.18114910f, 0.17979795f, 0.17840763f, 0.17697812f, 0.17550942f, 0.17400155f, 0.17245450f, 0.17086826f, 0.16924284f, 0.16757824f, 0.16587446f, 0.16416300f, 0.16247539f, 0.16081161f, 0.15917167f, 0.15755557f, 0.15596331f, 0.15439488f, 0.15285030f, 0.15132955f, 0.14983264f, 0.14835957f, 0.14691033f, 0.14548494f, 0.14408338f, 0.14270566f, 0.14135178f, 0.14002174f, 0.13871554f, 0.13743317f, 0.13617464f, 0.13493995f, 0.13372910f, 0.13254209f, 0.13137891f, 0.13023958f, 0.12912408f, 0.12803242f, 0.12696459f, 0.12592061f, 0.12490047f, 0.12390416f, 0.12293169f, 0.12198306f, 0.12105827f, 0.12015731f, 0.11928019f, 0.11842692f, 0.11759748f, 0.11679188f, 0.11601011f, 0.11525219f, 0.11451810f, 0.11380785f, 0.11312144f, 0.11245887f, 0.11182013f, 0.11120524f, 0.11061418f, 0.11004696f, 0.10950358f, 0.10898404f, 0.10848833f, 0.10801647f, 0.10756844f, 0.10714425f, 0.10674390f, 0.10636738f, 0.10601471f, 0.10568587f, 0.10538087f, 0.10509971f, 0.10484239f, 0.10460890f, 0.10439926f, 0.10419299f, 0.10396964f, 0.10372921f, 0.10347171f, 0.10319712f, 0.10290545f, 0.10259670f, 0.10227087f, 0.10192796f, 0.10156798f, 0.10119091f, 0.10079676f, 0.10038553f, 0.09995722f, 0.09951183f, 0.09904936f, 0.09856981f, 0.09807318f, 0.09755947f, 0.09702867f, 0.09648080f, 0.09591585f, 0.09533382f, 0.09473471f, 0.09411852f, 0.09348524f, 0.09283489f, 0.09216746f, 0.09148295f, 0.09078135f, 0.09006268f, 0.08932693f, 0.08857409f, 0.08780418f, 0.08701718f, 0.08621311f, 0.08539195f, 0.08455372f, 0.08369840f, 0.08282601f, 0.08193653f, 0.08102998f, 0.08010634f, 0.07916563f, 0.07820783f, 0.07723295f, 0.07624100f, 0.07523196f, 0.07420584f, 0.07316265f, 0.07210237f, 0.07102501f, 0.06993057f, 0.06881905f, 0.06769046f, 0.06654478f, 0.06538202f, 0.06420218f, 0.06300526f, 0.06179126f, 0.06056018f, 0.05931202f, 0.05804678f, 0.05676446f, 0.05548180f, 0.05421553f, 0.05296566f, 0.05173219f, 0.05051511f, 0.04931443f, 0.04813014f, 0.04696225f, 0.04581076f, 0.04467566f, 0.04355696f, 0.04245465f, 0.04136874f, 0.04029923f, 0.03924611f, 0.03820939f, 0.03718906f, 0.03618513f, 0.03519760f, 0.03422646f, 0.03327172f, 0.03233337f, 0.03141142f, 0.03050587f, 0.02961671f, 0.02874395f, 0.02788758f, 0.02704761f, 0.02622404f, 0.02541686f, 0.02462608f, 0.02385170f, 0.02309371f, 0.02235211f, 0.02162691f, 0.02091811f, 0.02022571f, 0.01954970f, 0.01889009f, 0.01824687f, 0.01762005f, 0.01700962f, 0.01641559f, 0.01583796f, 0.01527672f, 0.01473188f, 0.01420344f, 0.01369139f, 0.01319573f, 0.01271648f, 0.01225362f, 0.01180715f, 0.01137708f, 0.01096341f, 0.01056613f, 0.01018525f, 0.00982077f, 0.00947268f, 0.00914099f, 0.00882569f, 0.00852679f, 0.00824429f, 0.00797818f, 0.00772846f, 0.00748884f, 0.00725298f, 0.00702090f, 0.00679260f, 0.00656806f, 0.00634730f, 0.00613032f, 0.00591711f, 0.00570767f, 0.00550200f, 0.00530011f, 0.00510199f, 0.00490765f, 0.00471708f, 0.00453028f, 0.00434726f, 0.00416801f, 0.00399254f, 0.00382083f, 0.00365291f, 0.00348875f, 0.00332837f, 0.00317176f, 0.00301893f, 0.00286987f, 0.00272459f, 0.00258307f, 0.00244533f, 0.00231137f, 0.00218118f, 0.00205476f, 0.00193212f, 0.00181325f, 0.00169815f, 0.00158683f, 0.00147928f, 0.00137550f, 0.00127550f, 0.00117927f, 0.00108682f, 0.00099813f, 0.00091323f, 0.00083209f, 0.00075473f, 0.00068115f, 0.00061133f, 0.00054529f, 0.00048303f, 0.00042454f, 0.00036982f, 0.00031887f, 0.00027170f, 0.00022831f, 0.00018868f, 0.00015283f, 0.00012076f, 0.00009245f, 0.00006793f, 0.00004717f, 0.00003019f, 0.00001698f, 0.00000755f, 0.00000189f, 0.00000000f },
            { 0.00000000f, -0.00001776f, -0.00007105f, -0.00015987f, -0.00028421f, -0.00044407f, -0.00063947f, -0.00087038f, -0.00113683f, -0.00143880f, -0.00177629f, -0.00214931f, -0.00255786f, -0.00300194f, -0.00348153f, -0.00399666f, -0.00454731f, -0.00513349f, -0.00575519f, -0.00641242f, -0.00710517f, -0.00783345f, -0.00859726f, -0.00939659f, -0.01023145f, -0.01110183f, -0.01200774f, -0.01294918f, -0.01392614f, -0.01493862f, -0.01598664f, -0.01707018f, -0.01818924f, -0.01934383f, -0.02053395f, -0.02175959f, -0.02302076f, -0.02431745f, -0.02564967f, -0.02701742f, -0.02842069f, -0.02985949f, -0.03133381f, -0.03284366f, -0.03438903f, -0.03596993f, -0.03758636f, -0.03923831f, -0.04092579f, -0.04264879f, -0.04440732f, -0.04620138f, -0.04803096f, -0.04989607f, -0.05179670f, -0.05373286f, -0.05570455f, -0.05771176f, -0.05975450f, -0.06183276f, -0.06394655f, -0.06609586f, -0.06828070f, -0.07050107f, -0.07275696f, -0.07498977f, -0.07714089f, -0.07921031f, -0.08119805f, -0.08310409f, -0.08492844f, -0.08667110f, -0.08833207f, -0.08991135f, -0.09140894f, -0.09282483f, -0.09415903f, -0.09541155f, -0.09658237f, -0.09767149f, -0.09867893f, -0.09960468f, -0.10044873f, -0.10121109f, -0.10189176f, -0.10249074f, -0.10300803f, -0.10344363f, -0.10379753f, -0.10406975f, -0.10426027f, -0.10436910f, -0.10439624f, -0.10434168f, -0.10420544f, -0.10398750f, -0.10368788f, -0.10330656f, -0.10284355f, -0.10229885f, -0.10167245f, -0.10096437f, -0.10017459f, -0.09930313f, -0.09834997f, -0.09731512f, -0.09619858f, -0.09500034f, -0.09372042f, -0.09235880f, -0.09091549f, -0.08939049f, -0.08778380f, -0.08609542f, -0.08432535f, -0.08247358f, -0.08054012f, -0.07852497f, -0.07642814f, -0.07424960f, -0.07198938f, -0.06964747f, -0.06722386f, -0.06471856f, -0.06213157f, -0.05946289f, -0.05671252f, -0.05388046f, -0.05096670f, -0.04805313f, -0.04522161f, -0.04247215f, -0.03980474f, -0.03721938f, -0.03471608f, -0.03229484f, -0.02995564f, -0.02769851f, -0.02552343f, -0.02343040f, -0.02141942f, -0.01949050f, -0.01764364f, -0.01587883f, -0.01419607f, -0.01259537f, -0.01107673f, -0.00964014f, -0.00828560f, -0.00701312f, -0.00582269f, -0.00471431f, -0.00368799f, -0.00274373f, -0.00188152f, -0.00110136f, -0.00040326f, 0.00021278f, 0.00074678f, 0.00119871f, 0.00156860f, 0.00185642f, 0.00206220f, 0.00218592f, 0.00222758f, 0.00218719f, 0.00206475f, 0.00186025f, 0.00157370f, 0.00120509f, 0.00075443f, 0.00022171f, -0.00039306f, -0.00108989f, -0.00186877f, -0.00272970f, -0.00367269f, -0.00469774f, -0.00580483f, -0.00699399f, -0.00826520f, -0.00961846f, -0.01105377f, -0.01257115f, -0.01417057f, -0.01585205f, -0.01761559f, -0.01946117f, -0.02138882f, -0.02339852f, -0.02549027f, -0.02766408f, -0.02991994f, -0.03217592f, -0.03435007f, -0.03644241f, -0.03845292f, -0.04038161f, -0.04222848f, -0.04399352f, -0.04567674f, -0.04727815f, -0.04879773f, -0.05023548f, -0.05159142f, -0.05286553f, -0.05405782f, -0.05516829f, -0.05619694f, -0.05714376f, -0.05800876f, -0.05879194f, -0.05949330f, -0.06011284f, -0.06065055f, -0.06110644f, -0.06148051f, -0.06177276f, -0.06198318f, -0.06211179f, -0.06215857f, -0.06212353f, -0.06200666f, -0.06180798f, -0.06152747f, -0.06116514f, -0.06072099f, -0.06019502f, -0.05958722f, -0.05889760f, -0.05812616f, -0.05727290f, -0.05633782f, -0.05532091f, -0.05422218f, -0.05304163f, -0.05177926f, -0.05043507f, -0.04900905f, -0.04750121f, -0.04591155f, -0.04424007f, -0.04248676f, -0.04065163f, -0.03873468f, -0.03673591f, -0.03465532f, -0.03249290f, -0.03024867f, -0.02792261f, -0.02551472f, -0.02302502f, -0.02045349f, -0.01780015f, -0.01506497f, -0.01224798f, -0.00934917f, -0.00644729f, -0.00362109f, -0.00087059f, 0.00180422f, 0.00440335f, 0.00692678f, 0.00937453f, 0.01174659f, 0.01404296f, 0.01626363f, 0.01840862f, 0.02047793f, 0.02247154f, 0.02438946f, 0.02623169f, 0.02799824f, 0.02968909f, 0.03130426f, 0.03284374f, 0.03430752f, 0.03569562f, 0.03700803f, 0.03824475f, 0.03940578f, 0.04049113f, 0.04150078f, 0.04243474f, 0.04329302f, 0.04407561f, 0.04478250f, 0.04541371f, 0.04596923f, 0.04644906f, 0.04685320f, 0.04718165f, 0.04743441f, 0.04761148f, 0.04771287f, 0.04773856f, 0.04768857f, 0.04756288f, 0.04736151f, 0.04708445f, 0.04673170f, 0.04630326f, 0.04579913f, 0.04521931f, 0.04456380f, 0.04383261f, 0.04302572f, 0.04214315f, 0.04118488f, 0.04015093f, 0.03904129f, 0.03785596f, 0.03659494f, 0.03525823f, 0.03384583f, 0.03235774f, 0.03079396f, 0.02915450f, 0.02743934f, 0.02564850f, 0.02378197f, 0.02188572f, 0.02000575f, 0.01814205f, 0.01629461f, 0.01446345f, 0.01264855f, 0.01084993f, 0.00906757f, 0.00730149f, 0.00555167f, 0.00381813f, 0.00210085f, 0.00039984f, -0.00128490f, -0.00295336f, -0.00460556f, -0.00624149f, -0.00786115f, -0.00946454f, -0.01105166f, -0.01262251f, -0.01417709f, -0.01571540f, -0.01723744f, -0.01874321f, -0.02023271f, -0.02170594f, -0.02316290f, -0.02460359f, -0.02602802f, -0.02743617f, -0.02882805f, -0.03020367f, -0.03156301f, -0.03290608f, -0.03423289f, -0.03554342f, -0.03683769f, -0.03811568f, -0.03937741f, -0.04062286f, -0.04185205f, -0.04306497f, -0.04426162f, -0.04544199f, -0.04660610f, -0.04775394f, -0.04888551f, -0.05000081f, -0.05109983f, -0.05218259f, -0.05324908f, -0.05429930f, -0.05533325f, -0.05635093f, -0.05735235f, -0.05833749f, -0.05930636f, -0.06025896f, -0.06119529f, -0.06211536f, -0.06301915f, -0.06390667f, -0.06477793f, -0.06562933f, -0.06645731f, -0.06726187f, -0.06804300f, -0.06880071f, -0.06953499f, -0.07024584f, -0.07093328f, -0.07159728f, -0.07223786f, -0.07285502f, -0.07344875f, -0.07401906f, -0.07456594f, -0.07508939f, -0.07558942f, -0.07606603f, -0.07651921f, -0.07694897f, -0.07735530f, -0.07773820f, -0.07809768f, -0.07843374f, -0.07874637f, -0.07903557f, -0.07930136f, -0.07954371f, -0.07976264f, -0.07995815f, -0.08013023f, -0.08027888f, -0.08040411f, -0.08050592f, -0.08058430f, -0.08063925f, -0.08067079f, -0.08067889f, -0.08066357f, -0.08062483f, -0.08056266f, -0.08047706f, -0.08036804f, -0.08023560f, -0.08007973f, -0.07990043f, -0.07969771f, -0.07947157f, -0.07922200f, -0.07894900f, -0.07865258f, -0.07833274f, -0.07798947f, -0.07762277f, -0.07723265f, -0.07681911f, -0.07638214f, -0.07592174f, -0.07543792f, -0.07493068f, -0.07440001f, -0.07384591f, -0.07326839f, -0.07266744f, -0.07204307f, -0.07140500f, -0.07076296f, -0.07011694f, -0.06946694f, -0.06881296f, -0.06815501f, -0.06749309f, -0.06682719f, -0.06615731f, -0.06548346f, -0.06480563f, -0.06412383f, -0.06343805f, -0.06274830f, -0.06205457f, -0.06135686f, -0.06065518f, -0.05994952f, -0.05923989f, -0.05852628f, -0.05780870f, -0.05708714f, -0.05636160f, -0.05563209f, -0.05489861f, -0.05416114f, -0.05341971f, -0.05267429f, -0.05192490f, -0.05117154f, -0.05041420f, -0.04965288f, -0.04888759f, -0.04811832f, -0.04734508f, -0.04656786f, -0.04578667f, -0.04500150f, -0.04421235f, -0.04341923f, -0.04262213f, -0.04182106f, -0.04101601f, -0.04020698f, -0.03939398f, -0.03857701f, -0.03775606f, -0.03693113f, -0.03610223f, -0.03526935f, -0.03443250f, -0.03359167f, -0.03274686f, -0.03189808f, -0.03104532f, -0.03018859f, -0.02932788f, -0.02846320f, -0.02759454f, -0.02672191f, -0.02584530f, -0.02496471f, -0.02408015f, -0.02319161f, -0.02230620f, -0.02143104f, -0.02056611f, -0.01971143f, -0.01886698f, -0.01803277f, -0.01720880f, -0.01639507f, -0.01559158f, -0.01479834f, -0.01401533f, -0.01324255f, -0.01248002f, -0.01172773f, -0.01098568f, -0.01025387f, -0.00953230f, -0.00882096f, -0.00811987f, -0.00742902f, -0.00674840f, -0.00607803f, -0.00541789f, -0.00476800f, -0.00412834f, -0.00349893f, -0.00287975f, -0.00227081f, -0.00167211f, -0.00108366f, -0.00050544f, 0.00006254f, 0.00062028f, 0.00116778f, 0.00170504f, 0.00223206f, 0.00274884f, 0.00325538f, 0.00375168f, 0.00423775f, 0.00471357f, 0.00517915f, 0.00563450f, 0.00607960f, 0.00651446f, 0.00693909f, 0.00735348f, 0.00775762f, 0.00815153f, 0.00853519f, 0.00890862f, 0.00927181f, 0.00962476f, 0.00996746f, 0.01029993f, 0.01062216f, 0.01093415f, 0.01123590f, 0.01152741f, 0.01180868f, 0.01207971f, 0.01234051f, 0.01259106f, 0.01283137f, 0.01306687f, 0.01330300f, 0.01353974f, 0.01377710f, 0.01401508f, 0.01425368f, 0.01449290f, 0.01473275f, 0.01497321f, 0.01521429f, 0.01545599f, 0.01569831f, 0.01594125f, 0.01618481f, 0.01642899f, 0.01667379f, 0.01691921f, 0.01716524f, 0.01741190f, 0.01765918f, 0.01790708f, 0.01815560f, 0.01840474f, 0.01865449f, 0.01890487f, 0.01915587f, 0.01940749f, 0.01965972f, 0.01991258f, 0.02016605f, 0.02042015f, 0.02067487f, 0.02093020f, 0.02118616f, 0.02144273f, 0.02169993f, 0.02195774f, 0.02221618f, 0.02247523f, 0.02273490f, 0.02299520f, 0.02325611f, 0.02351765f, 0.02377980f, 0.02404257f, 0.02430596f, 0.02456998f, 0.02483461f, 0.02509986f, 0.02536573f, 0.02563222f, 0.02589934f, 0.02616707f, 0.02643542f, 0.02670439f, 0.02697398f, 0.02724419f, 0.02751502f, 0.02778647f, 0.02805854f, 0.02833123f, 0.02860454f, 0.02887847f, 0.02915301f, 0.02942109f, 0.02967561f, 0.02991657f, 0.03014397f, 0.03035781f, 0.03055810f, 0.03074482f, 0.03091798f, 0.03107758f, 0.03122363f, 0.03135611f, 0.03147504f, 0.03158040f, 0.03167221f, 0.03175046f, 0.03181514f, 0.03186627f, 0.03190384f, 0.03192785f, 0.03193830f, 0.03193519f, 0.03191852f, 0.03188829f, 0.03184450f, 0.03178716f, 0.03171625f, 0.03163178f, 0.03153376f, 0.03142217f, 0.03129703f, 0.03115832f, 0.03100606f, 0.03084024f, 0.03066085f, 0.03046791f, 0.03026141f, 0.03004135f, 0.02980773f, 0.02956055f, 0.02929981f, 0.02902551f, 0.02873765f, 0.02843624f, 0.02812126f, 0.02779272f, 0.02745063f, 0.02709497f, 0.02672576f, 0.02634299f, 0.02594665f, 0.02553676f, 0.02511331f, 0.02467630f, 0.02422572f, 0.02376159f, 0.02328390f, 0.02279265f, 0.02228785f, 0.02176948f, 0.02123755f, 0.02069206f, 0.02013302f, 0.01956041f, 0.01897424f, 0.01838593f, 0.01780688f, 0.01723710f, 0.01667658f, 0.01612533f, 0.01558334f, 0.01505062f, 0.01452716f, 0.01401296f, 0.01350803f, 0.01301237f, 0.01252597f, 0.01204883f, 0.01158096f, 0.01112235f, 0.01067301f, 0.01023294f, 0.00980212f, 0.00938058f, 0.00896830f, 0.00856528f, 0.00817153f, 0.00778704f, 0.00741181f, 0.00704586f, 0.00668916f, 0.00634173f, 0.00600357f, 0.00567467f, 0.00535504f, 0.00504467f, 0.00474356f, 0.00445172f, 0.00416915f, 0.00389583f, 0.00363179f, 0.00337701f, 0.00313149f, 0.00289524f, 0.00266825f, 0.00245053f, 0.00224207f, 0.00204288f, 0.00185295f, 0.00167229f, 0.00150089f, 0.00133876f, 0.00118589f, 0.00104229f, 0.00090795f, 0.00078287f, 0.00066706f, 0.00056052f, 0.00046324f, 0.00037522f, 0.00029647f, 0.00022699f, 0.00016677f, 0.00011581f, 0.00007412f, 0.00004169f, 0.00001853f, 0.00000463f, 0.00000000f },
            { 0.00000000f, -0.00000551f, -0.00002206f, -0.00004962f, -0.00008822f, -0.00013784f, -0.00019850f, -0.00027017f, -0.00035288f, -0.00044661f, -0.00055138f, -0.00066716f, -0.00079398f, -0.00093182f, -0.00108070f, -0.00124059f, -0.00141152f, -0.00159347f, -0.00178646f, -0.00199046f, -0.00220550f, -0.00243156f, -0.00266866f, -0.00291677f, -0.00317592f, -0.00344609f, -0.00372730f, -0.00401952f, -0.00432278f, -0.00463706f, -0.00496238f, -0.00529871f, -0.00564608f, -0.00600447f, -0.00637390f, -0.00675434f, -0.00714582f, -0.00754832f, -0.00796186f, -0.00838641f, -0.00882200f, -0.00926861f, -0.00972626f, -0.01019492f, -0.01067462f, -0.01116534f, -0.01166710f, -0.01217987f, -0.01270368f, -0.01323851f, -0.01378438f, -0.01434126f, -0.01490918f, -0.01548812f, -0.01607810f, -0.01667909f, -0.01729112f, -0.01791417f, -0.01854826f, -0.01919336f, -0.01984950f, -0.02051666f, -0.02119486f, -0.02188407f, -0.02258432f, -0.02326395f, -0.02389130f, -0.02446639f, -0.02498921f, -0.02545976f, -0.02587804f, -0.02624406f, -0.02655780f, -0.02681928f, -0.02702849f, -0.02718543f, -0.02729010f, -0.02734250f, -0.02734263f, -0.02729049f, -0.02718609f, -0.02702941f, -0.02682047f, -0.02655926f, -0.02624578f, -0.02588003f, -0.02546202f, -0.02499173f, -0.02446918f, -0.02389435f, -0.02326726f, -0.02258790f, -0.02185627f, -0.02107237f, -0.02023621f, -0.01934777f, -0.01840707f, -0.01741410f, -0.01636886f, -0.01527135f, -0.01412157f, -0.01291952f, -0.01166520f, -0.01035862f, -0.00899976f, -0.00758864f, -0.00612525f, -0.00460959f, -0.00304166f, -0.00142147f, 0.00025100f, 0.00197573f, 0.00375274f, 0.00558201f, 0.00746355f, 0.00939736f, 0.01138344f, 0.01342178f, 0.01551240f, 0.01765528f, 0.01985043f, 0.02209786f, 0.02439755f, 0.02674950f, 0.02915373f, 0.03161023f, 0.03411899f, 0.03668003f, 0.03929333f, 0.04187009f, 0.04432148f, 0.04664752f, 0.04884821f, 0.05092353f, 0.05287350f, 0.05469810f, 0.05639735f, 0.05797124f, 0.05941977f, 0.06074294f, 0.06194076f, 0.06301321f, 0.06396031f, 0.06478205f, 0.06547843f, 0.06604945f, 0.06649512f, 0.06681542f, 0.06701037f, 0.06707995f, 0.06702418f, 0.06684306f, 0.06653657f, 0.06610472f, 0.06554752f, 0.06486496f, 0.06405703f, 0.06312375f, 0.06206512f, 0.06088112f, 0.05957176f, 0.05813705f, 0.05657698f, 0.05489155f, 0.05308076f, 0.05114461f, 0.04908311f, 0.04689624f, 0.04458402f, 0.04214644f, 0.03958350f, 0.03689520f, 0.03408154f, 0.03114253f, 0.02807816f, 0.02488842f, 0.02157333f, 0.01813288f, 0.01456708f, 0.01087591f, 0.00705939f, 0.00311750f, -0.00094974f, -0.00514234f, -0.00946030f, -0.01390361f, -0.01847229f, -0.02316632f, -0.02798571f, -0.03293046f, -0.03800057f, -0.04319604f, -0.04851687f, -0.05383803f, -0.05903453f, -0.06410636f, -0.06905351f, -0.07387599f, -0.07857380f, -0.08314694f, -0.08759540f, -0.09191920f, -0.09611832f, -0.10019276f, -0.10414254f, -0.10796765f, -0.11166808f, -0.11524384f, -0.11869493f, -0.12202135f, -0.12522309f, -0.12830016f, -0.13125256f, -0.13408029f, -0.13678335f, -0.13936173f, -0.14181545f, -0.14414449f, -0.14634885f, -0.14842855f, -0.15038358f, -0.15221393f, -0.15391961f, -0.15550062f, -0.15695695f, -0.15828862f, -0.15949561f, -0.16057793f, -0.16153558f, -0.16236855f, -0.16307686f, -0.16366049f, -0.16411945f, -0.16445374f, -0.16466335f, -0.16474830f, -0.16470857f, -0.16454417f, -0.16425510f, -0.16384135f, -0.16330294f, -0.16263985f, -0.16185209f, -0.16093966f, -0.15990255f, -0.15874078f, -0.15745433f, -0.15604321f, -0.15450742f, -0.15284695f, -0.15106182f, -0.14915201f, -0.14711753f, -0.14495838f, -0.14267455f, -0.14026605f, -0.13773289f, -0.13514682f, -0.13257965f, -0.13003135f, -0.12750194f, -0.12499142f, -0.12249978f, -0.12002702f, -0.11757315f, -0.11513817f, -0.11272206f, -0.11032485f, -0.10794651f, -0.10558706f, -0.10324650f, -0.10092482f, -0.09862202f, -0.09633811f, -0.09407309f, -0.09182694f, -0.08959969f, -0.08739131f, -0.08520182f, -0.08303122f, -0.08087950f, -0.07874666f, -0.07663271f, -0.07453765f, -0.07246146f, -0.07040417f, -0.06836575f, -0.06634622f, -0.06434558f, -0.06236382f, -0.06040094f, -0.05845695f, -0.05653185f, -0.05462562f, -0.05273829f, -0.05086983f, -0.04902026f, -0.04718958f, -0.04537778f, -0.04358486f, -0.04181083f, -0.04005569f, -0.03831942f, -0.03660205f, -0.03490355f, -0.03322394f, -0.03156322f, -0.02992138f, -0.02829842f, -0.02669435f, -0.02510917f, -0.02354286f, -0.02199545f, -0.02046691f, -0.01895727f, -0.01746650f, -0.01599462f, -0.01454163f, -0.01310751f, -0.01169229f, -0.01029595f, -0.00891078f, -0.00752909f, -0.00615087f, -0.00477612f, -0.00340485f, -0.00203705f, -0.00067271f, 0.00068814f, 0.00204553f, 0.00339945f, 0.00474989f, 0.00609686f, 0.00744036f, 0.00878038f, 0.01011694f, 0.01145002f, 0.01277963f, 0.01410577f, 0.01542843f, 0.01674763f, 0.01806335f, 0.01937560f, 0.02068437f, 0.02198968f, 0.02329151f, 0.02458987f, 0.02588476f, 0.02717618f, 0.02846412f, 0.02974859f, 0.03102959f, 0.03230712f, 0.03358118f, 0.03485176f, 0.03611887f, 0.03738251f, 0.03864268f, 0.03989937f, 0.04115260f, 0.04240235f, 0.04364862f, 0.04489143f, 0.04613077f, 0.04736663f, 0.04859902f, 0.04982794f, 0.05105338f, 0.05227536f, 0.05349386f, 0.05470889f, 0.05592045f, 0.05712853f, 0.05833314f, 0.05953428f, 0.06073195f, 0.06192615f, 0.06311688f, 0.06430413f, 0.06548791f, 0.06666822f, 0.06784505f, 0.06901842f, 0.07018831f, 0.07135473f, 0.07250531f, 0.07362768f, 0.07472184f, 0.07578780f, 0.07682555f, 0.07783509f, 0.07881642f, 0.07976955f, 0.08069447f, 0.08159118f, 0.08245968f, 0.08329997f, 0.08411206f, 0.08489594f, 0.08565161f, 0.08637907f, 0.08707832f, 0.08774937f, 0.08839221f, 0.08900684f, 0.08959326f, 0.09015148f, 0.09068149f, 0.09118329f, 0.09165688f, 0.09210227f, 0.09251944f, 0.09290841f, 0.09326917f, 0.09360173f, 0.09390607f, 0.09418221f, 0.09443014f, 0.09464986f, 0.09484138f, 0.09500468f, 0.09513978f, 0.09524667f, 0.09532536f, 0.09537583f, 0.09539810f, 0.09539216f, 0.09535801f, 0.09529565f, 0.09520509f, 0.09508632f, 0.09493934f, 0.09476415f, 0.09456076f, 0.09432916f, 0.09406934f, 0.09378133f, 0.09346510f, 0.09312067f, 0.09274802f, 0.09234717f, 0.09191812f, 0.09146085f, 0.09097538f, 0.09046170f, 0.08991981f, 0.08934971f, 0.08875141f, 0.08812490f, 0.08748351f, 0.08684059f, 0.08619612f, 0.08555012f, 0.08490258f, 0.08425350f, 0.08360288f, 0.08295072f, 0.08229702f, 0.08164179f, 0.08098501f, 0.08032670f, 0.07966684f, 0.07900545f, 0.07834252f, 0.07767805f, 0.07701204f, 0.07634449f, 0.07567540f, 0.07500478f, 0.07433261f, 0.07365891f, 0.07298366f, 0.07230688f, 0.07162856f, 0.07094870f, 0.07026730f, 0.06958436f, 0.06889988f, 0.06821386f, 0.06752631f, 0.06683721f, 0.06614658f, 0.06545441f, 0.06476070f, 0.06406545f, 0.06336866f, 0.06267033f, 0.06197046f, 0.06126905f, 0.06056611f, 0.05986162f, 0.05915560f, 0.05844803f, 0.05773893f, 0.05702829f, 0.05631611f, 0.05560239f, 0.05488714f, 0.05417034f, 0.05345200f, 0.05273213f, 0.05201071f, 0.05128776f, 0.05056327f, 0.04983724f, 0.04910967f, 0.04838056f, 0.04764991f, 0.04691772f, 0.04618400f, 0.04544873f, 0.04471193f, 0.04397359f, 0.04324668f, 0.04254419f, 0.04186612f, 0.04121247f, 0.04058323f, 0.03997841f, 0.03939800f, 0.03884201f, 0.03831044f, 0.03780328f, 0.03732055f, 0.03686222f, 0.03642832f, 0.03601883f, 0.03563375f, 0.03527310f, 0.03493686f, 0.03462503f, 0.03433762f, 0.03407463f, 0.03383606f, 0.03362190f, 0.03343216f, 0.03326684f, 0.03312593f, 0.03300944f, 0.03291736f, 0.03284970f, 0.03280646f, 0.03278763f, 0.03279322f, 0.03282323f, 0.03287765f, 0.03295649f, 0.03305975f, 0.03318742f, 0.03333951f, 0.03351602f, 0.03371694f, 0.03394228f, 0.03419204f, 0.03446621f, 0.03476480f, 0.03508780f, 0.03543522f, 0.03580706f, 0.03620332f, 0.03662399f, 0.03706907f, 0.03753858f, 0.03803250f, 0.03855084f, 0.03909359f, 0.03966076f, 0.04025235f, 0.04086835f, 0.04150877f, 0.04217360f, 0.04286286f, 0.04357653f, 0.04431461f, 0.04507711f, 0.04586403f, 0.04667537f, 0.04748268f, 0.04825751f, 0.04899988f, 0.04970977f, 0.05038720f, 0.05103215f, 0.05164464f, 0.05222465f, 0.05277219f, 0.05328727f, 0.05376987f, 0.05422000f, 0.05463766f, 0.05502285f, 0.05537556f, 0.05569581f, 0.05598359f, 0.05623890f, 0.05646173f, 0.05665210f, 0.05680999f, 0.05693541f, 0.05702837f, 0.05708885f, 0.05711686f, 0.05711240f, 0.05707547f, 0.05700607f, 0.05690420f, 0.05676986f, 0.05660305f, 0.05640376f, 0.05617201f, 0.05590779f, 0.05561109f, 0.05528193f, 0.05492029f, 0.05452618f, 0.05409960f, 0.05364056f, 0.05314904f, 0.05262505f, 0.05206859f, 0.05147966f, 0.05085825f, 0.05020438f, 0.04951804f, 0.04879922f, 0.04804794f, 0.04726418f, 0.04644796f, 0.04559926f, 0.04471809f, 0.04380446f, 0.04285835f, 0.04187977f, 0.04086872f, 0.03982520f, 0.03874921f, 0.03764074f, 0.03649981f, 0.03532641f, 0.03412053f, 0.03288219f, 0.03163830f, 0.03041578f, 0.02921464f, 0.02803488f, 0.02687649f, 0.02573948f, 0.02462385f, 0.02352959f, 0.02245671f, 0.02140521f, 0.02037508f, 0.01936633f, 0.01837895f, 0.01741295f, 0.01646833f, 0.01554508f, 0.01464321f, 0.01376272f, 0.01290360f, 0.01206586f, 0.01124949f, 0.01045450f, 0.00968089f, 0.00892866f, 0.00819780f, 0.00748831f, 0.00680021f, 0.00613347f, 0.00548812f, 0.00486414f, 0.00426154f, 0.00368032f, 0.00312047f, 0.00258199f, 0.00206490f, 0.00156918f, 0.00109483f, 0.00064187f, 0.00021028f, -0.00019994f, -0.00058878f, -0.00095624f, -0.00130232f, -0.00162703f, -0.00193037f, -0.00221232f, -0.00247290f, -0.00271211f, -0.00292993f, -0.00312639f, -0.00330146f, -0.00345516f, -0.00358748f, -0.00369843f, -0.00378800f, -0.00385619f, -0.00390301f, -0.00392845f, -0.00393251f, -0.00391520f, -0.00387651f, -0.00381644f, -0.00373500f, -0.00363219f, -0.00351957f, -0.00340872f, -0.00329965f, -0.00319235f, -0.00308683f, -0.00298307f, -0.00288110f, -0.00278089f, -0.00268246f, -0.00258580f, -0.00249092f, -0.00239781f, -0.00230647f, -0.00221691f, -0.00212912f, -0.00204310f, -0.00195886f, -0.00187639f, -0.00179570f, -0.00171678f, -0.00163963f, -0.00156425f, -0.00149065f, -0.00141882f, -0.00134877f, -0.00128049f, -0.00121398f, -0.00114925f, -0.00108629f, -0.00102510f, -0.00096569f, -0.00090805f, -0.00085218f, -0.00079809f, -0.00074577f, -0.00069522f, -0.00064645f, -0.00059945f, -0.00055423f, -0.00051078f, -0.00046910f, -0.00042919f, -0.00039106f, -0.00035471f, -0.00032012f, -0.00028731f, -0.00025627f, -0.00022701f, -0.00019952f, -0.00017381f, -0.00014986f, -0.00012769f, -0.00010730f, -0.00008868f, -0.00007183f, -0.00005675f, -0.00004345f, -0.00003192f, -0.00002217f, -0.00001419f, -0.00000798f, -0.00000355f, -0.00000089f, 0.00000000f },
            { 0.00000000f, 0.00000156f, 0.00000625f, 0.00001406f, 0.00002499f, 0.00003904f, 0.00005622f, 0.00007653f, 0.00009995f, 0.00012650f, 0.00015617f, 0.00018897f, 0.00022489f, 0.00026393f, 0.00030610f, 0.00035139f, 0.00039981f, 0.00045134f, 0.00050600f, 0.00056379f, 0.00062470f, 0.00068873f, 0.00075588f, 0.00082616f, 0.00089956f, 0.00097609f, 0.00105574f, 0.00113851f, 0.00122441f, 0.00131342f, 0.00140557f, 0.00150083f, 0.00159922f, 0.00170074f, 0.00180537f, 0.00191313f, 0.00202402f, 0.00213802f, 0.00225515f, 0.00237541f, 0.00249879f, 0.00262529f, 0.00275491f, 0.00288766f, 0.00302353f, 0.00316253f, 0.00330465f, 0.00344989f, 0.00359825f, 0.00374974f, 0.00390435f, 0.00406209f, 0.00422295f, 0.00438693f, 0.00455404f, 0.00472427f, 0.00489762f, 0.00507410f, 0.00525370f, 0.00543642f, 0.00562227f, 0.00581124f, 0.00600333f, 0.00619855f, 0.00639689f, 0.00658371f, 0.00674435f, 0.00687881f, 0.00698710f, 0.00706921f, 0.00712515f, 0.00715491f, 0.00715850f, 0.00713591f, 0.00708714f, 0.00701220f, 0.00691108f, 0.00678379f, 0.00663032f, 0.00645068f, 0.00624486f, 0.00601286f, 0.00575469f, 0.00547034f, 0.00515982f, 0.00482312f, 0.00446025f, 0.00407120f, 0.00365598f, 0.00321458f, 0.00274700f, 0.00225325f, 0.00173332f, 0.00118722f, 0.00061494f, 0.00001649f, -0.00060814f, -0.00125895f, -0.00193593f, -0.00263909f, -0.00336842f, -0.00412393f, -0.00490561f, -0.00571347f, -0.00654751f, -0.00740772f, -0.00829410f, -0.00920667f, -0.01014540f, -0.01111032f, -0.01210141f, -0.01311867f, -0.01416211f, -0.01523173f, -0.01632752f, -0.01744949f, -0.01859763f, -0.01977195f, -0.02097244f, -0.02219911f, -0.02345196f, -0.02473098f, -0.02603618f, -0.02736755f, -0.02872510f, -0.03010882f, -0.03151872f, -0.03295479f, -0.03441704f, -0.03586874f, -0.03727317f, -0.03863032f, -0.03994019f, -0.04120278f, -0.04241810f, -0.04358614f, -0.04470691f, -0.04578040f, -0.04680661f, -0.04778555f, -0.04871721f, -0.04960159f, -0.05043870f, -0.05122853f, -0.05197108f, -0.05266636f, -0.05331436f, -0.05391509f, -0.05446854f, -0.05497471f, -0.05543361f, -0.05584523f, -0.05620957f, -0.05652664f, -0.05679643f, -0.05701895f, -0.05719418f, -0.05732215f, -0.05740283f, -0.05743624f, -0.05742237f, -0.05736123f, -0.05725281f, -0.05709711f, -0.05689414f, -0.05664389f, -0.05634637f, -0.05600156f, -0.05560949f, -0.05517013f, -0.05468350f, -0.05414959f, -0.05356841f, -0.05293995f, -0.05226421f, -0.05154120f, -0.05077091f, -0.04995334f, -0.04908850f, -0.04817638f, -0.04721699f, -0.04621032f, -0.04515637f, -0.04405515f, -0.04290665f, -0.04171087f, -0.04046782f, -0.03917749f, -0.03783988f, -0.03645500f, -0.03502284f, -0.03354341f, -0.03201670f, -0.03048575f, -0.02899361f, -0.02754028f, -0.02612576f, -0.02475005f, -0.02341315f, -0.02211505f, -0.02085577f, -0.01963529f, -0.01845362f, -0.01731076f, -0.01620671f, -0.01514146f, -0.01411502f, -0.01312740f, -0.01217858f, -0.01126856f, -0.01039736f, -0.00956497f, -0.00877138f, -0.00801660f, -0.00730063f, -0.00662347f, -0.00598512f, -0.00538557f, -0.00482484f, -0.00430291f, -0.00381979f, -0.00337548f, -0.00296998f, -0.00260328f, -0.00227540f, -0.00198632f, -0.00173605f, -0.00152459f, -0.00135194f, -0.00121809f, -0.00112306f, -0.00106683f, -0.00104941f, -0.00107080f, -0.00113100f, -0.00123000f, -0.00136782f, -0.00154444f, -0.00175987f, -0.00201411f, -0.00230716f, -0.00263902f, -0.00300968f, -0.00341915f, -0.00386743f, -0.00435452f, -0.00488042f, -0.00544513f, -0.00604864f, -0.00669097f, -0.00737210f, -0.00809204f, -0.00885079f, -0.00964834f, -0.01048471f, -0.01135988f, -0.01227386f, -0.01318890f, -0.01406723f, -0.01490887f, -0.01571380f, -0.01648203f, -0.01721356f, -0.01790839f, -0.01856652f, -0.01918795f, -0.01977267f, -0.02032070f, -0.02083203f, -0.02130665f, -0.02174457f, -0.02214580f, -0.02251032f, -0.02283814f, -0.02312926f, -0.02338368f, -0.02360139f, -0.02378241f, -0.02392673f, -0.02403434f, -0.02410525f, -0.02413947f, -0.02413698f, -0.02409779f, -0.02402190f, -0.02390931f, -0.02376002f, -0.02357403f, -0.02335133f, -0.02309194f, -0.02279584f, -0.02246305f, -0.02209355f, -0.02168735f, -0.02124445f, -0.02076485f, -0.02024855f, -0.01969555f, -0.01910585f, -0.01847945f, -0.01781634f, -0.01711654f, -0.01638003f, -0.01560682f, -0.01479691f, -0.01395030f, -0.01306699f, -0.01214698f, -0.01119027f, -0.01019686f, -0.00916674f, -0.00809993f, -0.00699641f, -0.00585620f, -0.00467928f, -0.00346566f, -0.00221534f, -0.00092832f, 0.00039540f, 0.00175582f, 0.00315294f, 0.00455361f, 0.00592468f, 0.00726614f, 0.00857799f, 0.00986024f, 0.01111288f, 0.01233592f, 0.01352935f, 0.01469318f, 0.01582740f, 0.01693201f, 0.01800702f, 0.01905243f, 0.02006823f, 0.02105442f, 0.02201101f, 0.02293799f, 0.02383536f, 0.02470313f, 0.02554130f, 0.02634986f, 0.02712881f, 0.02787816f, 0.02859790f, 0.02928804f, 0.02994857f, 0.03057949f, 0.03118081f, 0.03175253f, 0.03229464f, 0.03280714f, 0.03329004f, 0.03374333f, 0.03416701f, 0.03456110f, 0.03492557f, 0.03526044f, 0.03556570f, 0.03584136f, 0.03608742f, 0.03630386f, 0.03649070f, 0.03664794f, 0.03677557f, 0.03687360f, 0.03694202f, 0.03698083f, 0.03699004f, 0.03696964f, 0.03691964f, 0.03684003f, 0.03673081f, 0.03659199f, 0.03642357f, 0.03622554f, 0.03599790f, 0.03574066f, 0.03545381f, 0.03513736f, 0.03479130f, 0.03441563f, 0.03401036f, 0.03357549f, 0.03311101f, 0.03264578f, 0.03220867f, 0.03179967f, 0.03141878f, 0.03106601f, 0.03074136f, 0.03044481f, 0.03017638f, 0.02993607f, 0.02972387f, 0.02953978f, 0.02938381f, 0.02925595f, 0.02915621f, 0.02908458f, 0.02904106f, 0.02902566f, 0.02903837f, 0.02907920f, 0.02914814f, 0.02924519f, 0.02937036f, 0.02952364f, 0.02970503f, 0.02991454f, 0.03015217f, 0.03041791f, 0.03071176f, 0.03103372f, 0.03138380f, 0.03176200f, 0.03216831f, 0.03260273f, 0.03306527f, 0.03355592f, 0.03407468f, 0.03462156f, 0.03519655f, 0.03579966f, 0.03643088f, 0.03709021f, 0.03777766f, 0.03849322f, 0.03923690f, 0.04000869f, 0.04080860f, 0.04163661f, 0.04249275f, 0.04337699f, 0.04428936f, 0.04522983f, 0.04619842f, 0.04719512f, 0.04821994f, 0.04927287f, 0.05035392f, 0.05146307f, 0.05260035f, 0.05376574f, 0.05495924f, 0.05618085f, 0.05743058f, 0.05870842f, 0.06001438f, 0.06131802f, 0.06258891f, 0.06382705f, 0.06503244f, 0.06620508f, 0.06734497f, 0.06845210f, 0.06952649f, 0.07056813f, 0.07157702f, 0.07255316f, 0.07349654f, 0.07440718f, 0.07528507f, 0.07613021f, 0.07694259f, 0.07772223f, 0.07846912f, 0.07918325f, 0.07986464f, 0.08051328f, 0.08112916f, 0.08171230f, 0.08226268f, 0.08278032f, 0.08326521f, 0.08371734f, 0.08413673f, 0.08452336f, 0.08487725f, 0.08519838f, 0.08548677f, 0.08574240f, 0.08596528f, 0.08615542f, 0.08631280f, 0.08643744f, 0.08652932f, 0.08658845f, 0.08661484f, 0.08660847f, 0.08656935f, 0.08649748f, 0.08639287f, 0.08625550f, 0.08608538f, 0.08588251f, 0.08564690f, 0.08537853f, 0.08507741f, 0.08474354f, 0.08437692f, 0.08397755f, 0.08354544f, 0.08308057f, 0.08258295f, 0.08205258f, 0.08148946f, 0.08089359f, 0.08026497f, 0.07960360f, 0.07890948f, 0.07818261f, 0.07742299f, 0.07666623f, 0.07594796f, 0.07526817f, 0.07462685f, 0.07402402f, 0.07345967f, 0.07293380f, 0.07244641f, 0.07199751f, 0.07158708f, 0.07121514f, 0.07088167f, 0.07058669f, 0.07033019f, 0.07011216f, 0.06993262f, 0.06979156f, 0.06968899f, 0.06962489f, 0.06959927f, 0.06961214f, 0.06966348f, 0.06975331f, 0.06988161f, 0.07004840f, 0.07025367f, 0.07049742f, 0.07077965f, 0.07110037f, 0.07145956f, 0.07185723f, 0.07229339f, 0.07276802f, 0.07328114f, 0.07383274f, 0.07442282f, 0.07505138f, 0.07571842f, 0.07642394f, 0.07716794f, 0.07795043f, 0.07877139f, 0.07963084f, 0.08052877f, 0.08146517f, 0.08244006f, 0.08345343f, 0.08450528f, 0.08559561f, 0.08672443f, 0.08789172f, 0.08909750f, 0.09034175f, 0.09162449f, 0.09294571f, 0.09430540f, 0.09570358f, 0.09714024f, 0.09861539f, 0.10012901f, 0.10168111f, 0.10327170f, 0.10490076f, 0.10656831f, 0.10823584f, 0.10986485f, 0.11145534f, 0.11300732f, 0.11452079f, 0.11599573f, 0.11743217f, 0.11883008f, 0.12018948f, 0.12151036f, 0.12279273f, 0.12403658f, 0.12524191f, 0.12640873f, 0.12753703f, 0.12862681f, 0.12967808f, 0.13069083f, 0.13166507f, 0.13260078f, 0.13349799f, 0.13435667f, 0.13517684f, 0.13595850f, 0.13670164f, 0.13740626f, 0.13807236f, 0.13869995f, 0.13928902f, 0.13983958f, 0.14035162f, 0.14082514f, 0.14126015f, 0.14165664f, 0.14201462f, 0.14233408f, 0.14261502f, 0.14285744f, 0.14306135f, 0.14322675f, 0.14335362f, 0.14344199f, 0.14349183f, 0.14350316f, 0.14347597f, 0.14341027f, 0.14330605f, 0.14316331f, 0.14298206f, 0.14276229f, 0.14250400f, 0.14220720f, 0.14187188f, 0.14149804f, 0.14108569f, 0.14063483f, 0.14014544f, 0.13961754f, 0.13905113f, 0.13844620f, 0.13780275f, 0.13712078f, 0.13640030f, 0.13564130f, 0.13485561f, 0.13405504f, 0.13323960f, 0.13240928f, 0.13156408f, 0.13070402f, 0.12982907f, 0.12893925f, 0.12803456f, 0.12711499f, 0.12618054f, 0.12523122f, 0.12426703f, 0.12328796f, 0.12229401f, 0.12128519f, 0.12026149f, 0.11922292f, 0.11816947f, 0.11710115f, 0.11601796f, 0.11491988f, 0.11380694f, 0.11267911f, 0.11153642f, 0.11037884f, 0.10920640f, 0.10801907f, 0.10681687f, 0.10559980f, 0.10436785f, 0.10312103f, 0.10185933f, 0.10058275f, 0.09929130f, 0.09798498f, 0.09666378f, 0.09532770f, 0.09397675f, 0.09261093f, 0.09123023f, 0.08983465f, 0.08842420f, 0.08699887f, 0.08555867f, 0.08410360f, 0.08263365f, 0.08114882f, 0.07964912f, 0.07813454f, 0.07660509f, 0.07506076f, 0.07350156f, 0.07192748f, 0.07033852f, 0.06873470f, 0.06711599f, 0.06548241f, 0.06383396f, 0.06217063f, 0.06049243f, 0.05879935f, 0.05709139f, 0.05536856f, 0.05365181f, 0.05196210f, 0.05029942f, 0.04866377f, 0.04705517f, 0.04547359f, 0.04391906f, 0.04239155f, 0.04089109f, 0.03941766f, 0.03797126f, 0.03655190f, 0.03515958f, 0.03379429f, 0.03245603f, 0.03114482f, 0.02986063f, 0.02860349f, 0.02737337f, 0.02617030f, 0.02499426f, 0.02384525f, 0.02272328f, 0.02162834f, 0.02056044f, 0.01951958f, 0.01850575f, 0.01751896f, 0.01655920f, 0.01562648f, 0.01472079f, 0.01384214f, 0.01299052f, 0.01216594f, 0.01136840f, 0.01059789f, 0.00985441f, 0.00913798f, 0.00844857f, 0.00778620f, 0.00715087f, 0.00654257f, 0.00596131f, 0.00540709f, 0.00487990f, 0.00437974f, 0.00390662f, 0.00346054f, 0.00304149f, 0.00264947f, 0.00228449f, 0.00194655f, 0.00163564f, 0.00135177f, 0.00109493f, 0.00086513f, 0.00066237f, 0.00048664f, 0.00033794f, 0.00021628f, 0.00012166f, 0.00005407f, 0.00001352f, 0.00000000f },
            { 0.00000000f, -0.00001028f, -0.00004110f, -0.00009248f, -0.00016441f, -0.00025690f, -0.00036993f, -0.00050352f, -0.00065765f, -0.00083234f, -0.00102759f, -0.00124338f, -0.00147972f, -0.00173662f, -0.00201407f, -0.00231207f, -0.00263062f, -0.00296972f, -0.00332938f, -0.00370958f, -0.00411034f, -0.00453165f, -0.00497351f, -0.00543593f, -0.00591889f, -0.00642241f, -0.00694648f, -0.00749110f, -0.00805627f, -0.00864199f, -0.00924827f, -0.00987510f, -0.01052247f, -0.01119041f, -0.01187889f, -0.01258792f, -0.01331751f, -0.01406764f, -0.01483833f, -0.01562957f, -0.01644137f, -0.01727371f, -0.01812661f, -0.01900005f, -0.01989405f, -0.02080860f, -0.02174371f, -0.02269936f, -0.02367557f, -0.02467233f, -0.02568964f, -0.02672750f, -0.02778591f, -0.02886487f, -0.02996439f, -0.03108446f, -0.03222508f, -0.03338625f, -0.03456797f, -0.03577025f, -0.03699307f, -0.03823645f, -0.03950038f, -0.04078486f, -0.04208990f, -0.04338666f, -0.04464632f, -0.04586888f, -0.04705434f, -0.04820269f, -0.04931395f, -0.05038811f, -0.05142517f, -0.05242513f, -0.05338799f, -0.05431375f, -0.05520241f, -0.05605397f, -0.05686842f, -0.05764578f, -0.05838604f, -0.05908920f, -0.05975526f, -0.06038422f, -0.06097608f, -0.06153083f, -0.06204849f, -0.06252905f, -0.06297251f, -0.06337887f, -0.06374813f, -0.06408028f, -0.06437534f, -0.06463330f, -0.06485416f, -0.06503792f, -0.06518457f, -0.06529413f, -0.06536659f, -0.06540195f, -0.06540020f, -0.06536136f, -0.06528542f, -0.06517238f, -0.06502224f, -0.06483499f, -0.06461065f, -0.06434921f, -0.06405067f, -0.06371502f, -0.06334228f, -0.06293244f, -0.06248549f, -0.06200145f, -0.06148031f, -0.06092207f, -0.06032672f, -0.05969428f, -0.05902474f, -0.05831809f, -0.05757435f, -0.05679351f, -0.05597556f, -0.05512052f, -0.05422838f, -0.05329913f, -0.05233279f, -0.05132935f, -0.05028880f, -0.04922906f, -0.04816803f, -0.04710569f, -0.04604207f, -0.04497714f, -0.04391092f, -0.04284341f, -0.04177460f, -0.04070450f, -0.03963310f, -0.03856040f, -0.03748641f, -0.03641112f, -0.03533454f, -0.03425666f, -0.03317749f, -0.03209702f, -0.03101526f, -0.02993220f, -0.02884784f, -0.02776219f, -0.02667525f, -0.02558701f, -0.02449747f, -0.02340664f, -0.02231451f, -0.02122109f, -0.02012637f, -0.01903035f, -0.01793304f, -0.01683444f, -0.01573454f, -0.01463334f, -0.01353085f, -0.01242707f, -0.01132198f, -0.01021561f, -0.00910793f, -0.00799897f, -0.00688870f, -0.00577714f, -0.00466429f, -0.00355014f, -0.00243469f, -0.00131795f, -0.00019991f, 0.00091942f, 0.00204005f, 0.00316197f, 0.00428519f, 0.00540970f, 0.00653551f, 0.00766262f, 0.00879102f, 0.00992071f, 0.01105170f, 0.01218399f, 0.01331757f, 0.01445245f, 0.01558862f, 0.01672609f, 0.01786485f, 0.01900491f, 0.02014627f, 0.02129148f, 0.02244312f, 0.02360118f, 0.02476567f, 0.02593658f, 0.02711392f, 0.02829768f, 0.02948787f, 0.03068448f, 0.03188751f, 0.03309697f, 0.03431285f, 0.03553516f, 0.03676389f, 0.03799904f, 0.03924062f, 0.04048863f, 0.04174306f, 0.04300391f, 0.04427119f, 0.04554489f, 0.04682501f, 0.04811156f, 0.04940454f, 0.05070394f, 0.05200976f, 0.05332201f, 0.05464068f, 0.05596578f, 0.05729730f, 0.05863524f, 0.05997961f, 0.06133041f, 0.06268763f, 0.06405127f, 0.06542134f, 0.06679783f, 0.06818074f, 0.06957008f, 0.07096585f, 0.07236804f, 0.07377665f, 0.07519169f, 0.07661315f, 0.07804103f, 0.07947534f, 0.08091608f, 0.08236324f, 0.08381682f, 0.08527683f, 0.08674326f, 0.08821612f, 0.08969540f, 0.09118110f, 0.09267323f, 0.09417179f, 0.09567677f, 0.09718817f, 0.09870599f, 0.10023025f, 0.10176092f, 0.10329802f, 0.10484155f, 0.10639150f, 0.10791842f, 0.10939287f, 0.11081485f, 0.11218436f, 0.11350140f, 0.11476597f, 0.11597806f, 0.11713769f, 0.11824484f, 0.11929952f, 0.12030172f, 0.12125146f, 0.12214872f, 0.12299351f, 0.12378583f, 0.12452568f, 0.12521306f, 0.12584796f, 0.12643040f, 0.12696036f, 0.12743785f, 0.12786287f, 0.12823541f, 0.12855549f, 0.12882309f, 0.12903822f, 0.12920088f, 0.12931107f, 0.12936878f, 0.12937402f, 0.12932680f, 0.12922710f, 0.12907492f, 0.12887028f, 0.12861317f, 0.12830358f, 0.12794152f, 0.12752699f, 0.12705999f, 0.12654051f, 0.12596857f, 0.12534415f, 0.12466726f, 0.12393790f, 0.12315607f, 0.12232176f, 0.12143498f, 0.12049574f, 0.11950402f, 0.11845982f, 0.11736316f, 0.11621403f, 0.11501242f, 0.11375834f, 0.11245179f, 0.11109277f, 0.10968127f, 0.10821731f, 0.10670087f, 0.10513196f, 0.10351058f, 0.10183672f, 0.10011040f, 0.09833160f, 0.09654037f, 0.09477674f, 0.09304072f, 0.09133230f, 0.08965148f, 0.08799826f, 0.08637265f, 0.08477464f, 0.08320423f, 0.08166143f, 0.08014623f, 0.07865863f, 0.07719864f, 0.07576624f, 0.07436146f, 0.07298427f, 0.07163469f, 0.07031271f, 0.06901833f, 0.06775156f, 0.06651239f, 0.06530082f, 0.06411686f, 0.06296050f, 0.06183174f, 0.06073058f, 0.05965703f, 0.05861108f, 0.05759273f, 0.05660199f, 0.05563885f, 0.05470331f, 0.05379538f, 0.05291505f, 0.05206232f, 0.05123720f, 0.05043967f, 0.04966976f, 0.04892744f, 0.04821273f, 0.04752562f, 0.04686611f, 0.04623421f, 0.04562991f, 0.04505321f, 0.04450412f, 0.04398262f, 0.04348874f, 0.04302245f, 0.04258377f, 0.04217269f, 0.04178921f, 0.04143334f, 0.04110507f, 0.04080440f, 0.04053134f, 0.04028588f, 0.04006802f, 0.03987776f, 0.03971511f, 0.03958006f, 0.03947262f, 0.03939277f, 0.03934053f, 0.03929936f, 0.03925272f, 0.03920062f, 0.03914304f, 0.03908000f, 0.03901149f, 0.03893752f, 0.03885808f, 0.03877317f, 0.03868279f, 0.03858695f, 0.03848564f, 0.03837886f, 0.03826661f, 0.03814890f, 0.03802572f, 0.03789707f, 0.03776296f, 0.03762338f, 0.03747833f, 0.03732781f, 0.03717183f, 0.03701038f, 0.03684346f, 0.03667108f, 0.03649323f, 0.03630991f, 0.03612112f, 0.03592687f, 0.03572715f, 0.03552196f, 0.03531131f, 0.03509519f, 0.03487360f, 0.03464654f, 0.03441402f, 0.03417603f, 0.03393257f, 0.03368365f, 0.03342925f, 0.03316939f, 0.03290407f, 0.03263327f, 0.03235701f, 0.03207529f, 0.03178809f, 0.03149543f, 0.03119730f, 0.03089370f, 0.03058464f, 0.03027011f, 0.02995011f, 0.02962464f, 0.02929371f, 0.02895731f, 0.02861544f, 0.02826811f, 0.02791531f, 0.02755704f, 0.02719330f, 0.02682410f, 0.02644943f, 0.02606929f, 0.02568369f, 0.02529496f, 0.02490543f, 0.02451512f, 0.02412401f, 0.02373212f, 0.02333943f, 0.02294595f, 0.02255168f, 0.02215662f, 0.02176077f, 0.02136413f, 0.02096670f, 0.02056848f, 0.02016947f, 0.01976966f, 0.01936907f, 0.01896768f, 0.01856551f, 0.01816254f, 0.01775878f, 0.01735424f, 0.01694890f, 0.01654277f, 0.01613585f, 0.01572814f, 0.01531963f, 0.01491034f, 0.01450026f, 0.01408938f, 0.01367772f, 0.01326526f, 0.01285202f, 0.01243798f, 0.01202315f, 0.01160754f, 0.01119113f, 0.01077393f, 0.01035594f, 0.00993715f, 0.00951758f, 0.00909722f, 0.00867607f, 0.00825412f, 0.00783139f, 0.00740786f, 0.00698355f, 0.00655844f, 0.00613254f, 0.00570585f, 0.00527837f, 0.00485010f, 0.00442104f, 0.00399119f, 0.00356055f, 0.00312911f, 0.00269689f, 0.00226388f, 0.00183007f, 0.00139547f, 0.00096009f, 0.00052391f, 0.00008694f, -0.00035082f, -0.00078937f, -0.00122413f, -0.00165051f, -0.00206853f, -0.00247818f, -0.00287946f, -0.00327236f, -0.00365690f, -0.00403306f, -0.00440085f, -0.00476027f, -0.00511132f, -0.00545400f, -0.00578831f, -0.00611425f, -0.00643182f, -0.00674101f, -0.00704184f, -0.00733429f, -0.00761838f, -0.00789409f, -0.00816143f, -0.00842040f, -0.00867100f, -0.00891323f, -0.00914709f, -0.00937258f, -0.00958969f, -0.00979844f, -0.00999881f, -0.01019082f, -0.01037445f, -0.01054971f, -0.01071660f, -0.01087512f, -0.01102527f, -0.01116705f, -0.01130046f, -0.01142550f, -0.01154216f, -0.01165046f, -0.01175038f, -0.01184193f, -0.01192511f, -0.01199993f, -0.01206637f, -0.01212444f, -0.01217413f, -0.01221546f, -0.01224842f, -0.01227301f, -0.01228922f, -0.01229706f, -0.01229654f, -0.01228764f, -0.01227037f, -0.01224473f, -0.01221072f, -0.01216834f, -0.01211759f, -0.01205847f, -0.01199097f, -0.01191511f, -0.01183087f, -0.01173826f, -0.01165307f, -0.01159107f, -0.01155226f, -0.01153665f, -0.01154423f, -0.01157500f, -0.01162897f, -0.01170613f, -0.01180648f, -0.01193003f, -0.01207677f, -0.01224671f, -0.01243984f, -0.01265616f, -0.01289568f, -0.01315839f, -0.01344430f, -0.01375339f, -0.01408569f, -0.01444117f, -0.01481985f, -0.01522173f, -0.01564679f, -0.01609505f, -0.01656651f, -0.01706116f, -0.01757900f, -0.01812003f, -0.01868426f, -0.01927169f, -0.01988230f, -0.02051611f, -0.02117312f, -0.02185332f, -0.02255671f, -0.02328329f, -0.02403307f, -0.02480605f, -0.02560221f, -0.02642157f, -0.02726413f, -0.02812988f, -0.02901882f, -0.02993095f, -0.03086628f, -0.03182481f, -0.03280652f, -0.03381143f, -0.03483954f, -0.03589084f, -0.03696533f, -0.03806301f, -0.03918389f, -0.04032797f, -0.04149523f, -0.04268569f, -0.04389935f, -0.04513620f, -0.04639624f, -0.04767947f, -0.04898590f, -0.05031552f, -0.05166834f, -0.05304435f, -0.05440922f, -0.05572862f, -0.05700255f, -0.05823100f, -0.05941398f, -0.06055149f, -0.06164353f, -0.06269010f, -0.06369119f, -0.06464681f, -0.06555696f, -0.06642163f, -0.06724083f, -0.06801456f, -0.06874282f, -0.06942561f, -0.07006292f, -0.07065476f, -0.07120113f, -0.07170203f, -0.07215746f, -0.07256741f, -0.07293189f, -0.07325090f, -0.07352443f, -0.07375249f, -0.07393508f, -0.07407220f, -0.07416385f, -0.07421002f, -0.07421072f, -0.07416595f, -0.07407571f, -0.07393999f, -0.07375881f, -0.07353214f, -0.07326001f, -0.07294241f, -0.07257933f, -0.07217078f, -0.07171676f, -0.07121726f, -0.07067230f, -0.07008186f, -0.06944595f, -0.06876456f, -0.06803771f, -0.06726538f, -0.06644758f, -0.06558431f, -0.06467556f, -0.06372134f, -0.06272165f, -0.06167649f, -0.06058586f, -0.05944975f, -0.05826817f, -0.05704112f, -0.05576860f, -0.05445060f, -0.05308713f, -0.05167819f, -0.05022378f, -0.04872389f, -0.04721317f, -0.04572623f, -0.04426309f, -0.04282373f, -0.04140817f, -0.04001640f, -0.03864842f, -0.03730423f, -0.03598383f, -0.03468722f, -0.03341441f, -0.03216538f, -0.03094015f, -0.02973870f, -0.02856105f, -0.02740719f, -0.02627712f, -0.02517084f, -0.02408835f, -0.02302965f, -0.02199474f, -0.02098363f, -0.01999630f, -0.01903277f, -0.01809303f, -0.01717707f, -0.01628491f, -0.01541654f, -0.01457196f, -0.01375118f, -0.01295418f, -0.01218097f, -0.01143156f, -0.01070593f, -0.01000410f, -0.00932606f, -0.00867181f, -0.00804135f, -0.00743468f, -0.00685180f, -0.00629271f, -0.00575741f, -0.00524591f, -0.00475819f, -0.00429427f, -0.00385414f, -0.00343779f, -0.00304524f, -0.00267648f, -0.00233151f, -0.00201034f, -0.00171295f, -0.00143935f, -0.00118955f, -0.00096353f, -0.00076131f, -0.00058288f, -0.00042824f, -0.00029739f, -0.00019033f, -0.00010706f, -0.00004758f, -0.00001190f, 0.00000000f },
            { 0.00000000f, 0.00000860f, 0.00003439f, 0.00007737f, 0.00013754f, 0.00021491f, 0.00030947f, 0.00042122f, 0.00055017f, 0.00069631f, 0.00085964f, 0.00104016f, 0.00123788f, 0.00145279f, 0.00168489f, 0.00193419f, 0.00220068f, 0.00248436f, 0.00278523f, 0.00310330f, 0.00343856f, 0.00379101f, 0.00416065f, 0.00454749f, 0.00495152f, 0.00537274f, 0.00581116f, 0.00626677f, 0.00673957f, 0.00722956f, 0.00773675f, 0.00826113f, 0.00880270f, 0.00936147f, 0.00993743f, 0.01053058f, 0.01114092f, 0.01176846f, 0.01241319f, 0.01307511f, 0.01375423f, 0.01445053f, 0.01516403f, 0.01589473f, 0.01664261f, 0.01740769f, 0.01818996f, 0.01898943f, 0.01980609f, 0.02063994f, 0.02149098f, 0.02235921f, 0.02324464f, 0.02414726f, 0.02506708f, 0.02600408f, 0.02695828f, 0.02792967f, 0.02891826f, 0.02992404f, 0.03094701f, 0.03198717f, 0.03304453f, 0.03411908f, 0.03521082f, 0.03630567f, 0.03738956f, 0.03846249f, 0.03952445f, 0.04057545f, 0.04161548f, 0.04264454f, 0.04366264f, 0.04466978f, 0.04566595f, 0.04665116f, 0.04762540f, 0.04858868f, 0.04954099f, 0.05048233f, 0.05141272f, 0.05233213f, 0.05324058f, 0.05413807f, 0.05502459f, 0.05590015f, 0.05676474f, 0.05761837f, 0.05846103f, 0.05929273f, 0.06011346f, 0.06092323f, 0.06172203f, 0.06250987f, 0.06328674f, 0.06405265f, 0.06480759f, 0.06555157f, 0.06628458f, 0.06700663f, 0.06771771f, 0.06841783f, 0.06910698f, 0.06978517f, 0.07045239f, 0.07110865f, 0.07175394f, 0.07238827f, 0.07301164f, 0.07362403f, 0.07422547f, 0.07481594f, 0.07539544f, 0.07596398f, 0.07652155f, 0.07706816f, 0.07760380f, 0.07812848f, 0.07864220f, 0.07914495f, 0.07963673f, 0.08011755f, 0.08058740f, 0.08104629f, 0.08149422f, 0.08193118f, 0.08235717f, 0.08277220f, 0.08317627f, 0.08355633f, 0.08389935f, 0.08420533f, 0.08447426f, 0.08470616f, 0.08490101f, 0.08505882f, 0.08517959f, 0.08526332f, 0.08531001f, 0.08531966f, 0.08529226f, 0.08522782f, 0.08512634f, 0.08498782f, 0.08481226f, 0.08459966f, 0.08435001f, 0.08406332f, 0.08373959f, 0.08337882f, 0.08298101f, 0.08254616f, 0.08207426f, 0.08156533f, 0.08101935f, 0.08043633f, 0.07981627f, 0.07915917f, 0.07846502f, 0.07773384f, 0.07696561f, 0.07616034f, 0.07531803f, 0.07443868f, 0.07352228f, 0.07256885f, 0.07157837f, 0.07055085f, 0.06948629f, 0.06838469f, 0.06724605f, 0.06607036f, 0.06485764f, 0.06360787f, 0.06232106f, 0.06099721f, 0.05963631f, 0.05823838f, 0.05680340f, 0.05533139f, 0.05382233f, 0.05227623f, 0.05069309f, 0.04907290f, 0.04741568f, 0.04572141f, 0.04399010f, 0.04222175f, 0.04041636f, 0.03857393f, 0.03669445f, 0.03477793f, 0.03282438f, 0.03087752f, 0.02898110f, 0.02713513f, 0.02533960f, 0.02359451f, 0.02189986f, 0.02025566f, 0.01866190f, 0.01711858f, 0.01562570f, 0.01418327f, 0.01279127f, 0.01144972f, 0.01015861f, 0.00891795f, 0.00772772f, 0.00658794f, 0.00549860f, 0.00445971f, 0.00347125f, 0.00253324f, 0.00164567f, 0.00080854f, 0.00002185f, -0.00071439f, -0.00140019f, -0.00203555f, -0.00262047f, -0.00315494f, -0.00363898f, -0.00407257f, -0.00445571f, -0.00478842f, -0.00507068f, -0.00530250f, -0.00548388f, -0.00561482f, -0.00569531f, -0.00572537f, -0.00570498f, -0.00563414f, -0.00551287f, -0.00534115f, -0.00511899f, -0.00484639f, -0.00452335f, -0.00414986f, -0.00372594f, -0.00325157f, -0.00272675f, -0.00215150f, -0.00152580f, -0.00084966f, -0.00012308f, 0.00065394f, 0.00148141f, 0.00235932f, 0.00328767f, 0.00426646f, 0.00529569f, 0.00637537f, 0.00750549f, 0.00868605f, 0.00991706f, 0.01115096f, 0.01234022f, 0.01348484f, 0.01458481f, 0.01564014f, 0.01665083f, 0.01761688f, 0.01853828f, 0.01941504f, 0.02024715f, 0.02103463f, 0.02177746f, 0.02247564f, 0.02312919f, 0.02373809f, 0.02430234f, 0.02482196f, 0.02529693f, 0.02572726f, 0.02611294f, 0.02645399f, 0.02675038f, 0.02700214f, 0.02720925f, 0.02737172f, 0.02748955f, 0.02756273f, 0.02759128f, 0.02757517f, 0.02751443f, 0.02740904f, 0.02725901f, 0.02706433f, 0.02682502f, 0.02654106f, 0.02621245f, 0.02583920f, 0.02542131f, 0.02495878f, 0.02445161f, 0.02389979f, 0.02330332f, 0.02266222f, 0.02197647f, 0.02124608f, 0.02047105f, 0.01965137f, 0.01878705f, 0.01787808f, 0.01692448f, 0.01592623f, 0.01488334f, 0.01379580f, 0.01266362f, 0.01148680f, 0.01026533f, 0.00899923f, 0.00768847f, 0.00633308f, 0.00493304f, 0.00348836f, 0.00199904f, 0.00046507f, -0.00111354f, -0.00273026f, -0.00437858f, -0.00605849f, -0.00776999f, -0.00951308f, -0.01128776f, -0.01309404f, -0.01493190f, -0.01680136f, -0.01870240f, -0.02063504f, -0.02259927f, -0.02459509f, -0.02662250f, -0.02868150f, -0.03077209f, -0.03289428f, -0.03504805f, -0.03723342f, -0.03945038f, -0.04169893f, -0.04397907f, -0.04629080f, -0.04863412f, -0.05100904f, -0.05341554f, -0.05585364f, -0.05832332f, -0.06082460f, -0.06335747f, -0.06592193f, -0.06851798f, -0.07114562f, -0.07380486f, -0.07649568f, -0.07921810f, -0.08197210f, -0.08475770f, -0.08757489f, -0.09042367f, -0.09330404f, -0.09621600f, -0.09915956f, -0.10213470f, -0.10514144f, -0.10817976f, -0.11124968f, -0.11435119f, -0.11748429f, -0.12064898f, -0.12384527f, -0.12707314f, -0.13033260f, -0.13362366f, -0.13694631f, -0.14030054f, -0.14368637f, -0.14710379f, -0.15055281f, -0.15403341f, -0.15754560f, -0.16108939f, -0.16466476f, -0.16827173f, -0.17181395f, -0.17519510f, -0.17841517f, -0.18147416f, -0.18437208f, -0.18710891f, -0.18968467f, -0.19209936f, -0.19435296f, -0.19644549f, -0.19837694f, -0.20014732f, -0.20175661f, -0.20320483f, -0.20449198f, -0.20561804f, -0.20658303f, -0.20738694f, -0.20802977f, -0.20851153f, -0.20883221f, -0.20899181f, -0.20899033f, -0.20882778f, -0.20850415f, -0.20801944f, -0.20737365f, -0.20656679f, -0.20559885f, -0.20446984f, -0.20317974f, -0.20172857f, -0.20011632f, -0.19834300f, -0.19640859f, -0.19431311f, -0.19205655f, -0.18963892f, -0.18706021f, -0.18432042f, -0.18141955f, -0.17835761f, -0.17513458f, -0.17175049f, -0.16820531f, -0.16449906f, -0.16063173f, -0.15660332f, -0.15241383f, -0.14806327f, -0.14355163f, -0.13887891f, -0.13404512f, -0.12905025f, -0.12389430f, -0.11857727f, -0.11309917f, -0.10745999f, -0.10165973f, -0.09569840f, -0.08957599f, -0.08329250f, -0.07684793f, -0.07024229f, -0.06361461f, -0.05710395f, -0.05071031f, -0.04443368f, -0.03827407f, -0.03223147f, -0.02630589f, -0.02049733f, -0.01480578f, -0.00923125f, -0.00377373f, 0.00156677f, 0.00679025f, 0.01189672f, 0.01688617f, 0.02175861f, 0.02651403f, 0.03115244f, 0.03567383f, 0.04007820f, 0.04436556f, 0.04853591f, 0.05258923f, 0.05652554f, 0.06034484f, 0.06404712f, 0.06763238f, 0.07110063f, 0.07445186f, 0.07768608f, 0.08080328f, 0.08380346f, 0.08668663f, 0.08945278f, 0.09210192f, 0.09463404f, 0.09704915f, 0.09934724f, 0.10152831f, 0.10359237f, 0.10553941f, 0.10736943f, 0.10908245f, 0.11067844f, 0.11215742f, 0.11351938f, 0.11476433f, 0.11589226f, 0.11690318f, 0.11779707f, 0.11857396f, 0.11923383f, 0.11977668f, 0.12020252f, 0.12051134f, 0.12070314f, 0.12077793f, 0.12073570f, 0.12057646f, 0.12030020f, 0.11990693f, 0.11939664f, 0.11876933f, 0.11802501f, 0.11720554f, 0.11635280f, 0.11546678f, 0.11454749f, 0.11359492f, 0.11260908f, 0.11158996f, 0.11053756f, 0.10945189f, 0.10833295f, 0.10718073f, 0.10599524f, 0.10477647f, 0.10352442f, 0.10223910f, 0.10092051f, 0.09956863f, 0.09818349f, 0.09676507f, 0.09531337f, 0.09382840f, 0.09231015f, 0.09075863f, 0.08917383f, 0.08755576f, 0.08590441f, 0.08421979f, 0.08250189f, 0.08075072f, 0.07896627f, 0.07714855f, 0.07529755f, 0.07341327f, 0.07149572f, 0.06954490f, 0.06756080f, 0.06554342f, 0.06349277f, 0.06140885f, 0.05929165f, 0.05714117f, 0.05495742f, 0.05274039f, 0.05049009f, 0.04820651f, 0.04588966f, 0.04353954f, 0.04115613f, 0.03873946f, 0.03628950f, 0.03380627f, 0.03128977f, 0.02873999f, 0.02615694f, 0.02354061f, 0.02089101f, 0.01820813f, 0.01549197f, 0.01274254f, 0.00995984f, 0.00714386f, 0.00429460f, 0.00141207f, -0.00150374f, -0.00439625f, -0.00720889f, -0.00994167f, -0.01259459f, -0.01516764f, -0.01766082f, -0.02007414f, -0.02240760f, -0.02466119f, -0.02683491f, -0.02892877f, -0.03094276f, -0.03287689f, -0.03473116f, -0.03650555f, -0.03820009f, -0.03981476f, -0.04134956f, -0.04280450f, -0.04417957f, -0.04547477f, -0.04669012f, -0.04782559f, -0.04888120f, -0.04985695f, -0.05075283f, -0.05156885f, -0.05230500f, -0.05296128f, -0.05353770f, -0.05403426f, -0.05445095f, -0.05478777f, -0.05504473f, -0.05522183f, -0.05531906f, -0.05533642f, -0.05527392f, -0.05513155f, -0.05490932f, -0.05460723f, -0.05422526f, -0.05376344f, -0.05322174f, -0.05260019f, -0.05189876f, -0.05111748f, -0.05025632f, -0.04931531f, -0.04829442f, -0.04719367f, -0.04601306f, -0.04475258f, -0.04341224f, -0.04199203f, -0.04049195f, -0.03891201f, -0.03725221f, -0.03551254f, -0.03369300f, -0.03179360f, -0.02981434f, -0.02775520f, -0.02561621f, -0.02345969f, -0.02134798f, -0.01928109f, -0.01725901f, -0.01528175f, -0.01334930f, -0.01146167f, -0.00961885f, -0.00782084f, -0.00606765f, -0.00435928f, -0.00269572f, -0.00107698f, 0.00049696f, 0.00202607f, 0.00351037f, 0.00494986f, 0.00634453f, 0.00769439f, 0.00899943f, 0.01025966f, 0.01147507f, 0.01264567f, 0.01377145f, 0.01485242f, 0.01588858f, 0.01687992f, 0.01782644f, 0.01872815f, 0.01958505f, 0.02039713f, 0.02116439f, 0.02188684f, 0.02256448f, 0.02319730f, 0.02378531f, 0.02432850f, 0.02482688f, 0.02528044f, 0.02568919f, 0.02605313f, 0.02637225f, 0.02664655f, 0.02687604f, 0.02706072f, 0.02720058f, 0.02729562f, 0.02734585f, 0.02735127f, 0.02731187f, 0.02722766f, 0.02709863f, 0.02692479f, 0.02670613f, 0.02644266f, 0.02613438f, 0.02578127f, 0.02538336f, 0.02494063f, 0.02445308f, 0.02392072f, 0.02334355f, 0.02272156f, 0.02205476f, 0.02137093f, 0.02069787f, 0.02003558f, 0.01938406f, 0.01874331f, 0.01811333f, 0.01749412f, 0.01688567f, 0.01628800f, 0.01570109f, 0.01512495f, 0.01455959f, 0.01400499f, 0.01346115f, 0.01292809f, 0.01240580f, 0.01189428f, 0.01139352f, 0.01090354f, 0.01042432f, 0.00995587f, 0.00949819f, 0.00905128f, 0.00861514f, 0.00818977f, 0.00777516f, 0.00737133f, 0.00697826f, 0.00659597f, 0.00622444f, 0.00586368f, 0.00551369f, 0.00517447f, 0.00484602f, 0.00452833f, 0.00422142f, 0.00392527f, 0.00363990f, 0.00336529f, 0.00310145f, 0.00284838f, 0.00260608f, 0.00237455f, 0.00215378f, 0.00194379f, 0.00174457f, 0.00155611f, 0.00137842f, 0.00121150f, 0.00105535f, 0.00090997f, 0.00077536f, 0.00065152f, 0.00053845f, 0.00043614f, 0.00034461f, 0.00026384f, 0.00019384f, 0.00013461f, 0.00008615f, 0.00004846f, 0.00002154f, 0.00000538f, 0.00000000f }
        },
        {
            { 0.00000000f, 0.00001009f, 0.00004034f, 0.00009077f, 0.00016136f, 0.00025213f, 0.00036306f, 0.00049417f, 0.00064544f, 0.00081689f, 0.00100850f, 0.00122029f, 0.00145224f, 0.00170437f, 0.00197666f, 0.00226913f, 0.00258176f, 0.00291457f, 0.00326754f, 0.00364069f, 0.00403400f, 0.00444749f, 0.00488114f, 0.00533497f, 0.00580896f, 0.00630313f, 0.00681747f, 0.00735197f, 0.00790665f, 0.00848149f, 0.00907651f, 0.00969169f, 0.01032705f, 0.01098257f, 0.01165827f, 0.01235414f, 0.01307017f, 0.01380638f, 0.01456275f, 0.01533930f, 0.01613601f, 0.01695290f, 0.01778995f, 0.01864718f, 0.01952458f, 0.02042214f, 0.02133988f, 0.02227778f, 0.02323586f, 0.02421411f, 0.02521252f, 0.02623111f, 0.02726986f, 0.02832879f, 0.02940788f, 0.03050715f, 0.03162659f, 0.03276619f, 0.03392597f, 0.03510591f, 0.03630603f, 0.03752632f, 0.03876677f, 0.04002740f, 0.04130819f, 0.04257356f, 0.04378791f, 0.04495123f, 0.04606352f, 0.04712479f, 0.04813503f, 0.04909425f, 0.05000244f, 0.05085961f, 0.05166575f, 0.05242087f, 0.05312497f, 0.05377803f, 0.05438008f, 0.05493110f, 0.05543109f, 0.05588006f, 0.05627800f, 0.05662492f, 0.05692081f, 0.05716568f, 0.05735952f, 0.05750234f, 0.05759414f, 0.05763490f, 0.05762465f, 0.05756336f, 0.05745106f, 0.05728773f, 0.05707337f, 0.05680799f, 0.05649158f, 0.05612415f, 0.05570569f, 0.05523621f, 0.05471570f, 0.05414417f, 0.05352161f, 0.05284803f, 0.05212342f, 0.05134779f, 0.05052113f, 0.04964345f, 0.04871474f, 0.04773501f, 0.04670426f, 0.04562247f, 0.04448967f, 0.04330583f, 0.04207098f, 0.04078509f, 0.03944819f, 0.03806025f, 0.03662130f, 0.03513131f, 0.03359031f, 0.03199827f, 0.03035522f, 0.02866113f, 0.02691603f, 0.02511989f, 0.02327274f, 0.02137455f, 0.01942535f, 0.01749000f, 0.01563338f, 0.01385550f, 0.01215635f, 0.01053594f, 0.00899427f, 0.00753133f, 0.00614712f, 0.00484166f, 0.00361492f, 0.00246693f, 0.00139767f, 0.00040714f, -0.00050465f, -0.00133770f, -0.00209202f, -0.00276761f, -0.00336445f, -0.00388257f, -0.00432194f, -0.00468258f, -0.00496449f, -0.00516766f, -0.00529210f, -0.00533779f, -0.00530476f, -0.00519299f, -0.00500248f, -0.00473324f, -0.00438526f, -0.00395854f, -0.00345309f, -0.00286891f, -0.00220599f, -0.00146433f, -0.00064394f, 0.00025519f, 0.00123305f, 0.00228965f, 0.00342499f, 0.00463905f, 0.00593186f, 0.00730340f, 0.00875368f, 0.01028269f, 0.01189044f, 0.01357692f, 0.01534214f, 0.01718609f, 0.01910878f, 0.02111021f, 0.02319037f, 0.02534926f, 0.02758690f, 0.02990326f, 0.03229837f, 0.03477220f, 0.03732478f, 0.03995609f, 0.04266613f, 0.04545491f, 0.04832243f, 0.05126868f, 0.05429367f, 0.05732470f, 0.06028909f, 0.06318682f, 0.06601791f, 0.06878235f, 0.07148015f, 0.07411129f, 0.07667579f, 0.07917364f, 0.08160485f, 0.08396940f, 0.08626731f, 0.08849857f, 0.09066319f, 0.09276115f, 0.09479247f, 0.09675714f, 0.09865517f, 0.10048654f, 0.10225127f, 0.10394935f, 0.10558079f, 0.10714558f, 0.10864371f, 0.11007521f, 0.11144005f, 0.11273825f, 0.11396980f, 0.11513470f, 0.11623295f, 0.11726456f, 0.11822952f, 0.11912783f, 0.11995949f, 0.12072451f, 0.12142288f, 0.12205460f, 0.12261967f, 0.12311810f, 0.12354988f, 0.12391501f, 0.12421350f, 0.12444533f, 0.12461052f, 0.12470906f, 0.12474096f, 0.12470620f, 0.12460480f, 0.12443675f, 0.12420206f, 0.12390072f, 0.12353272f, 0.12309809f, 0.12259680f, 0.12202887f, 0.12139429f, 0.12069306f, 0.11992518f, 0.11909066f, 0.11818949f, 0.11722167f, 0.11618720f, 0.11508609f, 0.11391833f, 0.11272473f, 0.11154609f, 0.11038242f, 0.10923371f, 0.10809997f, 0.10698119f, 0.10587738f, 0.10478854f, 0.10371465f, 0.10265574f, 0.10161179f, 0.10058280f, 0.09956878f, 0.09856972f, 0.09758563f, 0.09661650f, 0.09566234f, 0.09472315f, 0.09379892f, 0.09288965f, 0.09199535f, 0.09111601f, 0.09025164f, 0.08940223f, 0.08856779f, 0.08774832f, 0.08694381f, 0.08615426f, 0.08537968f, 0.08462006f, 0.08387541f, 0.08314573f, 0.08243101f, 0.08173125f, 0.08104646f, 0.08037664f, 0.07972178f, 0.07908188f, 0.07845695f, 0.07784698f, 0.07725198f, 0.07667195f, 0.07610688f, 0.07555677f, 0.07502163f, 0.07450146f, 0.07399625f, 0.07350600f, 0.07303072f, 0.07257041f, 0.07212506f, 0.07169467f, 0.07127925f, 0.07087880f, 0.07049331f, 0.07012278f, 0.06976722f, 0.06942663f, 0.06910100f, 0.06879034f, 0.06849464f, 0.06821390f, 0.06794813f, 0.06769733f, 0.06743710f, 0.06714306f, 0.06681522f, 0.06645356f, 0.06605810f, 0.06562882f, 0.06516574f, 0.06466884f, 0.06413814f, 0.06357362f, 0.06297530f, 0.06234317f, 0.06167722f, 0.06097747f, 0.06024391f, 0.05947654f, 0.05867535f, 0.05784036f, 0.05697156f, 0.05606895f, 0.05513253f, 0.05416230f, 0.05315826f, 0.05212041f, 0.05104875f, 0.04994328f, 0.04880400f, 0.04763091f, 0.04642402f, 0.04518331f, 0.04390879f, 0.04260046f, 0.04125833f, 0.03988238f, 0.03847262f, 0.03702906f, 0.03555168f, 0.03404049f, 0.03249550f, 0.03091669f, 0.02930408f, 0.02765766f, 0.02597742f, 0.02426338f, 0.02251552f, 0.02073386f, 0.01891839f, 0.01706911f, 0.01518601f, 0.01326911f, 0.01131840f, 0.00933388f, 0.00731555f, 0.00526341f, 0.00317746f, 0.00105770f, -0.00109587f, -0.00328325f, -0.00550444f, -0.00775944f, -0.01004825f, -0.01237087f, -0.01472730f, -0.01711753f, -0.01951777f, -0.02190418f, -0.02427676f, -0.02663553f, -0.02898048f, -0.03131160f, -0.03362890f, -0.03593238f, -0.03822204f, -0.04049788f, -0.04275989f, -0.04500809f, -0.04724246f, -0.04946301f, -0.05166974f, -0.05386265f, -0.05604173f, -0.05820700f, -0.06035844f, -0.06249606f, -0.06461986f, -0.06672984f, -0.06882600f, -0.07090833f, -0.07297684f, -0.07503154f, -0.07707241f, -0.07909945f, -0.08111268f, -0.08311209f, -0.08509767f, -0.08706943f, -0.08902737f, -0.09097149f, -0.09290179f, -0.09481826f, -0.09672092f, -0.09860975f, -0.10048476f, -0.10234595f, -0.10419332f, -0.10602686f, -0.10784659f, -0.10965249f, -0.11144457f, -0.11322283f, -0.11498727f, -0.11673788f, -0.11847468f, -0.12019765f, -0.12190680f, -0.12360213f, -0.12528364f, -0.12695132f, -0.12860519f, -0.13024523f, -0.13187145f, -0.13348385f, -0.13508243f, -0.13666719f, -0.13823813f, -0.13979524f, -0.14133853f, -0.14286800f, -0.14437677f, -0.14585796f, -0.14731157f, -0.14873761f, -0.15013606f, -0.15150693f, -0.15285023f, -0.15416594f, -0.15545408f, -0.15671463f, -0.15794761f, -0.15915301f, -0.16033083f, -0.16148107f, -0.16260373f, -0.16369881f, -0.16476631f, -0.16580623f, -0.16681858f, -0.16780334f, -0.16876053f, -0.16969013f, -0.17059216f, -0.17146661f, -0.17231347f, -0.17313276f, -0.17392447f, -0.17468860f, -0.17542515f, -0.17613413f, -0.17681552f, -0.17746933f, -0.17809556f, -0.17869422f, -0.17926529f, -0.17980879f, -0.18032471f, -0.18081305f, -0.18127380f, -0.18170698f, -0.18211258f, -0.18249060f, -0.18284105f, -0.18316391f, -0.18345919f, -0.18372689f, -0.18396702f, -0.18417956f, -0.18436453f, -0.18452192f, -0.18465172f, -0.18475395f, -0.18482860f, -0.18487567f, -0.18489516f, -0.18488707f, -0.18485140f, -0.18478816f, -0.18469733f, -0.18457892f, -0.18443294f, -0.18425938f, -0.18405823f, -0.18382951f, -0.18358390f, -0.18333209f, -0.18307410f, -0.18280990f, -0.18253951f, -0.18226293f, -0.18198015f, -0.18169118f, -0.18139601f, -0.18109465f, -0.18078709f, -0.18047334f, -0.18015339f, -0.17982725f, -0.17949492f, -0.17915639f, -0.17881166f, -0.17846074f, -0.17810363f, -0.17774032f, -0.17737082f, -0.17699512f, -0.17661322f, -0.17622514f, -0.17583085f, -0.17543038f, -0.17502370f, -0.17461084f, -0.17419178f, -0.17376652f, -0.17333507f, -0.17289742f, -0.17245358f, -0.17200355f, -0.17154732f, -0.17108489f, -0.17061627f, -0.17014146f, -0.16966045f, -0.16917325f, -0.16867985f, -0.16818026f, -0.16767447f, -0.16716249f, -0.16664431f, -0.16611994f, -0.16558937f, -0.16505261f, -0.16450966f, -0.16396051f, -0.16340516f, -0.16284362f, -0.16227589f, -0.16170196f, -0.16112184f, -0.16053552f, -0.15994300f, -0.15934430f, -0.15873939f, -0.15812830f, -0.15751100f, -0.15688752f, -0.15625784f, -0.15562196f, -0.15498600f, -0.15435607f, -0.15373218f, -0.15311431f, -0.15250247f, -0.15189666f, -0.15129689f, -0.15070314f, -0.15011542f, -0.14953373f, -0.14895808f, -0.14838845f, -0.14782485f, -0.14726729f, -0.14671575f, -0.14617025f, -0.14563077f, -0.14509732f, -0.14456991f, -0.14404852f, -0.14353317f, -0.14302384f, -0.14252055f, -0.14202328f, -0.14153205f, -0.14104684f, -0.14056767f, -0.14009452f, -0.13962741f, -0.13916633f, -0.13871127f, -0.13826225f, -0.13781925f, -0.13738229f, -0.13695136f, -0.13652645f, -0.13610758f, -0.13569474f, -0.13528793f, -0.13488714f, -0.13449239f, -0.13410367f, -0.13372098f, -0.13334431f, -0.13297368f, -0.13260908f, -0.13225051f, -0.13189797f, -0.13155146f, -0.13121098f, -0.13087653f, -0.13054810f, -0.13022571f, -0.12990935f, -0.12959902f, -0.12929472f, -0.12899645f, -0.12870421f, -0.12841800f, -0.12813782f, -0.12786368f, -0.12759556f, -0.12733347f, -0.12707741f, -0.12681182f, -0.12652113f, -0.12620535f, -0.12586448f, -0.12549851f, -0.12510745f, -0.12469130f, -0.12425005f, -0.12378370f, -0.12329227f, -0.12277574f, -0.12223411f, -0.12166739f, -0.12107558f, -0.12045867f, -0.11981667f, -0.11914957f, -0.11845738f, -0.11774010f, -0.11699772f, -0.11623025f, -0.11543769f, -0.11462003f, -0.11377727f, -0.11290942f, -0.11201648f, -0.11109845f, -0.11015532f, -0.10918709f, -0.10819377f, -0.10717536f, -0.10613186f, -0.10506326f, -0.10396956f, -0.10285077f, -0.10170689f, -0.10053791f, -0.09934384f, -0.09812468f, -0.09688042f, -0.09561107f, -0.09431662f, -0.09299708f, -0.09165245f, -0.09028272f, -0.08888789f, -0.08746798f, -0.08602297f, -0.08455286f, -0.08305766f, -0.08153737f, -0.07999198f, -0.07842150f, -0.07682593f, -0.07520526f, -0.07355949f, -0.07188864f, -0.07019269f, -0.06847164f, -0.06672550f, -0.06495427f, -0.06315794f, -0.06133652f, -0.05949000f, -0.05764546f, -0.05582997f, -0.05404353f, -0.05228614f, -0.05055779f, -0.04885849f, -0.04718824f, -0.04554703f, -0.04393488f, -0.04235177f, -0.04079771f, -0.03927270f, -0.03777673f, -0.03630982f, -0.03487195f, -0.03346313f, -0.03208335f, -0.03073263f, -0.02941095f, -0.02811832f, -0.02685474f, -0.02562021f, -0.02441472f, -0.02323828f, -0.02209089f, -0.02097255f, -0.01988326f, -0.01882301f, -0.01779181f, -0.01678966f, -0.01581656f, -0.01487250f, -0.01395749f, -0.01307153f, -0.01221462f, -0.01138676f, -0.01058794f, -0.00981817f, -0.00907745f, -0.00836578f, -0.00768316f, -0.00702958f, -0.00640505f, -0.00580957f, -0.00524314f, -0.00470575f, -0.00419741f, -0.00371813f, -0.00326788f, -0.00284669f, -0.00245454f, -0.00209145f, -0.00175740f, -0.00145239f, -0.00117644f, -0.00092953f, -0.00071167f, -0.00052286f, -0.00036310f, -0.00023238f, -0.00013072f, -0.00005810f, -0.00001452f, 0.00000000f },
            { 0.00000000f, -0.00001602f, -0.00006407f, -0.00014416f, -0.00025629f, -0.00040046f, -0.00057666f, -0.00078489f, -0.00102517f, -0.00129748f, -0.00160182f, -0.00193820f, -0.00230662f, -0.00270708f, -0.00313957f, -0.00360410f, -0.00410066f, -0.00462927f, -0.00518990f, -0.00578258f, -0.00640729f, -0.00706403f, -0.00775282f, -0.00847364f, -0.00922649f, -0.01001139f, -0.01082832f, -0.01167728f, -0.01255828f, -0.01347132f, -0.01441640f, -0.01539351f, -0.01640266f, -0.01744384f, -0.01851706f, -0.01962232f, -0.02075961f, -0.02192894f, -0.02313031f, -0.02436371f, -0.02562915f, -0.02692663f, -0.02825614f, -0.02961769f, -0.03101127f, -0.03243689f, -0.03389455f, -0.03538425f, -0.03690598f, -0.03845974f, -0.04004555f, -0.04166339f, -0.04331326f, -0.04499518f, -0.04670913f, -0.04845511f, -0.05023313f, -0.05204319f, -0.05388529f, -0.05575942f, -0.05766559f, -0.05960379f, -0.06157403f, -0.06357631f, -0.06561062f, -0.06764174f, -0.06963443f, -0.07158868f, -0.07350450f, -0.07538190f, -0.07722086f, -0.07902139f, -0.08078349f, -0.08250716f, -0.08419239f, -0.08583920f, -0.08744757f, -0.08901752f, -0.09054903f, -0.09204211f, -0.09349677f, -0.09491298f, -0.09629077f, -0.09763013f, -0.09893106f, -0.10019355f, -0.10141762f, -0.10260325f, -0.10375046f, -0.10485923f, -0.10592957f, -0.10696148f, -0.10795496f, -0.10891000f, -0.10982662f, -0.11070481f, -0.11154456f, -0.11234588f, -0.11310878f, -0.11383324f, -0.11451927f, -0.11516687f, -0.11577604f, -0.11634677f, -0.11687908f, -0.11737295f, -0.11782840f, -0.11824541f, -0.11862399f, -0.11896414f, -0.11926586f, -0.11952915f, -0.11975401f, -0.11994044f, -0.12008843f, -0.12019800f, -0.12026913f, -0.12030184f, -0.12029611f, -0.12025195f, -0.12016936f, -0.12004834f, -0.11988888f, -0.11969100f, -0.11945469f, -0.11917994f, -0.11886676f, -0.11851516f, -0.11812512f, -0.11769400f, -0.11721917f, -0.11670061f, -0.11613832f, -0.11553232f, -0.11488259f, -0.11418914f, -0.11345197f, -0.11267108f, -0.11184647f, -0.11097813f, -0.11006607f, -0.10911029f, -0.10811078f, -0.10706756f, -0.10598061f, -0.10484994f, -0.10367554f, -0.10245743f, -0.10119559f, -0.09989003f, -0.09854075f, -0.09714774f, -0.09571102f, -0.09423057f, -0.09270640f, -0.09113850f, -0.08952689f, -0.08787155f, -0.08617249f, -0.08442971f, -0.08264320f, -0.08081298f, -0.07893903f, -0.07702136f, -0.07505996f, -0.07305485f, -0.07100601f, -0.06891345f, -0.06677717f, -0.06459716f, -0.06237343f, -0.06010599f, -0.05779481f, -0.05543992f, -0.05304130f, -0.05059897f, -0.04811291f, -0.04558312f, -0.04300962f, -0.04039239f, -0.03773144f, -0.03502677f, -0.03227838f, -0.02948626f, -0.02665042f, -0.02377086f, -0.02084758f, -0.01788058f, -0.01486985f, -0.01181540f, -0.00871723f, -0.00557533f, -0.00238972f, 0.00077667f, 0.00386088f, 0.00686292f, 0.00978278f, 0.01262046f, 0.01537597f, 0.01804930f, 0.02064045f, 0.02314942f, 0.02557622f, 0.02792085f, 0.03018329f, 0.03236356f, 0.03446166f, 0.03647757f, 0.03841131f, 0.04026287f, 0.04203226f, 0.04371947f, 0.04532450f, 0.04684736f, 0.04828804f, 0.04964654f, 0.05092287f, 0.05211702f, 0.05322900f, 0.05425879f, 0.05520641f, 0.05607186f, 0.05685512f, 0.05755622f, 0.05817513f, 0.05871187f, 0.05916643f, 0.05953881f, 0.05982902f, 0.06003705f, 0.06016291f, 0.06020658f, 0.06016809f, 0.06004741f, 0.05984456f, 0.05955953f, 0.05919232f, 0.05874294f, 0.05821138f, 0.05759765f, 0.05690174f, 0.05612365f, 0.05526338f, 0.05432094f, 0.05329633f, 0.05218953f, 0.05100056f, 0.04972941f, 0.04837609f, 0.04694059f, 0.04542291f, 0.04382305f, 0.04214102f, 0.04037682f, 0.03853043f, 0.03660187f, 0.03459113f, 0.03253829f, 0.03048342f, 0.02842652f, 0.02636760f, 0.02430664f, 0.02224365f, 0.02017863f, 0.01811158f, 0.01604250f, 0.01397140f, 0.01189826f, 0.00982309f, 0.00774590f, 0.00566667f, 0.00358541f, 0.00150213f, -0.00058319f, -0.00267053f, -0.00475991f, -0.00685131f, -0.00894475f, -0.01104021f, -0.01313770f, -0.01523722f, -0.01733878f, -0.01944236f, -0.02154797f, -0.02365561f, -0.02576528f, -0.02787699f, -0.02999072f, -0.03210648f, -0.03422427f, -0.03634409f, -0.03846594f, -0.04058982f, -0.04271572f, -0.04484366f, -0.04697363f, -0.04910563f, -0.05123966f, -0.05337571f, -0.05551380f, -0.05765392f, -0.05979606f, -0.06194024f, -0.06408644f, -0.06623468f, -0.06838494f, -0.07053724f, -0.07269156f, -0.07484792f, -0.07700630f, -0.07916671f, -0.08132916f, -0.08349363f, -0.08566013f, -0.08782866f, -0.08999922f, -0.09217182f, -0.09434644f, -0.09652309f, -0.09870177f, -0.10088248f, -0.10301290f, -0.10504073f, -0.10696596f, -0.10878859f, -0.11050863f, -0.11212606f, -0.11364090f, -0.11505314f, -0.11636278f, -0.11756982f, -0.11867427f, -0.11967611f, -0.12057536f, -0.12137201f, -0.12206606f, -0.12265752f, -0.12314637f, -0.12353263f, -0.12381629f, -0.12399735f, -0.12407581f, -0.12405168f, -0.12392495f, -0.12369561f, -0.12336369f, -0.12292916f, -0.12239203f, -0.12175231f, -0.12100999f, -0.12016507f, -0.11921755f, -0.11816743f, -0.11701472f, -0.11575941f, -0.11440150f, -0.11294099f, -0.11137788f, -0.10971218f, -0.10794387f, -0.10607297f, -0.10409947f, -0.10202338f, -0.09984468f, -0.09756339f, -0.09517950f, -0.09269301f, -0.09010392f, -0.08741223f, -0.08461795f, -0.08172107f, -0.07872158f, -0.07561951f, -0.07241483f, -0.06910755f, -0.06569768f, -0.06218521f, -0.05857014f, -0.05485247f, -0.05103221f, -0.04710934f, -0.04308388f, -0.03895582f, -0.03472517f, -0.03039191f, -0.02606124f, -0.02183835f, -0.01772322f, -0.01371587f, -0.00981630f, -0.00602450f, -0.00234047f, 0.00123579f, 0.00470427f, 0.00806498f, 0.01131792f, 0.01446309f, 0.01750048f, 0.02043009f, 0.02325194f, 0.02596601f, 0.02857231f, 0.03107083f, 0.03346158f, 0.03574456f, 0.03791977f, 0.03998720f, 0.04194686f, 0.04379875f, 0.04554286f, 0.04717920f, 0.04870776f, 0.05012856f, 0.05144158f, 0.05264682f, 0.05374430f, 0.05473400f, 0.05561593f, 0.05639008f, 0.05705646f, 0.05761507f, 0.05806591f, 0.05840897f, 0.05864426f, 0.05877177f, 0.05879151f, 0.05870348f, 0.05850768f, 0.05820410f, 0.05779275f, 0.05727363f, 0.05664673f, 0.05591206f, 0.05506962f, 0.05411940f, 0.05306141f, 0.05189565f, 0.05062212f, 0.04924081f, 0.04775172f, 0.04615487f, 0.04445024f, 0.04263784f, 0.04071767f, 0.03868972f, 0.03655400f, 0.03431050f, 0.03195924f, 0.02950020f, 0.02702655f, 0.02463147f, 0.02231494f, 0.02007699f, 0.01791759f, 0.01583675f, 0.01383448f, 0.01191077f, 0.01006562f, 0.00829903f, 0.00661101f, 0.00500155f, 0.00347065f, 0.00201831f, 0.00064453f, -0.00065068f, -0.00186734f, -0.00300542f, -0.00406495f, -0.00504592f, -0.00594832f, -0.00677216f, -0.00751744f, -0.00818416f, -0.00877231f, -0.00928191f, -0.00971294f, -0.01006541f, -0.01033931f, -0.01053466f, -0.01065144f, -0.01068966f, -0.01064932f, -0.01053041f, -0.01033295f, -0.01005692f, -0.00970233f, -0.00926918f, -0.00875746f, -0.00816719f, -0.00749835f, -0.00675095f, -0.00592498f, -0.00502046f, -0.00403737f, -0.00297572f, -0.00183551f, -0.00061673f, 0.00068060f, 0.00205650f, 0.00351096f, 0.00504398f, 0.00665557f, 0.00834571f, 0.01011442f, 0.01196169f, 0.01388752f, 0.01589192f, 0.01797488f, 0.02013640f, 0.02237648f, 0.02469512f, 0.02709233f, 0.02956809f, 0.03207920f, 0.03458242f, 0.03707775f, 0.03956520f, 0.04204475f, 0.04451643f, 0.04698021f, 0.04943611f, 0.05188413f, 0.05432425f, 0.05675649f, 0.05918085f, 0.06159731f, 0.06400590f, 0.06640659f, 0.06879940f, 0.07118432f, 0.07356135f, 0.07593050f, 0.07829176f, 0.08064514f, 0.08299063f, 0.08532823f, 0.08765794f, 0.08997977f, 0.09229371f, 0.09459977f, 0.09689794f, 0.09918822f, 0.10147062f, 0.10374513f, 0.10601175f, 0.10827049f, 0.11052134f, 0.11276430f, 0.11499938f, 0.11722657f, 0.11944588f, 0.12165729f, 0.12386082f, 0.12605647f, 0.12824423f, 0.13042410f, 0.13259608f, 0.13476018f, 0.13691639f, 0.13906472f, 0.14120516f, 0.14333771f, 0.14546238f, 0.14757916f, 0.14968805f, 0.15178906f, 0.15388218f, 0.15596741f, 0.15804476f, 0.16011422f, 0.16217579f, 0.16422948f, 0.16627528f, 0.16831319f, 0.17034322f, 0.17236536f, 0.17437962f, 0.17636417f, 0.17829720f, 0.18017872f, 0.18200872f, 0.18378719f, 0.18551415f, 0.18718960f, 0.18881352f, 0.19038592f, 0.19190681f, 0.19337618f, 0.19479403f, 0.19616036f, 0.19747517f, 0.19873846f, 0.19995024f, 0.20111050f, 0.20221924f, 0.20327646f, 0.20428216f, 0.20523634f, 0.20613901f, 0.20699015f, 0.20778978f, 0.20853789f, 0.20923448f, 0.20987955f, 0.21047311f, 0.21101514f, 0.21150566f, 0.21194466f, 0.21233214f, 0.21266810f, 0.21295255f, 0.21318547f, 0.21336688f, 0.21349677f, 0.21357514f, 0.21360199f, 0.21357732f, 0.21350114f, 0.21337343f, 0.21319421f, 0.21296347f, 0.21268121f, 0.21234743f, 0.21196213f, 0.21152532f, 0.21103699f, 0.21049714f, 0.20990577f, 0.20926288f, 0.20856847f, 0.20782255f, 0.20702510f, 0.20617614f, 0.20527566f, 0.20432366f, 0.20332014f, 0.20226511f, 0.20115855f, 0.20000048f, 0.19879089f, 0.19752978f, 0.19623388f, 0.19491991f, 0.19358788f, 0.19223779f, 0.19086963f, 0.18948341f, 0.18807913f, 0.18665678f, 0.18521636f, 0.18375789f, 0.18228134f, 0.18078674f, 0.17927407f, 0.17774334f, 0.17619454f, 0.17462768f, 0.17304275f, 0.17143976f, 0.16981871f, 0.16817959f, 0.16652241f, 0.16484716f, 0.16315385f, 0.16144248f, 0.15971304f, 0.15796554f, 0.15619997f, 0.15441634f, 0.15261464f, 0.15079489f, 0.14895706f, 0.14710118f, 0.14522723f, 0.14333521f, 0.14142513f, 0.13949699f, 0.13755078f, 0.13558651f, 0.13360418f, 0.13160378f, 0.12958532f, 0.12754879f, 0.12549420f, 0.12342154f, 0.12133082f, 0.11922204f, 0.11709519f, 0.11495028f, 0.11278730f, 0.11060627f, 0.10840716f, 0.10618999f, 0.10395476f, 0.10170147f, 0.09943011f, 0.09714068f, 0.09483319f, 0.09250764f, 0.09016403f, 0.08780235f, 0.08542260f, 0.08302479f, 0.08060892f, 0.07817499f, 0.07575110f, 0.07336539f, 0.07101785f, 0.06870848f, 0.06643729f, 0.06420426f, 0.06200941f, 0.05985272f, 0.05773421f, 0.05565387f, 0.05361170f, 0.05160771f, 0.04964188f, 0.04771422f, 0.04582474f, 0.04397343f, 0.04216029f, 0.04038532f, 0.03864852f, 0.03694990f, 0.03528944f, 0.03366716f, 0.03208304f, 0.03053710f, 0.02902933f, 0.02755974f, 0.02612831f, 0.02473505f, 0.02337997f, 0.02206306f, 0.02078432f, 0.01954375f, 0.01834135f, 0.01717712f, 0.01605107f, 0.01496318f, 0.01391347f, 0.01290193f, 0.01192856f, 0.01099336f, 0.01009633f, 0.00923747f, 0.00841679f, 0.00763428f, 0.00688993f, 0.00618376f, 0.00551576f, 0.00488594f, 0.00429428f, 0.00374080f, 0.00322548f, 0.00274834f, 0.00230937f, 0.00190857f, 0.00154594f, 0.00122148f, 0.00093520f, 0.00068708f, 0.00047714f, 0.00030537f, 0.00017177f, 0.00007634f, 0.00001909f, 0.00000000f },
